64 100 10
-0.179135 0.171594 0.127251 -0.102946 -0.129170 -0.090760 -0.070311 0.033198 -0.039603 0.000152 0.022158 -0.107075 0.054224 0.173794 0.076952 -0.179557 0.075664 0.076643 0.039992 0.031448 -0.097107 -0.090372 0.067654 -0.036245 0.130083 -0.183403 0.016581 -0.149871 0.069166 -0.186956 0.128809 0.080148 0.174756 0.065942 0.167319 -0.144531 0.165299 -0.093109 0.078785 -0.064421 0.097160 -0.089174 0.018622 -0.038733 -0.105497 -0.094543 -0.028173 0.160284 0.172217 -0.178298 0.001615 -0.115007 -0.078552 -0.120848 0.038865 -0.138587 -0.114134 -0.134671 -0.098341 0.145149 -0.131509 -0.159649 0.035181 -0.146870 0.096410 0.012383 -0.101284 0.071592 0.109391 0.167617 -0.182946 0.016433 -0.111674 0.025793 0.167818 -0.027054 0.121366 -0.050472 -0.056887 0.103466 -0.038653 0.134845 0.178576 0.072912 -0.176121 0.027324 0.124442 -0.100138 0.082770 -0.164016 -0.145105 0.141378 -0.133548 0.080192 0.184625 0.152979 -0.097542 -0.106776 0.034454 -0.178269 -0.134282 0.033427 0.031898 -0.030102 -0.119091 0.006160 0.118249 0.191743 0.145671 -0.152135 0.104111 -0.067001 -0.192842 0.162957 0.172713 -0.046488 -0.084600 0.134674 -0.087640 -0.159746 0.146455 -0.065310 0.152402 -0.211794 -0.150638 0.135601 0.159157 -0.054588 -0.150918 -0.011473 -0.044545 -0.050034 -0.116405 0.172250 0.050318 -0.075544 -0.015863 -0.051368 -0.084225 -0.053836 0.030166 -0.113705 0.050114 0.085515 0.114331 0.031258 0.033727 -0.145882 -0.038082 0.144508 -0.121921 -0.086795 -0.085448 -0.190205 -0.013877 -0.046715 0.165179 -0.110231 0.079296 -0.179775 0.084626 -0.151818 -0.098094 0.182031 -0.170000 0.148277 -0.109681 0.007887 -0.057804 0.028955 0.149159 0.132831 0.004660 0.002372 -0.004923 -0.085295 -0.130009 -0.183867 -0.034731 0.060643 0.183103 -0.012447 0.118224 -0.109286 0.030221 -0.162913 0.025616 0.018337 -0.057637 -0.053505 0.030689 -0.277441 -0.035587 0.125800 0.138203 0.016829 0.045812 -0.213456 -0.189030 -0.143649 -0.077784 0.106268 -0.152223 0.030984 -0.027795 0.019670 -0.116943 0.021461 0.061068 0.029089 -0.161200 0.072926 -0.189477 0.139357 0.105404 0.169582 0.066073 -0.106781 -0.074711 -0.085432 0.205930 0.074181 -0.039101 -0.071079 0.074882 -0.055258 0.184036 -0.031989 -0.184859 0.194399 -0.035939 0.179108 0.210344 -0.002369 -0.104335 0.096801 -0.202517 0.115223 0.113100 0.086882 -0.055469 0.125254 -0.094478 0.010216 0.019164 -0.017328 -0.255395 -0.017564 0.048104 0.005299 -0.008184 -0.051461 -0.016954 0.134010 0.171515 -0.181272 0.182883 0.009373 -0.104300 0.146334 -0.039332 0.161584 -0.092416 -0.105881 -0.063015 0.121780 0.043457 0.007713 0.013879 0.157153 -0.080274 0.072945 0.039654 -0.028302 -0.089619 -0.102645 0.079916 -0.194434 0.075694 -0.013371 -0.066379 -0.048548 0.019717 0.039968 -0.161452 -0.071026 0.260510 0.202248 0.142731 -0.152231 0.132681 -0.009848 0.157146 -0.075355 -0.010167 0.050451 -0.105414 0.154290 0.198527 0.195429 0.052483 -0.189792 0.067984 0.006752 0.029928 0.198867 0.140685 -0.110452 0.064144 -0.053048 -0.062546 -0.140720 -0.246092 0.217428 -0.116089 -0.038044 -0.177988 0.067813 -0.147261 0.142601 0.169722 -0.144861 -0.173690 -0.053472 0.040770 0.161215 -0.013800 0.059771 -0.067543 0.003284 -0.070055 0.178825 -0.006616 -0.233444 0.055512 0.366703 0.108004 -0.185712 0.093343 0.036008 -0.043979 -0.072461 -0.121794 0.093833 0.134527 -0.002381 -0.183554 0.185319 -0.037538 0.009356 0.131218 -0.076635 0.158547 -0.221611 -0.137440 -0.072622 0.122754 0.158513 -0.230442 0.019595 -0.131761 -0.000743 0.004717 -0.067678 -0.050290 0.144625 -0.099858 -0.014706 0.160738 0.187510 0.213354 0.080308 0.210488 -0.218612 0.114069 0.103195 0.052851 0.026783 0.071019 0.090365 0.111795 0.046547 0.157141 -0.019105 0.090856 0.055173 0.022716 -0.031213 0.133999 0.216076 -0.024326 0.130121 0.062085 0.157093 -0.097330 0.077186 0.136947 0.077581 -0.038255 0.177944 -0.228081 -0.074034 0.187241 -0.016181 0.022644 0.134071 0.196973 -0.095757 0.196188 -0.106449 0.176104 0.069478 -0.143359 0.039276 -0.132091 0.072889 -0.232847 -0.095635 -0.077247 -0.125719 -0.016802 0.134301 -0.054829 -0.140858 0.168806 -0.041379 0.033722 0.002024 -0.126209 -0.199923 -0.109870 0.013891 -0.113970 0.162204 -0.031698 0.000141 0.008248 -0.131789 -0.201772 0.101464 0.197442 0.082190 -0.030900 -0.192477 0.102687 0.027345 -0.022924 -0.057759 0.174706 -0.079814 -0.052951 -0.326366 -0.055860 -0.300919 0.005033 -0.138542 -0.046996 -0.154555 -0.038218 0.098267 -0.082331 0.179383 -0.020664 -0.096536 0.120069 -0.115718 0.095873 0.054077 -0.066168 0.088414 0.009814 -0.189331 0.124533 0.067838 -0.101106 0.019407 0.011687 -0.207273 0.205046 -0.236803 0.003606 -0.341240 0.049847 0.047294 0.001922 0.194135 -0.209518 0.144754 -0.127447 0.124908 0.158109 -0.078155 0.120511 0.029780 -0.095828 -0.012346 0.131975 -0.009426 -0.101063 0.276443 0.044615 0.053423 -0.071593 -0.213004 -0.009213 -0.030079 -0.113673 0.175993 0.086474 -0.200622 -0.040885 0.002634 0.064871 0.115778 -0.139536 0.284509 -0.148307 -0.008731 0.083251 -0.090506 -0.056942 -0.069901 -0.230054 0.046847 0.195180 -0.077347 0.082820 -0.016290 -0.178879 0.057288 0.020542 0.502743 -0.146707 -0.007167 -0.128975 0.201965 0.144142 0.129290 0.142286 0.081582 0.002542 0.101769 -0.184572 0.023465 0.163734 0.118925 -0.225012 0.043620 0.008334 -0.154378 -0.037920 0.179649 0.020580 -0.109616 0.263815 -0.011168 0.121509 0.155801 -0.050634 0.129906 0.115113 0.046893 -0.210503 -0.167228 -0.182307 0.043578 -0.089757 -0.153359 0.181305 -0.273522 0.203407 -0.028407 -0.044815 0.233917 -0.097103 -0.167463 -0.156236 -0.282848 0.137210 0.122650 -0.156162 0.043838 -0.063889 0.070834 0.107270 0.096815 0.190005 0.045257 0.205606 -0.142574 -0.111726 0.100756 0.246350 0.058097 0.134509 0.151368 -0.071090 -0.092918 0.209520 0.019128 -0.167394 0.136769 0.084122 -0.056628 -0.002846 0.138524 -0.220802 -0.000556 0.103556 0.161220 -0.116624 0.094299 -0.127406 0.052275 -0.076476 0.350400 -0.177648 0.133086 0.004548 0.020353 0.022601 0.027790 -0.156009 -0.022872 -0.099999 -0.244184 0.187729 -0.030512 -0.118128 0.239846 0.091736 0.103140 0.101694 -0.086263 -0.161999 0.280935 -0.137138 -0.082534 -0.070040 0.164436 0.175604 0.119546 0.081426 -0.005192 0.189015 -0.009896 -0.170028 -0.136079 -0.022157 -0.019639 0.283348 0.088439 -0.163807 -0.083893 0.138140 -0.083759 -0.009439 -0.166059 -0.057010 0.100391 0.150015 -0.003474 -0.270339 -0.024710 0.075190 -0.156447 0.016776 0.133942 -0.146295 -0.096889 0.167902 -0.143418 0.002307 0.041834 -0.104213 0.017113 0.050898 -0.158648 0.069631 0.318145 0.091246 0.130324 0.169869 0.125446 0.158937 -0.185806 0.005698 -0.080477 -0.140478 0.128836 -0.135926 0.233680 0.077983 -0.130971 -0.036292 0.092179 0.079345 0.150312 0.146849 -0.116006 0.002258 0.119046 -0.021145 -0.162575 -0.154668 0.066401 0.043519 0.052503 0.179897 -0.059717 0.045929 0.099037 0.118699 -0.066942 0.008971 -0.030093 0.012522 0.065081 -0.153836 0.033014 -0.021934 -0.118234 0.063972 0.148804 -0.062341 -0.180494 0.067694 0.029829 0.093899 -0.058898 0.121191 -0.047390 -0.146717 -0.040819 0.024423 -0.103136 -0.164599 -0.157847 0.113893 -0.174327 -0.059510 -0.027261 0.101612 -0.126679 0.181283 -0.051074 0.139215 0.019325 0.149428 0.179056 -0.096203 -0.111910 -0.129914 0.133154 -0.192365 -0.003107 0.144770 0.067094 -0.165050 0.047269 -0.134171 -0.182593 0.155667 -0.137104 -0.034470 -0.026491 -0.068276 -0.008184 0.022403 -0.119458 0.020084 0.153302 0.057243 -0.081680 -0.168342 0.052200 0.026885 -0.189491 -0.120080 -0.016058 0.153160 -0.041420 0.114917 -0.155661 -0.086106 0.124656 0.029012 -0.153165 -0.004370 0.041023 0.005708 0.111134 0.053574 0.095633 0.134074 -0.179245 -0.069772 -0.087112 0.005675 0.009317 -0.012796 -0.173220 0.065155 -0.148344 -0.063945 0.086938 0.092944 0.155796 0.057826 0.162090 -0.045797 0.015673 -0.070691 -0.123351 0.037759 0.029785 0.185467 -0.143673 0.080962 -0.008024 0.098333 -0.007391 -0.152697 -0.015545 -0.101932 0.176691 -0.022883 -0.022326 -0.110943 0.176222 -0.110226 0.068732 -0.178813 0.145373 0.110236 -0.061236 0.041482 0.006440 -0.096223 -0.090426 -0.016388 0.048730 0.117719 0.101329 0.115688 -0.034038 -0.059407 0.111042 0.019562 -0.168672 -0.089769 -0.090618 0.014103 -0.051521 0.071985 0.102223 -0.068428 -0.136068 -0.110253 0.008826 -0.150027 -0.030328 -0.119125 -0.146985 -0.077056 0.187956 -0.020638 0.156554 0.011466 0.073786 -0.123729 0.184869 -0.064297 0.183889 0.098297 -0.138578 -0.040943 -0.151750 0.157494 0.153311 -0.129755 -0.119206 -0.093457 0.074430 0.020924 0.172310 -0.007734 0.142523 -0.152931 0.067755 -0.036513 -0.112203 -0.180216 0.040734 -0.069302 -0.039211 0.042138 0.103328 -0.075798 -0.147023 -0.016623 0.001539 -0.137746 0.079531 -0.005242 0.146095 0.163490 0.147196 0.183043 0.097014 0.132205 -0.088455 -0.217397 -0.052136 0.076136 0.171444 -0.177039 -0.137031 -0.011125 -0.081877 0.196797 0.107906 0.001217 -0.168520 0.004581 0.141377 0.020747 -0.145689 -0.043729 0.015134 -0.111548 0.203298 -0.049662 -0.024689 0.012249 0.064604 -0.135675 -0.007892 0.032061 -0.101774 -0.000227 0.097343 -0.056881 0.104679 -0.016220 -0.127854 -0.235374 -0.008023 0.014758 0.052205 0.094390 -0.040192 0.019866 0.086066 -0.060293 -0.179011 0.036907 0.182110 -0.185315 0.187043 0.099450 -0.059855 0.033109 -0.081632 0.044858 -0.036012 0.103537 0.169535 -0.156820 0.056248 -0.102380 0.072908 0.093650 -0.006519 -0.148202 -0.171379 0.110746 -0.203119 -0.019542 -0.161338 0.159109 -0.285191 0.061606 0.018345 -0.192805 -0.023755 0.026315 0.060725 -0.079092 0.010263 0.048651 0.114017 -0.021226 -0.086861 0.180759 -0.021278 -0.048034 0.083822 0.035925 0.098459 -0.158025 0.143092 -0.005030 0.103471 -0.079535 0.052460 0.148272 0.196772 0.164525 -0.036725 -0.088735 -0.066309 -0.101148 0.052378 -0.211023 0.229873 0.197625 0.006806 -0.105263 -0.007061 -0.012998 0.052947 -0.118389 -0.134936 -0.155189 0.259041 0.175172 0.099466 0.041657 0.112603 0.022679 0.248400 0.012075 -0.245453 -0.022267 0.125737 -0.023240 -0.059160 0.015532 0.005116 0.156340 0.002626 -0.131402 0.066038 0.042079 -0.111158 -0.105044 0.036808 -0.126567 -0.037605 0.214168 -0.167306 -0.081521 0.068715 0.095792 -0.131307 0.112350 -0.032653 0.069700 0.016766 -0.155829 0.009804 -0.253599 -0.005356 -0.002353 0.037970 -0.078388 -0.141311 0.141365 0.049974 0.069248 -0.012228 -0.069256 0.030617 -0.148145 0.138353 -0.117605 0.108044 0.011130 -0.453789 0.151201 -0.431642 -0.037414 -0.185411 0.086008 0.107133 -0.055130 0.011083 -0.030222 -0.069465 0.086257 0.054096 0.040627 0.102057 0.182655 0.010012 -0.176482 0.285566 0.101198 -0.026739 -0.044815 0.170067 0.175274 -0.086008 0.031135 -0.092845 0.174540 0.077050 0.061723 -0.056326 0.088474 -0.027122 -0.160875 0.111952 -0.081021 -0.051589 -0.179642 0.152112 -0.101258 -0.122774 0.056552 -0.165667 0.011286 -0.323896 0.160697 0.034620 0.047198 -0.127954 0.042790 0.124339 -0.058552 0.130400 0.010813 -0.137341 -0.011444 0.225215 -0.152123 0.013597 -0.213907 0.174611 -0.045896 0.033922 -0.123747 -0.019304 0.112401 0.133747 -0.208942 0.141794 -0.081391 -0.177608 0.011086 -0.177358 -0.083988 -0.047593 0.157642 -0.192034 0.181439 0.081699 -0.136343 0.125264 0.089754 0.037451 -0.123723 0.073257 0.074162 0.213734 0.019136 -0.166600 0.154092 0.158989 0.186722 -0.107716 0.085810 -0.314408 0.054704 0.045539 0.090427 -0.075445 -0.058693 0.019096 0.043905 -0.107871 0.046640 0.008987 0.059506 0.039042 0.125345 0.041379 0.017926 0.181670 -0.104191 -0.143502 -0.098897 0.162836 0.147850 -0.217615 0.093013 0.104951 0.054393 0.072856 -0.027590 -0.039801 0.228825 0.091807 -0.062697 0.143269 0.108451 0.214325 -0.031707 0.057448 0.095969 0.084991 -0.076939 0.054706 0.002952 -0.090462 -0.287094 -0.051720 0.001931 0.007672 -0.113574 -0.003635 -0.277034 -0.115267 0.018199 -0.066898 0.183764 -0.114310 -0.189999 0.127544 -0.119127 0.225710 -0.217507 -0.105980 -0.005457 0.286031 0.071915 0.070664 0.058099 -0.081207 0.010635 -0.053797 -0.172603 0.286886 0.067103 -0.219344 -0.160437 0.135548 0.162578 -0.085876 -0.046959 0.153448 0.172824 -0.072880 0.003216 -0.065845 0.041257 -0.075946 0.149421 0.134044 0.008019 0.179090 -0.138574 -0.225050 -0.158518 0.169301 0.009451 -0.171421 -0.044602 0.139645 -0.004145 0.029153 0.129366 -0.103282 0.001448 0.125695 0.133142 -0.155799 -0.068466 0.083084 0.097996 0.021657 0.071845 0.056303 0.029624 -0.021648 -0.171978 0.228847 -0.075590 0.041290 -0.070548 0.396825 0.072909 0.011538 0.154307 0.053324 -0.007118 0.008575 -0.039434 0.280418 0.124590 -0.074861 0.110774 0.018979 -0.040856 -0.095383 0.124411 -0.029369 0.092471 -0.285689 0.178759 0.128153 -0.058729 0.138409 0.129696 -0.104128 0.043244 0.028844 -0.178932 0.173371 -0.006691 -0.027375 -0.037776 -0.133607 -0.140906 0.110134 0.190570 -0.061205 0.162816 0.082960 -0.049063 0.150111 0.087533 0.199043 -0.138869 0.246596 -0.201326 0.106204 -0.118608 0.102028 0.164023 -0.040666 -0.159328 -0.185343 0.088394 0.131298 -0.090755 -0.071606 0.114757 -0.006219 -0.219261 -0.283355 0.198152 -0.028216 -0.023526 -0.201003 0.095947 0.136426 0.128026 -0.032907 -0.028056 0.090606 -0.103613 0.130068 0.004333 -0.066116 0.127975 0.096768 -0.134353 0.248963 0.033746 0.232530 -0.125008 0.095101 -0.069338 0.151763 -0.004312 0.080640 -0.197312 -0.188083 -0.079700 -0.191252 0.040496 -0.050661 -0.033113 0.210256 -0.127063 0.250850 0.051455 0.098458 -0.057532 0.005970 -0.114364 0.125740 0.169457 0.045887 -0.246483 0.112580 0.019385 -0.091935 -0.020736 -0.025382 -0.114721 0.019881 0.180377 -0.046258 0.016288 0.000596 -0.132240 -0.035658 0.118242 -0.048770 -0.152973 0.050024 0.045756 -0.094648 0.177514 0.310751 -0.093738 0.042033 0.045222 0.147449 -0.033069 -0.131663 0.111500 -0.118302 -0.047237 0.128803 -0.169288 -0.073682 0.193966 0.042976 -0.054934 -0.174500 0.066853 0.104060 -0.044385 -0.024799 0.148201 0.029190 0.128619 0.076739 0.179495 0.185916 0.192020 0.090642 -0.145561 0.179781 0.002324 0.016414 0.106676 -0.187684 0.002401 -0.208195 0.107081 -0.096937 -0.011746 -0.051516 -0.252964 -0.071949 -0.022567 -0.140468 -0.285844 0.088512 -0.152247 0.126419 -0.093161 0.013228 0.124806 -0.210157 -0.066725 -0.004108 0.141909 -0.081359 -0.009180 0.086755 0.050415 0.388992 0.082966 -0.295033 -0.118377 -0.119501 -0.009104 0.027899 -0.026003 0.044274 -0.059945 0.123721 0.139362 -0.195366 0.018489 -0.113502 -0.249952 0.050886 -0.115096 -0.218207 -0.043198 -0.010332 0.134098 -0.107857 -0.010145 0.199681 0.103736 -0.043091 0.160764 -0.095799 -0.089696 0.043819 0.155316 -0.143462 0.115336 -0.137342 -0.021189 -0.211963 0.118013 0.026529 0.028248 0.105508 0.014818 -0.069700 0.103080 -0.153335 0.081404 0.178993 0.086711 0.109493 -0.142028 -0.167535 -0.137071 0.034032 -0.117973 0.088566 0.032675 0.179103 -0.146334 0.048402 -0.106813 -0.064257 -0.117759 -0.137690 -0.026539 -0.191474 -0.089697 0.143596 -0.153558 -0.152492 0.065476 0.065008 0.120935 -0.053485 -0.143869 0.036549 -0.017443 0.104893 -0.035755 -0.121077 0.026221 0.005741 -0.100328 0.077403 -0.068337 -0.019261 -0.093996 0.152784 -0.034101 -0.034034 0.002942 0.049726 0.091894 0.088184 0.105580 -0.125241 0.096280 -0.178651 -0.179542 0.126960 -0.151633 -0.084666 0.008043 0.190899 -0.163040 0.040903 0.021789 0.008402 -0.038841 0.181514 0.084892 0.163085 -0.009854 0.165118 -0.001266 0.145504 -0.023495 -0.181453 0.103009 0.114236 -0.005844 -0.056578 -0.029837 -0.150581 -0.162859 -0.119207 -0.058759 0.123239 -0.107046 -0.048200 0.066216 -0.066451 -0.162021 -0.121884 -0.094973 -0.140049 0.106847 0.099247 0.056086 -0.120312 0.083158 -0.060480 -0.136020 -0.118170 -0.079659 0.116019 0.184056 0.072000 0.124640 0.093762 -0.020801 -0.090860 -0.164844 0.126111 -0.024465 -0.095714 -0.170583 0.106831 0.176023 -0.088577 -0.131528 0.050888 0.035029 -0.102854 0.125365 0.133765 -0.052592 0.050156 0.040577 -0.186244 0.119591 -0.067593 -0.056312 0.175030 0.001800 0.068806 0.100934 -0.002558 -0.084651 0.035457 -0.098810 0.088481 0.135278 -0.074294 0.036109 -0.079907 -0.020309 0.054850 -0.163574 -0.034593 0.152843 -0.104567 -0.172890 -0.001739 -0.017859 0.143038 -0.059686 0.119698 0.001427 0.171815 0.123185 -0.067296 -0.090845 -0.130230 -0.081823 0.126373 0.117098 -0.171385 -0.084745 -0.153764 0.054759 0.006107 0.124983 -0.000805 0.123022 -0.028768 0.113910 -0.088058 -0.164324 0.134701 0.066266 0.181934 -0.158734 0.096745 0.001085 0.004376 0.045317 -0.038392 -0.056010 -0.140697 0.098727 -0.114894 -0.019765 -0.153830 -0.057054 -0.017967 0.080398 0.068441 0.043263 -0.203820 -0.057819 -0.149414 0.053005 -0.059010 0.141450 -0.031757 0.054641 -0.043667 0.095481 0.001575 0.073667 -0.040380 0.016388 0.086206 -0.153670 -0.150916 0.061845 0.096573 -0.034207 -0.143872 0.069891 -0.059920 0.082769 -0.080993 0.074328 -0.061732 0.173637 -0.004823 -0.093392 0.128139 -0.052647 -0.008665 -0.139015 -0.092700 -0.074165 -0.176572 0.084173 -0.166203 0.011830 -0.029657 0.075986 -0.094811 0.089263 0.003389 0.158005 0.157491 -0.123090 -0.024649 0.057964 -0.140501 0.085237 -0.013722 0.086686 -0.003978 0.087383 -0.011384 -0.081110 0.179568 0.152991 0.012998 -0.032486 0.095055 -0.181233 0.029547 0.126971 0.162857 0.055361 0.061455 0.039319 -0.012395 -0.105522 -0.053285 0.059357 0.090416 0.097236 -0.147508 -0.012724 0.062470 0.007635 -0.107244 -0.106308 -0.060649 -0.032714 -0.053204 0.012786 0.056968 0.166824 0.047103 -0.125946 0.167678 -0.152306 0.039249 0.004471 -0.242460 -0.140807 -0.199611 0.111457 0.023240 0.036668 0.190489 0.199948 0.069140 0.080471 -0.040623 0.092814 -0.154084 0.116792 -0.060125 0.136091 -0.166749 -0.077113 -0.035700 -0.085767 0.198355 0.142506 -0.083342 0.341769 0.095520 0.065229 -0.150563 0.047339 -0.073669 0.041713 -0.094857 0.197460 -0.136522 -0.049096 0.012254 -0.004862 -0.090954 0.180289 -0.048448 0.157614 0.125952 -0.077163 -0.089520 0.204615 -0.011751 -0.026352 0.079640 0.123315 -0.143467 -0.144231 -0.037968 0.064747 -0.078371 0.305026 0.282628 -0.120518 -0.100054 0.177329 0.129256 0.149242 -0.214267 0.115623 0.083463 -0.128282 -0.030300 0.026200 0.036137 0.059895 0.435979 0.037697 -0.057207 0.134682 -0.241874 0.127834 0.029577 0.189716 0.091555 0.278844 0.095200 -0.000081 0.134536 -0.251938 -0.189752 -0.212811 -0.016387 0.106257 -0.366446 0.123944 -0.005536 0.278776 -0.021583 -0.006167 0.069367 0.016145 -0.136007 -0.056711 -0.079711 0.000571 0.172829 -0.137431 -0.085761 -0.116858 0.329049 0.104639 0.070437 0.037265 0.131951 -0.169086 0.265431 -0.025430 -0.082304 0.123383 0.152588 0.081583 0.164762 -0.038182 -0.174804 0.093441 -0.213848 0.083262 0.136368 0.025229 -0.217733 -0.143215 -0.097757 0.060049 -0.089981 -0.135522 0.147586 -0.087747 -0.018978 -0.124741 -0.061177 -0.150290 -0.106485 -0.121901 0.148389 -0.003097 0.020786 0.070111 0.103621 -0.062083 0.148108 0.108765 -0.156165 -0.177847 -0.152753 0.021123 0.140650 -0.016286 0.045639 0.124559 0.160260 0.089857 0.374015 -0.210150 -0.145092 0.054970 -0.059213 0.114016 -0.095019 0.100254 0.254917 -0.106919 0.115151 0.042253 -0.060106 0.025803 -0.027244 0.082694 0.062005 -0.152070 0.233074 0.004990 0.118171 -0.079232 0.013981 0.382828 0.047477 -0.095124 -0.121173 -0.007311 -0.217577 0.117671 0.155302 0.184181 -0.296787 0.050608 0.005403 -0.020974 -0.043100 0.113191 -0.188860 0.144969 0.182695 0.156669 0.040991 -0.031624 -0.020700 0.154224 0.289778 -0.023654 0.146538 -0.118835 0.070325 0.066092 -0.565244 -0.095630 0.106198 0.111221 0.100607 0.079470 -0.196376 0.119622 -0.033649 0.162806 0.239211 0.157942 0.094174 -0.122754 -0.332195 0.110667 0.239261 -0.145326 0.101546 0.003361 -0.104923 -0.161948 0.391325 0.068978 0.190326 0.162057 0.212271 0.136526 0.061912 -0.019123 -0.118682 -0.327264 0.054709 -0.054104 -0.183207 -0.076360 0.253926 -0.116565 0.077518 -0.055602 -0.196981 -0.121122 -0.111008 0.245649 -0.000234 -0.050393 0.093346 0.005184 -0.031068 -0.063506 0.211376 0.059199 0.004421 0.100070 -0.130582 0.025369 0.061140 0.169840 0.092093 -0.042754 -0.251052 0.216908 0.285758 0.184337 -0.370543 0.061800 0.125820 0.184652 0.152769 0.053532 0.170146 -0.114707 0.015348 -0.007946 0.071646 0.048564 -0.175356 -0.045305 -0.068359 0.102839 0.118625 -0.284036 0.148845 0.019981 0.284526 0.045150 0.106486 0.089097 0.044876 -0.146592 -0.153453 0.133946 -0.134912 0.101214 -0.043850 -0.135370 -0.039013 -0.208122 -0.106885 -0.203904 -0.661179 0.044569 -0.006415 -0.196263 0.111187 -0.057466 -0.156560 -0.198745 0.038968 0.002580 0.182058 0.181076 0.040990 -0.062194 0.201701 0.046937 0.218121 -0.042097 -0.076060 0.122583 -0.011252 -0.127525 -0.092577 0.018060 0.176500 -0.109459 0.039247 -0.094965 0.131068 0.118469 -0.032591 -0.654477 -0.086666 0.222418 -0.135628 -0.079786 -0.129760 -0.057243 0.047108 -0.409675 0.073299 -0.006502 0.067759 -0.058758 -0.061997 0.041445 -0.155931 0.300140 -0.164219 -0.113969 0.025117 0.158186 0.042442 0.034488 0.176405 0.007244 0.063621 0.022286 0.150008 -0.025492 0.140000 -0.106238 0.826088 -0.049916 -0.317151 0.112265 -0.024306 0.051832 -0.155219 -0.107394 0.237182 0.263918 0.014354 -0.181095 -0.093228 -0.049729 0.206925 -0.227283 0.158064 -0.111480 0.094710 -0.179932 0.181645 -0.165129 -0.040167 -0.031028 0.114657 -0.065978 -0.063019 0.030431 0.075665 -0.043633 0.076051 -0.091180 0.024896 0.104904 -0.133583 -0.098635 0.026715 -0.181797 -0.730526 0.224080 0.076545 0.079396 -0.146662 0.153891 -0.124722 0.211339 -0.130205 -0.136272 -0.240588 0.239407 -0.124089 -0.172432 -0.036841 0.082576 -0.008186 0.022066 -0.189356 0.172178 -0.024004 0.060921 -0.071857 -0.174309 -0.184718 -0.129675 0.082581 -0.180449 -0.061194 0.183536 -0.138885 -0.240942 0.113097 0.130067 -0.189266 0.120509 0.159987 -0.120240 0.129607 -0.159351 -0.090913 0.156375 0.116649 -0.066140 0.048524 0.127020 -0.070959 -0.085163 -0.133288 -0.079321 0.061272 0.054389 -0.174075 0.174923 0.192858 -0.253842 0.162950 0.097691 -0.040248 0.006732 -0.001180 -0.182039 0.080243 0.004970 -0.093815 0.009257 0.001142 0.104089 0.002448 -0.054600 0.123539 -0.160222 -0.022792 0.048957 -0.039445 -0.135897 0.029554 -0.124284 0.125790 -0.143030 -0.162227 -0.055437 0.134771 -0.146318 -0.225194 0.149045 -0.131047 -0.100464 0.080165 -0.116181 0.095823 0.001662 -0.063325 -0.072167 0.186337 -0.070666 0.144908 -0.046786 -0.157147 0.047949 0.015291 0.156712 0.048375 0.112524 0.004946 -0.154965 0.171595 -0.173254 0.120253 0.107289 -0.176141 0.141683 -0.121809 0.186970 0.066294 -0.030791 0.167008 -0.209043 0.068330 0.059451 -0.101234 -0.026429 -0.155396 0.014287 0.093630 -0.152901 0.137042 0.049286 -0.010773 0.172621 -0.091837 -0.149257 0.141913 0.147257 0.157491 -0.044334 0.175168 0.139088 -0.020956 0.098818 0.056227 -0.007822 0.044980 0.124605 -0.016402 0.004169 -0.087373 -0.050654 -0.017908 0.171079 -0.176333 0.075505 -0.044921 -0.135772 -0.094943 -0.166771 -0.102599 -0.148260 0.097936 0.077760 -0.168085 -0.185760 -0.022556 0.166686 0.152596 0.089020 -0.052255 0.145310 0.033052 0.122180 0.060019 -0.095319 -0.071325 -0.073529 -0.164241 0.080636 0.119451 -0.061242 -0.128446 -0.067275 -0.080666 -0.110531 -0.167497 0.069505 -0.063539 -0.076056 0.113293 0.023422 -0.033638 0.021186 -0.088969 -0.008889 0.026270 -0.160537 -0.034464 -0.011471 0.115513 0.106384 -0.070177 -0.039677 0.037789 -0.182864 0.051748 0.150343 -0.072978 0.077382 0.060669 -0.149033 -0.174739 0.122392 -0.027916 -0.065635 -0.183612 -0.012681 0.183680 -0.057482 0.098097 0.111998 0.156052 -0.122437 -0.066731 -0.123264 0.058790 0.160029 -0.093208 -0.163709 -0.039749 -0.168046 0.135134 0.092057 -0.017534 -0.017724 0.098716 -0.156134 -0.057109 -0.165844 0.119694 -0.186555 -0.123341 0.126736 0.125955 0.038764 -0.128793 0.132328 -0.163595 -0.129495 -0.115172 0.129065 0.173289 -0.149264 -0.184757 -0.071476 -0.082202 0.063766 -0.103240 0.014473 0.090180 0.044835 0.036504 0.034641 -0.052879 -0.171153 -0.171965 -0.144636 -0.137169 -0.038958 -0.113218 0.163894 -0.035390 -0.052163 0.102777 -0.099557 0.176535 0.161862 -0.157214 -0.177476 -0.157666 -0.075590 0.140123 -0.174518 -0.041118 0.144766 -0.056858 0.066128 0.023177 0.075582 -0.098439 -0.074152 -0.245418 0.116908 0.146724 0.003274 0.141444 0.169215 0.140371 0.192732 -0.132736 0.165337 0.091913 0.062633 -0.084768 0.054253 0.025032 -0.070088 0.093236 -0.204371 -0.102944 0.073680 -0.228822 -0.138639 -0.028053 0.018690 0.167732 -0.153980 0.132243 0.010681 -0.243472 0.134847 0.103537 0.096904 -0.105413 0.041187 -0.063665 -0.094714 0.047525 -0.149584 0.037261 0.167456 0.178204 -0.096074 0.172993 -0.076800 0.155567 0.050995 -0.052065 -0.158551 0.016540 0.044180 -0.069176 -0.117643 0.068485 0.201353 0.098335 -0.008393 -0.114569 -0.116677 -0.113599 0.057220 0.310763 0.185102 0.068306 -0.027947 0.067032 -0.177388 -0.063846 -0.126714 -0.120599 0.086252 -0.103065 -0.156572 0.114720 0.127938 0.019439 0.188194 -0.032308 0.059181 0.008124 -0.024104 -0.099552 0.070138 -0.043534 0.234583 0.136134 -0.128046 0.054759 0.053521 -0.188396 0.169623 -0.009227 -0.160986 0.058356 -0.070446 -0.061513 -0.150711 0.023884 0.084347 0.199158 -0.045050 -0.356537 -0.179633 -0.031666 -0.025655 0.197029 0.079061 -0.097759 0.020685 -0.064417 0.143502 -0.011633 0.020262 0.339627 -0.160461 0.092901 0.021692 -0.027477 -0.110785 0.119117 -0.114341 0.179062 -0.027474 -0.146586 -0.008414 -0.084749 -0.010512 0.254849 -0.025376 -0.180552 -0.059031 0.088262 -0.013407 -0.165731 -0.166996 -0.155877 -0.117043 0.168478 0.092345 -0.026953 -0.123103 0.122798 -0.005719 0.467955 -0.054115 0.021470 -0.054856 -0.133535 -0.049593 -0.076263 -0.140145 0.187392 -0.195051 -0.036155 -0.080619 -0.085380 -0.096091 -0.003560 0.084366 0.004640 0.305783 0.202748 -0.123436 0.087525 0.269577 -0.015884 0.151586 -0.170214 -0.066543 0.066641 0.094908 -0.068199 -0.134714 -0.013312 -0.032859 0.209370 0.030336 0.090323 -0.011380 -0.058824 -0.083044 -0.057339 -0.117764 0.083160 0.527141 -0.002442 0.128274 0.196857 -0.135407 -0.019301 0.112468 0.134077 -0.011320 -0.129298 0.148027 -0.122642 -0.080119 -0.040404 -0.134615 -0.345694 -0.055637 -0.387450 0.168310 -0.013302 -0.074211 -0.032823 0.060202 0.075480 0.156599 0.077637 -0.145851 0.279702 -0.018855 -0.130140 0.004716 0.048281 -0.117574 -0.073429 -0.019424 -0.161434 0.113674 0.152081 0.189383 -0.093923 -0.005066 -0.007674 -0.019539 0.010502 -0.164031 0.232244 0.029824 -0.102055 0.191888 0.138970 -0.054256 -0.191394 0.179306 -0.084841 -0.106791 0.254441 -0.129621 -0.092862 0.102140 0.356077 -0.010697 -0.062910 -0.079586 -0.016948 0.107219 -0.063409 0.094529 0.048428 -0.102399 0.059556 0.158635 -0.017981 -0.011021 0.034789 0.164809 -0.070331 -0.134874 0.103919 -0.063631 -0.111128 -0.059878 -0.171217 -0.014877 -0.173231 0.004638 0.116756 -0.056491 -0.104824 0.017932 -0.178979 -0.127479 0.234587 -0.223493 0.063093 -0.012659 0.161919 0.158283 -0.139251 0.034628 -0.311818 0.206806 -0.226508 -0.035629 0.249629 0.406508 -0.232246 0.113579 0.193862 -0.036043 -0.036831 -0.080534 0.207546 0.113346 -0.133493 -0.093435 0.016342 -0.057066 -0.224150 -0.063433 0.146250 0.023224 0.024157 0.122615 0.145855 0.121833 -0.141840 0.207063 -0.192381 -0.135522 0.362318 0.058976 -0.111629 0.057745 -0.093446 0.182366 -0.102330 0.147832 0.054594 -0.091024 0.214800 0.065186 -0.033520 -0.002371 -0.033788 -0.140859 0.297712 -0.002595 -0.042010 -0.036806 0.095750 -0.207408 0.196098 -0.057584 0.132910 0.066842 0.475764 0.185384 -0.009144 -0.037679 0.209114 -0.014496 0.172555 -0.022341 0.143090 0.247180 0.025176 -0.062687 0.016871 0.116723 -0.030217 -0.031802 -0.080547 0.095908 0.071679 0.171585 -0.164242 0.091750 -0.079047 -0.119668 -0.087462 -0.066658 -0.058713 0.172206 -0.161719 0.055741 -0.115611 0.097533 -0.186477 0.057255 -0.261012 0.007769 -0.019674 -0.178169 0.002256 -0.035719 0.135939 0.193350 -0.030767 0.056128 -0.103925 -0.104357 0.108466 0.045139 0.049238 0.200625 -0.033521 0.090014 0.073373 0.004136 -0.111190 -0.043143 0.182589 0.084930 -0.039399 0.065669 -0.048228 -0.077420 0.081531 0.058523 0.160543 -0.012643 -0.135834 -0.137730 -0.015616 0.118052 -0.258392 -0.100907 -0.066909 -0.013420 -0.105873 -0.090252 -0.016135 -0.011942 0.100787 0.042750 -0.140879 -0.018872 0.069750 0.145228 0.097869 0.070184 0.001533 0.062919 0.084784 -0.114721 -0.005907 -0.138320 -0.080974 -0.076367 -0.067239 -0.161668 -0.182436 -0.195186 -0.075519 0.136584 0.233607 -0.014172 -0.155091 -0.012270 -0.074415 0.010361 0.084675 -0.076706 0.088031 -0.073048 0.033761 0.184350 -0.170724 -0.162607 0.085785 0.129010 -0.160804 -0.004598 -0.032116 0.148965 0.060293 0.312314 0.027447 0.110446 0.158727 -0.105497 -0.137381 0.160626 -0.093269 -0.108838 -0.032323 0.142040 0.217265 -0.149915 0.051771 0.076885 0.519004 0.220818 -0.161323 0.094470 -0.237794 -0.187099 0.041361 -0.026700 0.062249 0.306873 0.093402 0.049230 0.069204 0.207815 -0.066847 -0.140540 0.152906 0.156746 -0.171544 -0.044476 0.156096 -0.019434 -0.153727 0.203371 0.020983 -0.090599 0.045019 0.062354 -0.055539 -0.101037 -0.004822 -0.150597 -0.128214 0.024334 -0.044172 -0.058055 -0.443944 -0.144924 -0.449206 -0.130220 -0.113919 -0.142650 0.161757 -0.145377 -0.112699 -0.035992 -0.081656 -0.134035 -0.083482 -0.012419 0.056585 -0.102393 -0.008547 -0.110491 -0.286732 -0.058324 -0.085992 0.170564 -0.369105 0.026524 -0.230879 0.095000 0.110793 -0.109762 -0.006274 -0.015830 0.085049 0.112090 0.109079 -0.245443 -0.157793 -0.151342 0.084359 -0.125627 -0.443285 0.168184 0.030492 -0.323680 -0.180862 0.181222 0.133018 0.015389 -0.060489 0.030074 0.138651 -0.051444 -0.218766 -0.147670 -0.029381 -0.009330 0.135883 -0.025362 0.096251 -0.066162 0.136462 -0.181041 -0.084110 -0.099780 0.087858 0.102506 -0.099124 0.149571 0.151031 -0.020557 -0.169296 0.099791 -0.114345 0.003126 0.119812 0.259979 0.069761 -0.095150 -0.084654 0.141291 0.189679 -0.205236 -0.169705 0.134165 -0.162574 0.106700 0.129812 -0.175595 0.098536 0.132944 0.087855 -0.035512 0.160081 0.135807 0.056835 0.108599 0.040811 -0.030934 0.070647 -0.030510 0.167123 0.036843 -0.050334 -0.042429 -0.148267 0.084206 0.138305 0.036052 0.159259 -0.177994 -0.080332 0.072910 -0.175809 -0.060058 -0.003083 -0.101228 0.084422 -0.005139 -0.088534 0.008476 -0.062744 -0.183039 0.165009 -0.090989 0.144896 0.031221 -0.172619 -0.004941 -0.189097 0.088192 0.158223 0.167609 -0.065151 -0.087023 -0.064977 -0.022686 0.188247 -0.116860 -0.174559 0.158320 -0.104915 -0.064754 0.039189 -0.090723 0.065306 -0.153587 -0.004222 -0.040389 0.031180 0.106528 0.159910 0.160800 0.115527 0.135064 -0.120253 0.068815 -0.023319 -0.102843 -0.126773 -0.026614 0.175426 -0.161172 -0.044812 -0.079909 -0.057657 0.080316 0.066684 -0.059947 0.153597 0.104130 -0.091113 -0.141444 -0.153271 0.138745 -0.041982 0.103652 0.174903 0.144311 -0.126850 0.016466 0.061202 -0.154551 -0.012968 -0.014550 0.168377 0.057024 -0.136227 -0.045164 0.144363 -0.071191 0.122750 0.129427 -0.042245 -0.112179 -0.140599 0.089796 0.158266 0.137041 -0.160268 0.121734 0.050025 -0.061307 0.170400 0.088371 -0.112854 -0.061772 0.001906 -0.127870 -0.108082 0.065169 0.078622 0.142253 0.098483 -0.124463 -0.062675 0.076743 0.122485 -0.008146 -0.158438 0.076485 0.110779 0.154430 0.015795 -0.121582 -0.147866 0.065314 0.158331 -0.179717 0.012238 0.188181 0.132135 -0.127855 -0.063243 0.112418 0.150634 0.014020 -0.139471 -0.037578 0.076267 -0.057436 -0.162526 -0.035228 -0.105300 0.126074 0.030426 0.022143 0.012700 -0.037206 -0.176121 0.044380 -0.150838 0.124776 0.008693 0.055075 -0.186924 0.050944 -0.069729 0.161524 0.061344 0.132626 0.159588 0.003362 -0.185346 -0.093773 -0.074338 0.155405 0.110364 -0.023692 -0.072290 -0.003486 0.108989 -0.044698 0.151404 -0.186428 -0.108741 -0.008288 0.025832 0.094077 0.144623 0.039828 -0.051661 0.183903 -0.025514 0.147149 0.048860 -0.022321 0.007976 0.169249 -0.050914 -0.132311 0.099784 -0.082450 -0.095473 0.121576 0.016131 0.196131 0.075627 -0.064982 -0.056936 -0.178433 0.069999 -0.018981 -0.098246 0.042051 -0.230986 -0.038812 -0.219055 0.102057 -0.039284 -0.135126 -0.030787 0.127687 -0.204955 0.142136 -0.018747 -0.056787 -0.088779 -0.136990 0.052615 0.074845 -0.307398 -0.110267 0.124167 -0.151151 -0.084920 -0.026789 -0.164542 0.179396 0.112535 -0.023116 0.156211 0.044586 -0.006578 -0.046091 0.140082 0.140675 -0.184756 0.007743 0.066621 -0.165039 0.141833 -0.154338 -0.160430 0.060423 0.153736 0.107343 -0.055252 -0.136372 0.106128 0.200247 0.131514 0.003924 -0.147014 0.084899 -0.111675 0.063556 -0.102577 -0.097887 0.051884 -0.160542 0.098067 0.018108 0.021030 -0.070357 0.153711 0.185142 -0.453925 0.208818 0.066605 0.149759 -0.176317 -0.094105 0.129135 -0.016532 0.191468 0.175750 -0.051395 -0.109496 -0.141671 -0.090778 -0.044510 0.135899 -0.100987 0.038965 0.056894 0.140058 -0.261764 0.002424 0.069783 0.101387 -0.166008 -0.048439 -0.393860 0.077364 0.066504 -0.024647 0.061809 0.140315 -0.139305 -0.089254 0.165846 0.097270 -0.130076 0.035640 0.160345 -0.131409 0.106408 0.049096 -0.025359 0.208286 -0.084845 0.023110 0.202809 0.044779 -0.029945 -0.109622 -0.203826 -0.091387 0.010458 -0.033202 -0.282877 -0.102710 0.120828 0.120277 -0.258044 -0.003499 -0.006700 0.179360 0.001914 -0.038176 -0.163500 -0.112552 0.026091 0.025497 0.396074 0.011344 0.104515 0.104178 -0.025395 -0.129364 -0.153911 0.138521 -0.006524 -0.097955 -0.049078 0.076035 0.088785 -0.231479 0.220478 -0.030232 -0.136652 -0.005400 -0.015107 -0.219042 0.067968 -0.184461 0.057918 0.019415 -0.202881 -0.095797 0.243849 0.027611 -0.192639 0.127681 0.093466 -0.031873 -0.173954 0.103903 0.381328 0.016635 0.031090 -0.033099 -0.081875 -0.127896 -0.061246 0.294314 0.208448 0.120382 -0.085975 0.217408 -0.051742 0.227479 0.078055 0.072087 -0.222094 0.075387 -0.059628 -0.258009 0.093277 0.138629 -0.267506 0.123813 -0.153635 0.043670 0.087498 -0.104624 0.154053 0.075392 0.199124 0.131451 -0.052571 0.021092 -0.061088 -0.005342 -0.141995 0.101206 -0.041064 -0.004662 -0.121167 -0.000026 -0.209607 0.151443 0.245729 0.096009 0.050782 -0.118220 -0.212468 -0.110837 -0.204631 0.081723 0.191248 0.002192 0.099035 0.178955 0.006251 -0.103211 -0.036382 -0.139350 -0.136190 0.083788 0.043381 -0.082761 -0.095517 -0.170731 0.155148 0.077313 0.139280 -0.016883 -0.125265 0.338723 0.001681 -0.047989 0.125439 -0.034486 -0.197452 -0.041582 -0.178507 -0.204765 0.122778 -0.016053 0.179191 0.062774 -0.258764 0.039058 0.069174 -0.181901 0.152841 -0.115561 -0.126785 0.285185 0.136842 -0.122798 -0.355578 0.125744 -0.306118 0.003367 0.302873 0.129316 0.016764 0.226550 0.047980 -0.102567 -0.063462 0.112336 -0.309275 0.167127 -0.202634 -0.143917 -0.098463 0.243151 0.078876 -0.020961 0.013385 0.114505 0.151873 0.166298 0.108039 0.259927 -0.205904 -0.134070 -0.015560 -0.117163 -0.186922 -0.176669 0.206404 -0.034203 -0.075623 0.089632 -0.012051 0.060705 -0.021264 -0.025560 -0.132372 0.124688 -0.208702 0.218491 -0.136353 0.135331 -0.345314 -0.038658 -0.037489 0.156952 0.321311 0.172887 -0.003297 -0.021022 0.143658 -0.129232 -0.271554 -0.188590 0.046338 -0.126818 -0.138767 0.159768 -0.141328 -0.140159 0.153338 -0.116861 0.158546 0.175882 0.144268 0.024714 0.302812 0.083651 0.194791 -0.037960 0.075839 0.115451 -0.027704 0.082452 0.013685 0.173560 0.012572 -0.089617 0.097449 0.089992 -0.076534 0.006560 -0.134759 0.056364 0.121447 -0.146560 -0.010226 0.121110 0.176121 -0.018552 -0.192055 -0.000938 -0.240117 0.134427 -0.022807 0.162522 -0.021551 -0.070563 -0.113333 0.131201 -0.395403 -0.011661 0.321600 0.014214 0.060258 0.102304 -0.020529 0.035281 0.055137 -0.434816 -0.074855 0.121943 0.154877 -0.064519 0.038020 0.150717 0.078141 -0.034839 -0.192407 0.069743 -0.160946 0.260837 -0.117808 -0.128672 -0.026860 0.056042 -0.240243 -0.180055 0.178051 0.159537 0.192307 0.206435 -0.181355 0.057729 -0.064768 -0.022698 -0.106180 0.077165 -0.128284 0.026014 -0.114133 -0.096174 0.051988 0.181584 -0.044789 -0.147949 0.113683 -0.135585 -0.155647 -0.169398 0.019375 -0.070923 -0.149814 0.039185 -0.204169 -0.069859 -0.138419 -0.054007 -0.100506 -0.118123 -0.037893 0.045939 -0.100128 -0.001633 -0.184286 0.063847 0.034068 0.019346 0.225894 -0.068784 -0.008475 0.054328 -0.095264 0.137737 0.002897 0.072145 -0.142732 -0.229050 0.081579 -0.041342 -0.018586 0.116498 -0.064553 -0.004326 -0.110614 -0.153715 -0.180794 -0.149682 0.159818 0.176229 0.026030 -0.093527 -0.107984 0.040765 -0.021297 0.095199 -0.001171 -0.079414 0.018591 0.168599 -0.207428 -0.002152 0.283869 0.150501 -0.122905 0.100469 0.034026 0.104555 0.265355 -0.001004 0.004288 0.065138 0.126463 0.112457 0.163309 0.328234 0.150090 -0.109144 -0.279967 0.053350 -0.011000 0.130088 0.211700 -0.060084 -0.075259 0.035539 -0.453688 -0.157764 0.152952 0.020042 -0.183979 0.002123 -0.113810 0.011322 -0.061759 0.124466 -0.320452 0.109558 0.227266 -0.110033 -0.167783 0.063448 0.085680 0.164853 0.005217 0.012855 -0.093423 -0.026699 -0.022065 0.051969 -0.158430 0.075096 0.065230 0.202966 -0.313175 -0.174909 -0.000800 -0.216673 -0.175462 -0.050812 -0.054571 -0.085409 0.163887 0.133160 0.094882 -0.100388 0.123831 -0.073908 0.202587 -0.073832 0.101080 -0.092324 -0.116873 -0.035761 -0.489603 0.082143 -0.052865 -0.018502 -0.151841 -0.080696 -0.016542 -0.122934 0.278294 -0.162201 -0.108927 0.193405 -0.240264 0.077020 -0.124379 0.111556 -0.097488 0.093490 0.114459 -0.057676 0.005684 0.142730 0.005183 -0.066887 -0.046479 0.008417 -0.255381 0.127686 0.141292 -0.183377 -0.237489 0.080155 0.040206 0.146933 0.019398 0.054801 -0.093901 0.081592 -0.129643 0.131198 0.221295 -0.038309 0.141454 -0.147729 -0.241736 0.031871 0.027078 -0.097467 0.142342 0.061391 -0.023985 -0.099966 0.016867 0.134126 0.025089 0.097324 -0.062074 -0.056507 0.078835 -0.185147 -0.053617 -0.097651 0.074243 -0.158322 -0.138996 -0.189093 0.158287 -0.110968 0.095264 0.169932 -0.130119 0.020950 -0.124877 -0.179001 0.054135 -0.122991 0.184735 -0.065384 -0.025176 0.061568 0.186124 0.140956 0.151719 0.012874 0.084965 -0.013309 -0.079919 -0.167226 0.120301 0.189033 -0.162255 -0.123433 -0.098735 0.102105 -0.091638 -0.047614 0.103129 -0.123469 0.031535 0.008275 -0.143654 0.091533 -0.160892 -0.078414 0.102649 0.083361 -0.011288 0.097266 -0.172141 0.153653 -0.031283 -0.176134 0.104492 -0.069682 0.026857 -0.000660 0.107127 0.137055 0.022231 0.037311 0.135971 0.050093 0.103995 -0.152881 -0.037920 -0.177761 -0.010379 -0.124909 -0.111112 -0.168961 0.073484 -0.064649 0.112689 0.102710 0.047054 0.025221 -0.004047 -0.154352 -0.067630 0.013930 0.189419 0.091204 0.027913 0.103793 -0.168595 -0.135347 -0.086984 0.128649 -0.188409 0.125405 -0.024195 0.137680 -0.014680 -0.110279 0.174916 0.137443 -0.097922 -0.025670 -0.177478 -0.018918 -0.003422 0.093247 0.106177 -0.081852 -0.001316 -0.036513 0.133332 0.181622 -0.001606 -0.123510 0.008568 -0.001282 0.157405 -0.153616 -0.087784 0.177998 -0.098846 0.015363 0.115189 -0.097184 -0.049393 -0.093671 -0.149574 0.126068 -0.017151 -0.165804 0.073586 0.074869 -0.000239 0.086186 -0.127304 0.185455 -0.017282 0.162507 -0.086516 0.169347 -0.064122 -0.143124 0.165591 0.124781 -0.080955 -0.015941 -0.066324 -0.110339 0.019908 0.036032 -0.121880 0.111834 -0.137544 0.185353 -0.175422 0.002380 -0.095876 -0.134879 -0.062030 0.072526 -0.109536 -0.180049 -0.046486 0.088372 0.097550 0.011588 0.075697 -0.110452 -0.015526 0.179282 -0.129637 0.109991 -0.153578 -0.152499 0.044707 -0.039133 0.015138 0.168901 0.039951 -0.149547 0.014959 0.108038 0.152412 0.065827 0.101972 0.166235 -0.121901 -0.189954 -0.157898 0.006543 0.069408 -0.079392 0.016825 -0.171148 -0.220177 -0.075244 0.041255 0.072447 0.006306 -0.109583 0.060527 0.064128 0.152787 0.104310 0.109152 0.031509 -0.261666 -0.074019 -0.302577 0.079954 0.001143 0.144309 -0.039700 -0.091394 0.046548 0.063118 -0.024880 0.123670 0.037439 -0.065538 -0.069989 -0.190386 -0.107024 0.155760 -0.223533 -0.082274 -0.130854 0.098749 -0.294004 0.054489 0.049678 -0.135413 -0.056415 0.038011 0.105552 -0.145140 -0.160261 0.182176 -0.033768 -0.374448 0.092319 0.145406 -0.039332 -0.233463 -0.165239 -0.173518 0.041820 -0.125875 0.114206 0.174123 0.114756 -0.244802 0.298634 -0.007430 -0.184169 -0.109115 -0.057488 -0.129697 0.068471 0.093826 0.139031 -0.014090 0.026184 -0.096744 0.120390 -0.081078 -0.098870 -0.179688 -0.073574 0.129866 -0.014992 -0.086067 0.060911 0.124869 -0.074337 0.134236 0.078353 0.173221 0.027547 0.125448 0.167738 -0.173772 0.124281 0.219783 -0.057071 0.249537 0.120265 0.056706 -0.163553 0.092169 -0.218457 0.133268 0.192005 -0.040563 -0.167189 0.145813 0.121843 0.022640 0.192063 -0.026020 -0.044401 -0.001107 -0.143885 0.186277 0.048282 0.099958 0.131336 -0.111526 -0.375416 -0.273781 -0.113290 0.045511 -0.310815 0.160447 -0.099456 0.283767 0.289790 -0.140017 -0.098023 -0.222755 0.000909 -0.039625 -0.261191 -0.075945 -0.295717 -0.013851 -0.129599 0.330347 -0.034286 -0.068363 -0.162607 -0.124057 0.106436 0.036675 -0.267869 -0.152956 0.031268 0.132980 -0.066225 0.341917 0.162745 0.002747 -0.123732 -0.213864 -0.032967 0.028947 -0.049031 -0.319904 -0.002279 -0.126683 -0.086963 -0.254933 0.372309 -0.072086 0.053435 0.166922 -0.044605 -0.216902 0.012477 -0.319773 -0.056687 0.133641 -0.232014 -0.029892 -0.086459 0.047854 -0.214840 -0.045526 0.004671 0.131221 -0.732980 -0.052510 0.087148 -0.033183 -0.097959 -0.015754 0.120269 -0.193810 -0.032532 0.223703 0.042691 0.086744 0.038842 0.060372 -0.090819 -0.101816 -0.097714 0.106332 -0.088192 0.435104 -0.355862 -0.146883 -0.025239 -0.026809 0.045386 0.181868 0.359498 -0.149189 0.013789 -0.082728 0.070214 0.076278 -0.017853 0.095823 -0.303870 0.039634 -0.313491 -0.187353 -0.193134 0.071653 0.037521 0.202512 -0.267767 -0.058612 -0.003851 0.362091 0.432409 0.123075 0.052033 -0.166468 -0.013786 -0.003208 -0.249019 -0.099874 -0.070478 -0.160159 -0.130547 0.239796 -0.147331 0.016632 -0.039300 -0.079715 -0.043080 0.073319 0.157296 -0.014463 -0.056135 -0.165286 -0.354872 0.093053 0.079374 -0.048539 -0.139096 -0.034833 0.282919 0.132650 -0.155272 -0.133463 0.000144 0.015728 -0.144815 0.041171 -0.268658 0.145055 -0.054165 -0.090600 0.098116 -0.000860 -0.085608 -0.141825 -0.125008 -0.099305 -0.197723 0.112278 0.235804 0.056773 0.066110 -0.172826 -0.162891 0.067148 -0.837325 -0.065156 0.321924 -0.008642 0.051008 -0.123702 -0.033339 0.022356 -0.181612 1.021309 0.202478 -0.018054 -0.187249 -0.084902 0.098386 0.135778 -0.106769 -0.156523 0.018821 0.127258 -0.183140 0.105562 0.069651 0.047573 -0.004618 -0.029394 -0.269463 0.065081 0.021421 0.197830 -0.084259 0.140892 -0.141043 0.153656 -0.038701 0.022189 -0.372600 0.028808 -0.248028 -0.048504 -0.097875 -0.102601 -0.122279 0.089960 -0.106256 0.067058 0.237433 -0.014875 0.026058 -0.138219 0.024678 -0.191798 -0.156029 -0.134782 -0.271829 -0.244941 0.005642 -0.019406 -0.076520 0.068172 0.030361 0.192504 0.120590 0.026881 0.255677 -0.131018 0.056027 0.167169 0.293200 0.006224 0.023862 -0.011953 -0.010382 0.003084 -0.310165 0.091260 -0.102899 -0.144567 -0.144257 -0.127460 -0.114613 0.196406 -0.056307 0.018026 0.191262 0.206008 0.139489 0.024322 -0.078798 -0.079754 -0.092761 -0.025345 -0.196908 -0.234612 0.135817 0.110814 -0.117881 -0.184106 -0.117560 -0.167696 -0.694340 0.041408 0.136876 0.063288 0.036854 0.020602 0.007486 -0.034119 0.063946 0.167631 -0.106683 0.172174 0.087601 -0.159020 0.074890 0.218739 -0.111540 0.208353 0.257464 0.012305 -0.059453 -0.049545 -0.182928 -0.118375 -0.192983 0.086220 -0.308842 -0.045497 0.093803 -0.107371 0.015819 -0.152860 0.027086 0.159732 0.057725 0.056336 -0.155775 -0.073519 0.094561 -0.181352 -0.237749 0.219217 0.179679 0.128644 -0.096771 -0.062289 0.067585 0.014082 0.008620 -0.164715 0.078857 -0.047260 -0.063654 -0.045605 -0.007147 0.049614 -0.135828 -0.006049 -0.006716 0.078474 -0.219320 -0.099847 0.185722 0.005144 -0.184105 0.109254 0.230995 0.031281 0.252959 -0.073027 0.073947 -0.085605 -0.016528 -0.055055 -0.365639 0.105570 0.134079 0.183846 -0.115377 0.221506 -0.158512 0.023849 -0.015224 0.006632 0.083147 -0.113262 0.042828 0.098967 -0.152726 0.212874 0.105508 -0.173365 -0.067445 -0.013481 -0.097474 -0.016888 0.012643 -0.044340 -0.053874 0.115523 -0.410795 0.041343 -0.027778 -0.012192 -0.291717 0.109723 -0.171283 0.156371 -0.092157 -0.314313 0.071357 0.169111 0.039970 -0.221030 0.048510 -0.163377 -0.097701 -0.055105 -0.207748 -0.117410 -0.082663 0.164563 -0.008896 -0.095844 0.017515 0.129489 -0.263878 -0.148357 -0.077169 0.116972 0.122402 -0.066816 -0.073318 0.062444 0.136653 -0.050659 0.010379 0.166141 0.006194 -0.142779 -0.142695 -0.065288 0.055772 0.214069 -0.054289 -0.132241 0.104623 0.038600 -0.147295 0.008245 0.126816 -0.070046 0.104581 -0.171594 -0.343462 0.059428 0.141610 -0.104189 -0.095785 -0.112053 0.068108 -0.130961 -0.027040 -0.073252 -0.186420 -0.161575 0.133689 -0.052683 0.405040 0.133822 0.021018 -0.061010 -0.074571 -0.036715 -0.360951 0.067899 0.022666 -0.069236 -0.095929 0.142810 -0.169349 -0.107181 -0.055510 0.129246 -0.084202 0.005201 -0.017226 -0.125975 0.183693 0.166228 -0.009768 0.147041 -0.008824 0.118512 -0.135249 0.151659 0.185660 -0.189172 -0.020925 0.170103 -0.224726 0.058299 -0.293922 -0.013845 -0.256929 -0.051469 -0.152442 0.126553 -0.128278 -0.377224 0.150853 -0.071082 0.021449 0.092937 -0.060250 0.019311 0.026963 -0.018777 -0.186874 -0.126631 -0.140487 0.114300 0.018641 0.172864 -0.026883 0.081332 0.132492 -0.037714 0.089947 -0.146564 -0.066287 0.151133 0.153494 0.013772 -0.048921 -0.115279 0.134845 0.011566 -0.182976 -0.100549 0.171949 0.077370 0.051378 -0.002737 0.017012 0.149108 -0.084756 -0.148654 -0.073762 -0.067684 0.057259 -0.054066 0.145532 -0.142224 -0.099010 -0.068975 0.129257 -0.136140 0.078856 0.027960 -0.092244 -0.177757 -0.010860 -0.117727 0.013142 0.131824 -0.043783 -0.028859 -0.057205 0.010780 0.060519 -0.064724 -0.144246 -0.068149 0.133637 0.062884 -0.111285 -0.147496 0.104343 0.005771 -0.017024 -0.028480 0.140302 -0.063563 0.019360 -0.115640 0.053030 -0.042397 -0.064582 -0.058119 0.177264 0.034388 -0.042048 -0.023827 0.106337 0.171774 -0.082118 -0.127165 -0.044912 0.061228 0.030010 -0.176881 0.187796 0.075870 -0.069734 0.117443 -0.051416 0.020971 0.155527 -0.136010 -0.153748 -0.049072 0.024075 0.168350 0.079395 -0.147209 -0.141561 -0.058513 0.002235 -0.016301 0.089046 -0.007996 -0.169463 -0.162001 0.154191 0.125083 -0.167850 -0.116565 0.188018 -0.037398 0.134784 0.027767 -0.024577 0.131296 -0.082491 0.109849 0.071476 0.052308 -0.061504 0.027861 0.106738 -0.039522 0.168238 -0.058980 -0.056660 0.060768 -0.016535 -0.008172 0.190126 0.173598 0.165826 0.073289 -0.032118 0.184148 0.101227 -0.056864 0.119110 0.110935 0.011242 0.112951 -0.116407 -0.041262 -0.045221 0.049182 -0.072058 0.058487 -0.033614 0.148809 -0.087590 0.094539 -0.013449 -0.164183 -0.129939 -0.032536 -0.034700 0.003519 -0.165181 0.142918 0.185262 -0.165430 0.124516 0.161201 0.101766 -0.090640 0.155205 0.009992 0.039997 0.084207 -0.069433 -0.136057 0.011106 0.003871 0.006005 0.153967 -0.137288 0.102835 0.023653 0.019236 0.062727 0.135169 -0.075837 -0.141789 0.161231 -0.000484 0.013748 -0.062319 0.176635 0.039480 -0.108499 0.173299 0.064394 -0.175886 0.144234 -0.025021 -0.080734 0.102978 0.172115 0.149261 0.003555 -0.086960 -0.184479 -0.174223 0.111966 0.018350 0.158154 0.160316 0.114384 0.001632 -0.011536 -0.161012 -0.051407 0.102462 -0.039815 -0.077277 -0.025375 0.058974 0.003904 -0.117312 -0.085765 0.111393 -0.024233 0.140153 0.184132 -0.199137 -0.061001 -0.039342 -0.002130 -0.065895 -0.114950 -0.063371 0.038425 -0.167863 -0.099141 -0.035245 -0.025219 -0.111609 -0.079727 0.151762 -0.048285 0.086038 0.182308 -0.078178 0.010600 -0.139978 0.018066 0.098054 0.061877 -0.146242 -0.047101 -0.273113 0.168101 -0.148416 0.172215 0.089337 -0.198156 -0.052234 0.135397 0.169482 0.056912 0.163170 -0.080730 -0.088292 -0.128715 0.061516 0.043829 0.054096 0.228211 0.146145 0.045119 0.170088 0.063103 0.025628 -0.155395 -0.110743 0.059995 -0.005119 0.156706 -0.021508 0.090894 0.184622 0.325922 0.074111 -0.097842 0.024143 -0.141385 -0.140167 0.097065 -0.088554 -0.029716 -0.076072 -0.094459 -0.028411 0.066624 -0.041696 -0.180063 0.040672 0.147681 -0.171076 -0.107720 -0.021819 0.098228 0.218460 0.027702 0.050241 -0.110339 0.123656 -0.015818 -0.175572 -0.068044 0.226547 0.200211 0.120709 0.130904 0.191629 -0.128442 0.130462 -0.006263 -0.205420 -0.160993 -0.183269 -0.071529 -0.125723 0.233878 0.016990 0.003313 0.290528 -0.009957 0.026648 0.097968 0.131246 -0.161721 0.018976 0.001000 -0.170811 -0.298771 0.308403 0.109733 0.142192 0.132826 -0.125850 0.145076 0.132141 0.178864 -0.035976 -0.082654 -0.137933 -0.154946 0.096170 -0.021635 0.041328 0.176181 0.077470 0.058745 0.032379 -0.021196 -0.017920 -0.142646 -0.104109 0.097474 -0.174895 -0.173357 -0.083135 0.160065 0.089938 0.158159 0.081620 -0.118363 0.085535 0.108745 -0.261216 -0.176332 0.060668 0.148293 0.174311 -0.267838 0.009197 -0.222332 -0.128044 -0.030070 0.027245 -0.221173 -0.118668 -0.271943 -0.084310 -0.010593 0.104051 -0.051409 0.169697 -0.208307 -0.210689 0.119240 -0.233376 -0.049506 0.219665 0.080239 -0.314954 0.076764 -0.075712 -0.316763 0.129096 -0.111358 -0.236536 0.031371 -0.135262 -0.064900 -0.001852 0.263648 -0.123774 0.101739 0.151115 -0.008956 -0.043481 0.048905 -0.022531 -0.001766 0.054695 -0.062855 -0.100665 -0.009058 -0.176211 0.144861 -0.020255 -0.158726 -0.131913 -0.139695 -0.090595 0.000729 0.180024 -0.186989 0.074550 0.020132 0.009058 -0.051829 0.147157 -0.018955 0.235719 -0.118166 -0.020559 0.057144 0.105851 0.045400 -0.122583 -0.054215 -0.045903 -0.051335 0.140255 0.124219 0.049889 -0.298725 0.272399 0.065657 0.229427 -0.098445 0.189205 0.352433 0.042661 0.208018 0.075725 -0.038462 -0.161821 0.085492 -0.148603 -0.108530 -0.063647 0.146952 0.021674 -0.118217 -0.121481 0.198265 -0.001719 -0.123089 -0.072233 -0.037848 0.084653 -0.036958 0.085018 -0.112653 -0.049142 0.044873 -0.023192 -0.028144 0.226741 0.224631 -0.086543 0.277975 0.036935 0.073480 0.080116 0.019161 -0.095187 0.002483 0.121088 -0.038977 -0.030866 0.108897 -0.137876 0.119143 0.208859 -0.133641 0.122355 0.155150 0.122207 -0.067183 0.025707 -0.170909 0.083717 0.158017 -0.037133 -0.112471 0.163374 0.163352 -0.082878 0.010769 -0.072189 0.078423 -0.033818 0.322501 -0.015733 0.058347 -0.028839 0.104073 0.036216 -0.027652 -0.065376 0.161750 -0.016128 -0.271840 0.123273 -0.333980 -0.051298 -0.040221 0.125156 -0.004458 -0.003461 0.018870 0.123209 -0.087087 -0.104335 -0.081364 -0.137469 0.070827 -0.141636 0.066547 0.182313 0.071052 -0.118578 -0.133364 0.169505 -0.134528 -0.203189 0.011452 0.024824 -0.186509 -0.175298 0.399730 0.210758 0.008932 0.257676 0.081609 0.066549 -0.115866 -0.023178 -0.024090 0.181948 0.180063 0.021568 0.307779 -0.190611 0.091922 0.143275 -0.024465 0.149441 0.315479 -0.172967 0.178407 -0.122021 -0.047727 -0.185869 -0.054726 0.212893 -0.111752 0.051136 0.031927 -0.068281 0.071636 -0.012818 -0.079185 0.133959 -0.019764 0.133861 -0.022496 0.120685 0.036788 0.126339 -0.206222 0.063005 -0.092939 -0.042584 0.192956 0.166549 -0.046778 -0.275229 -0.085392 -0.188925 -0.271332 0.024213 0.139534 -0.092974 0.062273 0.077524 -0.083601 0.223453 0.060384 0.038249 -0.013003 0.097757 0.338227 0.145609 -0.208883 -0.183341 -0.107250 -0.018572 0.132266 -0.006574 -0.011766 -0.074041 -0.191684 0.120093 0.170264 -0.007849 0.032221 0.008619 -0.046452 -0.126900 -0.070765 0.322472 0.112718 0.048206 0.246251 -0.044987 -0.039303 -0.173716 0.006121 0.027763 0.023607 0.143601 0.276268 -0.057044 -0.153069 0.338380 0.026302 0.144241 -0.009742 0.030302 0.125791 -0.154921 -0.097544 0.075341 0.083139 0.137560 -0.128281 0.183231 -0.150679 0.149493 0.150657 -0.066863 0.260753 0.095494 0.160643 -0.026857 -0.118922 -0.087003 0.206803 -0.025880 0.093271 -0.089853 0.015583 0.053905 0.041583 -0.026881 0.006990 -0.085209 -0.160800 -0.022840 -0.268421 0.069610 -0.110496 0.036037 -0.214861 -0.116332 -0.183031 -0.052649 -0.009499 0.226294 -0.437884 -0.166800 0.038137 0.067425 -0.197946 -0.183996 0.124387 -0.105123 0.159825 -0.013780 0.166223 0.052347 0.156461 -0.029235 -0.018527 -0.047455 0.087083 -0.115931 -0.017102 0.110707 -0.027580 0.004279 0.120860 0.061886 -0.358763 -0.046233 0.134413 -0.029805 0.079789 -0.016673 -0.158417 0.024720 -0.124368 0.068021 0.050806 -0.064887 -0.102148 -0.130653 -0.129235 0.131775 0.085695 0.129321 0.063986 -0.055881 0.296895 0.169804 -0.040670 0.066974 -0.153655 0.188819 -0.073057 -0.061057 0.034110 0.100373 -0.173782 0.065299 -0.093176 0.028549 -0.140655 0.243681 -0.166307 -0.083310 -0.008233 0.162612 0.153160 0.130980 -0.080423 -0.137939 0.007028 0.153936 -0.158676 -0.038680 0.100665 0.017099 0.145482 -0.133616 0.052189 0.017688 0.203450 0.047864 -0.080263 -0.026162 0.002757 -0.173376 -0.024696 0.170759 0.137268 0.053103 -0.173621 0.180747 -0.202406 0.197241 -0.114225 0.163779 0.072705 -0.096227 -0.060254 -0.057219 -0.139632 0.109297 -0.238409 -0.366352 -0.156214 0.009852 0.098428 -0.021553 0.012797 0.154309 0.075592 0.106641 -0.109551 -0.172533 -0.055649 -0.089311 -0.134679 0.016311 -0.123706 0.164542 0.108080 0.040510 0.045914 -0.121185 0.038336 0.174190 -0.093700 -0.009780 -0.145100 0.169739 0.051897 -0.086125 -0.003311 0.072845 -0.048832 0.028369 -0.126909 0.009212 0.021137 -0.187876 0.184012 -0.166504 0.191451 -0.083663 -0.147428 -0.174467 -0.005820 -0.105627 0.042912 0.048087 -0.123971 -0.014749 -0.052169 0.183409 0.118069 0.143442 0.089670 -0.286834 -0.050723 0.177826 -0.176700 -0.159172 -0.006210 0.010781 0.088863 0.041964 -0.151639 0.166644 0.186423 0.043710 0.079801 0.168950 0.082322 0.182547 -0.131042 0.092144 0.095735 0.019777 -0.161472 -0.096980 -0.080465 -0.099460 0.103443 0.020867 -0.106436 0.000876 -0.000038 -0.128836 0.078311 0.113260 -0.085430 0.053356 0.309204 -0.082942 -0.114490 0.021450 0.139515 0.063789 -0.108333 0.144302 0.163421 -0.010151 0.117858 0.017273 -0.132893 0.180645 -0.022264 0.130132 0.074897 0.032146 -0.100746 0.141438 0.104299 0.134945 -0.024166 0.188749 -0.049514 0.135826 -0.130229 0.180749 0.058780 -0.083271 0.044185 -0.009223 0.024103 0.107852 -0.179275 -0.016875 -0.169545 0.005403 -0.062175 0.179598 0.165706 -0.129676 0.040844 -0.156535 -0.138444 -0.163142 0.187482 0.087313 0.041401 -0.135797 0.038615 -0.044726 0.189264 -0.179796 -0.045329 -0.050363 0.146223 0.014560 -0.059731 0.014869 0.121389 0.174567 -0.185850 -0.044369 0.089544 -0.175035 0.128874 0.112195 0.020768 -0.123229 0.101745 -0.003643 -0.062066 -0.045690 0.029924 -0.010517 -0.020009 0.027312 -0.112072 -0.168760 0.081623 0.115527 -0.022603 0.080772 0.125901 0.122373 -0.159710 0.081976 -0.053015 -0.029361 -0.093270 -0.122077 -0.045115 -0.089012 0.023973 -0.142689 -0.073909 -0.037498 0.159536 0.139294 0.029091 0.071643 -0.052996 0.157142 -0.164353 0.163263 -0.043413 0.004389 0.000406 0.034176 0.025658 -0.108440 -0.041149 -0.187095 0.162851 -0.105296 0.124390 -0.186439 0.168532 -0.122852 -0.039764 -0.112335 0.023880 0.122538 -0.015587 0.170064 0.168111 0.100636 -0.047432 0.137288 0.064330 0.157868 0.193243 0.174944 0.284747 0.071914 0.164501 -0.114824 -0.134059 -0.028958 0.094094 0.087404 -0.033408 -0.118949 0.071658 0.018304 -0.025950 0.008861 0.032999 -0.054285 0.109163 0.199781 0.012955 -0.151815 0.121037 -0.192031 -0.193558 0.083841 0.103230 -0.056615 0.073789 -0.041999 -0.066610 -0.135584 -0.124203 -0.168516 0.097435 -0.093297 -0.084833 0.143652 0.048901 -0.160329 0.008659 -0.013494 -0.091219 -0.093359 0.130761 0.055401 0.097121 -0.035339 -0.183397 -0.055716 0.003875 0.023909 0.016984 -0.081210 0.022481 0.033142 0.197797 -0.060891 0.134451 0.020290 0.080299 -0.122957 0.059779 -0.148665 -0.113075 -0.030410 0.016084 0.021333 -0.114545 -0.170978 0.031168 0.141168 -0.062142 0.102965 -0.128588 -0.087305 0.012069 0.182174 -0.098017 0.017099 -0.039023 0.183199 -0.145038 0.149396 -0.157420 0.050906 0.050636 -0.198278 0.113889 0.034767 0.050306 0.093958 0.081507 -0.066058 0.129917 0.178987 0.098213 -0.106902 0.100619 -0.217971 -0.179003 -0.184143 0.267627 0.017819 0.171424 -0.143672 0.092595 0.077346 0.127734 -0.062029 -0.346047 -0.027421 -0.044564 -0.022403 -0.068895 -0.059280 0.082236 0.139749 0.192883 0.105694 -0.038002 -0.183808 0.232228 -0.180901 0.068331 -0.068026 -0.155947 -0.052062 0.066894 -0.008555 0.051830 0.058329 0.061601 -0.179555 -0.135561 0.018972 -0.049520 0.172358 -0.009128 -0.010566 -0.165168 0.244276 0.098863 -0.061591 -0.163320 -0.258752 0.170381 0.150853 -0.181458 -0.187115 0.197046 -0.073982 -0.101111 -0.013141 0.018261 0.124811 0.170906 0.077898 -0.142319 0.182447 -0.185377 -0.026693 0.003235 0.103666 0.103241 0.074764 0.001900 -0.049960 -0.083057 -0.198338 0.091935 -0.001493 -0.057837 -0.010516 0.101653 -0.112414 0.027532 0.048756 -0.164631 0.172479 -0.013006 0.130341 0.018683 0.080918 -0.106828 0.058814 0.176332 -0.007889 -0.132607 0.134917 0.019771 -0.122985 -0.043755 -0.016636 0.140613 -0.097396 0.199616 0.164425 -0.078322 -0.125439 0.208169 0.147725 0.042765 0.121066 -0.055691 -0.093277 -0.092168 0.163222 0.102992 -0.200381 -0.094202 -0.038749 0.055842 0.047945 -0.183086 0.127848 0.008849 0.037128 0.091243 0.021288 -0.055620 -0.070484 0.205852 0.026394 -0.102700 -0.156067 0.183313 -0.081446 0.019210 -0.111616 -0.081768 0.161008 -0.050260 -0.107680 0.137531 0.072885 0.138600 0.043778 0.037339 0.131432 0.151712 0.200364 -0.180432 0.141686 -0.051310 -0.198340 0.137785 0.023606 0.140482 -0.130578 0.294365 -0.123309 -0.054126 -0.187415 -0.153145 0.049172 -0.064403 0.217342 0.120239 -0.135451 -0.222924 -0.106331 -0.160176 -0.007553 -0.287131 0.017666 0.224143 0.076520 0.016926 0.021250 -0.122859 0.048443 -0.240675 0.069819 0.000651 0.204007 0.103178 0.008328 -0.191801 0.043330 -0.107447 0.222943 0.067365 -0.013572 0.327551 0.111401 -0.057218 -0.256592 0.045107 0.191639 -0.111600 -0.167433 -0.019153 -0.012354 0.030212 -0.126358 -0.038156 -0.058543 -0.021744 0.020471 0.126490 -0.203490 -0.099274 -0.169901 -0.087339 -0.033209 0.295242 -0.014713 -0.026272 0.012256 0.103696 0.084930 -0.229450 -0.037508 -0.159309 -0.141164 -0.131026 -0.185721 0.038388 0.183411 -0.111083 0.001243 0.122150 -0.055840 0.016840 0.072502 0.064757 0.166113 0.037531 -0.099405 0.088264 0.139833 0.040226 -0.053860 -0.124955 0.159269 -0.157434 0.106716 0.056553 0.072640 -0.192370 0.050168 -0.128545 0.057816 -0.190768 -0.197608 -0.057533 0.003034 0.102700 0.228871 0.226333 0.118776 0.057726 0.115884 -0.013026 -0.091133 0.109511 -0.102027 -0.046864 0.135691 -0.189285 0.003589 -0.076387 0.132341 -0.025099 0.109323 -0.320969 -0.023615 0.138923 -0.026843 -0.238198 0.205689 -0.016479 -0.165804 -0.000728 0.241906 0.047603 0.168413 -0.160704 -0.362455 0.141597 -0.088323 -0.026282 -0.113621 -0.064780 0.023417 -0.121034 0.088473 0.018738 0.061364 0.202919 -0.125935 -0.048929 0.036327 0.138045 0.081295 -0.040182 -0.118221 -0.092647 0.027544 0.264449 -0.158288 -0.022390 -0.030769 -0.044379 -0.057305 -0.011312 -0.176885 -0.078597 0.084273 -0.103606 -0.122031 0.056876 0.136055 -0.064346 0.171945 -0.026802 0.081484 -0.013023 0.115457 0.015803 0.001547 0.174174 0.099852 0.104532 -0.016101 -0.020347 0.160282 0.019571 -0.031931 0.284459 -0.152210 -0.169120 0.271270 0.098347 0.156110 -0.168600 -0.047037 0.216005 -0.000459 -0.176959 0.060250 -0.004870 -0.100705 0.182553 0.132721 -0.160805 0.013017 0.167622 0.008006 0.378606 -0.023864 -0.069761 0.042564 -0.097655 0.167011 0.214101 -0.007433 0.083484 -0.044471 -0.007152 0.025164 -0.043012 0.065829 -0.145304 0.051535 0.022345 0.072194 -0.038569 -0.026277 0.161325 0.073211 -0.002126 0.138794 0.051687 -0.004969 -0.078576 0.244075 -0.194611 -0.051687 0.060673 0.183539 -0.017437 0.048481 -0.106520 -0.181103 0.099488 -0.119054 0.032822 0.052519 0.261887 0.080641 -0.033337 -0.101542 -0.095806 0.125600 0.041790 0.033377 -0.086413 0.026966 0.260138 -0.134843 -0.193001 -0.076673 0.155029 -0.059195 0.096469 -0.179350 -0.095609 0.102392 -0.215044 0.148788 0.118560 -0.046475 0.078738 -0.156172 -0.084013 -0.016539 -0.005308 0.151239 -0.110531 0.151366 0.081489 -0.024891 -0.051789 0.180755 -0.077174 -0.018690 0.038950 -0.006224 -0.018779 -0.068457 -0.233525 -0.226116 0.109785 -0.088284 -0.021931 0.059567 0.100795 0.095830 -0.030681 0.044454 0.025839 -0.053435 0.068640 -0.044160 -0.063751 0.142499 0.132483 0.053278 0.164145 0.109214 0.026088 -0.015246 -0.012002 0.027761 0.031430 0.099169 -0.063833 -0.001965 0.080143 -0.070117 0.186637 0.126037 0.251366 0.135285 -0.027644 0.141396 0.013658 -0.060591 0.058592 0.171578 0.122861 0.149542 -0.114732 0.025644 -0.002257 0.078540 -0.159127 -0.080235 -0.100576 -0.143728 -0.097960 0.105322 0.000661 0.119991 0.051073 0.010528 -0.032956 -0.070718 -0.028643 0.069864 0.089884 -0.099243 0.000622 -0.131460 0.131959 -0.002297 -0.273457 -0.131798 0.112131 0.030475 -0.190836 0.019252 0.177591 -0.032963 -0.237812 -0.094932 0.189103 0.000413 -0.097413 -0.102085 0.071153 0.175737 0.161724 -0.179882 0.042170 -0.074594 0.125326 -0.120715 0.046116 0.055558 0.141023 -0.060249 0.181867 -0.069164 0.003791 0.033394 0.197701 -0.003439 0.126233 0.071466 -0.061718 -0.169402 -0.074150 0.117122 -0.021397 -0.017378 -0.016603 -0.020469 0.149279 0.014697 0.066389 0.024957 -0.022943 0.010441 -0.052651 -0.148414 0.179614 -0.103293 -0.076495 -0.012731 0.116291 -0.183466 0.162681 0.025501 -0.082295 -0.034538 -0.094414 -0.059884 0.151586 0.170969 -0.124136 0.179992 -0.246658 -0.059951 0.098131 -0.018573 0.186963 0.125105 0.165844 0.083558 -0.053770 0.331505 -0.101001 0.125323 -0.080627 0.141781 0.122212 -0.130176 0.167510 -0.113740 0.093449 0.105264 -0.034241 0.072037 -0.037525 0.115157 -0.148052 -0.016356 -0.134771 -0.177536 -0.026095 -0.084364 -0.184327 -0.024183 0.058195 0.111597 0.150148 -0.025352 0.026886 0.097644 -0.163687 0.176264 -0.066404 -0.036107 0.102980 0.029901 -0.104637 0.071730 0.095075 -0.121569 0.156254 0.029069 0.154480 -0.106363 -0.083147 -0.112083 -0.173857 -0.014579 0.058397 -0.093306 -0.013251 -0.166199 -0.012822 -0.014977 0.005727 -0.134554 -0.092054 -0.044897 0.021378 0.129200 -0.111131 0.057726 0.117962 -0.002403 -0.140031 0.033929 -0.243252 -0.046421 -0.086136 0.109325 0.014273 -0.119765 -0.045854 -0.033534 -0.027974 0.068848 0.066462 -0.031220 -0.135458 -0.069894 0.069947 0.034652 -0.035588 -0.125045 -0.186965 0.163898 -0.063737 -0.086987 -0.079637 0.139459 -0.154806 -0.014914 0.015297 0.157785 0.127224 0.090363 -0.049731 0.182676 -0.152623 0.100440 0.119206 0.084308 0.165987 -0.120802 -0.146443 -0.059691 0.117785 0.087205 0.096739 0.178933 -0.169767 -0.021377 0.008252 -0.004952 0.041433
0.149442 -0.017114 0.040857 0.032121 0.177449 0.018138 0.149417 -0.208172 -0.070951 -0.136829 -0.127713 -0.117658 -0.010767 -0.053651 0.125265 -0.075867 -0.003427 0.268073 0.193079 -0.280981 0.176765 -0.056757 0.064828 0.093519 -0.133483 0.093657 0.036892 0.015332 -0.011879 -0.052543 -0.051356 -0.028198 0.517479 -0.043527 0.050106 -0.031032 -0.014869 0.001812 -0.271283 -0.131767 0.012366 0.086136 -0.147985 0.096583 0.122571 -0.005386 0.014047 0.172495 -0.029358 0.090485 0.073275 -0.123814 -0.102830 0.093137 -0.102864 -0.117448 0.035213 0.157105 0.036098 0.167440 -0.071190 0.064560 0.058808 -0.140549 0.164851 -0.007041 -0.017659 0.229484 -0.148673 -0.155549 -0.028536 -0.026767 -0.090554 0.083642 0.009029 0.144633 -0.064567 -0.145316 0.052017 0.026180 0.124752 -0.015585 0.180438 -0.140705 -0.050114 0.161515 -0.111921 0.102349 0.105949 0.119119 0.005777 -0.114746 0.000440 -0.020735 0.001322 -0.009242 -0.001622 0.005512 0.099505 0.033500 -0.144915 -0.123725 0.125247 -0.035403 0.218471 -0.140485 -0.079952 -0.083169 -0.099998 -0.204393 -0.016127 -0.103306 0.000555 0.032298 -0.000839 0.011119 0.018190 -0.002218 0.103939 -0.040631 -0.053831 -0.084935 -0.000623 0.047293 0.012763 -0.020632 0.059310 0.016196 0.025794 0.012065 0.073628 0.073053 -0.011903 0.036867 -0.184932 0.034771 0.038435 -0.201120 0.026765 0.157823 -0.024021 0.008962 0.061996 0.230767 -0.041460 -0.147044 -0.048417 0.105968 0.018129 -0.162711 -0.053081 -0.230488 -0.018029 -0.145992 0.022811 0.850846 -0.013257 -0.037359 -0.110635 -0.265707 0.122368 0.022431 0.017753 0.291160 0.443525 -0.060151 0.030726 -0.053197 -0.285197 -0.406728 -0.003807 0.005470 0.003455 0.022202 -0.000140 -0.001026 0.002891 0.002032 -0.061771 0.029223 0.122579 -0.007055 0.001803 -0.055173 -0.018259 -0.000417 -0.117016 -0.011896 0.049171 0.023610 -0.016498 0.103804 0.006451 -0.053634 -0.003858 0.031300 0.023358 0.008060 -0.156539 0.056084 -0.016571 0.199966 -0.016330 -0.090473 0.005558 -0.036288 0.009870 -0.027285 0.037845 -0.063313 0.194566 -0.028192 0.000986 -0.119940 0.013152 0.045609 0.005030 0.059013 0.083909 0.025645 -0.036413 0.069819 0.000634 -0.050025 -0.004619 -0.016025 0.037697 -0.014107 0.061908 -0.050623 0.029484 -0.028970 -0.004471 -0.087448 0.006779 -0.011456 -0.024957 -0.008958 0.238632 -0.110781 0.072064 0.021056 -0.016295 0.041283 0.150136 -0.125438 0.110994 0.050774 0.153256 0.058457 -0.000234 -0.114038 -0.000982 0.006432 0.006509 -0.013664 -0.000513 0.007655 0.089838 0.023392 0.070973 0.060483 -0.008888 0.004752 0.013734 -0.062478 -0.032438 -0.014581 0.062070 -0.104376 0.038561 0.046293 -0.067843 -0.219854 -0.132254 -0.094824 -0.175153 -0.154565 0.171892 0.152350 0.075799 0.143043 -0.109136 0.019964 -0.122648 0.121902 -0.169735 0.095316 0.168113 0.051471 0.025997 -0.089917 0.003501 -0.072154 0.002448 0.057079 0.010518 0.000397 -0.034941 0.093732 0.014059 0.157204 -0.020378 0.015339 0.100810 0.044024 -0.170104 -0.246302 0.174855 0.132118 -0.530216 0.154479 0.012098 -0.012847 -0.002247 0.106460 -0.279300 0.016601 0.387501 0.131800 0.004152 -0.103737 0.003335 -0.050141 0.011788 -0.004273 0.003983 0.005796 0.188622 -0.055950 0.039688 -0.173945 -0.003907 -0.121734 -0.008426 -0.004233 -0.176154 0.063084 0.191212 0.163502 0.010976 -0.022469 0.000507 0.026095 -0.002943 0.009783 -0.005634 0.009377 -0.093762 0.067408 0.357794 0.160269 0.011842 0.047311 -0.853821 -0.066461 0.292881 0.203330 -0.133752 -0.034453 -0.124641 0.049160 -0.142672 0.006551 -0.165131 -0.042881 0.157457 -0.091085 -0.068278 -0.003611 0.007703 0.067096 -0.001622 -0.038826 0.000563 0.015869 -0.006632 0.006353 -0.070762 0.024100 0.098432 -0.112152 -0.096474 -0.234759 0.005855 -0.106215 -0.157611 -0.049485 0.320192 -0.081523 0.064057 0.052123 -0.143315 -0.093282 -0.025038 -0.130244 -0.021576 -0.112291 -0.106636 -0.011471 0.022425 -0.027265 -0.143736 -0.012670 0.245944 0.143902 -0.138802 -0.139946 0.157801 -0.036185 -0.198327 -0.126448 -0.003529 0.044716 -0.003800 0.007923 0.139015 0.004232 0.102342 0.033108 -0.152390 -0.181070 0.026873 -0.135962 -0.106501 0.122760 -0.107127 0.054580 -0.187522 -0.029878 0.022566 0.231045 -0.001179 0.072283 -0.007794 0.021541 -0.000875 0.026095 -0.465046 0.095710 -0.017333 0.135870 0.070135 0.107960 0.076966 0.017849 -0.021811 0.121738 0.049036 -0.199155 0.027061 0.137615 -0.499296 0.138446 0.034330 0.032107 -0.044620 0.033917 0.176363 -0.034061 -0.428931 -0.208596 0.002188 -0.057172 0.002837 0.026105 0.674858 -0.009175 -0.062184 0.030199 -0.149941 -0.193518 0.084643 0.195873 0.176718 -0.086782 0.032077 0.042811 -0.187781 0.190012 0.092154 0.089891 -0.041508 0.077044 0.171817 -0.130995 0.100266 0.101591 -0.130830 0.063081 0.146733 -0.076837 0.135341 0.001366 -0.061898 0.176200 -0.137591 -0.155033 -0.148143 0.107458 -0.106623 -0.022203 -0.003026 0.048608 -0.005267 0.023879 0.038056 0.009982 -0.052884 0.072313 0.034213 0.262161 -0.011411 -0.015130 0.007468 -0.008178 -0.014845 -0.000730 -0.193067 -0.061463 -0.033271 -0.149347 0.054081 -0.108003 0.075011 -0.148981 -0.194128 0.106540 -0.091881 -0.109977 -0.052832 -0.109651 -0.025753 -0.075650 0.348015 0.296192 -0.014447 -0.080544 -0.060739 -0.328565 0.049640 -0.051652 0.001277 0.118418 -0.009894 0.049238 -0.005112 0.014766 -0.077968 -0.088667 0.088207 0.046335 -0.122733 -0.072637 0.073594 0.162536 -0.106683 0.149825 0.104600 0.005787 -0.075488 -0.076977 0.050014 0.051010 0.019988 -0.008132 -0.003513 0.044371 0.125272 -0.122916 0.236051 0.182594 -0.062579 -0.140231 0.043480 -0.106196 0.079824 0.081178 -0.000298 -0.164357 -0.038498 0.459441 0.001569 -0.047833 -0.002302 -0.027754 -0.000888 -0.007268 -0.302086 -0.041680 0.017612 -0.040356 0.003579 0.057552 -0.006477 0.023678 -0.027576 0.018871 -0.168540 0.115537 -0.004903 -0.123908 0.178433 -0.075358 0.053431 -0.001561 -0.007777 -0.018007 -0.107194 0.110978 0.041400 -0.145526 0.034065 -0.109507 -0.000302 0.179341 -0.010452 0.077884 0.078371 0.132967 -0.000513 0.138354 0.000608 -0.003318 0.003623 0.002925 -0.003208 0.008131 -0.103709 -0.044870 0.009993 0.130403 0.032307 0.079497 0.079313 -0.013518 0.002768 -0.536247 0.164279 0.037699 0.002734 -0.003123 -0.055041 0.141034 0.038870 0.098140 -0.071464 -0.017695 -0.089456 0.049281 -0.012816 -0.012575 -0.001413 0.057537 0.055042 -0.066540 -0.040792 0.101334 -0.112325 -0.100445 0.011066 -0.048667 0.004485 -0.005712 -0.006492 0.009174 -0.014830 0.003041 -0.026014 0.072652 0.195418 0.001568 -0.111003 -0.018248 -0.116400 -0.178423 -0.076965 -0.178081 -0.013472 -0.193663 -0.048703 0.084144 -0.075052 0.000931 -0.066993 0.048602 0.090598 0.020914 0.093747 -0.162479 0.012205 0.023835 -0.007681 0.059467 -0.005537 0.014643 -0.017054 0.006825 -0.135196 0.044841 0.067414 -0.205943 -0.005000 -0.006065 0.000129 0.019825 -0.056559 -0.005132 0.166364 0.010817 -0.006468 -0.051215 -0.000627 -0.048453 0.004843 -0.022595 -0.003022 0.004078 0.091265 0.021960 -0.001254 -0.059195 0.199122 0.075504 -0.080785 0.063107 0.135061 0.030927 -0.155240 -0.006382 -0.048253 0.343905 0.002344 0.155598 -0.013204 0.083424 0.016728 0.035692 0.141552 -0.711741 -0.119316 0.005016 -0.088715 -0.113486 0.097860 0.129079 -0.009880 -0.142526 -0.044536 -0.108177 0.102031 0.132551 0.009769 0.011376 0.019499 -0.029186 -0.062120 -0.006266 0.014149 -0.188433 0.034838 0.000107 -0.004264 0.025736 0.143069 -0.108303 -0.019610 0.074105 0.101340 -0.220332 -0.013633 -0.130845 -0.009355 -0.088429 0.013083 -0.121211 -0.001169 -0.032616 -0.258426 0.650733 -0.017859 -0.049494 0.002426 0.103929 0.004085 -0.004821 -0.033195 0.047020 -0.250693 0.183398 -0.005850 0.249338 0.002887 -0.019555 -0.001344 0.022383 0.013214 0.006793 -0.317200 0.043079 0.119590 -0.083292 0.001106 0.020997 -0.128249 0.100125 0.062770 -0.058149 0.126057 -0.094014 -0.021820 0.243789 0.001825 -0.028307 0.003511 -0.025114 -0.000115 -0.017078 -0.076387 -0.081056 0.012834 0.157381 0.145205 0.056105 0.005202 -0.026863 0.075085 0.076847 -0.215938 -0.173262 0.005648 -0.199588 0.008728 0.155347 -0.007889 0.029542 -0.031261 0.004850 0.014765 0.026452 0.125741 -0.055548 -0.140066 -0.016283 0.150972 -0.085776 0.140523 0.055872 0.062028 -0.071110 -0.009086 -0.069833 -0.002632 -0.014518 -0.008126 -0.003310 0.010447 -0.000240 0.037017 0.061628 0.032330 0.107456 0.006713 -0.801324 -0.022376 0.120888 -0.013879 0.045528 0.279263 0.250916 0.030436 -0.340228 0.010059 0.090659 -0.007570 0.068672 0.011996 0.010041 0.155370 -0.037300 -0.024976 -0.172151 0.015408 0.016232 -0.021379 -0.009535 -0.001361 -0.143465 0.350522 -0.001131 -0.109795 0.061664 -0.174775 0.049244 0.052655 0.000835 -0.003175 0.088722 -0.138956 0.035938 0.024176 0.105662 0.035565 0.070066 0.068520 0.022318 -0.008647 -0.551106 0.160309 0.053561 0.084510 -0.097831 0.019475 0.021142 -0.092826 0.002476 0.046303 0.263870 -0.174586 -0.044826 -0.009445 0.132722 0.003377 0.024710 0.001280 -0.012324 0.011555 0.005647 -0.182726 0.032799 -0.148510 -0.166175 0.156168 0.077515 -0.117612 -0.054466 0.016508 0.157439 0.000678 0.058962 0.051038 0.123415 -0.094138 0.085772 -0.068184 -0.043898 -0.148598 -0.069422 0.137945 0.035833 -0.026842 -0.216846 -0.002656 0.732445 0.009875 -0.082917 0.014667 -0.060295 -0.163280 -0.218571 0.021884 -0.148556 -0.001750 -0.041099 -0.010731 0.003838 -0.011726 0.001655 0.174687 0.012549 0.167632 0.045417 0.001763 -0.032484 -0.001729 -0.027463 -0.093198 -0.006945 -0.021605 -0.037932 -0.053933 0.187374 0.012836 0.002568 0.004241 -0.031825 0.042365 -0.002750 -0.160180 0.004391 0.002555 0.121687 0.000009 0.003106 0.000846 0.000825 -0.002513 -0.005123 -0.124976 0.003496 -0.141221 0.169277 0.032700 -0.075556 -0.103352 0.139390 0.064944 0.036938 -0.092371 -0.010734
