784 100 10
0.046674 0.014413 0.008870 0.024101 0.003653 0.052697 0.051058 0.064056 -0.032695 0.073192 -0.028432 0.059329 -0.002642 0.024872 0.014979 -0.069745 -0.081371 0.064984 -0.061213 0.078165 0.037964 0.062344 0.027219 -0.021786 0.065249 -0.019717 0.038681 -0.035483 0.040651 0.080262 0.034734 0.005033 0.012383 -0.038689 -0.053158 -0.066256 -0.068284 0.080192 0.080093 -0.018687 0.071092 -0.030632 -0.041651 -0.013842 0.076532 0.055620 -0.001295 0.077454 0.038312 0.019784 0.073327 -0.006016 -0.000164 0.018253 0.054490 -0.017207 0.080828 0.010879 0.029602 0.039187 0.008849 -0.017957 -0.038072 -0.061061 0.025647 -0.008938 -0.045025 0.039655 -0.011038 -0.047224 -0.061325 -0.022238 0.004436 -0.020683 0.046212 -0.001324 -0.047355 -0.037375 -0.006162 0.073249 0.064702 -0.015127 -0.015059 -0.017754 -0.079166 -0.042861 0.047331 -0.080630 0.050310 -0.005360 0.040849 -0.023133 0.058976 -0.079515 -0.001901 0.002331 -0.006160 0.035366 -0.040307 0.065094 0.070434 -0.019339 -0.039436 -0.007422 0.042270 -0.075516 0.073547 0.077207 -0.030598 -0.014907 0.068163 -0.048189 0.052258 -0.029188 0.016349 0.055384 0.010244 -0.018612 0.057047 -0.021738 0.058320 0.015604 0.037421 0.035004 0.018381 -0.046772 -0.044957 -0.070072 0.070886 -0.002971 0.077315 0.059028 0.059981 -0.044413 -0.030685 0.019959 -0.037637 -0.039431 0.014873 0.014057 0.027954 0.000745 0.048160 -0.002080 0.053849 -0.017783 -0.028988 -0.018199 0.045897 -0.054234 0.042355 0.021925 0.043662 -0.002515 -0.025362 -0.020249 0.033005 0.011973 -0.008029 0.021599 -0.073291 -0.013006 -0.001665 0.068983 0.024872 0.049941 0.006649 0.069528 -0.071782 -0.060770 0.001292 0.038465 0.022267 -0.032840 -0.045907 -0.006176 0.031669 0.007397 0.057917 -0.004726 0.035456 0.017980 -0.065092 -0.003174 -0.066827 -0.008163 0.058869 0.048470 -0.078482 -0.031452 -0.012224 -0.069481 0.037834 0.068403 0.081794 -0.019586 0.036052 0.006151 -0.032350 0.046563 0.027673 0.051234 0.002736 -0.032352 -0.063899 0.039121 0.043764 0.050063 -0.035774 0.019389 -0.036955 0.081974 -0.044922 -0.019755 -0.003493 -0.029457 0.054374 -0.026916 -0.063280 0.058184 0.023924 0.006789 0.070996 -0.020534 -0.007100 0.070497 0.042172 -0.053340 -0.005644 -0.072471 0.075515 -0.060263 0.061055 -0.004042 -0.010323 0.079449 -0.047213 -0.048850 0.047220 -0.000695 0.052831 -0.072027 -0.001013 -0.074383 -0.009490 0.077786 -0.021548 -0.037408 -0.031422 -0.002535 -0.061515 0.074794 -0.078039 -0.072812 -0.028032 -0.002847 0.079977 -0.068152 0.026105 -0.007959 -0.058330 0.019328 0.014070 -0.079567 -0.067006 -0.078545 0.082174 -0.031927 -0.045103 0.047102 0.049670 -0.074564 0.057367 -0.033635 -0.066656 -0.034415 -0.038141 -0.005911 0.010469 0.012729 0.073845 0.031246 0.005231 0.078099 0.040726 0.059491 -0.007040 0.038411 0.073631 -0.063228 -0.051840 -0.066991 0.038392 0.044521 -0.064266 0.053678 0.048268 -0.064385 -0.060541 -0.079127 0.065009 0.071422 -0.071399 0.040084 -0.044505 -0.055763 -0.076623 -0.000354 0.020618 0.016138 -0.069917 0.012171 -0.034908 0.017606 0.007978 -0.076474 -0.005195 -0.081355 0.044229 -0.013856 -0.062290 0.074681 0.001445 0.058394 0.036910 0.019471 0.029780 0.002887 0.037379 0.051531 0.006052 0.020096 0.040661 0.016944 -0.022112 0.078448 0.043474 -0.016443 -0.004199 -0.018200 0.081987 0.008176 0.076263 -0.035213 -0.056510 0.001948 -0.029395 0.020587 0.002886 -0.067458 -0.075560 0.022887 -0.075069 0.008177 -0.001011 0.044133 -0.054644 -0.053523 -0.035272 0.065027 0.080300 0.053072 0.002831 0.038669 -0.012276 0.063011 0.034825 -0.051095 -0.035725 -0.051667 0.012997 -0.036030 0.038802 0.006968 0.011049 0.064584 -0.073376 0.063946 0.002879 0.011802 0.078780 0.009611 -0.047603 -0.078581 -0.064504 0.033679 0.047845 -0.036856 0.062448 -0.069720 -0.054122 0.060456 0.065644 0.031001 0.016833 -0.028924 0.011720 -0.030635 0.002273 0.058287 -0.000009 -0.067022 -0.060036 -0.043499 0.022239 0.033305 -0.061207 0.031155 0.014959 0.023964 -0.039335 0.011448 -0.048717 -0.004645 0.015159 -0.030929 -0.053258 -0.019288 0.014507 -0.073103 -0.006716 0.042678 0.069646 -0.023364 -0.008614 0.004187 0.030004 -0.079186 0.055844 -0.050015 0.061393 -0.026457 -0.034744 -0.080935 0.012336 0.069787 0.034663 0.033421 0.018650 -0.032670 -0.024907 0.061607 0.061070 0.008668 -0.025330 -0.006064 0.060031 0.003703 0.056940 -0.007755 0.012893 -0.032068 -0.047369 0.000246 0.026861 0.026309 -0.077859 -0.025428 0.029415 0.060278 0.006850 0.008516 -0.048471 0.054398 0.009873 0.046157 0.041892 -0.037757 -0.002714 -0.021750 0.011865 0.054671 -0.042436 -0.009358 -0.018954 0.014526 0.066871 -0.041215 -0.064063 0.041519 0.033322 0.031122 -0.072841 0.068245 -0.050923 0.036312 0.012262 -0.046490 -0.071408 -0.040615 -0.068505 0.017734 0.050193 -0.034684 -0.010160 -0.022226 -0.070819 -0.050560 0.022309 0.008759 0.009982 -0.048118 -0.018863 0.049838 0.024816 0.044476 -0.017928 0.009395 -0.079031 0.000302 -0.031378 0.036583 -0.050868 -0.021927 0.022536 -0.019499 -0.067907 -0.047494 0.016302 -0.057022 -0.005816 0.030090 0.043004 -0.037915 0.077698 -0.049448 0.022151 -0.075414 -0.017716 -0.037832 0.015638 0.074558 -0.003658 0.079067 0.042104 -0.061134 0.041251 -0.058116 0.030554 0.044512 0.024477 0.081468 -0.001197 0.055901 -0.022751 -0.060954 -0.045890 -0.008365 -0.026155 0.052704 0.016904 0.050321 0.000502 -0.022384 -0.069887 -0.004093 0.010460 0.034556 0.002786 0.075037 0.079016 -0.063869 0.067302 -0.006934 -0.067094 0.027114 0.014224 0.056450 0.051290 -0.037515 0.018669 -0.006525 -0.038339 -0.064821 -0.032916 0.021202 -0.043482 0.003486 -0.069455 0.012655 -0.026102 0.029741 -0.019316 0.056692 -0.074935 -0.006911 -0.029692 0.017818 -0.054647 0.055386 0.010563 -0.057923 0.073810 -0.004427 0.017435 -0.075576 -0.059606 -0.050634 0.063165 0.073976 -0.005856 -0.000458 -0.014841 0.038097 0.017014 0.034536 -0.022993 0.055824 -0.044270 -0.010156 -0.013813 0.011920 -0.062707 0.049163 -0.013679 -0.055349 -0.040040 0.038921 0.044761 -0.012395 0.012014 -0.026969 0.011974 0.003532 0.050896 -0.052883 0.010248 0.073583 -0.021225 -0.008879 0.065267 0.055211 0.072955 -0.031866 0.011016 0.007677 -0.079623 0.070315 -0.018791 -0.041601 -0.022133 0.049688 0.052612 -0.002548 0.016559 -0.043360 0.024394 0.058811 0.077853 -0.013137 -0.035876 0.007575 0.042186 0.058391 -0.071185 0.010790 -0.076785 0.021355 0.002081 -0.015718 -0.069817 -0.014945 -0.042799 -0.079154 0.035481 0.050509 0.010815 0.038151 0.038532 0.074317 0.078843 -0.065894 0.041713 0.049163 0.013850 -0.024020 -0.076489 -0.044048 -0.047501 -0.080928 0.025107 -0.001085 0.008939 -0.014998 -0.024986 0.020046 0.078084 -0.019479 -0.040891 -0.002127 0.047096 -0.028416 0.065220 -0.077995 -0.025277 0.018410 0.054806 0.067830 -0.025731 0.011046 0.059855 -0.029181 0.027444 0.019275 -0.062311 -0.040998 0.077547 -0.056508 -0.002754 -0.052246 -0.055143 -0.059939 0.028961 0.036088 0.007355 -0.078317 -0.026158 0.003147 -0.015504 0.015244 -0.081272 -0.050700 0.069120 0.066240 -0.046403 -0.038449 0.002358 -0.073889 -0.052911 0.058918 0.019449 -0.075349 -0.052555 -0.035399 0.026218 -0.032573 0.005896 0.021473 -0.006788 -0.079150 0.051519 0.020360 -0.056797 -0.001812 -0.025844 0.032851 0.002164 0.030291 -0.046294 0.068952 -0.036758 -0.045274 -0.064040 -0.049930 -0.061326 -0.028150 -0.006087 0.023324 -0.019747 0.023294 -0.000050 0.081995 0.030237 0.029687 -0.035696 -0.025837 0.079406 0.052492 0.077929 -0.009674 0.055634 0.047156 -0.071606 0.081129 -0.036948 -0.015157 0.031688 0.047508 -0.067158 0.067686 0.034168 -0.021624 -0.059880 0.052420 0.010739 -0.038914 -0.058022 -0.077640 0.066702 0.004523 0.027946 -0.015641 0.004225 -0.024109 -0.068245 0.050821 0.032346 -0.071131 0.021020 0.027983 0.001487 -0.005638 -0.007153 0.012173 -0.006801 0.038191 0.079308 -0.057406 0.003406 -0.070142 -0.072012 -0.044718 -0.009474 -0.049600 -0.074590 -0.081027 -0.006222 -0.050320 -0.076375 -0.021812 0.036494 0.033863 0.044839 -0.041573 -0.072538 0.058886 -0.073044 0.042100 0.070047 0.030269 -0.012209 -0.010758 -0.057662 0.062930 -0.080877 0.017829 0.018828 0.080724 0.042715 -0.060058 -0.071711 0.052996 -0.022484 0.001107 -0.078896 -0.014782 0.002372 -0.002826 0.017190 0.008289 0.057654 -0.028608 -0.040140 0.020201 0.012112 -0.030386 -0.003205 0.021360 -0.070578 -0.015450 -0.030664 -0.000495 0.056084 -0.006034 -0.019857 0.057500 -0.070497 0.081264 0.055931 0.054510 -0.061087 0.066512 0.025214 -0.001278 -0.014673 0.028610 0.066232 0.069992 -0.056509 0.001129 -0.004011 -0.081147 0.054814 0.038141 0.021346 -0.015367 -0.074537 -0.064151 -0.076299 -0.062823 0.002691 -0.024671 0.018974 -0.023517 0.051588 0.081410 -0.048309 0.063383 0.080381 -0.074670 0.035601 -0.062998 0.074134 -0.021477 0.018016 -0.022831 -0.075160 0.001956 -0.035131 -0.049376 -0.079207 0.043150 -0.048231 0.057899 -0.001001 0.055407 -0.039761 0.006754 0.073548 -0.033768 0.026223 -0.006053 0.023853 -0.037095 0.052722 -0.006851 -0.037978 -0.077879 -0.025760 -0.039889 -0.070258 -0.072452 -0.020595 -0.078416 -0.011637 0.079714 -0.018954 -0.004504 -0.000623 0.028207 0.028412 0.002462 -0.010936 0.062473 -0.021931 0.070355 0.035588 0.020601 -0.005184 0.026844 0.069125 -0.061253 -0.061501 0.010686 -0.016056 0.073513 -0.078457 0.028258 0.077926 -0.021925 0.070661 -0.074624 -0.012085 -0.032226 -0.070748 0.058571 -0.034804 -0.007410 -0.028225 0.046865 -0.061496 -0.082105 -0.032965 0.009861 0.062660 0.027397 -0.002077 0.015956 -0.034295 0.075032 -0.039492 -0.047462 -0.068514 -0.018701 0.045516 -0.002278 -0.027480 0.049351 -0.056312 -0.031847 -0.054866 -0.067943 -0.024179 0.015341 -0.017877 -0.012634 -0.008380 0.029611 0.062248 0.045687 -0.005816 -0.081540 0.045874 0.043512 0.010613 0.026242 -0.011384 -0.073756 -0.040094 0.036613 -0.081016 0.002707 0.071443 -0.067238 0.066298 0.034667 0.012776 -0.043474 0.001726 0.038756 0.006971 0.029152 0.053105 0.065085 -0.037798 -0.047063 -0.029842 0.036114 0.064840 -0.049886 -0.000491 -0.023268 -0.049133 -0.036909 -0.062048 0.043772 0.071626 0.008861 0.052308 -0.050760 -0.036818 0.053584 0.034239 -0.047667 0.068638 0.018245 0.069293 -0.000877 0.057062 -0.011273 -0.044413 -0.018259 -0.064413 -0.073600 -0.035466 -0.019919 -0.038372 0.016984 -0.066097 -0.055824 0.049391 0.015704 0.003201 -0.082035 0.061087 0.023445 0.044029 0.050421 -0.049986 0.014045 0.081953 -0.004512 -0.014663 0.033899 0.030113 -0.028317 -0.030149 0.017114 0.053098 -0.055378 -0.076452 -0.073608 0.008655 -0.058573 -0.064916 0.055481 0.003800 -0.020995 -0.009827 0.019995 0.005474 -0.042729 -0.046593 -0.073618 -0.042472 -0.067798 0.032120 -0.080735 0.064914 0.064426 0.015602 0.064575 -0.022378 -0.081353 0.016182 -0.074557 -0.027378 0.068325 0.024849 -0.056572 -0.069345 0.030689 -0.047888 0.021602 0.054409 -0.030511 -0.005209 -0.024083 0.030786 0.067256 0.078204 -0.046033 -0.057766 -0.050681 -0.037358 -0.017945 -0.036187 0.077054 -0.016388 -0.053565 0.059188 0.081506 -0.071283 -0.045483 -0.082139 0.027191 -0.037747 -0.027225 0.013224 0.069394 -0.001505 0.026171 0.017791 0.032899 -0.034519 -0.010093 -0.079905 0.042564 0.048116 0.033173 0.027527 0.044028 0.069433 0.052054 0.075639 -0.050218 -0.048184 -0.042841 -0.055456 0.017720 -0.014114 -0.078560 0.016934 -0.003104 -0.041751 0.017087 -0.058205 0.002794 0.072154 0.037312 -0.010104 -0.011644 -0.018809 -0.074606 -0.061037 0.028964 -0.002406 -0.058649 -0.010764 -0.036582 0.056816 -0.065530 -0.074846 0.043957 0.068816 -0.081499 0.076032 -0.061660 -0.042047 -0.061716 0.038353 0.026132 -0.057984 -0.027005 -0.059265 -0.017443 0.072374 -0.035177 0.067644 0.062236 -0.033744 -0.025225 -0.038479 -0.016717 -0.011196 -0.004484 -0.069895 0.063555 0.013849 0.001565 -0.055113 -0.015100 0.018391 -0.048444 -0.047265 0.004334 -0.047725 -0.055736 0.025520 -0.007459 -0.035401 -0.018012 -0.063828 -0.015641 0.036573 -0.040621 0.052702 0.028288 -0.008367 0.038162 0.006089 0.008505 -0.068844 0.057609 0.074173 -0.003766 -0.036418 -0.078220 -0.023250 0.060082 0.004274 0.002535 -0.034511 -0.058066 0.036949 -0.002612 0.028672 0.071453 0.020155 -0.027942 -0.018019 0.070005 0.035577 0.000194 -0.025487 -0.009699 0.041704 -0.055201 -0.065546 -0.033947 0.065733 0.024706 0.038660 0.080007 -0.000767 0.043536 -0.006851 0.045988 0.057295 0.052075 0.023948 -0.024127 -0.027015 0.072052 0.001026 -0.072144 -0.013280 -0.051051 0.081422 -0.072652 0.001210 -0.021401 0.078143 -0.045673 0.062766 -0.029273 0.015617 0.022039 -0.002602 0.043719 0.070368 -0.040187 -0.014468 0.042664 -0.022662 0.066029 0.009872 0.052666 0.030898 -0.014144 0.128896 -0.029008 0.024858 0.077910 -0.024824 -0.030410 -0.076485 0.032199 -0.013916 -0.077705 0.042097 0.062829 -0.014920 0.036132 -0.052471 -0.035258 -0.076151 0.051821 0.070052 0.003683 0.019496 0.058785 0.066475 0.071385 0.019503 -0.037940 0.062854 -0.049155 -0.099908 0.011252 0.009534 0.036916 0.065714 -0.031381 0.033341 -0.055266 0.005277 0.038146 0.057372 0.074650 0.040131 0.016284 0.061518 -0.053693 -0.030557 -0.080035 -0.006554 -0.024324 0.045699 -0.018662 0.063219 -0.013565 -0.043286 0.045914 -0.023145 0.059212 -0.074861 -0.042859 -0.075998 -0.060024 0.051650 0.019931 0.021600 0.037000 0.069408 -0.000491 0.061983 -0.006228 -0.025010 0.034829 -0.013093 -0.074519 -0.029385 -0.033397 -0.044975 0.022181 -0.031802 0.035186 0.080314 -0.062301 -0.070362 0.058746 -0.000098 -0.031789 0.022303 0.059843 -0.079520 0.029703 -0.066238 -0.048329 0.051436 0.022609 0.052637 0.023828 0.019713 0.037574 -0.054882 -0.001557 -0.048443 0.011996 -0.040286 0.019643 0.009636 0.007675 0.068910 0.044717 -0.052334 -0.046127 -0.008566 -0.054652 -0.026477 0.004031 -0.078020 0.055554 0.053514 0.027123 0.031940 0.080632 -0.025888 0.048177 -0.042420 -0.056994 0.033583 -0.078770 0.052834 -0.028825 0.041835 -0.076071 0.053019 0.074706 0.007596 -0.075127 0.012123 -0.065456 0.015510 -0.002024 0.062279 0.044854 0.033901 -0.028345 0.072920 -0.072465 0.058202 0.077158 0.063246 0.029493 0.021834 0.013150 0.027740 0.078001 -0.019900 0.064334 -0.060674 -0.069654 0.063384 0.074156 -0.016399 0.022921 0.080679 -0.046128 0.015239 0.005989 -0.036464 -0.054798 0.023155 0.059566 0.025146 0.002530 0.020364 -0.025450 0.056927 0.011109 -0.015251 0.032574 0.004768 -0.035008 -0.019921 -0.054531 0.061054 -0.074427 -0.058843 -0.037794 0.068599 -0.037298 -0.029323 0.049690 -0.045323 0.036875 -0.009691 -0.046901 0.072482 -0.075695 0.041446 -0.048271 -0.049292 -0.017612 -0.080997 0.057354 0.067137 0.029945 -0.046615 0.041753 -0.041322 0.020173 -0.007838 0.046808 0.068152 0.054335 0.074490 0.046957 0.062296 -0.066293 -0.077321 0.048575 -0.021212 -0.024283 0.015939 0.015698 -0.069944 -0.076096 0.051339 -0.079431 -0.070512 0.010294 -0.045676 -0.037491 0.074778 -0.036243 -0.061425 0.059572 0.076070 -0.025980 0.019036 -0.047561 0.076513 -0.071126 0.081569 0.062347 0.065491 0.073777 0.027030 0.045595 -0.074799 0.032000 0.011788 -0.013715 -0.074582 -0.054555 -0.080313 -0.062244 -0.048314 0.053181 -0.059357 -0.036578 -0.019003 -0.022752 0.008215 -0.026518 0.023310 0.029063 -0.049242 0.017088 -0.079105 0.052092 0.051833 0.079626 0.063244 0.051085 0.059608 0.046351 0.042589 0.004351 0.009669 0.050071 -0.045992 -0.060864 -0.045923 -0.038233 -0.033101 -0.043942 -0.018186 0.001016 -0.073203 0.004747 0.046557 -0.009914 0.064291 -0.027508 0.045860 0.005310 -0.080760 0.078954 -0.059892 -0.077656 0.048709 0.074237 -0.080739 0.029628 0.043027 0.061507 -0.006165 0.003322 -0.016439 -0.078789 -0.028895 0.019907 -0.057332 0.007467 0.063964 -0.008139 0.045821 -0.036502 0.074994 0.054909 0.050541 0.039261 -0.037299 0.032537 -0.070548 -0.073734 -0.044447 -0.069003 -0.077114 -0.022044 -0.064378 0.053888 -0.030106 -0.062485 0.001265 -0.069374 0.081317 0.077392 0.016241 -0.017414 0.080895 0.069638 -0.079800 -0.058729 -0.005188 0.066456 0.015424 -0.041659 -0.052338 0.008126 -0.069042 0.080495 -0.034905 -0.024049 0.030740 -0.023161 -0.015491 0.068585 -0.009872 -0.010313 -0.035751 0.008042 -0.038717 0.016435 0.027850 0.044840 0.029353 0.026875 0.039940 -0.036698 -0.072832 0.038543 -0.049353 -0.070339 0.062106 0.027752 0.078409 -0.004762 0.068385 -0.056222 -0.078929 0.081635 -0.058019 -0.031541 -0.024707 0.055014 0.027590 0.042095 0.041307 -0.064574 -0.050510 -0.076736 0.025761 -0.006935 0.021991 -0.028682 -0.044387 -0.030948 0.080485 0.077845 0.014646 -0.074639 0.034096 0.047586 -0.062686 0.013910 -0.006955 -0.066569 -0.073145 -0.020862 -0.040499 -0.069782 -0.021519 -0.016225 -0.019031 0.036066 -0.043504 -0.073733 -0.004131 0.080096 -0.056015 0.027651 -0.078933 0.052038 -0.061576 0.025350 -0.058936 -0.023671 0.076695 -0.060743 -0.028119 0.009049 -0.053090 -0.076315 -0.025658 -0.033484 0.019887 0.049680 -0.017761 0.029034 -0.053474 0.024032 0.041545 0.007299 -0.074485 -0.059778 -0.038927 -0.035697 -0.051219 0.039234 -0.037893 -0.024942 -0.015407 -0.034534 -0.055197 0.005309 0.073109 -0.031841 0.063931 0.067511 -0.010292 -0.046480 -0.005732 0.018911 -0.040503 0.050902 0.067719 0.061676 0.018290 -0.032335 0.008418 0.047108 0.073990 -0.032330 -0.027886 0.081797 -0.009816 0.015479 -0.036192 0.021257 -0.027579 0.008207 0.078608 0.039307 0.055965 -0.058881 -0.037676 0.046782 -0.008430 -0.056038 0.032001 0.063571 -0.020226 -0.056023 0.000189 0.021563 0.077171 -0.014384 0.000947 0.013169 0.035573 -0.072927 -0.022016 0.027271 -0.022964 0.032391 0.026776 0.049512 -0.034422 0.072876 -0.011522 0.020291 -0.001209 -0.015207 -0.022694 -0.027536 0.008204 0.021922 -0.063046 0.082066 0.048176 0.051247 0.063345 -0.054342 0.077516 -0.018758 0.049514 0.072396 0.049150 -0.031831 0.003272 0.002431 -0.022466 0.063549 -0.052590 0.036862 0.013647 0.056478 0.004082 0.061517 0.047062 0.074851 -0.000484 -0.036439 -0.022648 0.059114 0.018317 0.067848 -0.001256 0.037564 0.067622 -0.035372 0.006519 0.048675 -0.007422 0.001743 -0.052375 -0.040201 -0.008153 0.079067 0.010260 0.077411 -0.000794 0.070086 0.058668 0.028908 0.024655 -0.009977 0.003094 -0.053555 -0.030752 -0.032136 -0.060996 0.051057 0.013717 -0.001351 0.027879 -0.050258 -0.015795 -0.055669 0.069598 -0.030465 -0.008749 -0.006175 -0.064082 0.066121 0.077860 -0.034165 -0.056373 -0.012585 -0.037390 0.036180 -0.017466 0.044109 0.023973 -0.041091 -0.009275 -0.033663 0.031225 0.076111 -0.004926 -0.081819 -0.038317 0.016370 0.051530 0.057692 -0.067273 -0.002883 -0.074857 -0.000777 0.023740 0.077033 0.051050 -0.067302 -0.011434 0.069260 0.081111 -0.015866 -0.047197 -0.057554 0.053841 -0.002294 0.060918 -0.045917 -0.040478 0.002599 -0.004716 0.032539 0.051228 -0.055783 0.026358 -0.035990 -0.055310 0.070334 0.062672 0.078512 0.045734 0.077691 -0.006663 0.053169 -0.005378 -0.065215 0.047909 -0.036620 -0.050224 -0.045817 -0.049652 -0.051406 0.020609 -0.014557 -0.026667 -0.007842 0.065441 -0.048041 0.028533 -0.057329 0.036850 -0.058475 0.057503 0.005786 -0.031966 0.001569 0.052088 -0.004984 -0.010390 0.032468 -0.008764 -0.046948 0.027867 0.066866 -0.076072 -0.059804 -0.080641 0.054130 -0.014132 -0.048574 -0.073979 0.018509 -0.017687 0.028922 -0.078340 0.037938 -0.061212 0.069393 0.072189 0.049613 -0.070227 0.026747 0.073430 0.069567 -0.049759 -0.040828 -0.011156 -0.079963 0.036480 0.060747 0.034797 -0.054576 -0.068494 -0.019629 -0.070003 -0.062273 0.002860 -0.068352 0.074149 0.071020 -0.034633 -0.082122 0.007237 0.029972 0.029093 0.011189 -0.014383 0.050173 -0.001710 -0.024486 0.017494 0.010355 -0.080031 0.008632 -0.002370 -0.047498 0.050096 0.068766 -0.045169 0.004283 0.047221 0.071921 0.031999 0.061020 -0.030000 0.044289 0.081039 0.055152 0.058229 0.072896 0.043880 -0.058697 0.073066 -0.031176 0.053567 0.019867 0.062305 -0.043107 -0.012253 -0.021697 0.014699 -0.077051 0.070950 0.016960 0.013873 -0.013712 0.051755 -0.018324 -0.027238 -0.075706 0.068251 -0.062309 0.078507 0.017959 0.081002 -0.033786 -0.020045 0.079749 -0.060927 -0.044108 0.070353 0.065245 -0.020512 0.061127 -0.048223 -0.049237 -0.001299 -0.068210 -0.010052 0.068740 -0.007615 -0.077645 0.073981 -0.018957 0.021608 0.005562 0.049623 -0.008930 0.069530 -0.059907 -0.002344 0.055489 -0.039924 -0.006129 -0.008845 -0.041214 0.042377 0.053403 -0.043758 0.063742 -0.072997 -0.055697 0.046696 -0.011217 -0.076863 0.080765 0.021838 0.004130 -0.069737 -0.070506 -0.009422 0.004941 -0.065859 -0.017733 0.068276 0.038041 0.070121 0.035607 -0.053181 0.057359 0.057992 0.026767 0.030556 -0.064225 -0.061654 -0.060581 -0.023147 0.063015 0.075114 0.015387 0.044465 -0.080175 0.041982 0.008869 -0.009100 0.047412 0.007341 -0.069554 -0.030750 0.019897 -0.057767 0.042121 -0.057455 -0.041334 -0.057904 -0.071471 0.079000 -0.070075 0.046428 -0.056474 0.069576 0.022127 0.052586 0.017839 0.040195 0.073224 0.039550 -0.065245 0.053947 0.032372 0.032435 0.016120 0.034489 -0.007875 -0.057304 -0.056904 -0.042755 0.032329 -0.044165 0.008787 -0.030066 -0.019640 -0.031384 -0.005229 0.021318 -0.006996 0.005592 0.018026 0.005221 -0.030272 0.043844 -0.007496 0.074147 0.014138 -0.071948 0.032049 0.005070 0.049894 0.049097 -0.023276 -0.000026 -0.000760 0.075136 -0.047830 0.073657 -0.064460 -0.022441 -0.051390 0.050161 0.015686 0.039689 -0.062197 0.078338 -0.073988 0.014866 0.017364 0.001308 -0.061834 -0.046903 -0.075763 -0.009814 0.079234 -0.000966 -0.017959 0.011079 0.009377 -0.068202 -0.066143 -0.023021 0.063187 -0.007127 0.059245 -0.019865 -0.014283 -0.070877 -0.028501 0.003549 -0.011025 0.002401 -0.028582 -0.077631 -0.040202 -0.008487 -0.081585 -0.031897 -0.075913 0.018071 0.051704 -0.055454 0.053461 0.058233 0.017024 0.050402 -0.025026 0.081357 -0.020811 0.066644 -0.069137 -0.004662 -0.038669 0.076342 0.070503 -0.061716 -0.025815 -0.026072 -0.050301 0.027976 0.059769 0.020966 -0.051915 -0.051106 0.025627 -0.009824 0.022700 0.026334 0.040571 0.029079 -0.037887 0.009982 0.055917 -0.066719 -0.014077 -0.009351 0.065975 0.043189 -0.010286 -0.037128 0.027540 0.002869 0.040502 0.071163 -0.003081 0.028713 -0.072846 0.053396 -0.079651 -0.040854 -0.000920 0.062409 0.062404 0.029457 -0.070989 0.005739 -0.062659 0.034003 -0.050219 0.060204 -0.019210 -0.005814 -0.012106 -0.045585 0.009759 0.056109 0.027356 -0.006558 0.017006 -0.065222 0.038606 -0.037746 0.019939 -0.003185 -0.048875 -0.065434 -0.056764 -0.039428 0.070254 -0.054123 0.002010 -0.012958 -0.074006 -0.017878 -0.065793 -0.062702 0.070153 -0.046160 0.053594 -0.062358 -0.068248 -0.047908 0.014120 0.001939 -0.011201 -0.058414 -0.024244 -0.066137 0.017320 0.075055 -0.049067 -0.026367 -0.044983 0.053164 0.052741 -0.011566 0.070023 0.078270 0.031298 0.057985 -0.058145 -0.048984 -0.037265 -0.049859 0.015430 -0.020766 -0.030269 0.003291 0.015367 -0.058967 0.023225 0.029411 -0.024584 -0.044947 -0.050942 0.046507 -0.021069 0.007107 0.062663 0.078543 -0.000131 -0.068697 -0.030115 0.037178 0.066760 -0.059667 -0.056680 0.054491 -0.063689 0.056910 0.030183 -0.039542 -0.074366 0.075210 -0.007109 0.023356 -0.027848 0.044915 -0.055645 0.069811 0.068239 0.049872 0.016930 -0.038636 -0.077367 0.048281 -0.074421 -0.016144 -0.026905 0.070534 -0.019892 0.055257 -0.080455 0.032284 0.010142 0.068597 0.054910 0.035755 0.040795 0.073513 0.010373 -0.011314 -0.048322 0.018298 -0.018396 0.026861 -0.040638 0.036049 -0.010516 -0.013991 0.023568 -0.024569 -0.046411 -0.041794 0.019087 -0.041485 -0.075806 0.026958 0.024663 -0.020419 0.015200 -0.077521 -0.047454 0.017037 0.037055 0.044980 0.003341 0.009673 -0.001557 -0.038156 0.000894 -0.073477 0.032823 0.034865 0.027114 -0.067865 -0.020566 0.068768 0.050476 0.051210 -0.027515 -0.008248 -0.055651 0.008367 0.032249 0.045728 0.049174 0.038736 -0.009606 -0.008455 -0.063975 -0.076699 -0.003684 -0.029137 0.022630 -0.048921 -0.066449 -0.056320 0.043044 0.014286 -0.012184 -0.038354 0.023101 -0.061653 0.078803 -0.032078 -0.047225 -0.024056 -0.045602 -0.079041 -0.055138 0.009176 -0.004998 -0.028497 -0.064750 -0.055040 -0.065061 0.066716 0.065987 0.007625 -0.024031 -0.080280 0.013219 0.054576 -0.027125 -0.046443 -0.076637 -0.011282 -0.020471 0.048699 -0.079289 0.049637 -0.071947 0.026104 0.070276 -0.075437 0.076319 -0.059242 -0.017200 -0.051575 -0.055991 0.009954 0.039893 0.021304 0.063750 0.057436 0.048556 0.080981 0.041860 0.032251 0.006313 -0.064464 0.034263 -0.062760 0.072405 -0.075155 -0.026911 0.078060 -0.004145 0.034909 0.044467 -0.001141 0.002254 0.054812 -0.057329 -0.009762 0.061668 -0.063302 0.013289 -0.037825 -0.032585 0.039590 0.054422 -0.074984 -0.021398 0.035879 0.064744 -0.055135 0.034568 0.024311 0.059408 -0.041411 0.042139 0.011379 -0.021879 0.032252 0.018517 0.033502 0.028020 -0.067920 -0.013881 -0.009805 0.013231 0.070665 -0.037286 0.038194 -0.021389 -0.057910 0.057184 0.074192 -0.013443 -0.057694 0.031490 -0.041313 -0.050386 -0.072200 0.076858 -0.067934 -0.045042 0.029134 0.038669 -0.067926 0.070015 -0.001484 0.025745 -0.034157 -0.051524 -0.038031 0.081637 0.058788 -0.023659 -0.014536 -0.033309 0.071864 -0.026163 0.011697 0.027766 0.034741 0.036079 0.002658 0.026641 -0.059655 0.027256 -0.024161 -0.018676 0.059163 -0.014069 -0.024110 0.073521 0.023181 -0.077269 0.029898 0.037547 0.075039 -0.053878 -0.019000 -0.041410 -0.023110 0.025262 -0.042065 -0.046613 -0.080689 0.025691 0.002370 0.073468 0.081821 -0.068225 0.018942 0.034269 0.050147 -0.060693 -0.021382 0.072783 0.048855 0.036750 -0.028185 0.025726 -0.059611 0.029997 0.016955 0.045862 0.035021 -0.035440 0.001117 0.027767 -0.007025 0.064410 0.068649 0.052157 0.007379 -0.055708 -0.076748 0.008982 0.052275 0.007914 0.000158 0.051804 0.021981 -0.063193 0.003781 -0.010165 -0.041594 0.064691 -0.019674 -0.075030 0.019149 0.034434 0.032988 0.041830 -0.017862 -0.032350 0.005400 -0.065133 0.014503 -0.075775 0.044926 -0.074815 0.070927 0.031283 0.059635 -0.003986 0.057867 0.065178 -0.077296 0.027850 -0.009200 0.005154 -0.002638 -0.069512 0.024254 -0.081150 0.002616 0.064953 0.065834 0.065234 0.072214 0.002690 0.017376 0.022910 -0.037772 0.081806 0.072853 0.049920 -0.065619 0.005063 0.056437 0.061600 0.012541 0.045071 0.010591 -0.010117 -0.041207 -0.013835 -0.027230 -0.036210 -0.068277 0.045862 0.051236 0.011377 0.058642 -0.006802 0.012520 -0.021034 -0.024142 -0.003939 -0.038092 -0.034219 0.081044 0.061576 0.070983 -0.039021 0.061090 0.061543 -0.071393 0.077763 -0.015686 0.067336 0.057071 0.079148 0.030115 -0.014631 -0.013261 0.071200 0.053827 0.041801 -0.047302 0.067842 0.005370 -0.078358 -0.003073 -0.018280 -0.002867 -0.072846 0.042978 0.055283 0.005508 -0.077407 -0.061228 0.004259 0.066461 -0.072538 0.047531 0.045259 0.071298 0.058430 0.040730 -0.026680 0.043473 0.015509 -0.029825 -0.008704 -0.081414 0.039206 -0.019796 0.054705 -0.001285 0.015195 0.040254 -0.078208 0.019129 -0.045111 -0.014196 -0.066030 -0.035664 -0.053510 0.071545 0.052136 -0.048625 -0.071975 -0.025897 -0.064456 -0.062221 -0.060658 0.063096 -0.073215 0.080064 0.021534 -0.017603 0.041245 -0.045250 0.034864 -0.049751 -0.044372 -0.008222 0.012745 -0.071960 0.072785 -0.054352 0.050587 0.076869 0.047069 -0.076816 -0.019619 0.063331 -0.030189 0.009164 0.052584 -0.060345 0.042831 0.062901 -0.003950 0.060668 -0.081612 0.017684 0.041471 -0.072536 0.015456 -0.019287 -0.007847 -0.025592 0.017755 -0.055275 0.006949 0.055675 0.018795 -0.062598 0.066007 0.009288 -0.034658 0.034302 0.003865 -0.069881 0.039777 0.066538 0.075742 -0.072703 -0.006590 0.046034 -0.050756 -0.046052 0.026642 0.027586 -0.067676 0.027322 -0.037022 0.056087 0.037078 0.060726 -0.045492 -0.053061 -0.047158 0.054555 -0.026044 0.042084 0.027937 0.075043 0.061778 0.011652 0.002039 -0.055172 -0.036339 -0.076389 -0.042761 -0.078853 0.072442 -0.049311 -0.069265 -0.016441 0.079015 -0.037728 0.019800 0.023365 0.072150 0.034416 -0.031606 -0.047164 0.008211 -0.076820 -0.068730 0.045011 -0.047589 -0.033596 0.017274 0.008659 -0.073804 -0.037081 0.001411 0.070266 0.056863 -0.078843 -0.067198 -0.061768 -0.072939 -0.027666 -0.058329 0.081795 0.005315 -0.045301 -0.016938 0.002038 -0.000738 -0.079431 -0.056890 -0.010880 0.037278 -0.006204 0.024248 -0.036803 -0.000731 0.037810 -0.074084 0.033972 -0.078077 0.025482 -0.039661 -0.069589 0.070693 0.044042 -0.081615 0.045264 0.047492 -0.066521 0.065788 0.056845 -0.011894 -0.074833 0.056347 0.075713 -0.037842 -0.042883 -0.004541 0.043712 -0.040022 0.020861 -0.049460 0.079548 -0.067635 0.057081 -0.039547 0.013926 0.012599 -0.031339 -0.034394 0.016814 0.076435 0.008237 0.029517 0.064835 -0.030013 0.030194 0.027807 -0.064813 0.045966 0.011303 0.074324 -0.048221 0.018762 0.048379 -0.054800 0.063212 -0.076796 0.022951 0.024632 -0.034526 -0.038480 0.057465 -0.037270 -0.023822 0.032254 0.005475 0.072396 -0.037439 0.056428 -0.044290 0.061667 0.050570 0.046239 0.008892 0.033113 -0.066065 -0.043206 -0.021372 -0.048586 -0.079532 0.072223 -0.056555 -0.045461 0.008692 0.074117 -0.017969 -0.010388 0.079613 -0.077310 -0.068048 -0.037205 -0.033498 0.071709 0.007817 0.024972 0.021671 -0.069000 0.015076 0.066524 0.069720 0.053078 0.045899 0.037997 0.017025 -0.027502 -0.011182 0.033252 0.011584 0.049738 0.066958 0.014344 0.039668 -0.071888 0.051176 -0.033932 -0.080064 -0.049085 0.037973 0.081841 -0.044103 0.052217 -0.037656 0.004692 0.041634 0.052453 -0.052628 -0.018988 0.065745 0.044741 -0.034757 0.053172 0.015527 -0.071150 0.008877 -0.049740 -0.016360 0.079988 0.065804 0.077517 0.047434 0.050470 0.009569 0.004810 0.060874 -0.021548 0.053170 0.063103 0.011659 0.008851 0.062651 0.049849 -0.021225 -0.057297 -0.027751 -0.061883 0.077448 0.001913 0.001421 0.060900 -0.035639 0.048957 0.031780 0.062180 0.060099 -0.041635 -0.069852 -0.038553 -0.043939 0.078244 -0.043328 -0.078798 0.046423 0.048533 0.008304 0.025005 -0.055307 -0.020817 0.005815 0.038645 0.070326 -0.013826 0.006202 -0.033191 0.011169 0.060743 -0.012782 0.006325 -0.019637 0.070932 -0.015067 0.027017 0.037596 -0.065579 0.006905 0.015403 -0.024922 0.019345 0.059142 0.013431 0.015297 -0.066479 0.016926 -0.020573 0.064347 -0.057062 -0.077860 -0.073253 0.004413 0.010247 0.047684 -0.007554 0.078714 -0.028406 0.041547 0.007591 -0.049956 -0.053527 -0.068377 0.012700 -0.064888 -0.001152 -0.042575 0.055001 0.015561 0.046622 -0.011888 0.072931 -0.016325 -0.035039 0.004070 0.081264 -0.019225 -0.061297 -0.021601 -0.037171 -0.036067 -0.017169 -0.028131 0.050638 0.075370 -0.062739 -0.039208 0.071792 -0.008853 -0.079953 -0.002910 0.023484 -0.051187 0.011005 -0.046109 -0.033783 -0.072439 -0.006392 -0.061074 0.025415 -0.042062 0.009330 0.016053 0.023905 0.056583 -0.062169 0.022876 -0.044934 -0.041173 -0.081017 0.000188 0.005052 -0.015894 0.054349 -0.026602 -0.022816 0.073903 0.016483 -0.033317 -0.017242 0.018822 0.046065 -0.076050 0.049927 -0.025221 -0.039867 -0.066148 -0.015368 0.036034 -0.044930 -0.072246 0.076264 0.046692 0.026100 0.017876 0.020983 0.046224 -0.041539 0.058342 -0.077242 -0.040264 -0.023763 0.010103 0.026134 -0.051661 0.065942 -0.078950 -0.060095 0.000043 -0.029996 0.004956 -0.063480 -0.066244 0.011196 0.068727 -0.009120 0.053620 -0.079711 0.057647 0.007355 -0.042354 0.067787 0.001332 -0.077943 0.011545 -0.063080 0.025332 -0.024431 -0.022328 0.001377 -0.019388 0.019654 0.059933 0.072989 -0.036469 -0.074090 0.056499 -0.033149 -0.051904 -0.025787 0.019197 0.035354 -0.006986 0.035248 -0.035732 -0.020593 -0.056225 -0.064413 -0.017981 -0.080748 0.025240 0.021970 0.069365 -0.055715 0.026322 -0.001334 -0.036544 -0.030653 0.056541 0.023465 0.053023 -0.045098 -0.039125 0.030639 -0.054442 0.006685 0.038841 -0.080240 0.055853 0.069441 -0.023696 -0.007283 0.022210 0.051550 -0.054358 0.068852 -0.051297 -0.028287 -0.077855 0.013011 -0.026749 0.029682 -0.047312 -0.039687 0.056258 0.061326 0.041302 -0.062514 -0.051631 0.015544 0.043439 -0.080913 0.052691 -0.078205 0.032020 0.080651 0.010787 -0.011379 -0.081931 -0.015661 -0.024291 -0.023418 0.059350 0.080094 -0.055795 -0.076841 0.066732 -0.023164 -0.023394 0.071085 0.072140 0.032286 0.018435 -0.057468 0.074874 -0.007440 -0.078471 0.033881 0.011808 -0.047837 -0.032870 -0.026942 -0.046450 -0.062428 -0.022991 0.067829 -0.064167 0.070407 -0.025854 -0.063849 -0.027597 0.031812 -0.005145 -0.050572 0.029730 0.023178 -0.045528 0.014108 -0.082279 0.013542 0.003079 0.072150 -0.036497 -0.060735 -0.067564 -0.044006 0.013909 -0.063779 0.072227 -0.056169 -0.029312 -0.042900 -0.000317 0.006545 -0.023047 0.058765 -0.007983 -0.004943 0.046845 0.048587 0.013526 -0.062919 -0.001765 -0.073728 -0.031315 -0.054380 0.031941 0.005437 0.042161 0.032347 -0.063208 -0.037235 0.021358 -0.017583 -0.015796 0.036291 0.020781 0.080417 0.054796 0.010708 -0.058061 -0.056800 0.050103 0.023482 0.032047 -0.054009 0.000013 -0.058049 0.022175 -0.035442 0.073696 -0.046631 -0.016233 -0.011307 -0.038066 0.034979 0.016670 0.076114 -0.041936 -0.023541 0.025918 -0.023088 0.021525 -0.035290 -0.030790 -0.076515 -0.081608 -0.019877 -0.092478 0.058245 0.072997 -0.053676 0.081108 0.041123 0.052751 0.030080 0.067796 -0.030757 0.051285 0.007932 0.016136 0.045277 0.043273 -0.081990 -0.047374 -0.079521 0.034764 0.053217 0.081269 0.075072 -0.054981 0.024438 -0.040700 0.049173 0.071566 -0.070926 0.055246 0.072473 -0.007416 0.058665 0.046433 -0.017725 -0.078141 0.047567 -0.058349 0.062500 -0.006066 -0.073147 -0.056374 -0.033109 0.016684 0.042060 -0.052743 -0.022422 0.040926 -0.033270 -0.016362 -0.005513 -0.065997 -0.017031 -0.012475 -0.038664 -0.075866 0.039583 -0.071391 0.077089 0.065277 0.066659 0.072402 -0.039430 0.042277 0.032363 0.026020 0.046986 -0.004682 0.047899 0.021108 0.071942 0.056691 0.047098 -0.043893 -0.009510 0.007053 -0.031339 0.051374 0.022720 0.015868 -0.047155 0.043935 0.032727 0.031615 -0.051150 0.074566 0.024347 0.070812 -0.090613 0.020612 0.037483 0.069725 0.006976 0.076347 0.029918 -0.043505 0.024746 -0.126734 0.034622 -0.010048 -0.065940 -0.011585 -0.021932 0.062894 0.062650 0.038125 -0.011246 -0.049994 0.005870 0.036580 0.046397 0.034872 -0.001371 -0.003873 -0.023534 0.029323 -0.009737 -0.078845 0.012947 -0.006669 0.026317 -0.025122 -0.019023 -0.053368 -0.025715 -0.077343 -0.013641 0.081924 0.005415 -0.060648 -0.011360 0.023520 0.044555 0.035856 0.002382 0.023219 -0.002545 0.072822 0.065500 0.081578 0.027680 0.019967 0.041963 -0.056680 -0.066178 -0.044389 0.054638 0.003163 -0.059294 -0.008430 0.080977 0.045383 0.049659 -0.019809 0.074224 -0.059925 -0.008782 -0.020782 -0.060074 0.104545 0.003290 0.017119 0.017612 -0.037026 -0.036381 -0.058106 0.069383 0.038653 -0.071841 0.042518 0.038683 0.038141 -0.019419 -0.002815 0.062860 -0.003109 0.016968 0.036025 0.015882 0.038978 -0.054390 -0.080255 0.003245 0.097311 -0.018185 -0.008500 -0.064737 0.055668 0.034495 -0.042500 0.049092 -0.027403 0.048058 -0.022090 0.017544 -0.068160 0.008227 -0.047952 0.046873 0.017323 -0.018975 -0.044116 -0.038931 0.026553 -0.078057 -0.042725 -0.037247 0.022428 0.060401 -0.054423 -0.019848 -0.053233 -0.051904 0.064180 -0.069313 0.013131 -0.023547 -0.039968 -0.022267 -0.056859 -0.005112 -0.046497 0.005546 -0.044203 -0.000632 -0.121946 -0.029392 -0.048836 0.024267 -0.054056 0.048524 0.077135 0.036090 -0.061834 0.018142 0.026702 0.000381 0.032372 0.010353 -0.024640 0.071645 0.046162 -0.005802 -0.055162 0.025845 0.037425 0.030842 -0.080284 0.041600 -0.065419 -0.052690 -0.050789 -0.029136 0.032378 -0.014673 0.076425 0.054099 0.045100 -0.047628 0.053954 0.095684 0.084546 -0.037009 0.026743 -0.067317 -0.070228 -0.016499 0.003720 0.041834 0.048944 0.061250 0.051258 0.016697 -0.029181 0.050632 -0.047210 0.064714 -0.001835 0.035788 0.025623 0.020267 -0.011629 0.079615 0.103491 -0.058425 -0.037792 0.069960 0.076496 -0.179151 -0.069790 -0.022337 0.076337 -0.066509 0.008406 0.013555 -0.049374 0.053566 -0.005373 0.022895 0.023913 0.064754 -0.064072 -0.018586 -0.017704 0.063063 -0.045074 0.038198 0.047199 0.031137 0.066133 -0.011864 -0.016596 -0.024586 -0.039163 -0.033489 -0.001282 0.004328 -0.029679 -0.010809 0.005417 -0.031826 0.062691 0.003818 -0.031143 0.022451 -0.100873 -0.002173 0.014182 -0.060017 -0.051263 -0.045661 0.081786 0.039972 0.015263 -0.023744 0.011819 0.073256 -0.090201 0.079801 0.012701 0.066437 0.058528 0.072036 -0.035804 -0.064642 -0.053790 0.038891 0.027572 0.008743 -0.055414 -0.053603 0.038535 -0.067542 0.030811 -0.065941 0.051902 0.051547 0.007610 -0.009356 0.092044 0.060117 0.031188 0.040098 -0.001804 -0.045833 -0.020270 -0.064575 -0.067394 -0.043725 0.005464 0.026887 -0.047807 -0.013270 0.014167 -0.014006 -0.001459 0.056415 -0.061398 -0.023645 -0.032301 -0.026675 -0.032049 -0.069783 -0.012386 -0.080541 -0.071407 -0.041737 0.055037 -0.031677 0.024254 0.043044 -0.027874 -0.034979 -0.053130 0.046340 0.012033 0.072069 0.195090 0.016515 -0.050618 0.000428 -0.107272 0.002059 0.058477 0.065960 0.047257 -0.015823 0.041388 0.061334 0.001817 -0.080376 -0.037962 0.053503 -0.075099 0.030838 0.052987 -0.063121 0.096817 0.023972 0.034753 0.044413 -0.015960 -0.072428 0.058627 -0.064531 -0.036855 -0.015078 -0.077998 0.047776 -0.077570 -0.048328 -0.028897 -0.031858 0.013097 -0.063629 -0.056012 0.002766 -0.003404 0.184893 -0.031839 0.081476 0.072479 0.011999 0.053893 0.078148 -0.045544 0.023836 -0.055247 -0.009232 -0.047543 0.048902 0.045716 0.041700 0.059287 0.070873 0.057268 0.037380 -0.076061 0.061789 0.006339 -0.049688 -0.049792 0.016423 -0.016126 0.027615 0.118172 0.012688 -0.063361 -0.024669 0.000777 -0.012134 -0.027655 -0.005990 0.078512 -0.045140 -0.009770 -0.039881 0.050750 0.075306 -0.008255 -0.060103 -0.028087 -0.040501 0.100787 -0.052876 0.052428 0.036230 0.072515 -0.034523 0.019253 -0.025707 0.078952 0.041144 -0.136245 -0.035407 -0.000870 -0.065099 0.231442 0.010997 -0.013516 -0.011237 -0.089874 0.068533 0.061779 0.083774 0.080969 -0.031189 -0.037079 0.041280 0.054591 0.029428 0.088746 -0.057750 0.065244 0.048103 -0.028743 0.039230 0.020997 -0.040784 0.016913 -0.054975 -0.024839 0.007139 0.060922 0.075743 -0.043468 -0.021385 0.070971 0.046343 0.072575 -0.013903 -0.031857 0.071380 -0.053839 -0.068752 0.058480 -0.016250 -0.013403 0.015450 0.075242 -0.044235 0.057312 0.062818 -0.021704 0.040529 0.017707 0.032507 0.011260 -0.015148 0.064260 -0.068824 -0.024587 0.018302 0.021733 0.000178 -0.007536 -0.000033 0.014502 -0.015549 -0.023915 0.012361 0.068733 -0.044285 -0.006233 -0.076854 0.036653 -0.046177 -0.050179 0.074546 0.008700 -0.054643 -0.056182 -0.016033 -0.076764 0.023491 -0.053792 0.036725 -0.043472 0.078397 0.068606 -0.049714 0.039475 -0.012700 0.164158 -0.024476 -0.006440 -0.040547 0.063606 -0.170220 0.029827 -0.057302 0.038426 0.004363 0.002794 -0.078794 0.008302 -0.050432 -0.015681 0.037385 -0.070999 0.082821 -0.039459 -0.002035 -0.014974 0.065126 0.045912 0.017091 0.024187 -0.091776 -0.047627 0.002761 -0.048700 0.073024 0.044735 -0.079303 -0.035747 -0.039895 -0.015726 -0.057246 -0.035098 0.093701 -0.162800 0.059969 -0.006761 0.062135 0.052662 0.076256 -0.072387 -0.030045 0.030179 -0.060782 0.005660 0.004573 -0.005469 0.041602 -0.022533 0.074948 -0.031466 0.041117 -0.035678 0.007635 0.011267 0.004565 0.001352 -0.027302 0.003967 0.041431 0.030808 0.073518 0.067862 0.062476 0.052906 -0.049433 0.042587 -0.027706 -0.072589 0.027882 -0.040521 -0.068216 -0.111278 0.081674 -0.035468 -0.009421 -0.005547 0.024271 -0.019774 0.011150 0.069381 -0.010439 0.074908 -0.049530 0.078589 0.008215 0.033361 0.033252 0.063033 -0.039024 -0.049204 0.084566 -0.065194 -0.056994 -0.023130 0.083960 0.067974 -0.064867 -0.055829 -0.023502 0.049500 -0.062021 -0.002991 0.033511 -0.009536 0.052860 -0.105433 0.050253 -0.018579 -0.034616 0.081294 -0.043603 0.027876 0.040609 -0.029137 0.033397 -0.043334 -0.043100 -0.071886 -0.057696 0.003922 -0.028738 0.013376 0.008471 -0.017988 0.073896 -0.005274 0.037894 -0.076991 0.023989 0.009832 0.049660 -0.075809 0.062237 -0.038707 -0.021819 -0.032442 0.039293 -0.158443 0.034812 -0.080373 0.072470 -0.077811 0.036252 0.045779 -0.002514 -0.014627 0.067967 0.022325 0.051414 -0.074798 0.112377 0.059586 0.020034 0.037453 -0.030675 0.005541 -0.051374 -0.042309 0.008884 0.069857 -0.011679 -0.019569 0.059116 0.042487 0.081130 -0.039351 -0.075756 0.034853 -0.001498 0.048056 0.034829 0.006512 0.066920 0.010907 -0.041086 -0.027433 0.057239 -0.043065 -0.101509 -0.010721 -0.072493 -0.049778 -0.032555 0.020045 0.074426 0.014475 -0.034723 -0.059374 0.025128 0.044766 0.173076 0.048750 -0.059354 0.050808 -0.000622 0.014887 -0.072494 0.010426 0.059068 0.015254 -0.135834 0.020587 -0.107601 -0.061638 -0.058028 -0.162027 -0.007111 0.084099 -0.050559 0.065643 -0.039424 -0.038362 -0.028300 0.035948 0.063653 0.032889 -0.027577 -0.101925 0.060401 0.077058 0.118159 0.044526 0.033694 -0.077305 0.025538 -0.041496 -0.064524 0.014737 0.054308 0.035662 -0.056751 -0.052523 0.080781 -0.050074 -0.053957 0.042787 -0.070736 -0.012777 0.032193 -0.005843 -0.025542 -0.056286 0.036750 -0.058641 0.049246 0.072288 0.053400 -0.064479 0.054933 0.026632 0.124360 0.049449 -0.013572 0.036109 0.049736 0.066021 0.076959 0.046765 0.000551 0.069484 0.005775 0.042558 0.070967 0.037172 0.069537 -0.041137 -0.030564 -0.050118 -0.068791 -0.042252 0.034046 0.046333 -0.004049 0.012892 0.090234 -0.043432 -0.067743 -0.057265 -0.033937 0.070159 -0.081529 -0.029891 0.024156 -0.034766 -0.077434 -0.020808 -0.024032 0.081631 -0.016632 0.073074 0.106843 -0.015287 0.017938 0.024045 -0.078225 0.019247 0.072828 0.005986 0.049364 -0.073897 0.085753 0.000789 -0.010556 -0.051122 0.070454 -0.152929 -0.040613 -0.059850 -0.013456 -0.034340 0.044502 -0.018723 -0.256167 0.008464 0.025522 -0.068260 -0.059622 -0.072602 -0.074003 -0.007373 -0.123807 0.054087 0.049722 0.086169 0.006439 0.066762 -0.037088 -0.026088 -0.006583 -0.089831 -0.020512 -0.046582 0.038979 0.063720 -0.042851 0.007278 0.054787 -0.066468 0.000491 -0.041012 -0.019307 0.017479 0.023955 -0.011775 -0.054497 0.027706 -0.000851 -0.033896 0.031449 0.021889 0.148071 0.050116 -0.016496 -0.012456 -0.003440 0.036510 -0.030867 0.112038 -0.071533 0.051896 0.152663 0.034960 0.071345 0.010854 0.008539 -0.040530 -0.077882 -0.016094 0.075301 0.037124 0.027205 0.075927 -0.029618 -0.015967 0.052550 0.006375 0.047129 0.024591 0.036510 -0.014525 0.044520 -0.024206 -0.061814 -0.088320 0.024024 -0.000435 0.078247 -0.072406 -0.026920 -0.038733 0.141002 -0.045370 0.066477 0.033088 0.093181 0.101203 0.082037 0.048465 0.063674 0.074585 -0.023305 0.008439 -0.074895 0.065839 0.077007 0.024879 -0.031912 0.050781 -0.054296 -0.070034 -0.055216 0.066887 -0.010948 -0.066263 -0.083553 -0.039341 0.049269 0.078234 -0.022680 -0.071065 -0.023519 -0.062489 -0.037879 -0.078942 0.042753 -0.080690 0.011017 0.062106 0.051502 -0.094956 0.038725 -0.027745 0.109736 -0.071842 0.002642 0.063433 0.065503 -0.061029 0.011480 -0.054433 0.018039 0.025959 -0.064606 -0.049835 0.054428 -0.066200 -0.019806 0.028876 -0.001233 0.040032 0.025512 0.028290 0.061518 0.074231 -0.014184 0.049133 0.079987 -0.072944 0.010864 0.040933 -0.000176 -0.009879 -0.060807 -0.010243 -0.021842 -0.028500 -0.029444 -0.026467 0.059824 0.069904 0.005145 0.116249 0.021627 0.018174 0.024890 -0.012079 0.029802 -0.099458 -0.078056 0.047413 0.038667 0.029009 -0.065319 0.025780 0.003245 0.022813 -0.006031 0.014970 0.009660 0.060232 0.086787 -0.075880 -0.036590 0.005808 0.060455 0.070217 0.056964 0.066493 0.083440 0.019875 0.064436 0.002788 -0.064654 -0.016274 -0.057073 0.008478 0.077166 0.040730 0.046240 0.206806 0.023250 0.010363 0.007330 0.016367 -0.053986 -0.057464 -0.036417 0.006788 0.032150 0.049538 0.014753 -0.065233 0.056252 0.035253 0.017355 -0.020286 -0.013799 -0.004012 -0.035929 -0.012755 -0.058212 -0.063483 0.078011 -0.028041 0.026021 -0.075381 -0.071985 -0.092674 0.056143 0.073921 -0.050746 -0.014238 0.003432 0.039446 -0.070207 0.047478 0.061127 -0.021788 -0.028822 0.021077 0.018966 0.059532 0.038199 0.071914 0.004772 -0.026834 -0.024114 0.046436 0.052211 0.005989 -0.014984 0.085885 0.035418 -0.028935 -0.033285 -0.040825 -0.024292 -0.013839 0.017188 -0.046369 -0.013835 0.072209 0.029309 0.071753 0.031787 0.036781 0.021004 -0.007470 -0.080714 0.067614 -0.081668 -0.064364 0.027105 0.040664 -0.072817 -0.043036 -0.051548 -0.019967 -0.054415 0.065237 0.122905 0.010390 0.060256 0.038263 0.087594 -0.013401 0.076655 -0.032924 0.016294 0.008498 -0.040225 -0.081426 -0.005015 -0.056439 0.077830 0.055608 0.066414 0.007121 -0.035181 0.123348 -0.001677 -0.031005 -0.081884 -0.073538 -0.074230 -0.073773 -0.018661 -0.042324 -0.017688 0.006583 -0.056478 -0.014911 -0.066512 0.057749 -0.059797 -0.080607 -0.063845 -0.068869 -0.031401 0.058938 0.021505 0.052973 0.068508 -0.081685 0.077682 0.027217 0.062505 0.026461 -0.041274 -0.055661 0.031344 0.039021 -0.002675 0.039751 0.061965 0.008619 0.045934 -0.045528 0.075987 -0.033638 0.115643 0.045691 0.020667 0.060084 0.036213 0.034762 0.063406 0.066812 0.049889 -0.053876 0.020133 -0.008892 -0.083160 -0.033683 -0.002132 0.077627 0.078186 -0.021167 0.051178 -0.047594 0.009681 0.014102 0.082944 -0.069861 -0.040849 0.057385 0.017006 -0.074469 -0.057544 -0.031514 -0.040766 0.056101 -0.068534 0.036643 0.021908 0.049861 0.022962 0.015194 0.023132 -0.013847 0.112871 -0.050474 0.064336 0.044820 0.001870 -0.024473 0.038698 -0.009818 0.042821 0.010008 -0.044407 -0.027678 -0.047178 0.018281 -0.015103 -0.021714 -0.014339 -0.082496 -0.013083 -0.027400 -0.029285 0.028494 -0.021396 -0.035497 -0.001220 -0.069598 -0.047853 -0.062121 0.039432 0.056605 -0.009849 -0.010675 -0.079001 -0.012823 -0.046052 0.001868 0.062359 0.071591 0.076448 0.055521 -0.009076 0.018307 0.122911 0.012881 -0.049288 -0.020998 0.064006 -0.004323 -0.020436 -0.029122 -0.062102 0.032721 -0.086726 0.014468 -0.071557 0.008435 0.022517 -0.058815 0.085520 -0.017211 0.037961 -0.032517 0.041759 -0.062568 0.049999 0.070950 0.021801 0.102442 0.058484 -0.001856 -0.008621 -0.020430 -0.052440 -0.025033 0.074412 -0.015206 0.034293 0.060344 -0.070396 -0.064729 -0.050251 -0.079761 0.063984 -0.043380 0.064616 0.065914 0.039837 0.006442 -0.034976 -0.005064 0.040134 -0.042235 0.045776 -0.019616 -0.040140 0.012566 -0.000840 0.081549 -0.036533 -0.036843 0.114349 0.019947 0.029663 0.043920 0.109834 0.022441 -0.054893 0.027643 0.003192 -0.040274 -0.036477 0.038084 -0.015909 0.014140 0.075247 -0.044036 -0.016683 0.035288 0.042770 0.130071 -0.050733 0.005587 0.061539 0.095185 -0.073041 -0.043103 0.004911 -0.032742 -0.031586 0.050827 0.043522 0.050620 -0.013065 -0.013237 0.013056 -0.019273 -0.067095 0.039009 -0.071754 0.054110 0.072992 0.055085 0.002537 -0.005175 -0.016781 -0.028724 0.031540 0.043074 -0.076640 0.004063 -0.005388 -0.046435 -0.080439 -0.016508 -0.056357 -0.068679 0.018160 0.021369 0.035735 0.053335 0.071682 -0.030560 0.025982 0.068615 0.049522 -0.045576 -0.033239 0.089478 0.074897 -0.030019 0.028589 0.072670 -0.053460 0.076660 -0.017767 0.015593 -0.036179 -0.056710 -0.004284 -0.028346 0.028958 0.001942 0.021225 0.039738 0.018719 0.037090 0.044373 0.083975 -0.006963 -0.031601 0.047127 0.064308 0.019734 -0.011376 0.051870 -0.013527 0.035059 -0.065068 -0.023375 0.013903 0.041831 0.071353 0.002979 0.022465 0.083650 0.036797 -0.044248 -0.052433 -0.068033 0.035909 -0.037545 0.044304 0.016560 -0.072495 -0.004645 -0.097972 0.030343 -0.038705 0.077668 0.017614 0.015172 0.056112 -0.071713 -0.035339 -0.038053 0.061551 0.020329 0.021436 0.079128 0.078252 -0.009094 -0.011781 0.067109 -0.083939 -0.068040 0.049595 0.061162 -0.034048 0.081195 -0.061982 0.081268 -0.000299 0.073807 0.029014 0.003948 -0.027435 0.014310 -0.041837 0.017933 0.026251 -0.003117 -0.050417 -0.011693 0.008567 -0.016716 0.029590 -0.012598 -0.070921 0.009665 -0.017068 0.110888 -0.073146 0.054178 0.066085 -0.066613 0.063958 0.034280 -0.051348 -0.052722 0.031648 -0.053529 -0.053090 -0.051598 0.075722 0.058177 0.040210 -0.034311 0.007592 -0.071883 0.064397 -0.053038 0.012501 -0.064341 0.022952 0.018547 -0.000928 -0.033203 0.003619 0.002895 0.056583 0.068381 0.000184 0.065332 0.021598 -0.013652 0.080533 0.035349 -0.063814 -0.072735 0.050397 0.079620 -0.052019 0.081978 -0.081347 -0.048848 0.032480 0.041162 -0.011943 -0.018174 0.051400 -0.042034 0.015632 -0.036790 -0.011672 -0.045361 -0.017132 0.054659 0.003632 0.075205 -0.042598 -0.019090 0.062307 0.067836 -0.051279 0.016268 -0.030431 -0.037736 -0.055716 -0.012080 -0.027701 -0.083348 -0.044049 0.002673 -0.078963 -0.043120 0.026191 0.063510 0.078770 -0.067520 -0.028566 0.046798 -0.014434 0.079158 -0.059126 0.053173 -0.060457 0.010287 0.029266 0.028763 0.007276 -0.058973 -0.072565 -0.014473 -0.073299 -0.027062 -0.072432 -0.021643 0.015863 -0.032341 0.047799 0.083987 -0.025557 -0.077650 -0.007364 -0.016821 -0.039549 -0.063219 -0.007017 -0.042872 -0.046898 0.019918 -0.077740 0.019181 -0.002912 -0.054145 -0.008925 0.019283 0.041902 -0.053308 -0.034749 -0.034463 -0.018976 -0.018036 0.036469 -0.003295 0.030674 0.041932 0.040548 -0.033517 -0.075989 0.005451 -0.043803 -0.019330 0.006286 0.034828 0.046127 0.068284 0.050637 -0.069347 -0.072955 -0.049938 0.027753 -0.067692 0.021694 -0.053302 -0.035942 -0.069918 0.043339 -0.080218 -0.040850 -0.076159 -0.030543 -0.001536 -0.015533 -0.075256 0.068990 -0.074941 0.046896 0.028676 -0.080608 0.053878 -0.048321 0.019648 -0.064268 0.033957 -0.031376 0.080268 0.011643 -0.063171 -0.071289 0.024145 -0.061361 0.038795 0.035699 0.042620 0.063554 0.081758 0.054610 0.024871 -0.080028 -0.068959 0.033798 -0.025277 0.024805 -0.064561 -0.023221 0.013654 -0.049440 -0.057547 -0.039170 0.013458 0.078365 -0.005054 -0.049169 -0.052492 -0.039484 0.001677 -0.054732 0.056086 0.022713 -0.040981 -0.003349 0.041852 0.078106 -0.046281 0.001804 0.059416 -0.036574 -0.025922 0.001449 -0.044505 -0.012043 -0.046319 0.008683 -0.069509 -0.028457 0.067730 0.026914 0.003788 -0.072180 0.069928 -0.044379 -0.075731 -0.016277 -0.027235 -0.046110 0.022825 0.051980 -0.017527 -0.005119 -0.009547 0.021674 0.073823 -0.050413 0.017832 -0.054610 0.033388 -0.005069 -0.019147 -0.074407 0.116810 0.018299 -0.004344 -0.049300 -0.055340 0.028797 0.004253 -0.070003 -0.046483 -0.074077 -0.058916 -0.058264 -0.056825 -0.053698 0.010403 -0.007768 -0.017789 -0.052254 -0.037285 0.047500 0.024920 0.035690 -0.013025 0.016400 0.067940 -0.077684 0.043929 0.019749 -0.000595 -0.057493 0.028079 -0.003692 0.043097 -0.058015 0.029178 0.070057 0.033093 -0.048796 -0.082012 0.068943 -0.040633 -0.059425 -0.071755 -0.015243 -0.030746 0.017770 0.060381 0.034320 0.047876 -0.058949 -0.000473 -0.009497 0.059033 0.068794 -0.075388 0.044680 0.073402 0.050833 -0.017863 -0.009485 0.075632 -0.072077 0.069115 0.036436 -0.047799 0.016001 0.024201 0.067586 0.049497 0.024482 0.054236 -0.073428 0.047349 0.064774 -0.006379 -0.065689 0.000252 -0.028291 0.050923 -0.034164 -0.004947 -0.031843 0.038631 -0.028207 -0.045341 0.045535 -0.065819 -0.054231 0.014076 -0.001390 0.018576 0.007416 0.008826 0.005399 -0.038440 0.043319 -0.060892 0.068053 0.028612 0.070898 0.010243 0.000557 0.079761 -0.024700 -0.016961 -0.008910 -0.008097 0.065583 0.045091 -0.039466 -0.050873 -0.042148 0.010983 0.070050 0.011937 0.047935 0.033293 0.028411 0.075996 -0.034923 -0.055271 0.012281 0.054785 0.035847 -0.064612 -0.065948 -0.003126 -0.043212 -0.080187 -0.056806 -0.054607 0.012349 0.026043 -0.057137 0.069941 -0.073211 0.016245 -0.020449 0.074664 -0.020956 0.022377 -0.058501 0.019188 -0.048932 -0.070743 -0.051167 0.081295 0.044842 0.059535 0.075000 -0.072373 -0.078028 0.004988 0.064703 0.040111 0.022668 0.081048 -0.045308 0.061748 -0.081431 -0.019822 -0.075150 0.013210 -0.076071 -0.049995 0.000858 -0.066990 0.048542 0.062702 -0.074618 -0.054707 0.002787 -0.050827 0.046773 0.036147 -0.039278 0.077898 0.035150 -0.076728 0.055141 0.027858 -0.066810 0.059405 -0.049446 0.080186 0.017224 0.055514 0.078941 0.054209 0.034970 0.079803 -0.047905 0.042112 0.010720 -0.041684 0.074409 -0.070714 -0.026381 0.040659 0.074280 -0.018707 0.068244 -0.005225 0.012758 0.032725 -0.051370 0.055772 0.028331 0.066073 0.061336 0.001180 0.011638 0.076819 -0.021707 0.044484 0.074712 0.077809 0.017707 0.071362 0.049726 -0.029615 0.068872 -0.080471 -0.069795 -0.002700 -0.039863 -0.077678 0.008879 0.016048 0.045273 0.000867 0.079633 0.031224 0.077934 0.010099 -0.018343 -0.055728 -0.016421 -0.072305 -0.071948 -0.037376 0.011167 0.021983 -0.042850 0.071752 -0.015825 -0.050430 0.067269 -0.080411 -0.061360 0.034703 -0.027734 -0.074781 0.036524 -0.015237 0.004812 0.078953 -0.010622 -0.068602 0.012709 -0.047642 0.014557 0.010049 0.065875 0.010199 -0.062144 -0.034761 0.036763 0.003728 -0.024773 0.047107 0.048644 0.068687 -0.013203 -0.076498 0.058147 0.053265 -0.044636 0.043124 0.055146 -0.023704 -0.004466 -0.054880 -0.016192 -0.050234 0.012176 0.070912 -0.053573 -0.080739 -0.079982 0.041427 -0.046089 0.016867 -0.030815 -0.062506 -0.055227 -0.010667 -0.014975 0.063828 0.075353 0.042545 0.028643 0.041705 0.028939 -0.066852 0.047499 0.004793 0.068705 -0.079429 -0.034375 0.041559 -0.020841 0.043451 0.068971 0.045259 0.075509 -0.001145 0.033878 -0.060356 0.000408 0.036188 0.063363 0.036612 -0.029238 -0.049744 0.056398 -0.002172 0.021881 -0.040869 -0.020636 0.014942 -0.080616 -0.074286 -0.025645 0.030615 -0.058845 -0.060439 -0.046884 -0.072433 -0.057576 0.001033 0.051418 0.003875 -0.037808 0.038097 -0.033158 -0.044591 -0.045341 -0.081572 -0.022655 0.037360 0.036908 -0.041584 -0.008321 -0.074622 -0.009036 -0.034215 0.005498 -0.069447 0.007208 0.067154 0.027787 0.008884 0.075161 -0.080150 -0.042793 -0.065977 -0.058297 -0.007385 -0.056118 -0.033580 0.075940 0.077593 0.052588 -0.044160 0.033397 -0.062863 -0.006458 0.070349 -0.062143 0.053179 0.025416 0.057057 -0.070697 -0.065197 0.064727 0.002559 -0.017119 -0.012068 0.015404 0.072381 -0.027206 -0.039101 -0.001027 -0.034337 -0.036959 0.038472 -0.018022 -0.012964 -0.051205 0.008153 0.035749 -0.057557 0.003453 0.006044 -0.019425 -0.045442 0.025473 0.056409 -0.057385 0.045622 0.027296 0.050324 0.020387 0.038891 0.067419 0.002821 -0.040842 -0.031992 0.073046 0.056854 -0.041903 -0.036452 -0.064539 0.039362 0.011503 -0.019206 -0.004458 0.075773 0.050123 0.026629 0.001634 0.003579 0.051364 -0.077205 -0.072669 -0.050353 -0.040355 0.035096 -0.076236 -0.015448 -0.001574 0.033352 -0.047416 -0.063480 -0.010049 -0.062289 0.021634 0.031401 -0.011989 0.012387 0.005963 0.028400 0.058227 0.023717 -0.014530 -0.012563 -0.077781 0.063304 -0.019082 0.054634 0.007641 0.064844 -0.024080 -0.023287 0.069930 -0.014457 0.008652 -0.052717 -0.061653 0.014709 0.014128 0.019066 -0.034231 0.049004 0.037878 0.038013 0.069007 -0.022781 -0.012878 -0.025274 0.071898 0.075377 -0.079166 0.047833 0.016802 -0.011404 -0.047022 0.021312 -0.030392 0.016188 -0.006346 0.059541 -0.001260 0.051866 -0.046039 -0.013622 -0.044882 0.044906 0.015953 -0.024243 -0.022677 -0.052211 0.077115 0.025384 0.079086 0.032701 -0.018895 0.065801 -0.072372 0.050518 -0.041765 0.081819 0.043603 -0.038639 0.047359 -0.021887 0.032249 -0.081955 0.081718 -0.080435 0.016525 -0.006921 0.061398 -0.067027 -0.037347 -0.066933 0.001643 0.000063 0.060265 -0.064696 0.058113 -0.044705 -0.034615 0.052935 0.062972 -0.037821 0.003344 -0.038216 -0.054313 0.013264 -0.069990 -0.013785 0.012790 0.055906 0.029868 -0.022143 -0.048274 -0.020175 -0.021805 -0.048848 -0.018318 0.077012 0.026523 -0.039212 -0.072307 0.071469 -0.023853 0.011628 -0.010760 -0.045881 0.029224 -0.034940 -0.008293 0.076901 -0.064297 -0.027614 -0.043212 0.021339 0.016462 -0.015232 -0.047689 0.028765 0.053274 0.047393 0.002378 0.000850 -0.057042 0.036397 0.062968 0.003445 0.069841 -0.037642 -0.001835 0.014072 0.005438 0.008150 0.003248 0.063877 -0.062514 0.074780 -0.064295 0.049002 -0.042452 0.009704 0.043611 -0.024457 0.064382 -0.081893 0.079174 -0.001448 -0.014833 -0.050807 -0.054976 -0.043851 0.078878 0.029695 0.039292 -0.060456 -0.016201 0.019967 0.025281 -0.028652 0.064618 -0.058846 0.067712 -0.012236 0.031597 -0.011332 -0.030742 0.051377 -0.018929 -0.012636 0.017584 0.021532 0.079343 -0.020593 0.078665 0.061429 -0.020192 0.076561 -0.022307 0.047261 -0.057546 0.005013 -0.078879 -0.060814 -0.047593 0.042704 -0.038943 0.018468 -0.019618 0.068761 0.072128 -0.037295 -0.072529 0.057512 0.032216 0.041359 -0.036068 -0.080189 0.010446 0.027365 -0.010513 -0.053821 -0.033879 -0.013504 0.007901 -0.036972 -0.034491 0.070035 -0.043946 0.025635 0.035005 -0.019042 -0.051656 0.038414 0.001830 -0.016935 -0.001168 0.045724 -0.080725 0.061508 0.032084 0.073699 -0.058102 0.041842 0.048954 0.056936 0.000928 -0.069353 0.059004 -0.070804 0.040277 -0.033197 -0.042388 -0.075929 0.035162 0.047813 -0.030986 -0.081648 0.035548 0.007330 0.026358 -0.011693 0.070594 0.057500 -0.055631 -0.009259 -0.042336 0.025213 -0.045779 -0.040962 0.004653 0.068248 -0.050390 0.028860 0.028143 0.081832 0.003505 -0.052991 -0.069852 -0.020002 -0.041858 0.052700 0.028955 -0.001953 0.059049 -0.017872 -0.044256 -0.054185 -0.017832 0.081414 0.034329 -0.073970 -0.012627 0.023831 0.065261 0.014060 -0.067905 -0.059019 -0.042788 -0.031375 -0.017863 0.044198 -0.045092 0.015019 -0.009241 0.065383 0.014126 0.075303 -0.070123 0.027126 -0.029595 -0.029683 -0.002504 -0.079009 0.050517 -0.025788 -0.015116 -0.067890 0.002322 0.049262 -0.068438 -0.044543 0.057735 0.000705 0.061505 0.044247 -0.067452 0.075781 0.063761 -0.028030 -0.037856 -0.036347 -0.066113 -0.000469 0.064212 0.006903 -0.018372 -0.006693 0.000696 -0.005407 -0.061869 0.058053 0.047237 0.020981 0.061378 0.015601 0.074408 -0.036102 0.029824 -0.005832 -0.069239 0.043370 0.032162 0.070869 -0.038698 0.008012 0.029429 -0.023709 0.004809 0.010886 0.030500 0.049133 0.056851 0.046515 -0.033697 0.035567 -0.028762 0.049217 -0.053351 0.054862 -0.056442 -0.032566 0.054909 0.072925 0.067263 0.009732 0.006213 0.059412 0.055950 -0.045208 -0.028344 0.069467 0.079438 -0.078509 0.057801 -0.041704 0.004229 0.005389 0.016873 -0.062414 -0.069043 -0.035040 0.068986 0.072594 -0.070972 -0.046943 0.026055 -0.012229 0.066466 0.054956 -0.045217 -0.071881 -0.060162 0.068998 -0.081878 -0.075336 -0.003137 0.006387 0.066456 -0.029074 0.039392 -0.044442 -0.043252 0.039138 -0.039907 -0.066959 0.080588 0.056783 0.019665 0.015100 0.077797 0.035138 0.064709 0.063512 0.025445 0.076042 -0.065332 -0.025671 -0.024481 -0.081473 -0.057607 0.013673 -0.071642 -0.035493 0.001073 -0.071200 -0.028878 0.074657 0.019424 -0.044173 -0.033617 -0.021824 -0.006114 0.005218 -0.064670 0.035364 0.020178 -0.067107 0.012619 -0.042562 0.031222 0.006957 0.075143 0.010664 -0.013951 0.015303 0.003172 0.002786 0.070899 0.060725 0.004800 -0.068847 -0.007595 0.014154 -0.021924 0.074783 0.025021 0.041198 0.071232 -0.039199 0.069845 -0.044807 0.030193 -0.018531 0.042612 0.038639 -0.064169 -0.018220 0.054339 0.027473 0.020504 0.003015 -0.052314 0.013762 -0.069184 0.018252 -0.054970 0.016436 -0.060885 -0.060974 -0.006551 0.024555 -0.047564 0.069093 -0.043889 0.012700 0.061496 0.064632 -0.037719 0.050285 -0.058616 -0.050034 -0.076769 0.045170 0.013701 0.048548 0.001673 0.030694 -0.052918 -0.025876 -0.022242 0.049953 0.058278 0.008476 -0.024816 0.071659 -0.054904 0.013827 0.005420 -0.034066 0.035929 0.082215 0.073593 0.069900 0.068984 -0.052793 0.000401 0.049807 -0.071409 0.044956 0.016184 -0.047098 0.077165 0.021766 0.081859 0.008564 -0.012176 -0.000020 -0.042512 0.017340 0.055645 0.015852 -0.014937 0.031572 -0.057883 0.048585 0.020899 -0.031202 -0.018467 -0.055917 0.018232 -0.066163 -0.055945 0.008223 -0.079235 -0.069210 0.037669 0.003249 0.061178 0.048524 -0.034096 -0.004883 -0.080817 -0.039148 -0.065412 0.081907 0.051612 0.008906 -0.000582 -0.073342 -0.060009 -0.027204 0.030429 0.007302 -0.076933 0.049264 -0.026217 0.022933 -0.063736 0.035744 0.051671 0.037167 0.050382 0.077932 -0.037956 0.054242 -0.125979 0.083725 -0.023025 0.070028 0.022202 0.037400 -0.017603 0.048478 0.064361 0.020119 0.050800 0.033681 -0.078057 -0.033767 0.037726 -0.055558 0.021103 -0.014102 0.033537 0.026392 -0.043797 -0.078199 -0.031040 -0.018100 0.123012 -0.061798 -0.073277 0.009869 -0.106137 -0.029074 -0.015574 -0.056569 -0.028639 0.042124 -0.076227 -0.063199 -0.012894 -0.004881 0.068310 -0.027496 0.076799 0.039997 -0.077652 0.081797 -0.079620 0.049413 -0.053025 0.022414 -0.030555 0.059428 -0.032243 -0.005915 0.067735 0.018051 0.047566 0.029470 0.039581 0.054551 -0.041498 0.056338 -0.054645 0.025385 0.077474 0.001114 -0.010513 -0.063562 0.018488 0.052651 0.005329 0.004068 -0.060860 0.000630 -0.041367 -0.056133 0.001077 -0.038149 0.073957 0.027335 0.068020 -0.052227 0.002313 0.000035 0.021703 -0.011898 0.055143 -0.004239 -0.049183 0.012748 -0.024049 -0.021703 -0.013204 -0.044342 -0.078302 -0.016801 0.076025 -0.003751 -0.001167 0.005700 -0.040133 -0.075947 -0.319192 -0.011631 0.003940 -0.023673 -0.075956 -0.075678 0.011948 0.004491 0.023349 0.014862 0.036559 -0.053669 0.034258 -0.028714 -0.001096 0.009583 0.040290 0.036616 -0.063614 -0.078515 -0.049536 -0.010581 -0.011737 0.002381 0.164592 -0.021495 0.013270 -0.031524 0.055845 0.057522 -0.008824 0.074620 -0.039180 0.072962 -0.032316 0.048569 0.086904 0.059633 -0.042615 0.049047 -0.015525 -0.032573 0.064188 -0.068952 -0.025112 0.004766 0.024402 -0.068651 0.031200 0.038038 -0.068784 -0.002992 -0.035085 0.002749 0.011946 -0.044233 0.065951 -0.058929 0.019967 0.051293 -0.081133 -0.081183 0.111675 -0.013134 -0.061189 -0.053704 -0.069758 -0.083335 0.091713 -0.015673 0.028553 -0.041065 -0.018866 0.011482 -0.019615 0.038259 -0.070812 0.075143 0.052352 -0.019902 0.024617 0.271797 0.048104 0.079359 -0.002358 -0.004647 0.010145 -0.019826 0.024537 0.056775 -0.050197 -0.054356 0.067396 0.070918 0.067263 0.083070 0.030138 0.053680 0.069631 0.066664 -0.120777 -0.010510 -0.063131 0.078564 -0.188929 -0.001182 -0.026898 -0.029016 -0.010891 -0.021165 0.028436 -0.072481 -0.064248 -0.009193 -0.047543 0.014598 0.048162 -0.026068 0.073935 -0.029219 -0.005791 -0.087723 0.044744 -0.010837 -0.018964 0.019870 -0.074689 -0.105518 -0.130693 -0.056401 0.083887 0.020906 0.021708 -0.066707 -0.012364 0.042659 0.028020 0.017651 -0.107581 -0.015599 0.033934 0.154140 -0.021924 0.068335 -0.062043 0.007660 0.008699 0.065419 0.129143 -0.014229 -0.037837 -0.032680 0.008827 -0.086040 -0.021463 0.017878 0.013087 -0.006582 0.017922 -0.076449 -0.007728 0.020537 0.100406 -0.025228 0.060962 0.075117 0.059101 -0.035384 0.026507 0.061506 -0.002142 -0.041749 0.001017 0.058484 -0.023033 0.030157 -0.023523 0.029335 -0.000810 -0.024739 -0.077599 0.188304 0.009087 0.023504 0.041064 0.105416 0.006616 -0.029405 -0.008179 0.064592 -0.025528 -0.073360 -0.006869 0.063388 0.074335 -0.040798 -0.061992 0.013875 0.001848 -0.017183 0.044506 0.070968 0.038630 0.014208 -0.147670 0.054519 0.022427 -0.039877 0.013851 -0.005113 0.003550 0.045811 0.067229 -0.072796 0.023094 0.022849 0.068575 0.017335 0.073265 -0.035183 -0.022353 -0.050599 -0.086260 -0.084873 0.089857 0.057284 -0.059470 -0.093140 -0.057021 0.070994 0.012366 0.073794 0.013198 -0.035954 0.100920 -0.025189 -0.019577 0.013906 -0.015985 0.121373 0.032785 0.073306 0.044789 0.033022 -0.066482 -0.051248 -0.018290 -0.072801 0.077345 -0.038172 -0.020064 0.004498 0.061199 -0.039185 0.001500 0.054417 -0.063213 0.072365 0.069363 0.016329 -0.037070 0.004622 0.099121 0.098094 0.039551 0.005361 -0.044148 -0.074868 -0.127147 0.042497 -0.078263 0.040237 0.036946 0.045432 0.028040 0.061746 0.074342 0.050231 0.054652 0.058362 -0.078562 0.126732 -0.025697 0.046912 0.000137 0.069380 0.074148 0.011278 0.122328 -0.014391 -0.061313 0.061582 0.066463 0.022166 0.058713 0.051341 -0.153143 0.034084 0.031988 -0.089797 0.012360 0.077637 0.080024 0.016512 -0.220312 -0.009101 -0.084488 0.023928 -0.080898 0.134248 -0.019135 0.001687 0.080897 0.022499 0.103379 -0.010891 -0.010579 -0.031615 0.085081 0.079397 -0.047066 -0.070744 0.023398 0.020614 0.200772 -0.034110 -0.016011 0.007379 -0.203065 -0.030147 0.051705 0.005524 0.072400 0.035768 0.058511 -0.011988 0.006217 0.025471 0.072139 0.046840 -0.009108 0.137693 0.046370 0.008551 0.061029 0.034218 0.087761 -0.010567 -0.003538 0.076311 -0.028990 -0.062175 -0.049802 0.071136 0.039408 0.059425 -0.039848 -0.010929 0.008395 -0.029826 -0.029232 -0.008876 0.182943 -0.001665 -0.068885 0.046366 0.034611 -0.000167 -0.156511 0.024605 0.064253 0.002467 0.045514 0.023797 0.003718 0.036799 -0.022937 -0.041530 -0.083072 0.000961 -0.085144 0.289296 0.004744 -0.019238 -0.015953 0.019344 0.305087 0.047584 0.046452 0.015091 0.052452 0.001478 -0.068231 0.036915 0.177197 0.021801 -0.201046 0.013765 0.014764 -0.075344 0.009956 0.038554 0.053990 0.114664 -0.283255 0.108200 0.019177 0.062055 -0.137606 0.053089 -0.050453 0.011921 0.071051 0.009676 0.008882 -0.048456 0.045709 -0.048364 0.061256 -0.044774 -0.152122 0.014070 0.061849 0.070532 0.089013 0.060044 -0.040367 -0.022781 0.052356 -0.061962 -0.019810 0.025816 0.024941 -0.074139 0.038309 0.051089 0.113833 -0.048384 0.025206 0.175442 0.054945 0.142833 -0.058087 0.053665 0.080805 -0.019590 -0.076767 0.068702 0.027217 0.055248 0.087943 0.024839 0.023866 0.058520 0.000298 0.041579 0.038587 0.039559 0.057276 -0.043992 0.051063 -0.031764 0.139195 0.007239 -0.065323 0.121158 -0.036644 -0.017548 0.005006 0.016185 -0.028810 -0.023723 -0.080815 -0.009801 0.026627 -0.069375 0.058233 0.012774 0.053154 -0.008202 -0.065564 0.341357 -0.080975 0.033375 0.043858 0.045702 0.226396 0.038308 -0.004055 -0.035498 -0.009863 0.000632 0.009184 0.008266 0.082120 0.125564 0.056096 0.054009 -0.080097 -0.003510 0.116289 -0.011864 0.111853 -0.049538 -0.268620 -0.033259 -0.023349 0.081414 -0.021802 -0.020567 -0.037516 0.130064 0.072386 -0.066998 -0.002271 0.008626 0.007047 0.020530 -0.074261 0.064729 -0.126900 0.011314 0.058388 0.109689 0.135004 -0.010303 -0.023085 0.135049 -0.021463 -0.000727 0.052262 -0.005681 -0.071877 -0.013171 0.036243 0.051065 0.025321 -0.062421 0.027378 0.083439 -0.024065 0.286676 0.075515 -0.032602 0.025174 -0.051289 0.067522 -0.017005 0.124591 0.065229 -0.098406 0.076848 0.058587 0.065039 -0.020913 0.015065 -0.031268 0.100244 -0.041056 -0.001284 -0.031031 0.021936 0.180048 -0.003838 0.021966 0.144087 -0.043464 -0.012339 -0.006220 0.012746 0.000552 0.072983 -0.050957 -0.019381 -0.005683 0.054245 0.018498 -0.016802 -0.069985 -0.028211 -0.084673 0.283455 -0.054668 0.029069 0.115409 0.000019 0.191235 0.021077 0.018334 -0.003882 -0.012084 -0.248047 -0.060358 -0.001328 0.097181 -0.013357 -0.018798 0.092233 -0.024137 0.018834 0.218964 0.035179 0.093552 -0.074207 -0.352868 -0.085623 0.032408 0.100453 -0.046709 0.130509 -0.033203 0.063934 0.046445 -0.046794 0.114661 0.033532 0.032529 0.013474 -0.054840 0.079788 -0.208448 0.030974 -0.026378 0.088867 0.099822 -0.006834 -0.037808 0.015834 0.059429 0.012490 0.059386 0.062819 0.035327 0.079491 0.042597 0.042652 0.058646 -0.015659 0.048415 0.168615 -0.058630 0.457102 0.003183 0.077646 0.048489 0.049038 0.041733 0.021993 0.098244 0.054727 0.008817 0.086838 0.051982 0.036980 0.071951 0.064017 0.073603 0.057630 -0.074547 -0.040631 0.084504 -0.039034 0.230937 0.056960 -0.093617 0.114360 0.022640 0.065101 -0.087023 -0.068615 0.069376 -0.055783 0.007620 -0.053638 -0.027968 -0.033382 0.082785 0.089195 0.050529 -0.026064 0.026344 0.323883 0.083343 -0.042909 0.074915 0.126449 0.307594 0.053339 0.008709 -0.054792 -0.009693 -0.094370 -0.018165 -0.002934 0.065919 0.036513 0.017552 -0.029547 -0.020224 -0.007287 0.155887 -0.068826 0.149684 -0.039036 -0.301024 0.112739 -0.062220 0.065934 0.075691 0.141821 0.048753 0.024996 0.066103 0.005727 0.221054 0.006920 -0.004793 -0.026439 0.002125 0.028438 -0.030378 -0.074693 0.014329 0.112467 0.244360 0.032063 -0.025033 0.011908 0.155158 0.081908 0.011374 0.031796 -0.059521 0.058665 0.057702 -0.038984 0.041641 0.005929 0.059140 0.100311 -0.020060 0.535469 0.055646 -0.028465 0.028659 0.014719 0.052760 -0.025515 0.116036 -0.013000 0.095028 0.144972 0.012627 -0.029815 0.012569 -0.012938 0.028090 0.308092 0.027878 -0.036900 0.057340 0.077734 0.121623 0.085596 0.007395 0.091314 -0.000488 0.018387 0.086033 0.103119 -0.035475 -0.064386 0.062191 0.000418 0.004599 0.007983 0.090843 0.017976 0.031075 -0.071278 0.021886 0.218385 0.030576 0.056606 0.041301 0.051985 0.104606 -0.052270 -0.001190 0.078202 -0.082192 -0.008306 0.056137 -0.187745 0.088839 0.026558 0.105659 -0.050421 -0.065034 -0.047504 0.215732 -0.123820 0.098278 -0.248716 -0.195229 0.068731 -0.012549 0.124057 -0.023587 0.156639 0.071090 0.160055 -0.052325 -0.009562 0.154938 -0.007846 0.043897 0.019005 0.040785 -0.053469 -0.162089 0.034007 -0.071470 0.018150 0.366831 0.138973 0.068663 -0.045717 -0.009613 -0.073910 0.106114 0.056800 0.005732 0.033805 0.168624 -0.076549 0.003498 -0.050844 0.099945 0.146574 -0.044637 0.527894 0.107296 -0.024791 0.086936 0.045663 0.054210 0.079481 0.202431 0.016130 0.036238 0.099326 0.101122 0.049967 0.009664 -0.028138 0.032176 0.228005 -0.020440 0.045068 0.022292 0.076348 0.158521 -0.023946 -0.001968 0.085206 0.012047 -0.055122 0.068289 0.020085 0.049523 0.008663 0.027736 -0.048067 0.000119 0.011946 -0.007480 0.062970 -0.000481 -0.030850 -0.060845 0.221154 -0.029536 -0.025624 0.103728 0.163921 0.249839 0.050233 -0.010179 -0.062948 -0.065937 0.135583 0.077782 -0.002530 0.097314 0.023696 -0.015469 -0.030592 0.060059 0.031938 0.099520 -0.013818 0.018440 -0.269703 -0.224044 0.078999 0.057875 0.052955 0.100989 0.032713 0.046975 0.318818 -0.022971 0.083601 -0.046095 -0.093310 0.052885 0.038289 0.062570 -0.042057 -0.217160 -0.081659 -0.072694 0.103327 0.512050 0.060865 -0.036592 -0.063026 -0.127082 -0.076852 0.114679 0.023526 0.015696 0.069600 0.156292 -0.088723 0.052758 0.007957 0.014768 0.125379 0.087699 0.309338 0.087585 -0.052328 -0.057079 -0.052477 -0.006095 0.105744 0.255674 -0.056070 -0.118229 0.107455 0.084726 -0.055087 0.013548 -0.068918 -0.053541 0.249130 -0.093572 -0.003592 0.086462 0.051155 0.285776 0.061290 -0.001238 0.101435 0.053374 -0.024483 0.153345 0.023803 0.042619 0.073892 -0.041311 0.083191 -0.114612 -0.057716 -0.138865 0.028409 -0.012044 -0.067989 -0.015004 0.396966 0.053968 0.020625 0.053320 0.077877 0.158255 0.159242 0.002638 0.028861 -0.072013 0.074125 -0.026556 0.059192 0.154928 0.080022 0.099043 0.088320 -0.051040 -0.063243 0.347553 0.121425 0.096649 -0.096265 -0.118529 0.108764 0.000578 0.150429 0.073450 0.124195 0.103098 0.217928 -0.027992 0.068116 0.050607 -0.007095 -0.025781 -0.061669 0.056989 0.058870 0.001780 0.063956 -0.048053 0.093396 0.468249 0.106712 0.052221 0.156270 0.047023 0.082867 0.144381 -0.014706 0.070106 0.057673 0.087203 0.014576 0.050639 -0.076534 0.077203 0.070767 0.085039 0.340252 0.170179 -0.043751 0.004990 -0.022977 -0.065002 0.106587 0.137626 0.044892 -0.022403 -0.017266 0.167500 0.040814 -0.070498 -0.060167 0.059956 0.165017 -0.085570 0.029990 0.060282 -0.043489 0.046882 0.090453 0.080901 0.056072 0.013654 0.049526 0.323901 0.012446 -0.082706 -0.013130 0.020212 0.094449 0.029726 -0.089185 -0.096991 0.095123 -0.076956 0.040053 0.012994 0.291839 0.040348 -0.014573 0.003808 0.124650 0.169264 0.044152 0.059099 0.032770 0.056842 -0.197705 0.030282 0.166228 0.108365 0.041252 0.093552 0.118828 0.007819 -0.049318 0.299728 0.040327 0.030333 0.008999 -0.146443 -0.031323 0.023955 0.067882 0.091332 0.101273 0.021254 0.170718 -0.038603 -0.017881 -0.012237 -0.010964 -0.050604 0.020524 0.070538 0.088407 0.059338 0.028003 0.008926 -0.049456 0.427422 0.139056 0.040371 0.000663 -0.069808 -0.041439 -0.131762 0.000187 0.035902 0.049726 0.092126 -0.055923 -0.045105 -0.008162 0.003686 0.171855 0.003687 0.454829 0.044603 -0.021189 0.081968 0.004127 0.066078 -0.012354 0.127873 0.048803 -0.080865 0.048505 0.026419 0.021534 0.014430 -0.028837 0.002669 0.125514 -0.013831 -0.054241 -0.011306 0.058853 0.096487 -0.045163 0.021197 0.025719 0.000051 0.035462 0.159094 0.072260 0.025041 0.038651 0.076715 -0.042202 -0.070712 0.004859 -0.010858 0.115597 -0.044882 0.068493 0.035892 0.169979 -0.023260 -0.033398 -0.040618 0.118638 0.161915 0.096576 -0.066530 -0.054212 0.026689 -0.260015 0.069433 0.114076 0.200773 0.028855 0.069821 -0.011398 -0.025644 -0.092579 0.219357 -0.059962 0.044816 0.021812 -0.153068 0.099980 -0.010059 0.044951 0.073464 0.094312 0.062299 0.088547 0.085198 -0.042388 -0.088885 -0.022455 -0.051513 0.083741 0.015947 -0.003119 0.266990 -0.044524 -0.069859 0.145056 0.222068 0.038231 0.002698 0.054799 0.061699 0.085581 -0.132944 0.010887 0.081471 0.016269 0.123709 -0.056651 0.015899 -0.025653 -0.118274 0.068816 0.097835 0.521282 0.127169 0.083256 -0.056584 -0.084466 0.109720 0.000159 0.130303 0.011169 0.041702 0.076950 0.029254 0.051525 0.032622 -0.042295 0.032812 0.008906 0.066802 0.029744 -0.058551 0.045654 -0.066819 -0.015806 0.059804 0.155611 -0.013152 0.062168 0.130736 0.086353 -0.048900 -0.039451 -0.023167 -0.051394 -0.027640 0.018153 -0.140857 0.010809 0.078023 0.077548 0.033645 0.126753 0.020405 0.005575 0.025970 0.019127 0.017132 -0.008300 -0.019955 0.044781 0.102468 -0.134256 0.014907 0.083231 0.040006 -0.076562 -0.147627 -0.070963 0.073884 -0.040941 0.124128 -0.065994 0.015374 0.077361 -0.039061 0.061468 -0.007855 -0.028951 -0.003939 0.038223 -0.029318 0.124125 -0.062045 0.071035 -0.062092 0.157958 -0.050685 -0.033617 -0.081844 0.034574 0.154623 0.075382 -0.033920 0.100485 0.299077 -0.137745 0.012194 -0.158690 -0.051364 0.029766 -0.122120 0.025267 0.030186 0.071833 0.019567 0.063161 0.043084 0.077206 -0.089752 0.065838 0.002179 0.290480 0.049776 -0.003774 -0.003501 0.036491 -0.040982 0.045878 0.160749 -0.058025 -0.035219 0.080080 -0.082138 0.020560 0.009922 -0.065010 0.029653 -0.016033 -0.072147 0.045976 0.042384 -0.014720 -0.009153 0.006941 0.020684 0.240357 -0.022109 0.080917 0.139947 0.124026 0.027485 -0.052962 -0.055586 -0.067701 0.029599 0.034964 0.038082 0.057703 -0.018923 0.042689 0.063339 0.119857 0.022972 -0.078917 -0.014999 -0.005656 -0.096896 -0.059720 -0.028095 -0.046174 0.071917 -0.176868 0.025678 -0.027606 -0.008212 0.077894 -0.066728 0.060030 0.069699 0.055364 0.032533 0.010175 -0.072567 0.034417 0.021071 0.026182 -0.025573 -0.005041 0.004332 0.041835 -0.040146 0.014512 -0.007636 0.061521 -0.058353 0.113832 -0.074922 0.018774 0.073023 -0.011616 0.083248 0.053202 0.002156 0.028819 -0.008275 -0.100649 -0.028032 -0.029197 0.069034 -0.009829 -0.129845 -0.009538 0.080649 -0.064842 -0.047098 0.021987 0.037597 -0.004868 -0.052051 -0.052762 -0.040732 0.216301 0.010632 0.019261 -0.047249 0.053395 -0.011271 -0.033517 0.070654 -0.021577 0.042823 -0.055207 -0.095252 -0.059798 0.000837 -0.044618 -0.047685 0.095478 -0.029902 -0.054160 -0.041468 -0.028086 0.061113 -0.039885 0.012816 0.113136 0.066806 -0.060345 0.000864 -0.007370 -0.036473 -0.027963 -0.023679 0.047311 0.031365 0.012548 0.021050 -0.030649 0.058309 0.073093 0.043560 0.061342 0.079552 0.075993 0.026407 -0.020170 -0.064303 0.064347 -0.026405 0.004865 -0.067942 -0.338145 0.064400 -0.002935 0.046068 -0.033952 -0.049469 0.029135 -0.008543 -0.007623 0.023974 0.024451 0.050589 -0.065793 -0.037995 0.037357 0.027323 -0.062013 -0.024239 -0.015984 0.088521 0.033640 0.083303 0.081457 0.027423 0.013270 -0.004803 -0.069720 0.007212 0.053089 0.069691 0.010546 -0.019352 0.025514 -0.028361 -0.043785 0.039974 0.075439 0.041690 -0.042713 -0.121478 0.012529 0.069079 0.047417 0.061430 -0.021367 0.001893 -0.025066 0.018921 0.050033 0.054280 0.175271 -0.007545 0.058956 -0.008611 -0.039603 -0.000674 0.069635 0.028307 -0.075386 0.060279 0.086342 -0.008504 -0.073011 -0.035782 0.061292 -0.040440 -0.053753 -0.020044 -0.058208 -0.045332 -0.020051 0.057773 -0.040606 -0.036266 -0.019986 0.007621 0.035304 0.095502 0.109157 -0.027356 0.009666 -0.013198 0.049524 -0.050954 0.068614 -0.074523 0.092393 0.048599 -0.027883 -0.083493 0.058845 -0.062049 0.022949 0.013722 -0.047524 -0.005690 0.054775 -0.016873 0.071186 0.083047 -0.322076 -0.026553 -0.006276 0.039068 0.005389 -0.114956 -0.051807 -0.037088 0.055197 -0.089173 0.012628 -0.010115 0.035073 -0.069605 0.054925 0.013988 -0.008130 0.090849 -0.031842 0.041302 0.127510 0.059397 0.060859 -0.007929 -0.026004 -0.038910 -0.064919 -0.037723 0.028606 0.107671 -0.045155 -0.033181 -0.016917 0.075069 -0.069715 0.061636 -0.038329 -0.036112 -0.057451 0.034477 0.016892 0.035548 -0.037196 -0.012251 -0.067894 -0.061639 0.065311 0.012431 0.106695 -0.036491 0.011896 0.047263 -0.060623 -0.061956 -0.030853 0.009044 -0.017412 -0.006536 0.054238 -0.067313 -0.013540 -0.081626 -0.026945 0.030646 0.081993 -0.016243 0.019752 -0.080979 0.039811 0.028501 0.057648 -0.012483 -0.010309 -0.055499 0.005037 -0.002779 -0.033502 -0.022172 0.094882 -0.037531 0.050520 -0.042556 -0.068740 0.045917 -0.018882 -0.017426 0.007753 0.042609 0.042855 -0.028102 0.090505 -0.064964 -0.015677 -0.055153 0.011689 -0.001038 0.007647 -0.028379 -0.013643 -0.032124 -0.242567 -0.035310 0.022345 -0.027266 -0.008102 -0.046994 0.056637 0.035914 0.056516 0.045852 -0.080459 0.025489 -0.062877 -0.084571 0.017230 -0.003022 -0.003790 -0.060014 -0.041662 -0.043248 0.067528 -0.075571 -0.025028 0.059885 -0.055701 -0.059514 -0.036427 0.042144 -0.003982 0.031482 -0.074870 -0.002200 0.079237 0.037215 0.064265 -0.011994 0.093065 0.057459 -0.055426 0.054287 0.021045 -0.053720 -0.000586 0.043130 -0.039114 -0.067307 -0.045099 0.043060 -0.021707 -0.006246 0.068023 0.025996 0.000312 -0.028235 0.005490 0.034019 -0.005241 0.047479 -0.007754 0.069048 0.001871 0.001215 -0.012118 -0.000649 -0.049198 -0.030724 0.069723 -0.050940 -0.069890 -0.068490 -0.078107 0.033801 -0.040921 0.002641 -0.010473 0.002181 0.019525 -0.041816 -0.034404 0.054937 -0.060892 -0.042971 0.000415 0.019914 0.011009 -0.075949 -0.027371 -0.076775 0.057203 0.047176 0.104397 -0.023643 -0.033130 -0.015817 0.038220 0.000801 0.035797 0.045559 0.031510 0.048040 0.053597 0.035441 0.003656 -0.063608 -0.043135 0.074536 0.021898 0.057180 0.019356 0.063900 0.031629 0.040852 -0.060795 -0.044802 -0.018300 0.032360 -0.045020 0.030921 0.038092 -0.069458 0.050868 0.033902 -0.010523 0.050932 -0.064162 -0.034522 -0.030449 0.054311 -0.071626 -0.082766 0.020220 0.069789 0.034900 -0.062377 -0.076023 0.074588 -0.072630 0.039740 0.050984 0.030416 0.010124 0.000028 -0.010339 0.031533 0.031883 0.054380 -0.018423 0.070390 0.008382 -0.062733 -0.093859 -0.071527 0.053298 -0.009959 0.062258 0.072153 0.037696 -0.052315 0.043604 0.047693 -0.050698 -0.018302 0.035961 0.067456 0.001326 0.042210 0.058356 0.012182 -0.012064 0.028440 -0.039777 0.080571 -0.054397 0.032084 0.034368 0.060019 0.003406 -0.112371 0.048022 -0.070586 -0.051771 0.048451 -0.059852 -0.080100 -0.043942 -0.079831 0.073161 0.076156 -0.048520 0.034728 0.057180 -0.016699 -0.066148 -0.004588 -0.039002 0.017162 -0.044228 -0.053757 -0.052619 0.025947 0.097652 -0.010332 0.023993 -0.079523 -0.060617 -0.027845 0.063317 0.024977 -0.017364 0.028851 0.036783 0.013032 -0.005008 0.059247 0.014608 0.033452 0.061663 0.005539 0.027355 -0.069141 -0.042178 -0.012613 -0.003575 -0.026031 0.065567 0.047304 0.073738 -0.060944 0.075741 -0.061301 0.047368 0.050313 0.010625 -0.010840 0.053304 0.032288 0.042812 0.034285 -0.024935 -0.056989 -0.019156 -0.070445 0.038335 0.058128 0.071095 -0.029349 0.009288 0.050465 0.058481 -0.045650 0.063616 -0.065989 0.024030 -0.022251 -0.009727 0.007304 -0.057239 -0.018282 0.028652 -0.063790 0.002710 -0.006272 0.068815 -0.068957 0.065180 0.039827 0.045623 0.025700 -0.008180 -0.061604 0.051003 0.054956 -0.049757 0.007046 0.030792 -0.060954 0.059988 -0.042212 0.071803 0.036178 -0.005570 0.053127 0.052481 -0.063832 -0.051416 -0.039538 0.025764 -0.026363 0.024472 -0.027876 -0.007861 -0.055110 0.048144 -0.021338 -0.041775 0.031033 -0.063804 -0.078444 -0.025560 0.010308 -0.057756 -0.056849 -0.017028 -0.025220 0.032489 -0.068528 -0.003882 0.010185 -0.028449 -0.014371 -0.035929 0.048274 -0.043537 -0.065740 0.066734 -0.012661 -0.022986 0.010206 0.043268 -0.080806 0.064622 -0.046885 -0.053624 0.030474 0.014069 -0.013106 -0.020785 0.032558 -0.009258 0.035948 -0.039426 0.015279 0.061391 0.025838 0.072351 0.011588 0.039601 -0.013824 -0.060519 -0.071140 0.054097 -0.014156 0.059426 -0.071732 0.002395 0.043868 -0.002101 0.061701 -0.028219 -0.041125 0.063187 -0.045889 -0.005717 -0.072729 0.066877 -0.073940 -0.003543 -0.036200 0.040909 0.069491 0.082040 -0.080809 0.002478 0.061139 0.027321 -0.007464 -0.009566 -0.015370 0.061004 0.012207 -0.004218 0.032809 0.080343 -0.027083 0.043369 0.000446 -0.065508 -0.041024 -0.020144 -0.011435 0.000144 -0.039249 0.024969 0.076719 -0.029686 0.009554 -0.079514 0.049063 0.055646 0.043688 0.036262 0.055394 0.045171 -0.043552 0.034240 -0.009801 0.031276 -0.057618 0.057121 0.009988 0.036882 -0.029389 -0.039495 0.034933 0.025820 -0.078419 -0.046913 0.042605 -0.037151 0.015235 -0.051122 0.045285 0.058278 0.056139 0.039712 -0.053700 -0.016600 0.042490 0.077655 -0.043246 0.003885 0.031625 -0.070144 -0.033236 0.070365 0.046388 0.039255 0.019349 0.071063 0.014084 -0.052955 0.025653 0.066988 -0.010158 -0.021706 0.010516 -0.006285 0.013673 -0.029172 0.038856 -0.053384 0.001999 0.001849 -0.077398 -0.024155 -0.040731 -0.048807 0.041538 -0.080534 -0.053444 0.080584 0.005644 0.060474 -0.071852 0.054700 0.048547 0.056829 0.011663 -0.014396 0.045600 -0.056545 0.014941 -0.011040 -0.071850 -0.077510 0.049546 0.020958 -0.001503 -0.019073 0.074079 -0.044939 0.009835 -0.006215 0.039203 0.014729 0.051923 0.080764 0.048215 0.011168 -0.082062 0.077063 0.009461 0.005874 0.055245 0.019901 -0.021719 0.021500 -0.005562 0.072236 -0.075188 -0.042255 -0.066602 0.022045 0.028998 -0.056159 0.026827 -0.003748 0.047091 -0.056968 0.059471 0.038878 -0.019614 -0.012986 -0.049629 -0.062703 -0.080549 -0.079998 -0.064232 0.049958 0.013462 -0.064002 0.044729 -0.059369 0.024164 0.017682 0.042824 -0.079847 -0.043110 -0.045030 0.074681 -0.036006 -0.004993 -0.074213 0.068331 -0.058287 -0.048080 0.012866 0.020257 0.081304 0.038191 -0.002564 0.037889 -0.063715 0.066742 0.070553 -0.044126 0.068486 0.072846 -0.026066 0.036151 0.004016 -0.007775 -0.001412 0.026939 -0.065903 -0.066022 -0.012529 -0.063458 -0.026839 0.024733 -0.071069 0.019447 -0.062552 -0.062989 0.005486 -0.038546 -0.028777 -0.063940 0.064003 -0.029766 0.056543 -0.020854 -0.074168 0.075119 -0.036403 0.078676 -0.051299 -0.050210 0.069230 0.004928 0.068234 -0.009046 0.079445 -0.015470 -0.064398 -0.068750 0.000801 0.005365 -0.049916 0.056254 -0.052194 -0.038693 -0.006592 -0.032453 -0.019390 0.081186 0.011292 0.034125 -0.065046 -0.006997 -0.077932 0.073788 0.054442 -0.069809 0.066615 -0.064254 -0.073424 -0.066976 -0.032172 0.078098 0.020244 -0.046230 -0.013240 0.017397 0.020592 0.004654 0.030938 -0.060900 -0.072273 0.063114 0.077669 -0.042401 -0.070866 -0.012319 0.008807 0.005239 -0.012450 -0.063990 -0.042879 0.004904 0.016843 -0.038583 -0.003582 -0.016419 -0.025484 -0.019260 0.002168 -0.017274 -0.003941 0.052255 -0.021489 -0.065947 -0.075786 0.047609 0.033059 0.026662 -0.030112 -0.018088 0.047935 -0.019992 -0.036662 0.043387 0.020059 -0.011959 -0.050274 -0.054257 0.075523 0.022075 -0.034677 -0.049510 -0.057543 0.057016 -0.005993 0.021110 -0.039346 0.050189 -0.080472 0.043307 -0.049825 -0.002123 0.015245 0.011602 0.014199 0.021011 -0.023084 -0.034490 -0.034726 0.029193 0.030094 -0.068939 -0.072946 0.075670 0.056889 0.029353 -0.016991 -0.075723 0.057120 -0.029082 0.026335 -0.060637 0.007184 0.051034 0.080290 -0.080675 -0.009992 -0.041513 0.052669 -0.008402 -0.078776 -0.080175 0.071227 0.018478 0.013213 0.003477 -0.044758 0.070756 0.051457 0.004715 0.019639 -0.000792 0.035423 0.028827 -0.005957 -0.007721 -0.024164 0.056842 -0.000990 -0.048681 -0.049742 -0.080073 -0.027497 0.038262 0.073338 -0.051574 0.039473 -0.015996 0.013201 0.006748 0.058138 0.014464 0.014160 0.047387 -0.049236 -0.058570 -0.031011 -0.010058 -0.068024 -0.062061 0.077268 0.036102 0.015877 0.013087 -0.018680 -0.059223 -0.076884 0.039182 0.068486 -0.002676 0.071662 -0.064297 0.031447 -0.038073 0.055756 0.021957 0.014835 0.013415 -0.074054 -0.055259 -0.051449 0.066805 0.041956 0.032099 0.031366 0.073257 0.056674 -0.082064 -0.017240 0.081882 -0.062045 -0.030690 0.023042 0.036091 0.071144 -0.077982 0.052281 0.076962 0.067232 0.038614 -0.000594 0.032672 0.056146 -0.052736 0.075408 0.028715 0.055048 0.009451 -0.039057 0.058928 0.030319 -0.016972 0.045820 -0.007017 -0.066894 -0.005078 -0.016409 0.072217 -0.005363 0.047247 0.061194 0.014586 -0.010655 0.002350 -0.026862 -0.068363 0.006626 0.012888 -0.075029 -0.032340 0.064302 0.006552 -0.095151 0.038449 0.042404 0.078232 -0.012845 0.009212 0.004895 0.029513 -0.013938 -0.049945 -0.087155 -0.049829 0.032744 -0.053412 0.027478 -0.065659 -0.057420 -0.059790 0.063628 0.080668 0.037826 -0.076964 0.000057 -0.070838 -0.064829 -0.076261 -0.046729 -0.058053 -0.025022 -0.061501 0.029594 -0.025696 0.057878 0.015361 -0.029428 -0.038774 0.075033 0.027551 0.073216 -0.020149 -0.065468 -0.078577 0.011126 0.043250 -0.050122 -0.044684 0.063715 -0.031356 -0.019880 0.046347 -0.031687 -0.065525 0.051015 0.048031 -0.054666 0.068215 0.056722 -0.010887 -0.071782 -0.056859 0.005677 0.040541 0.002779 -0.023442 -0.055766 0.056297 0.039355 -0.064791 0.032479 0.010300 -0.006904 0.047985 0.013984 -0.072892 0.012545 0.047034 -0.034993 -0.000804 -0.062055 0.026473 -0.041573 -0.019549 0.043161 -0.074556 -0.053924 0.070390 0.076902 -0.081520 -0.028952 -0.078022 -0.035601 0.053983 0.047842 0.035696 -0.056328 0.097507 0.006333 0.049578 -0.072274 -0.043124 -0.024568 0.007321 -0.096798 0.076568 0.017448 0.014176 0.038927 0.063656 -0.073817 0.027136 -0.015202 -0.041555 -0.045399 -0.040509 -0.020986 -0.020009 -0.041211 -0.026948 -0.024816 0.012368 -0.034778 0.010991 -0.017386 -0.048746 -0.037820 0.012745 -0.066650 0.048304 -0.019524 -0.048811 -0.080529 0.038492 0.037066 0.026802 0.032973 -0.040308 0.027194 -0.055944 -0.049746 0.028844 -0.037673 0.036971 0.089352 0.002927 -0.078302 -0.020349 0.058346 -0.047315 0.031149 -0.045017 0.028110 -0.076218 0.050750 -0.045853 -0.052690 -0.067161 0.050075 -0.027145 0.059476 -0.053787 -0.019223 0.073574 0.066979 -0.060264 0.071094 0.017026 -0.033184 0.009044 -0.074918 0.016908 -0.044680 -0.027994 -0.025083 -0.036904 0.044281 -0.028101 0.021451 0.020563 0.021412 -0.034534 0.066433 -0.011427 -0.029534 0.031780 0.026503 0.000414 0.040899 -0.007782 0.047732 0.018050 0.038295 -0.046531 -0.000887 0.004458 -0.025577 0.016280 -0.065678 0.054730 0.082933 -0.058734 0.022620 -0.038567 -0.030370 -0.027002 0.008101 -0.032186 -0.037243 -0.057300 0.061327 -0.143989 -0.017278 0.038828 -0.065908 -0.010979 -0.031078 0.037544 -0.035460 -0.046900 -0.065528 -0.075694 0.035318 0.050107 -0.045967 -0.040686 -0.020294 0.008254 -0.005585 -0.007398 -0.031382 0.041012 0.008135 0.026380 0.096568 0.153470 -0.027427 -0.006866 -0.026539 -0.129714 0.019006 -0.050284 0.082173 0.083023 -0.070889 -0.055795 0.034684 0.012569 0.050457 0.065607 0.030109 0.085333 0.033952 -0.011925 0.050797 -0.052725 0.034272 -0.054523 0.047911 0.151833 0.014725 -0.089593 -0.068180 -0.034829 0.032447 -0.060625 -0.022113 -0.074959 0.059765 0.031887 -0.015790 -0.049178 0.039211 0.018358 -0.043975 0.099912 0.006689 0.063995 -0.011611 -0.039022 0.070172 -0.075578 -0.030820 0.050390 -0.005923 -0.070456 0.078570 -0.051084 -0.052371 0.037852 0.018370 0.048331 0.127650 0.041820 -0.057166 -0.000605 0.059372 0.063043 0.047680 0.019404 -0.062530 0.063620 -0.050729 -0.066041 -0.062885 0.051834 -0.046760 0.083205 0.107655 -0.007759 -0.077277 -0.186467 -0.008691 -0.025473 -0.000652 -0.044409 -0.048600 -0.006767 -0.042791 -0.019888 -0.039701 0.048058 -0.059109 0.073926 -0.002533 -0.036222 0.020804 -0.024948 0.099442 0.066674 0.055517 0.081772 0.031607 0.003246 -0.021672 0.158566 -0.026382 -0.072440 0.045448 -0.211697 0.005859 0.070149 0.054362 -0.076595 -0.035502 -0.001106 0.073554 0.098645 0.043616 -0.069074 -0.025476 0.096270 -0.004716 -0.003075 0.070818 -0.032236 0.065107 -0.018829 0.043440 0.211229 -0.041984 0.011098 0.053770 -0.038696 -0.083138 0.038766 -0.038754 -0.014097 -0.057215 -0.066666 0.017341 -0.024487 -0.102389 0.050083 0.011816 -0.014911 0.074035 -0.040776 0.064265 0.074323 0.003985 0.071519 -0.005227 -0.047207 -0.013624 -0.028988 -0.001432 -0.018538 0.030288 -0.054743 -0.078435 0.069858 0.222852 0.033289 -0.047052 0.027897 -0.027790 0.058058 -0.089126 -0.006987 -0.006429 0.034323 -0.010765 0.007317 -0.094916 -0.024215 0.044789 0.046553 -0.012958 0.018209 -0.034506 -0.038110 0.009665 0.052344 0.147766 -0.199013 -0.142590 -0.010573 -0.034482 0.001016 0.034933 -0.038867 0.090432 -0.045026 0.070471 0.093880 0.095336 -0.029853 0.035322 0.073285 0.012646 -0.014587 -0.002713 -0.055053 -0.050004 0.162257 -0.063720 0.095579 -0.013647 -0.331490 0.045896 0.017236 -0.059584 -0.070360 0.002753 -0.014387 0.071230 0.135908 -0.004467 -0.006166 0.002502 -0.044058 -0.043476 0.079355 -0.026283 -0.029466 0.042947 -0.031379 0.048773 0.160805 -0.056220 -0.042053 0.073419 0.103761 -0.016795 0.055933 -0.013083 0.009656 0.044514 0.042222 0.078639 -0.019332 -0.002612 0.023621 0.004173 0.029424 -0.059847 -0.059228 -0.002067 0.036155 0.021947 -0.026426 0.024457 0.063414 -0.033980 0.082030 -0.054664 -0.068575 -0.056541 0.054886 -0.084333 -0.024348 0.147993 0.025464 -0.015211 0.001762 -0.012413 0.177093 -0.151823 0.016568 -0.029269 0.115534 0.201269 0.046780 0.120782 -0.218532 -0.001357 -0.096157 0.024259 0.034715 0.017653 0.098345 -0.006492 -0.022663 0.297851 -0.341590 -0.207897 -0.076420 -0.023358 -0.057786 0.163838 -0.031746 0.142566 0.062995 -0.084975 0.139949 0.002956 -0.013326 0.132115 -0.013580 0.055166 -0.031924 -0.029753 0.004204 -0.053875 0.261165 0.036503 -0.036314 -0.042485 -0.184205 0.115178 0.126465 -0.034312 0.058785 0.003434 0.012775 -0.048894 0.203312 -0.080228 0.060197 0.102940 0.091717 -0.090832 0.042738 0.046590 0.051744 0.002581 -0.022406 -0.012898 0.037867 0.025257 -0.108788 0.188894 0.014185 0.019183 -0.005071 -0.025749 -0.015299 0.150614 0.028298 0.020546 -0.021785 0.017622 0.217283 -0.055082 0.068364 0.094634 -0.029419 -0.007674 -0.098839 0.077378 -0.090573 0.021815 0.019102 0.032758 0.004486 -0.030764 -0.029220 -0.016917 0.023810 -0.047819 -0.065938 0.402830 -0.059091 0.027581 0.031880 0.029176 0.228898 -0.014997 0.081667 -0.054568 -0.004164 0.223784 0.051937 0.148979 -0.014387 0.064568 0.109642 -0.039271 0.044520 -0.059589 0.056504 0.134800 0.102914 0.398045 -0.317877 -0.099662 0.057314 0.094255 0.101835 0.148313 -0.050900 0.172065 -0.049210 -0.034801 0.109354 0.061179 0.061811 0.138474 0.003366 -0.046765 0.042896 0.055545 0.045866 -0.070422 0.521438 0.014438 -0.028439 0.034049 0.006165 0.010428 0.117264 0.080279 -0.065612 0.066315 0.026599 0.047543 0.263125 -0.058700 0.031020 0.132110 0.029744 -0.041989 0.075951 0.056348 0.083790 0.055884 0.043995 0.055637 0.142880 0.104506 -0.091102 0.176195 -0.157257 0.068634 0.029437 0.023321 0.041068 0.091019 -0.085265 0.037638 0.071266 0.021239 0.138797 0.076363 0.025728 0.012090 0.038774 0.035088 0.090383 0.003723 -0.049818 0.016574 0.069428 0.084459 0.042395 0.064398 0.064302 0.101041 0.041980 -0.050308 0.053051 0.593742 -0.013025 0.108022 0.086433 -0.017973 0.154128 0.005970 0.156522 -0.028799 0.009830 0.267800 -0.056735 0.072145 0.059618 0.060062 0.035949 -0.031174 -0.088876 -0.052053 0.048449 0.058928 0.036162 0.483496 -0.447129 -0.089567 -0.023449 0.080915 0.140267 0.097781 -0.029974 0.237841 0.073124 0.026236 0.337960 0.031378 0.040204 0.237910 -0.004809 0.036252 0.156949 0.000191 -0.009639 -0.186318 0.311712 0.057240 0.032200 0.097594 0.008481 0.079838 0.299595 0.041486 0.091902 -0.054287 0.044117 -0.042033 0.190424 0.008541 -0.023879 0.067551 0.021321 0.045502 0.126167 0.020026 0.091551 -0.037770 0.087592 -0.018067 0.012987 0.069364 0.008308 0.062980 -0.008355 -0.081467 -0.071425 -0.068683 0.011279 -0.205122 -0.058764 0.029613 0.017790 0.011693 0.146724 0.004833 0.024878 0.013643 0.024133 0.081648 0.123850 0.100646 0.046692 -0.006027 -0.071400 0.036033 0.083742 0.103686 0.150703 0.086091 0.025322 0.072862 -0.048557 0.501560 -0.068926 0.068436 -0.053380 0.120298 0.145051 0.153369 0.182081 0.053403 -0.016419 -0.035564 -0.019891 0.002857 0.064332 0.108224 0.192988 0.053157 -0.012800 -0.016475 0.102357 0.044375 -0.125034 0.190398 -0.585869 -0.016412 -0.042695 -0.098305 0.228447 0.130306 0.118954 0.274557 -0.067447 -0.077469 0.323829 -0.045541 -0.055702 0.139304 -0.030742 -0.068067 -0.002260 -0.009066 -0.003217 -0.023949 0.341468 0.118252 0.048455 0.084728 -0.175188 -0.068230 0.234452 0.016919 0.085959 0.129217 0.103691 0.082212 0.228065 0.072334 0.085822 0.077931 0.091894 0.195714 0.106857 -0.077874 0.090879 0.067419 0.073193 -0.140165 0.034442 0.025905 -0.048201 0.140053 0.121269 0.047309 0.064268 -0.010677 -0.009808 -0.096414 0.002876 0.040558 0.004800 -0.017380 0.358791 -0.025852 0.013852 0.123514 -0.046997 0.047344 -0.193646 0.018830 -0.017877 -0.009707 -0.049310 0.051598 0.144789 -0.053328 0.130987 0.113191 -0.044382 0.029956 -0.065191 0.667767 0.026397 -0.004956 -0.057389 0.260189 0.258731 0.059805 0.097971 0.101024 -0.105576 0.195219 -0.002629 0.084680 -0.090478 0.071215 0.052876 0.122210 0.076937 -0.106205 -0.104342 -0.079872 0.019060 0.067502 -0.723038 0.118084 0.079000 0.084148 0.202032 0.142956 0.066374 0.281018 -0.007367 -0.053954 0.373637 -0.011545 0.048724 0.147577 0.003890 -0.036201 -0.209788 -0.034764 -0.057232 0.079581 0.055896 0.157275 -0.040487 0.114725 -0.272224 -0.188266 -0.038206 0.057495 0.052140 0.039662 0.130507 0.045158 0.115364 -0.015129 0.121201 0.192172 0.065491 0.031334 0.331260 0.077115 -0.020417 0.054448 0.077373 -0.033111 0.230880 0.079629 0.077756 0.036193 -0.093669 -0.011151 -0.093678 -0.057038 0.048233 -0.019050 0.028383 0.047645 0.028890 -0.012473 0.307990 -0.056580 -0.006921 0.020412 0.089796 0.172879 -0.081537 0.063814 0.001628 -0.001065 0.036982 0.029338 0.089005 0.054872 0.094906 0.094031 0.078772 -0.023981 -0.012482 1.211465 0.052336 0.048110 -0.020380 0.264555 0.577659 0.075843 0.002551 -0.055902 -0.165610 0.045559 0.014643 -0.001833 0.083536 0.005882 -0.202212 0.262081 0.075644 0.084716 0.062680 -0.052884 0.027521 0.306231 -0.585188 0.174167 0.062733 -0.059873 0.242984 0.321073 0.078714 0.056034 0.017640 -0.017038 0.454539 0.020770 -0.031852 0.147769 0.094691 -0.011061 -0.201913 -0.043537 0.079654 -0.017779 0.411779 0.258841 0.093462 0.099043 0.152950 0.044800 -0.100844 0.068336 -0.015194 0.122540 0.186414 -0.075055 0.196058 -0.010000 -0.058816 0.228522 0.068418 0.344834 0.295628 0.018486 -0.032965 -0.023786 0.109714 -0.180107 0.234738 0.130069 0.167881 0.039923 0.036485 0.034796 -0.104860 0.038726 -0.032674 0.246718 -0.038500 0.048494 0.069339 0.100098 0.193259 0.132135 0.043440 0.141613 -0.030668 0.049231 -0.194083 0.044106 0.022548 -0.051610 -0.049383 -0.040650 0.178076 0.019912 0.082677 0.164070 0.047734 -0.059078 0.034759 0.810530 -0.035526 0.072612 0.065704 0.179028 0.312908 0.107796 0.040504 0.015109 -0.157314 0.068500 -0.004926 -0.127328 -0.113592 -0.023914 -0.030812 0.266107 -0.037744 0.035176 0.242359 0.052391 0.141199 0.111114 -0.534033 0.113876 0.053482 0.000526 0.413082 0.229198 0.036757 0.147667 0.005873 0.031053 0.186903 0.049563 0.069503 0.048557 0.098984 -0.031333 -0.227849 -0.034273 -0.047528 0.114139 0.464267 0.218674 0.020417 -0.057848 -0.096168 0.043846 0.136920 0.022508 -0.005850 0.047559 0.151405 -0.079489 0.178659 -0.018503 -0.080051 0.211544 0.054440 0.429160 0.321624 -0.048865 -0.017480 -0.036554 0.123146 -0.096807 0.228912 -0.025611 -0.054167 0.180769 0.061397 -0.022570 0.061500 -0.005904 -0.039287 0.376950 0.010213 -0.043403 0.056251 0.047951 0.003260 0.212912 -0.122879 0.180730 -0.016892 -0.007149 0.036576 0.184692 -0.019978 0.030871 -0.046351 0.009114 0.120208 -0.001008 -0.125329 0.169215 0.016094 -0.029683 0.022907 0.835643 0.070822 -0.035025 0.142913 0.156306 0.339581 0.105237 0.050661 -0.056721 -0.206549 -0.072842 0.007957 -0.037819 -0.107487 -0.016535 0.108749 0.097140 0.046885 0.081814 0.176342 0.056202 0.096886 -0.002876 -0.560296 0.160623 -0.061778 -0.057004 0.523650 0.281312 0.100559 0.226877 -0.052296 0.077404 0.226257 0.209456 0.053289 0.095509 0.089968 0.106946 -0.101289 -0.081811 0.079375 0.084487 0.240052 0.216934 0.035369 0.124598 -0.145047 0.096318 0.308537 0.030245 0.007715 -0.030594 0.343812 -0.042439 0.176021 0.085827 -0.092257 0.208957 0.037089 0.197531 0.354419 0.022679 0.062895 0.067598 0.204329 -0.120792 0.246101 0.024013 0.037893 0.094984 0.043073 -0.002442 0.044790 0.035592 -0.030483 0.407763 0.017121 0.119315 0.102467 0.062739 0.037435 0.125070 -0.089283 0.159380 0.083937 -0.005431 -0.046017 0.109770 0.027103 0.026167 0.040193 -0.031068 0.211462 -0.048298 -0.174063 0.120594 0.085072 0.029818 0.063953 0.729701 -0.057317 -0.026437 0.036360 -0.053482 0.273954 0.132372 0.087521 0.019885 -0.064666 0.064944 0.078979 -0.061674 -0.091200 0.006481 -0.044129 0.246505 0.018826 0.018507 0.194483 0.038442 0.145885 0.188361 -0.302687 -0.013017 -0.005133 -0.102226 0.378048 0.067673 0.076375 0.338751 0.041534 0.104063 0.482109 -0.004171 -0.063692 0.058774 -0.049187 0.026531 -0.237443 -0.043606 0.060147 0.117014 0.319217 0.227955 0.000479 0.164881 0.016079 0.110870 0.169014 -0.014709 0.077286 -0.042205 0.246648 0.061876 0.156999 0.023270 0.014532 0.291695 0.055619 0.199437 0.198864 0.015309 0.084583 0.059039 0.135819 -0.040659 0.199869 -0.062729 0.116026 0.113494 -0.018132 -0.049706 -0.011006 0.073700 0.053115 0.538587 0.023214 0.097586 0.015489 0.007091 -0.035722 0.095515 -0.066161 0.212866 0.022526 0.070826 0.264497 -0.003033 0.035627 0.077332 -0.028540 0.103668 0.030934 -0.036317 -0.143375 0.039307 -0.057568 -0.046903 -0.027283 0.679360 0.021791 0.010626 0.010897 -0.000302 0.165986 -0.158474 0.145882 -0.034072 -0.108631 -0.110020 -0.037113 0.059798 -0.097639 0.051868 0.130889 0.239012 -0.044190 0.034651 0.176212 0.030509 0.127800 0.244728 -0.364736 0.137359 0.049901 -0.010303 0.299234 0.224297 0.109919 0.525483 -0.013755 0.041323 0.336744 0.173775 0.056870 -0.016512 -0.023510 0.051174 -0.059735 0.009199 -0.075793 0.122994 0.654509 0.046131 -0.034638 0.040534 0.165023 0.153020 0.199808 -0.086847 0.075612 -0.029308 0.274004 0.056177 0.379874 -0.005738 -0.010601 0.282858 -0.011016 0.166391 0.306574 0.041904 0.001429 -0.017847 0.043132 -0.161462 0.146723 -0.018774 0.017728 0.102346 -0.081747 -0.080386 0.025517 0.047615 0.072865 0.376108 -0.025248 0.058956 0.051082 -0.023247 -0.059538 0.128350 -0.154160 0.272074 0.022837 -0.079849 0.266639 -0.026690 0.031481 -0.027256 0.076065 0.065510 0.089437 0.042800 -0.119798 0.104220 0.043825 -0.059870 0.005435 0.456532 -0.062507 -0.058820 0.049838 0.061398 0.238113 -0.001119 0.008737 0.015592 -0.014942 -0.159261 0.015240 0.148167 -0.122988 0.024797 0.134023 0.025009 0.088291 -0.080000 0.313362 0.014871 0.075846 0.195796 -0.245223 0.055842 -0.038522 -0.072382 0.323343 0.263103 0.037423 0.235525 0.036382 0.054350 0.076837 0.135265 0.041768 -0.049725 -0.074278 0.066164 0.003440 -0.004053 -0.010077 0.191035 0.602772 0.054813 -0.006372 0.324995 0.157026 0.048635 0.192762 -0.022598 0.038603 0.119161 0.173787 0.072879 0.113731 0.033524 -0.025209 0.211402 0.002738 0.374399 0.143892 -0.027602 0.063826 0.047455 0.078706 -0.097091 0.219288 0.053548 0.000035 0.149415 -0.187280 0.036157 -0.015198 0.046367 0.031812 0.278450 0.016193 -0.008580 0.077266 -0.086802 -0.005253 0.098332 -0.037340 0.198113 0.050136 0.061538 0.223986 -0.187403 0.070795 0.032469 -0.059548 -0.017464 0.060637 0.139102 -0.180106 0.084039 0.032316 0.053836 -0.040897 0.199836 -0.028191 -0.005721 0.082836 0.019425 -0.160743 0.168109 0.112924 0.088646 0.145494 -0.526110 0.076149 0.017649 -0.079537 -0.035727 0.189789 -0.019141 0.022317 0.010859 0.073616 -0.056863 -0.010371 0.178145 -0.076525 0.008461 0.066786 -0.046759 0.252795 0.153656 0.041135 0.516413 0.021542 -0.065104 0.000646 0.045427 0.053823 0.109680 -0.049944 -0.001106 -0.092256 -0.046089 0.049997 0.115736 0.454889 0.227859 -0.026184 0.414748 0.162277 -0.009036 0.230189 -0.087358 0.023514 0.000740 0.244263 -0.023892 -0.026718 -0.032853 -0.111699 0.173004 0.044107 0.542310 0.291157 -0.009229 -0.068493 -0.070612 0.108706 0.024890 0.236057 -0.066858 -0.109060 0.018781 -0.017722 -0.084893 0.082414 -0.048670 -0.066181 0.102005 -0.090489 0.070618 -0.014929 0.037209 0.020980 0.119724 0.101296 0.190486 -0.003301 -0.054203 0.045512 0.009699 -0.021974 0.061357 0.024579 -0.038096 -0.016266 0.090944 -0.091151 -0.001402 0.021015 -0.056944 -0.062017 0.491690 -0.015310 -0.011338 -0.061147 -0.138141 -0.147943 -0.038374 0.082054 0.040751 0.120661 -0.368976 -0.001534 -0.182550 -0.351040 -0.043472 0.066608 0.082602 0.030881 0.019457 -0.027449 -0.132431 0.063592 0.124962 -0.049854 0.078651 -0.000924 -0.034098 0.274873 -0.039524 0.024979 0.336162 0.078681 0.087232 -0.064060 0.097283 -0.023445 0.062498 -0.069710 -0.053117 -0.035179 -0.054094 -0.062180 0.028044 0.486260 -0.015339 0.017747 0.076642 0.084284 -0.022111 0.103810 -0.004634 -0.027973 0.016877 0.086359 -0.005491 0.034295 0.069812 0.031892 -0.043934 0.084192 0.264630 0.123569 0.074612 -0.005791 -0.033757 0.087427 0.079380 0.087398 0.076368 0.071930 0.148111 -0.009388 -0.097921 -0.052609 -0.031779 -0.053271 0.139177 -0.021281 0.062420 -0.078430 -0.037337 0.014740 0.003701 0.103749 0.038727 0.073832 -0.065160 0.008353 