784 100 10
-0.045306 0.007218 -0.042755 -0.067041 -0.078294 -0.031532 0.044008 -0.025568 -0.058204 0.014832 -0.026304 -0.006402 0.020939 -0.044194 -0.028434 -0.069723 -0.077098 0.022373 0.017084 -0.058800 -0.056994 0.065075 0.082197 0.059380 0.055009 -0.014131 0.067484 -0.054470 0.002680 -0.052031 0.070760 0.039666 0.037479 -0.054287 0.054917 0.041477 -0.003527 0.016634 -0.066383 0.020561 -0.050826 -0.010395 -0.068133 0.052404 0.027703 -0.014275 0.064974 0.032897 -0.074194 -0.000235 0.056389 -0.048895 -0.017452 0.056294 -0.071807 -0.044735 -0.040129 0.077970 -0.016913 0.044843 -0.056354 -0.028445 0.002217 0.063417 -0.000440 -0.025158 0.022602 0.078325 0.073768 0.038511 0.016594 -0.059350 -0.054176 0.030753 0.075346 0.055819 -0.065814 0.058028 0.006424 -0.057715 -0.024499 -0.019479 -0.024318 0.040341 -0.045477 -0.013833 0.077898 -0.003314 -0.018156 -0.021307 -0.040763 0.007783 0.032540 0.043747 -0.011092 -0.050193 -0.063703 -0.070782 -0.054160 -0.072227 0.050021 0.044726 -0.049285 0.078138 -0.006813 -0.056231 0.051665 0.009665 -0.080495 -0.024203 0.034242 -0.022702 0.038610 -0.072368 -0.064653 0.075426 -0.003909 -0.069047 -0.010180 0.060228 -0.008062 0.031349 -0.014281 -0.057814 -0.007196 0.056919 -0.025715 0.011393 0.068429 0.002417 0.021458 0.036159 -0.035149 0.054465 0.032004 0.040330 0.080526 0.001376 -0.032298 -0.082261 0.059465 -0.080348 -0.022671 0.015783 -0.070424 -0.005031 0.008917 0.007960 0.008214 0.081029 -0.014105 -0.082140 0.030085 0.053906 -0.057662 -0.059403 0.028533 -0.001085 0.034282 0.014670 -0.080960 -0.026552 -0.031463 -0.033817 -0.054379 -0.081752 -0.075779 -0.056144 0.001917 -0.025785 -0.056113 -0.020910 -0.023840 0.003508 0.077166 -0.011972 0.080769 0.003790 0.078280 0.006691 0.002526 -0.018116 0.006843 -0.049680 -0.046502 0.031473 -0.026791 0.064323 -0.051904 -0.074801 -0.003299 -0.050572 -0.019061 0.047529 -0.002097 0.008853 0.048070 0.004416 0.035001 -0.032305 0.060924 0.061180 0.029077 -0.045208 -0.017604 0.023951 0.025112 -0.019127 -0.054551 0.021101 0.069856 0.030267 -0.079308 -0.005594 0.062879 -0.043518 -0.056413 -0.046205 -0.061488 -0.026025 -0.038714 0.017505 0.005695 0.024518 -0.017258 -0.078694 -0.048922 -0.051480 0.008015 0.068371 -0.001493 -0.013353 0.047258 -0.054707 0.023731 -0.052638 0.051536 -0.033449 0.010527 0.079277 0.069944 -0.001910 0.027251 0.072928 0.074789 0.007838 -0.052883 -0.063917 0.043926 -0.032078 -0.007650 -0.077080 0.067719 0.080338 0.029730 -0.031831 -0.080648 0.063100 -0.001019 0.009659 0.049179 0.079781 0.078598 0.014145 -0.057218 0.020036 0.043799 0.076610 0.068880 -0.027966 0.073594 0.056531 0.052417 0.018553 0.047167 0.044913 -0.055901 0.076577 0.063289 0.070317 -0.037794 -0.026653 0.075529 -0.052367 -0.028607 0.022966 -0.001906 -0.026964 0.003774 0.079368 0.064987 -0.029339 0.076857 0.061293 0.067098 -0.062654 -0.000963 0.028606 -0.068336 -0.014376 -0.081653 -0.077035 -0.040137 0.053056 0.023811 -0.075262 0.015677 0.050202 -0.080977 -0.003326 0.038227 -0.036479 0.052313 0.031463 -0.006553 -0.058587 -0.027863 0.073833 -0.003258 0.058203 0.070909 -0.020563 -0.053428 0.065474 -0.041563 -0.068622 -0.079472 0.039766 0.042276 -0.065517 -0.056902 0.042915 -0.060259 -0.014747 0.013679 0.045844 -0.007717 -0.052936 0.013753 -0.006402 0.026030 -0.030312 0.039412 -0.003949 -0.081141 -0.049434 0.019757 -0.026712 -0.057892 -0.065794 -0.050801 -0.069276 -0.004065 -0.021937 0.078490 0.036665 -0.008266 0.081310 -0.005862 -0.048283 -0.066499 0.019528 0.076925 -0.044466 -0.077511 0.008312 -0.080914 -0.002935 0.037668 0.015131 0.072955 -0.018594 0.067111 0.030075 0.059750 0.068262 0.062934 -0.002786 -0.040742 -0.077251 0.013713 -0.009251 -0.064235 -0.072644 0.051105 -0.068036 0.046313 -0.039453 -0.069019 -0.041841 -0.005444 -0.053225 0.059980 -0.010811 -0.015399 0.064761 0.079793 -0.014021 -0.020466 0.035169 -0.081181 -0.029803 -0.065717 0.068222 -0.082021 0.076325 0.054192 0.063205 -0.008753 -0.068842 0.068246 -0.077333 0.004200 -0.078280 -0.067685 -0.026987 -0.064025 0.060921 0.015852 -0.050751 -0.063213 -0.071884 -0.021684 0.079059 -0.000403 0.045210 0.061528 -0.002902 -0.051103 -0.041230 -0.050025 -0.049992 0.011259 -0.033450 -0.064062 0.011530 -0.039417 0.072422 -0.007557 0.034122 -0.078711 -0.021602 0.039081 0.007781 -0.017590 0.053689 0.063086 0.000677 0.032317 -0.003355 0.032219 0.051397 0.007053 -0.071757 0.048164 -0.075642 0.055745 0.027400 0.003748 -0.077651 0.068462 0.036015 -0.045351 -0.002571 -0.079727 -0.027121 -0.073333 -0.036852 -0.036990 0.001402 0.079562 -0.033410 0.062092 0.036351 0.056663 -0.037790 0.007748 0.037457 0.045179 -0.042227 -0.048190 -0.004894 -0.073122 0.041156 0.005641 0.057334 0.047806 -0.020907 0.002442 -0.030739 -0.016265 -0.011388 -0.077017 0.020677 0.068333 -0.074452 0.075848 0.077292 -0.029012 -0.043434 -0.003598 -0.031742 0.005448 -0.023798 -0.077683 -0.020181 0.020704 0.012357 -0.065016 -0.016409 0.052422 -0.030913 0.060989 0.061592 -0.072050 -0.015663 0.036634 0.058048 0.045722 -0.043216 -0.054983 -0.052835 0.027688 -0.049708 0.050134 0.013729 -0.041867 0.043690 0.008728 0.011413 -0.082037 -0.077162 0.061963 0.005704 -0.018668 0.066572 0.067815 -0.080257 -0.003364 -0.079493 -0.014374 -0.033234 -0.028114 -0.035677 -0.053934 -0.017872 0.030952 0.064992 -0.042116 -0.005618 -0.060516 -0.014807 0.023839 0.049464 0.017777 -0.008319 -0.019099 0.058202 -0.046921 0.071921 -0.012677 -0.046666 0.077051 -0.033006 0.041330 -0.023909 -0.048726 0.026853 -0.021874 0.030202 0.029652 0.046044 0.079260 -0.080754 -0.071925 -0.056966 -0.016334 0.041319 -0.074266 0.023842 -0.046591 -0.052490 -0.073257 0.059540 0.079266 0.026812 -0.031071 -0.022126 0.002722 0.004300 -0.032497 0.072338 0.039926 -0.037738 -0.042961 -0.001036 0.020644 -0.009395 -0.056475 0.081063 -0.061485 0.055469 0.044815 -0.064517 0.057008 0.055182 -0.039190 -0.041618 0.014208 -0.031164 0.064517 0.049909 -0.001362 0.073552 0.027157 -0.004389 0.018072 0.078378 0.055778 -0.061498 0.000386 -0.059012 -0.071453 -0.041981 -0.014458 -0.032121 0.039276 -0.076105 0.040776 0.065093 -0.077335 0.061584 0.038270 0.049772 0.079359 0.012985 0.022662 -0.042123 0.053660 -0.045422 0.009005 0.035884 -0.077806 -0.074650 0.027144 0.031644 0.003253 -0.037077 0.027729 -0.023261 -0.016283 -0.054177 0.000020 -0.005444 -0.013866 0.067854 0.044727 -0.056882 0.074041 0.003211 -0.074082 0.078998 -0.017497 0.046480 0.046478 -0.020430 -0.022827 -0.013152 0.019738 -0.051459 0.023718 -0.053549 0.066717 0.028204 -0.045907 0.011568 -0.022445 0.039639 0.056784 -0.077007 -0.065915 -0.041791 -0.048893 0.016397 0.035057 0.019534 0.001959 -0.002508 0.044944 -0.006292 -0.081588 0.053154 -0.009585 -0.016794 0.017342 -0.045399 0.045068 0.076808 0.023741 -0.017486 -0.056944 -0.034834 0.011257 -0.072519 0.075662 0.047642 0.021342 -0.029074 0.004989 -0.004167 -0.023790 0.021367 0.036334 0.009610 -0.044528 -0.010901 -0.053148 0.039723 0.068884 0.074088 -0.048861 0.069588 0.044950 0.023846 -0.029498 -0.020000 0.060739 -0.066722 -0.025484 0.002187 -0.001916 -0.000136 0.049646 -0.072951 0.009638 0.043016 0.056984 -0.051313 -0.068351 -0.020319 0.026813 -0.009848 -0.081245 -0.019146 0.082054 -0.043481 0.052246 -0.053386 0.078534 0.038837 -0.061590 -0.052619 0.026133 0.065653 0.053520 0.078927 -0.036639 0.031966 -0.070088 0.020169 -0.048139 0.010288 -0.062259 -0.080785 0.019630 0.029671 0.044523 -0.005678 0.060650 0.058464 0.056294 0.005170 -0.033676 0.057341 0.068317 -0.033914 -0.068432 0.038271 -0.005008 -0.072190 -0.005184 0.015694 -0.042517 -0.061344 -0.000945 -0.071289 -0.064710 0.044707 0.042969 -0.052506 -0.017416 0.077123 0.040075 0.002617 0.078630 -0.022587 -0.050005 0.040860 0.054026 -0.071647 0.017032 0.028029 0.015816 0.065648 0.003078 0.001841 -0.050558 0.016938 -0.042181 0.026726 0.027040 0.034927 -0.039872 0.066815 0.055875 0.041474 0.077818 0.073458 0.003890 0.038495 -0.061340 0.068766 0.033326 0.061027 -0.010909 0.029663 -0.043852 0.021378 -0.011769 -0.072118 0.032024 -0.077029 0.038202 -0.034452 0.070912 -0.041012 0.049681 -0.061939 0.058218 -0.074792 0.047079 0.002966 0.042427 -0.075086 -0.012511 0.016010 0.048681 -0.016985 0.007175 -0.029722 -0.060782 0.028127 -0.043248 0.054835 0.006862 0.028134 0.002207 0.045302 -0.032780 0.072730 0.055476 0.081536 0.077994 0.011386 -0.035208 0.066613 0.052666 -0.067820 -0.077618 0.028592 -0.060320 0.051753 -0.050735 0.064399 0.058959 0.019046 -0.001884 0.025348 -0.080231 -0.077001 0.077918 -0.058722 0.033419 -0.047622 0.078406 -0.042011 0.062804 -0.001680 -0.079002 -0.052268 -0.011242 0.058766 -0.053023 -0.015540 -0.012140 -0.005939 -0.031220 -0.041766 0.008533 -0.026546 0.069119 0.030505 -0.057086 -0.063908 0.012612 -0.080419 0.037430 -0.071564 0.027221 0.039491 -0.066272 0.022847 0.063061 0.049439 0.057517 0.059175 -0.074864 0.038029 -0.024797 -0.071574 0.068053 0.046254 0.069485 -0.067262 -0.051579 -0.024947 0.009091 -0.000506 0.015579 -0.064668 0.055240 0.002406 0.048129 0.080446 0.020789 -0.021551 -0.082265 -0.024073 -0.010822 0.027248 -0.066874 0.005198 -0.032197 0.078479 -0.027655 -0.056973 0.055362 -0.020227 0.063348 -0.051727 -0.009509 0.049109 0.076819 -0.022316 0.064139 -0.057052 0.035029 -0.009062 0.024733 -0.031684 0.008562 -0.002319 0.053014 -0.025601 -0.004165 -0.008489 0.035140 -0.004137 0.049731 -0.057974 -0.059181 0.065148 0.029516 -0.009086 0.061335 -0.080432 0.016234 0.034405 -0.018367 -0.002710 0.064970 0.054416 -0.035893 0.059497 -0.050192 -0.054046 -0.079848 0.067129 0.019184 0.027178 -0.046848 -0.054547 -0.057433 -0.076126 0.002144 0.020694 -0.002323 -0.045008 -0.065736 -0.034885 -0.020690 -0.042624 -0.052028 -0.073467 0.030582 -0.072985 -0.071606 -0.035477 0.043712 -0.007680 0.044105 0.026390 -0.035556 -0.074080 0.003595 -0.003456 -0.045834 0.006039 -0.018620 0.055642 -0.049075 0.016825 -0.081197 -0.024216 0.022991 0.003239 0.078770 -0.061624 0.040523 -0.069257 -0.014216 -0.062459 -0.029590 0.016047 -0.053633 -0.081300 0.025355 -0.042947 -0.034484 -0.013225 0.031665 -0.072671 -0.069127 0.078401 -0.064460 0.016760 -0.007348 -0.028002 -0.059493 0.056325 -0.054652 -0.026275 -0.009143 -0.053558 0.031801 -0.068444 0.031974 0.028279 -0.047776 -0.009795 0.041314 0.020300 0.010038 -0.070568 -0.045945 0.038697 -0.069576 0.061702 0.078042 -0.021768 -0.033815 0.027414 -0.012148 -0.020650 0.023523 0.005685 0.078402 -0.066117 0.059975 -0.063383 0.072500 -0.076969 -0.007366 -0.018935 -0.048235 -0.057857 -0.005086 0.066031 0.052714 0.029430 -0.026057 0.011735 -0.032562 0.066273 0.023460 0.003786 0.022678 0.036176 -0.016804 0.018427 -0.067885 0.031672 -0.036450 0.002260 -0.071270 0.069365 -0.074347 -0.075161 -0.079044 0.067921 -0.056251 0.075748 0.073244 0.018675 -0.025479 -0.057283 0.043110 0.051727 -0.073545 0.013532 -0.001135 -0.017309 -0.057025 0.048596 -0.033328 0.048727 -0.029911 0.071642 0.002610 0.035577 0.007777 0.017018 -0.015043 0.053619 -0.063014 -0.004021 0.040692 -0.055069 0.003111 0.043939 -0.069441 0.029152 0.037395 -0.078490 -0.034465 -0.070375 -0.053481 -0.073648 0.063644 -0.044733 0.022176 -0.019783 0.020250 0.047444 -0.053479 0.069214 0.013878 -0.001098 0.058564 -0.065804 -0.047813 -0.015951 0.033506 0.019436 -0.044624 0.052784 -0.066877 0.078359 0.080007 0.018526 0.040007 -0.071727 -0.034614 -0.004890 -0.067924 0.013212 0.007026 -0.039113 0.021857 -0.011622 -0.001554 -0.038259 0.050888 -0.063596 -0.073108 0.079701 -0.076674 0.023062 -0.003689 0.064182 0.039551 0.030791 -0.034062 -0.009235 -0.032065 0.003606 -0.038744 -0.016650 -0.000327 -0.041029 -0.074848 -0.042665 -0.030435 -0.032792 0.034843 -0.015994 0.063071 -0.035241 0.027088 -0.001161 0.029097 -0.056952 0.046606 -0.001291 -0.038049 0.055360 -0.003856 -0.032514 -0.003625 0.073662 -0.049424 -0.046165 0.023353 -0.002467 0.025084 0.073697 -0.080693 0.070431 -0.023629 0.000918 -0.053599 -0.034036 0.041057 -0.001371 0.025678 -0.006931 0.065040 0.005402 0.034898 0.011257 -0.073359 -0.016812 0.033857 0.055314 0.064657 0.077164 0.027876 -0.021137 -0.035347 -0.057673 -0.029651 -0.003507 -0.025351 0.075838 0.076280 -0.076959 0.066705 0.077682 0.074658 -0.040645 -0.003069 -0.060092 0.018639 -0.046745 0.030408 -0.020913 0.030362 0.003351 0.050534 -0.017273 -0.069375 0.059656 0.047861 0.048173 0.025271 0.029888 0.044820 -0.021407 -0.075105 -0.084986 -0.000860 -0.022193 0.006400 0.064035 -0.028615 0.001864 0.068883 -0.042923 -0.004148 0.062033 -0.001834 0.075641 -0.080136 -0.066004 -0.053056 0.022165 -0.022615 0.056258 -0.056754 -0.055227 -0.028575 -0.043359 -0.076182 -0.074812 -0.077680 0.038740 0.037561 0.060738 -0.065242 0.037514 0.058860 0.020269 -0.059914 -0.016035 0.002068 -0.007023 0.066573 -0.011122 0.032022 -0.022076 -0.029116 -0.051949 -0.026342 -0.030702 -0.039622 0.002396 0.074876 0.024836 -0.017425 -0.064636 0.052149 -0.001900 -0.025273 0.059220 0.027612 -0.021639 0.015751 -0.019158 -0.054349 0.035717 -0.054999 -0.075989 -0.032067 -0.032429 -0.009337 0.050378 0.042029 -0.023793 -0.038379 -0.007567 0.036877 0.012871 0.014935 -0.073056 0.064722 0.069376 0.010444 0.057040 0.011744 0.072221 0.076075 -0.018512 0.011679 -0.036477 -0.022721 -0.005695 0.027636 0.055693 0.021776 0.055532 0.005958 0.050196 0.060993 0.059096 -0.078400 -0.031016 0.031035 0.060530 0.024359 0.048832 -0.038446 -0.020434 0.006722 0.075802 -0.011425 -0.008378 0.061709 0.083711 -0.036255 -0.009335 0.072548 -0.041315 0.054530 0.001205 0.005260 -0.070796 0.038102 -0.057284 0.067406 -0.023679 -0.077328 -0.008245 -0.052339 0.066573 -0.031916 -0.034911 -0.047591 -0.082691 -0.056803 0.060454 0.078095 -0.003314 -0.043767 0.000980 -0.010281 0.027329 0.072091 -0.030206 0.027118 -0.046205 0.042087 0.016829 -0.006549 0.013065 -0.064703 0.080129 0.024791 0.057586 -0.052443 0.010272 -0.044682 -0.046481 -0.081035 -0.014564 -0.062568 -0.030432 0.032637 -0.027565 -0.030521 0.057906 -0.050892 -0.036345 -0.027432 -0.011603 0.046226 0.044730 -0.066238 0.036568 -0.068181 0.043026 0.072875 0.056562 -0.021892 -0.017031 -0.012282 -0.004851 -0.019205 -0.069600 -0.027057 0.010689 0.022979 0.007645 0.045947 0.024636 0.073024 0.065610 0.076093 0.025416 -0.044343 -0.036188 0.001634 -0.012150 0.009666 0.056328 0.061147 -0.026000 0.018729 0.074603 -0.071391 0.033426 0.035115 -0.080775 0.007383 -0.069509 -0.015845 0.076545 0.007805 0.046796 -0.074852 0.060577 -0.024663 0.030329 -0.014499 -0.060560 -0.027312 -0.021032 -0.077584 -0.034150 -0.077720 -0.038964 0.012642 0.006168 0.030971 -0.059904 -0.019825 0.007376 -0.003376 0.081146 -0.000376 0.007608 0.031960 -0.047440 0.008960 -0.043263 -0.034654 0.075555 -0.048574 0.055601 0.040362 -0.041138 0.033843 -0.066603 0.071662 -0.062453 -0.045231 -0.037965 -0.001182 -0.040346 0.011030 0.003411 0.002726 -0.058579 -0.072746 -0.048588 -0.036207 -0.010269 0.041072 0.042722 -0.011402 -0.041605 -0.032024 -0.061802 -0.006742 0.059260 -0.022802 0.040903 0.052536 0.010939 0.014195 0.010599 0.052103 -0.034239 0.026311 0.041428 -0.014384 0.063350 -0.078830 0.066734 -0.059184 0.014494 -0.012147 0.025713 0.038184 -0.002583 0.059319 -0.080318 0.069423 0.018184 0.044693 -0.024249 0.058896 -0.069591 -0.003763 -0.030144 0.072070 0.055744 -0.071535 0.042206 -0.015595 0.024976 -0.029496 -0.045783 0.073016 0.079089 0.077924 -0.023696 0.060141 0.081367 -0.039234 -0.081438 0.013575 0.030908 0.026549 -0.030515 -0.053967 0.003689 -0.028554 -0.066862 -0.060411 -0.066126 -0.008789 0.080775 -0.053433 0.069742 -0.031662 -0.063757 0.043205 -0.020906 0.060738 -0.054681 -0.078240 -0.051046 -0.018176 0.077058 -0.054249 -0.022539 -0.028912 -0.076394 -0.023451 0.014146 -0.075541 0.072416 -0.037232 0.033321 -0.040406 -0.008906 -0.045281 0.013339 0.006560 -0.023400 0.029494 0.080062 -0.024917 0.058354 0.067513 0.025714 0.076889 0.028425 -0.077485 0.055335 0.056036 -0.073432 -0.078003 -0.044432 -0.078667 -0.049959 0.015321 -0.025286 -0.044061 0.074162 0.071152 -0.037310 0.064285 -0.048373 0.078303 -0.058414 0.025013 -0.049270 0.037217 -0.050719 0.009622 -0.015580 -0.052949 0.066997 -0.039519 -0.067729 0.010419 -0.044922 0.042988 0.015226 -0.071878 0.016732 0.024087 -0.067589 0.054592 0.027712 -0.035256 -0.012379 -0.079866 0.002975 -0.020509 0.073578 0.047957 -0.038516 -0.057087 0.043969 -0.014638 0.050218 0.076990 -0.059713 0.081791 0.004320 0.006999 -0.053450 -0.010975 0.049773 -0.038887 0.081736 -0.077441 -0.078191 0.014670 -0.067027 0.020834 -0.043535 -0.052324 -0.006866 0.066470 -0.005288 0.063047 0.068896 0.079979 -0.039754 0.060181 0.045645 0.004021 -0.079198 0.007321 0.071676 0.053313 0.002019 -0.070329 0.052812 -0.075953 0.018962 0.081654 -0.004635 -0.013557 -0.039525 -0.005191 -0.008706 -0.035424 -0.072813 0.006558 0.067701 -0.034056 0.036527 -0.021457 -0.049879 -0.051054 -0.040702 -0.063275 -0.053366 0.001836 0.079198 0.074571 -0.076435 -0.082292 -0.000401 0.077533 0.053313 -0.080674 -0.075088 0.023833 -0.074334 0.026166 0.023195 0.003323 -0.069684 0.065961 0.080424 0.003902 -0.051755 -0.074682 -0.071832 -0.066346 -0.026445 0.046987 -0.005511 0.005968 0.078226 0.036079 0.024985 -0.057433 -0.044377 0.021892 -0.065155 -0.038520 0.021892 0.016737 -0.043279 -0.007087 0.018355 -0.036075 -0.065546 0.026313 0.072383 0.039941 -0.052656 -0.079592 0.023610 -0.054525 0.006602 0.054147 -0.046914 0.017063 0.070093 0.008933 -0.018242 -0.017710 -0.067391 -0.022309 -0.063923 0.039887 0.002550 -0.026008 -0.020514 0.019688 0.017764 -0.080914 -0.045867 0.056777 -0.005709 0.054780 -0.061590 0.011037 -0.001198 -0.071499 -0.031314 0.028438 -0.068799 0.074588 0.056205 0.020095 0.046442 -0.073001 -0.045135 0.034243 0.018224 0.018915 -0.065760 0.033126 0.078898 -0.047391 -0.009280 -0.000843 0.008893 0.052499 -0.063448 -0.055636 0.053877 -0.027023 -0.081151 -0.034124 -0.054535 -0.060449 0.059206 0.026559 -0.049655 -0.054401 -0.027295 -0.036162 -0.062105 -0.053382 0.066225 0.066629 -0.044091 -0.061202 0.018580 0.056426 0.040006 0.035112 0.007259 0.036612 0.070014 0.080271 -0.046524 -0.003386 0.050478 -0.027679 0.023271 0.022062 0.027590 0.024412 0.070230 0.055348 0.046256 0.047144 -0.000385 0.078893 0.075035 0.054612 -0.039561 -0.069362 -0.081063 -0.055629 0.079560 -0.042862 -0.034538 0.015847 -0.068728 -0.076824 -0.031332 0.020823 0.042080 -0.043611 0.018802 0.077849 0.035295 -0.013012 -0.032123 -0.023727 -0.073242 0.077760 -0.081607 0.079280 0.050816 0.046941 0.044132 -0.031861 0.043542 0.036875 -0.059542 -0.078312 0.049805 -0.058313 -0.051648 0.047073 -0.018882 -0.003894 -0.019372 -0.005318 0.001574 0.031587 -0.066787 -0.038638 0.070268 0.034307 -0.043082 0.023271 -0.060998 0.007088 0.081837 -0.051948 0.002556 -0.082062 -0.054959 -0.028921 0.047172 0.071465 0.021510 0.008421 0.026048 0.044261 0.012402 -0.006439 0.068240 0.043046 -0.041659 -0.032934 -0.043140 0.021261 0.044040 0.040727 -0.029444 0.059545 -0.080204 -0.041467 0.011560 -0.040993 0.064096 0.032855 0.048387 0.063641 0.063199 -0.031350 0.063871 -0.074052 0.022022 0.028751 0.079705 -0.038760 -0.045120 0.023461 -0.076792 0.049574 -0.065270 0.073741 0.010328 -0.024637 -0.041486 0.049480 0.078917 -0.079737 0.007915 -0.032819 0.062100 0.010003 0.008006 -0.008632 0.051302 -0.010190 -0.058069 0.017396 -0.028841 -0.077162 0.068339 -0.047262 -0.068922 0.008068 0.063781 -0.071509 0.051600 -0.063632 0.034244 0.057101 0.068235 0.051266 0.048549 -0.003729 -0.055663 -0.075229 -0.036541 -0.059038 -0.072674 0.053666 -0.009565 0.071718 -0.018624 0.080733 -0.019206 -0.049614 -0.011749 0.005017 0.050074 0.041702 0.010147 0.036121 0.076732 0.023517 -0.038103 0.058221 0.034300 -0.068795 0.076881 -0.013748 0.070598 0.062824 -0.044774 0.036854 -0.023198 -0.018145 0.043918 0.022553 0.005109 0.053536 -0.006074 0.077836 0.042963 0.057595 0.076278 -0.058535 -0.074311 -0.017764 0.028774 0.058055 -0.058354 -0.043372 0.011884 -0.063914 0.062438 0.056073 0.076599 0.014446 0.069570 0.071188 -0.081595 0.057875 0.051720 -0.044077 0.012437 -0.053770 0.020071 -0.025937 0.051075 -0.057112 -0.054693 -0.037290 -0.061568 0.070561 -0.061988 -0.067583 -0.070266 -0.054007 -0.003054 0.040800 -0.078243 0.020885 0.079720 0.015933 0.039263 0.059866 -0.010287 0.033570 -0.007981 -0.023010 0.022467 -0.007283 -0.047427 -0.008106 0.030933 0.047302 0.020417 -0.031289 -0.060927 -0.010800 -0.006109 -0.033329 0.034202 0.014616 -0.045059 0.054506 0.029326 -0.033033 -0.081792 -0.056021 -0.074526 -0.077744 0.047156 -0.077098 0.020481 0.004127 0.065060 -0.072098 -0.044594 -0.025213 -0.012815 0.060164 0.049797 0.022050 -0.030233 -0.001563 -0.012940 0.072476 0.049441 0.008425 -0.020617 -0.038960 0.057389 -0.068707 0.057948 -0.069963 0.068091 0.004981 -0.020704 0.068591 0.031253 -0.012938 0.073140 -0.003883 -0.007743 0.011329 -0.082048 -0.024975 0.021523 -0.044350 0.032105 -0.073585 -0.066478 -0.000391 0.030758 -0.014419 0.080338 -0.064475 -0.024236 0.047487 0.026243 0.037440 -0.073765 0.001339 0.051025 0.066475 0.013668 0.036824 -0.010836 0.075256 0.023123 -0.061875 -0.019974 0.013970 0.016534 0.054575 -0.056993 0.016779 -0.052692 0.046822 0.054721 0.061705 0.055529 0.070535 -0.020978 0.003995 -0.026176 -0.022932 0.021813 0.031881 -0.057737 -0.034237 -0.012971 -0.049210 0.049394 -0.044239 -0.065028 -0.019230 0.074878 0.006429 -0.026266 0.015708 0.026845 0.036053 -0.052614 -0.038913 0.008336 -0.027315 0.060158 0.037936 -0.062785 0.032587 0.017349 0.075037 0.020830 0.078663 -0.003261 0.076946 -0.026560 -0.063740 0.026535 -0.002005 -0.015685 -0.068728 0.031077 -0.048583 -0.030675 0.048342 0.014479 -0.038089 -0.027522 0.070505 0.059911 0.081615 0.024266 -0.074995 -0.039590 -0.049691 -0.020017 -0.061724 0.070537 -0.000510 0.053155 0.005594 -0.007766 -0.008307 0.001966 0.071266 -0.013653 0.057697 -0.074767 -0.069410 -0.026600 -0.008160 -0.055846 -0.077815 0.025549 -0.004229 0.052819 -0.042264 0.039974 -0.056996 -0.054051 0.017593 -0.057673 0.052507 0.024890 -0.014970 -0.079476 -0.077419 0.005599 0.073354 0.004363 -0.023538 -0.003344 0.078889 0.050447 0.080913 0.067862 -0.045498 0.056319 0.075388 -0.032615 -0.052573 -0.015064 -0.006169 -0.048096 -0.071807 0.071895 -0.077570 -0.031779 0.029577 -0.052274 -0.003538 -0.035123 -0.027654 -0.033323 0.072060 0.039668 -0.030507 0.076933 -0.037025 -0.039445 -0.000997 0.021729 0.039502 -0.004400 -0.010116 0.038124 -0.018830 0.026679 0.012150 -0.025735 0.076356 0.041869 0.041493 -0.012105 0.076065 0.051978 -0.022503 0.080787 -0.062093 -0.075219 -0.053779 0.016662 -0.028049 0.000859 0.065631 -0.038282 -0.041765 -0.047168 -0.043641 0.003502 -0.004321 0.037654 -0.057061 -0.047111 -0.049038 0.015115 0.073305 0.014424 -0.040498 0.003163 0.070982 -0.046435 -0.037260 0.030183 0.023752 -0.043488 -0.000131 -0.081043 -0.044993 0.020068 -0.073970 -0.016480 -0.045563 -0.019727 0.066672 -0.062224 0.024283 -0.057385 -0.027100 0.062934 0.028410 0.050871 0.018297 0.053641 -0.078532 0.051551 -0.013536 0.077065 -0.016317 0.028258 -0.002064 -0.027628 0.064116 0.042967 -0.079737 0.005575 0.081772 0.002424 0.006824 -0.045514 -0.059801 0.015146 0.020299 -0.023071 0.077711 0.004678 -0.003003 0.019703 0.029585 0.052189 0.000345 -0.024297 0.020768 -0.063651 -0.052949 0.024528 0.070192 0.015808 0.019300 -0.028417 -0.038226 -0.065056 0.026247 -0.056403 0.060203 0.028803 0.031464 0.059683 -0.051066 -0.044004 -0.068123 -0.028574 0.053435 0.034468 0.030646 0.048854 -0.043146 -0.054649 -0.013736 0.068732 0.079832 0.068902 -0.037858 0.018307 -0.077041 -0.008515 -0.039458 0.075443 -0.074999 0.062135 -0.035266 -0.030933 0.079371 0.073273 -0.005044 0.057282 0.019784 -0.055872 0.034673 0.051010 -0.017584 0.048842 -0.059857 -0.046442 0.001018 0.053082 -0.079880 0.040164 0.080725 -0.011323 0.026604 0.078264 -0.024714 0.071038 0.014279 -0.019463 -0.019769 0.057113 -0.026312 -0.012476 0.036956 0.020714 0.038883 0.034034 0.011695 -0.048453 0.009024 -0.050814 -0.022033 -0.038596 -0.082096 0.042675 -0.072046 -0.059661 0.078526 0.011264 0.075713 0.080938 -0.030863 0.074146 -0.012677 0.078033 0.070117 0.044901 0.066778 0.002104 -0.056854 -0.035283 -0.023075 -0.000874 0.034534 -0.068412 -0.062453 -0.008875 0.047914 0.031534 0.024964 -0.025354 0.063013 -0.079361 0.018342 0.063209 0.045606 0.028588 -0.078744 0.041839 -0.042439 0.079262 0.040485 0.008989 0.071115 -0.054484 0.004730 0.058940 0.072709 -0.010784 -0.021248 -0.066438 0.036225 0.037969 0.014980 -0.011533 0.051849 0.034819 0.061884 0.017471 -0.015939 0.004555 0.074409 -0.035218 0.007486 0.010459 -0.054301 -0.029200 -0.043245 -0.050753 -0.069653 -0.003392 -0.053783 0.053125 -0.076695 -0.064960 0.080932 0.010327 0.076272 0.071349 0.081835 -0.027268 -0.077381 0.035768 -0.071591 0.019891 -0.058058 0.062550 -0.027582 -0.078466 -0.002271 0.038771 0.008382 -0.010154 -0.078739 -0.066424 -0.081987 -0.050748 -0.013332 -0.042940 -0.019209 -0.000693 0.035961 0.009300 -0.029860 0.041559 0.026632 -0.031220 -0.030406 0.020612 -0.042163 -0.030864 0.075636 -0.037253 -0.077388 -0.078247 0.064930 -0.053153 0.066595 -0.044944 -0.049327 -0.017969 0.076119 0.041347 0.054169 0.079672 0.057214 0.054474 -0.053368 -0.038410 -0.070757 0.009715 0.043189 0.047496 -0.063277 -0.068963 0.006762 0.045647 -0.017891 0.058648 -0.016033 0.022238 -0.054508 -0.022689 0.067277 -0.049604 -0.018644 0.049915 -0.020465 -0.034342 -0.077321 0.012500 0.029982 0.081091 -0.028446 0.001859 0.078471 -0.053523 -0.025959 -0.057190 -0.009641 -0.014424 0.034817 -0.048744 -0.049220 0.053832 -0.035415 0.039835 0.017187 0.028986 0.016190 -0.081139 -0.031069 0.043975 -0.021536 -0.046084 0.076663 0.042112 -0.078461 -0.026094 -0.074522 -0.073489 0.068698 0.037752 -0.074691 -0.042040 -0.042681 -0.078513 -0.013271 0.013652 -0.053411 0.059380 0.081521 0.063699 -0.071656 -0.049991 0.035239 -0.024779 0.072135 -0.029867 -0.078085 0.006033 -0.028714 -0.026861 -0.032284 0.032042 0.009347 -0.037913 -0.008139 0.013179 0.018285 -0.000369 0.021982 0.004691 -0.044909 0.029583 0.044944 -0.005298 0.033362 -0.050619 -0.073938 0.062244 -0.073531 -0.074710 0.043651 -0.062895 -0.042409 -0.003403 -0.005381 -0.052566 0.049022 -0.001174 0.035760 -0.061984 0.054257 -0.078817 0.052350 -0.018688 -0.034437 -0.038081 0.076782 0.066140 0.043842 0.016472 -0.011461 0.081225 -0.036238 -0.048810 -0.006365 0.079417 -0.017137 0.001989 0.059368 -0.008376 0.009571 0.020727 0.011022 0.049454 -0.064969 -0.076652 0.079181 0.066346 0.004467 0.032648 -0.077931 -0.023569 0.036124 0.056711 0.040035 -0.080606 -0.063662 0.034525 0.067826 0.062473 -0.031295 -0.025927 0.061406 0.014759 0.007555 -0.027251 0.011884 0.072711 0.057029 -0.011040 -0.017957 -0.015692 -0.072606 0.075357 -0.048529 -0.055282 0.080997 -0.051641 -0.071229 0.003172 0.063300 -0.066867 0.061896 0.017132 0.072136 0.019639 0.018818 -0.073818 -0.028128 0.004352 0.070947 0.022869 0.060717 0.050060 -0.044664 -0.014020 -0.059483 0.049512 -0.023601 0.079838 -0.043821 0.040734 -0.018145 -0.034134 0.033799 0.015618 -0.007124 0.032504 0.046269 0.003940 -0.046617 0.027276 0.019365 -0.067013 -0.037884 0.009209 0.034918 0.063226 0.017683 -0.075503 -0.014714 0.006337 0.029658 -0.036289 -0.025895 0.067286 0.031984 -0.003086 0.034506 -0.073909 -0.005539 0.072977 0.049117 0.058608 -0.043449 0.000623 -0.008067 0.031719 -0.049165 -0.044090 -0.046633 -0.013489 0.065478 0.055024 0.001790 -0.054698 -0.018060 -0.045585 -0.073764 0.081915 -0.038795 -0.006186 0.005960 0.073155 0.039818 0.062358 0.058149 -0.010490 -0.023020 0.010363 -0.002107 0.053733 0.001048 -0.035282 0.030048 0.039891 0.047633 -0.060311 -0.010682 0.080760 -0.022109 0.024977 -0.015021 -0.038923 -0.002292 0.069060 -0.011329 0.061941 -0.058817 -0.002801 0.061563 -0.015320 0.073305 -0.014769 -0.024457 0.030831 -0.034704 -0.048600 -0.061952 0.024568 0.044055 0.018233 -0.003991 -0.037190 0.065243 -0.056235 -0.079591 0.030584 -0.034254 -0.007981 0.029052 0.025929 -0.065296 -0.068261 0.069298 0.014704 -0.081493 -0.024323 -0.005647 -0.058017 0.055168 -0.026376 0.008955 0.046181 0.041147 0.066790 -0.005280 -0.075849 -0.064102 0.015061 0.031012 0.062245 -0.048998 -0.055272 -0.057237 -0.066047 -0.029215 -0.054536 0.046829 0.018823 0.019775 -0.006411 -0.037540 0.036771 0.007620 -0.050534 -0.030817 0.008419 0.007435 0.045828 0.032694 -0.019689 -0.062840 -0.040644 -0.055800 0.060599 -0.056146 0.021212 0.067042 -0.037956 -0.046019 0.015762 -0.058003 -0.012725 0.042782 -0.032948 0.003519 -0.068725 -0.005192 -0.031944 0.032391 -0.067710 0.043937 0.077143 0.051354 -0.030735 -0.055683 -0.061756 0.059976 0.034044 0.066365 0.010378 -0.067937 -0.078768 0.052026 -0.041445 0.064123 0.078173 0.062060 0.048874 -0.042075 -0.066252 -0.017657 -0.017786 0.003315 -0.057167 0.031558 -0.075458 -0.043599 -0.055927 -0.025109 0.071084 -0.041344 -0.063464 0.065934 -0.072283 -0.011907 -0.072041 -0.051746 -0.034223 0.044296 -0.067674 0.058447 0.058651 -0.064150 0.028181 -0.065086 0.082266 0.024061 0.079266 0.048847 0.064278 -0.069277 -0.051102 -0.035801 0.016330 -0.025976 0.078049 0.023165 0.012717 -0.060170 0.080347 0.001508 -0.019222 -0.065409 -0.014850 -0.009213 0.004976 -0.004599 0.021333 0.053045 -0.042595 0.035951 0.029200 -0.066236 0.054093 -0.024912 -0.049030 0.054067 0.081442 -0.052056 0.020622 0.063427 -0.039041 0.051813 -0.054665 0.059581 -0.056456 -0.058908 0.000454 0.038553 -0.036786 -0.001491 -0.042231 0.026284 0.015392 0.025211 -0.065221 -0.061924 -0.061680 0.038404 0.073414 -0.021983 -0.007937 0.020321 -0.005927 -0.036136 0.077702 0.027335 -0.064361 0.076851 0.057572 0.038553 0.057986 -0.063761 0.008073 -0.078971 0.078113 0.033910 -0.055587 -0.003726 -0.009830 -0.010081 0.077075 0.030231 -0.066090 0.010175 -0.026850 -0.049019 0.030543 -0.006238 0.071677 0.021664 0.054071 -0.018552 -0.040307 -0.034148 0.027604 -0.044897 0.075480 0.045535 -0.050338 0.050759 0.001795 -0.074644 0.069290 -0.072423 -0.071323 0.065111 0.043778 -0.044618 -0.020907 -0.048343 0.027592 -0.026125 0.064180 0.043795 0.066343 -0.044963 0.077069 0.014594 0.031092 0.066454 -0.046034 0.002871 -0.034391 -0.004049 0.051015 0.075505 0.033346 0.044203 0.038747 0.065300 0.012670 -0.041749 0.072948 -0.000332 -0.031881 -0.080667 -0.017513 -0.070394 -0.042993 0.043871 -0.036446 0.066892 -0.064545 -0.054558 0.028395 -0.080495 -0.017228 0.023171 0.016391 -0.068429 0.007332 0.052649 0.016734 0.055234 -0.033692 -0.014543 0.048447 0.081946 -0.052633 0.004902 0.064954 0.042329 0.045445 0.055611 -0.040295 -0.068728 0.057236 0.024484 -0.056830 -0.068049 -0.013937 -0.010983 0.081135 0.003810 0.016751 0.027237 0.005607 0.081815 -0.031884 -0.060294 -0.068906 0.057740 0.074647 0.030120 0.030682 -0.041338 -0.066715 -0.003164 -0.041684 -0.037056 -0.080554 -0.059021 -0.077018 0.047183 0.078881 -0.035021 0.060747 0.053825 0.071756 -0.078375 0.068068 -0.024473 -0.007066 0.066911 0.061629 -0.072607 0.011856 -0.015056 -0.073085 0.062391 0.006911 -0.059705 0.037711 -0.000691 0.052715 -0.013901 0.040264 0.068296 0.065243 0.080876 -0.051017 0.066960 -0.060454 -0.045797 0.031812 -0.063865 0.001481 0.010330 0.072250 -0.009082 0.014246 0.058030 0.048772 -0.075145 0.042657 0.028106 -0.065495 -0.027797 -0.069244 -0.056246 -0.047672 0.019971 -0.033646 0.072173 -0.062995 -0.063227 -0.024050 0.059541 -0.077216 -0.041066 0.058108 -0.045966 -0.056387 0.079946 -0.009462 0.057830 -0.066219 0.074305 -0.014152 -0.076246 -0.017036 -0.082276 0.064078 -0.050546 -0.075114 0.024435 0.059839 -0.058269 0.078942 0.073007 -0.032212 -0.051195 0.010624 0.016338 -0.061276 0.029857 0.035526 -0.002976 0.007139 0.040601 0.038235 -0.017056 0.076898 0.064142 -0.019418 -0.014775 0.039618 -0.003312 -0.022882 -0.056834 0.002735 0.042388 -0.056880 -0.015481 0.074084 -0.049695 -0.073364 0.051666 -0.025670 -0.076699 0.042242 0.024426 -0.045612 -0.029438 -0.041412 -0.024310 -0.081847 0.076404 0.054702 0.006509 0.034619 0.010656 0.072815 0.029354 -0.007478 -0.028884 -0.067907 -0.050147 0.050209 -0.006882 -0.024651 -0.029473 -0.048316 0.000604 0.037223 -0.056488 0.033216 0.046346 0.077465 -0.074819 0.051938 0.037453 0.032008 -0.075962 -0.074249 0.072874 -0.018425 -0.073888 0.066983 -0.045859 0.016639 0.019339 0.047128 0.006511 -0.033552 -0.042641 0.059831 -0.019126 -0.010504 0.027782 0.054752 0.047087 0.080631 -0.075960 -0.034578 0.035905 -0.050083 0.080911 -0.000118 -0.054858 -0.076097 -0.030429 0.064884 0.038238 -0.024386 0.072919 0.028782 0.039529 0.081380 0.013828 0.076096 0.015031 -0.049314 0.040429 -0.060824 -0.000761 0.080652 0.081668 0.062496 -0.012125 0.027102 0.034925 -0.047415 0.026021 0.041305 0.000537 -0.021119 0.073606 -0.001164 0.061060 -0.063543 0.005038 -0.052121 -0.080954 -0.039234 0.005812 0.074166 0.072008 -0.036839 0.073305 0.003123 -0.042986 0.006013 0.036081 0.080302 0.028664 -0.046331 0.078661 0.026980 -0.147756 -0.016122 -0.027907 0.049581 0.019568 0.079639 0.009403 -0.072205 -0.023520 0.006328 0.101245 -0.045301 0.019794 -0.059019 -0.015162 0.020917 -0.016015 0.072982 0.012505 -0.026137 -0.046254 0.003824 0.059573 -0.006722 -0.066892 0.013502 -0.009181 0.036083 0.046803 -0.012458 -0.017860 0.079615 0.053907 0.036466 0.032470 -0.009250 0.034589 -0.038063 0.010652 -0.075064 0.042825 -0.053228 -0.034756 -0.019851 -0.037383 0.032702 -0.080400 0.036120 0.022763 0.013553 -0.071999 0.059151 -0.046317 0.068962 -0.029899 -0.054148 0.000828 0.043871 0.061999 -0.032792 -0.050106 -0.034008 -0.051540 -0.080284 -0.104775 0.056627 -0.006434 0.036792 -0.058617 -0.078696 0.047232 0.065802 -0.049604 -0.070024 0.000647 0.002282 0.044383 -0.034211 -0.044442 -0.014424 0.062718 -0.034148 -0.038330 0.080126 -0.047303 0.008833 -0.055983 0.035425 -0.024686 -0.072236 -0.079265 0.005903 -0.023290 -0.048325 0.009363 -0.020727 -0.061655 -0.049662 -0.066119 -0.044509 -0.192768 0.061963 -0.060215 -0.044194 0.076670 -0.014320 0.041652 0.017691 0.034079 0.090805 0.093143 0.013011 -0.035738 -0.015184 0.011185 -0.001487 0.080663 0.038063 -0.048529 -0.025684 0.046819 -0.045539 0.063271 -0.058512 -0.003531 -0.009515 0.002324 -0.001328 -0.009696 0.019506 0.039763 0.026066 0.000075 0.061250 0.040935 -0.006347 -0.034015 0.003803 -0.049625 0.078598 -0.002074 -0.026252 0.012415 0.043863 0.025537 -0.057459 -0.037357 0.039064 0.060345 -0.005244 -0.068770 0.025818 0.062682 0.075080 0.049566 -0.060655 -0.015674 -0.029156 0.017913 0.060131 0.072589 -0.018277 -0.023491 -0.013376 -0.105116 -0.075147 0.066850 0.009107 0.018975 -0.067133 0.008168 -0.066775 -0.010784 -0.062225 0.108307 -0.053190 -0.039176 -0.060650 0.067051 -0.053912 0.024263 0.080731 0.047079 -0.032392 0.073632 0.005174 -0.010449 -0.024576 0.067179 -0.068644 -0.046286 0.054763 -0.003331 0.014583 -0.035468 0.040083 0.040236 0.015120 -0.033275 -0.033083 -0.131443 0.049381 -0.012869 0.036005 0.078302 -0.040445 0.064499 -0.055207 -0.022512 0.062311 0.126217 0.079093 0.053043 -0.053473 -0.023145 0.039125 0.039565 0.044291 -0.068713 0.030489 0.037503 -0.040561 -0.000864 -0.034745 0.071369 0.041388 -0.074802 0.012473 0.075204 -0.024822 0.074419 0.012725 -0.051679 -0.040490 0.076394 -0.057348 0.004034 0.080680 -0.017280 0.045567 0.025673 0.044578 0.074210 -0.007266 0.063119 -0.047668 -0.046531 0.029156 0.074541 -0.029039 -0.031211 0.042425 0.088304 0.049598 -0.070962 0.000932 0.013164 -0.067347 -0.057201 0.007983 -0.026414 0.073171 0.045469 -0.000091 -0.100108 0.015570 0.057605 0.035802 0.016286 -0.056081 0.019602 -0.037137 0.071771 0.006424 0.094918 0.058276 0.036790 0.074701 0.004279 0.010912 -0.037083 0.056277 -0.008499 0.063969 0.021468 -0.024841 -0.014572 -0.050683 0.030127 0.000083 0.045748 -0.095274 -0.010112 0.013308 0.029953 0.025182 -0.056233 0.058596 -0.023281 0.067037 0.066827 -0.090331 -0.047919 0.002665 0.006442 0.070844 -0.018493 -0.040245 0.062280 0.076927 0.125314 -0.046944 0.044647 -0.013368 -0.064651 -0.021914 0.064835 0.000184 0.017276 0.000656 0.065106 -0.028986 -0.001263 -0.015452 0.085593 -0.064583 -0.070169 -0.048246 0.006568 -0.007193 -0.054507 -0.041017 -0.007411 -0.034434 0.022100 0.079525 -0.044788 0.016079 -0.035993 -0.069481 0.073282 -0.043169 -0.029619 0.033727 0.022842 -0.023275 -0.059607 0.008434 0.054594 0.037774 -0.078646 0.050034 -0.048499 0.000941 -0.044239 0.081975 0.020992 -0.035318 0.002146 -0.056477 0.014034 -0.032480 -0.040333 -0.057347 -0.004515 0.058387 -0.032811 0.052872 0.072811 -0.011720 0.072155 0.064748 0.029313 -0.042878 0.017013 -0.031235 0.012205 0.036406 0.058026 -0.007684 0.011038 0.061138 -0.045091 0.003970 -0.021338 -0.012310 0.004832 -0.085893 0.051377 0.037381 -0.054595 -0.015349 -0.078349 -0.006028 0.029077 0.020901 -0.092741 0.114162 -0.010324 -0.036904 0.033271 -0.026681 -0.049604 0.066248 0.022731 0.048648 -0.043565 -0.047187 0.003662 -0.058582 0.118533 0.119988 0.075408 0.065300 -0.001082 -0.036674 -0.027846 -0.077450 -0.026080 -0.075136 0.033607 -0.004608 0.005276 0.036423 0.112724 -0.052173 -0.016759 -0.032527 0.077754 0.058875 0.012020 -0.012367 -0.039104 0.039280 -0.062620 0.060859 0.007100 0.072134 -0.068176 -0.077676 -0.004949 0.043781 -0.085700 -0.010767 0.025290 -0.002326 0.057135 0.082974 -0.002482 -0.062675 -0.068738 -0.041914 0.038464 0.012574 -0.080158 0.010458 0.044589 -0.014575 0.091296 0.036124 -0.055915 -0.016385 0.068356 0.010861 -0.025731 -0.099210 -0.006799 0.028709 -0.002036 -0.005275 0.037398 0.071401 -0.041530 0.038592 0.012879 0.062654 -0.039392 -0.060050 0.060855 0.056374 0.008176 0.070452 0.076057 0.065244 0.001324 0.080032 -0.006728 -0.036452 -0.011776 -0.034454 0.082189 0.020316 0.031119 0.086417 -0.057441 0.053605 -0.136848 0.029920 -0.001280 -0.018663 0.205177 -0.053171 -0.012921 -0.049806 0.077010 0.047836 -0.065288 -0.036894 0.074404 0.073023 0.195431 -0.006243 0.066845 0.063732 -0.065272 -0.017136 0.059498 0.013817 0.028884 -0.050724 0.061739 0.025311 0.009827 0.004775 0.029774 -0.074341 -0.020815 0.041007 0.005905 0.064356 -0.069379 0.039804 -0.057945 -0.001025 0.035597 -0.071559 -0.034019 0.114558 -0.031905 -0.025414 0.052658 -0.050907 -0.027941 0.036628 -0.070202 0.001593 -0.053541 0.076733 -0.069898 0.047315 -0.045455 0.079912 -0.025517 -0.071711 0.004227 -0.057590 -0.065195 0.069485 0.057481 0.023448 0.055022 0.051263 -0.051084 0.079175 0.037196 0.077054 0.091109 0.013832 0.043115 -0.044495 0.051123 0.010616 -0.011102 -0.041383 -0.025796 0.000148 0.073831 -0.003569 -0.013486 0.066278 -0.025693 0.019909 0.067267 0.043177 0.032879 0.013593 0.059599 0.066835 -0.021314 0.013296 -0.002055 -0.050638 -0.017874 0.031621 -0.071995 0.028429 0.013778 -0.073481 -0.040632 -0.051254 -0.009092 -0.090104 0.060624 0.033036 -0.028348 -0.056311 -0.050263 -0.061717 0.015944 0.012631 0.137406 0.067435 -0.041175 0.075920 0.019319 0.068438 -0.015691 -0.003200 0.042722 0.040865 -0.071172 -0.040234 -0.054328 -0.013957 0.066120 0.085290 -0.061127 -0.009043 -0.071189 -0.019278 0.032523 0.019551 -0.006408 0.015236 -0.077714 0.041549 0.042712 0.025095 0.065734 0.024521 0.056951 0.073679 -0.046056 -0.069851 0.071982 0.053609 -0.076367 -0.031325 -0.030170 0.039425 -0.066482 -0.020169 -0.139758 -0.082249 0.051155 0.095571 -0.083076 0.069909 -0.010655 -0.082993 -0.008864 -0.067494 -0.024446 0.029559 0.110967 0.011476 -0.000299 -0.009193 0.023262 -0.019624 0.048395 -0.010518 -0.028506 0.080107 0.031464 -0.045543 0.073713 0.016285 0.002407 -0.115651 -0.039460 0.017163 -0.003466 -0.025191 0.018429 0.015736 -0.038799 0.021145 -0.043972 0.019389 0.028483 0.003397 0.037810 -0.081569 -0.035531 -0.018031 -0.016827 0.104625 0.054705 -0.093767 -0.022092 0.011200 -0.007149 -0.003382 0.020564 0.079166 0.035331 -0.015702 0.004793 -0.038041 0.132908 0.055411 0.057638 -0.075865 -0.051276 -0.012951 -0.027274 -0.008547 -0.071127 0.007558 -0.077851 0.038302 -0.119363 0.039113 0.083315 -0.013698 -0.055136 -0.045102 -0.047987 0.081985 -0.061884 0.007607 0.023116 0.021229 0.048285 -0.047720 0.018669 0.125931 0.021487 -0.033225 0.042274 -0.047992 0.086554 0.014199 -0.024431 -0.050962 -0.062375 0.012542 0.010549 -0.067960 -0.055214 0.026757 0.043394 -0.045084 -0.014980 0.035673 0.015386 0.014348 0.146500 0.035616 -0.002497 0.079497 -0.071911 -0.059501 0.069200 0.093936 -0.013291 -0.046125 -0.017094 -0.074138 -0.026750 -0.061661 -0.038809 -0.034285 0.023126 0.003493 -0.019324 0.039990 -0.073826 -0.125670 0.046404 -0.048091 0.032070 0.037347 -0.009180 -0.041686 -0.024903 -0.073772 0.037605 -0.057894 0.056697 -0.031689 -0.057776 0.070937 -0.005314 0.036936 -0.050564 0.084165 0.072189 -0.066192 0.079429 -0.050267 -0.028107 -0.045718 0.012291 -0.079682 0.030092 -0.095201 0.042369 0.069736 0.023373 0.010032 0.083081 0.060919 -0.011548 -0.006255 0.059942 0.036746 -0.007659 0.021276 0.014683 -0.028402 0.058019 0.064358 -0.021685 -0.029553 0.033954 0.087669 -0.041253 0.024971 -0.020147 -0.090188 0.061684 -0.014283 -0.029744 -0.000142 -0.016795 0.099258 0.004463 -0.032621 0.043116 0.017313 0.078349 0.033263 -0.008644 -0.046358 -0.045560 -0.052293 0.049874 0.010265 0.042862 0.040490 0.071029 0.016298 0.012473 -0.076109 0.068870 -0.014816 0.050300 -0.070533 -0.097707 -0.061165 -0.044502 0.050420 0.026505 0.004471 0.006370 0.071589 0.007979 -0.079613 -0.066141 -0.028896 0.023257 0.066394 -0.093830 0.081131 -0.060247 -0.066490 -0.051623 0.178124 0.036635 0.077387 0.036622 0.003786 0.014493 0.000447 0.014280 0.000029 -0.037016 0.013683 0.024045 0.081830 0.035234 0.059710 0.057609 -0.047191 -0.098431 -0.010687 -0.061242 -0.077859 -0.070102 -0.065257 -0.015435 -0.080436 -0.060661 -0.021521 -0.078633 -0.042385 -0.004533 -0.050385 0.114969 -0.066637 -0.040657 0.088068 0.047541 0.056118 -0.028241 -0.042390 -0.039385 -0.061744 0.010708 0.077007 -0.069312 -0.014629 0.093498 0.073875 0.034528 -0.038540 -0.042040 0.059564 -0.019517 0.095352 -0.084224 0.015396 0.037462 -0.043365 0.069554 0.221718 -0.003912 -0.017537 0.076984 0.033575 0.013352 -0.061108 0.032226 -0.049540 0.058350 0.068396 -0.034456 -0.056631 -0.079005 -0.049808 -0.072871 -0.070782 -0.024583 0.071713 -0.080298 -0.022603 -0.107298 -0.027149 0.007507 -0.030263 -0.074843 -0.083991 0.180714 0.035462 0.047126 0.055894 -0.002307 -0.084098 -0.046229 -0.002107 0.035671 0.041790 0.104708 -0.025630 0.081696 -0.005720 -0.048877 -0.011231 -0.007603 -0.033027 0.007858 0.025631 -0.014103 -0.050224 0.001008 0.013237 -0.188767 0.011719 0.049999 0.083738 0.065785 0.097532 -0.093248 0.041559 -0.084116 0.019048 0.007576 -0.098229 0.006899 0.053261 0.019139 -0.024548 0.005847 -0.057396 0.021897 0.002330 0.013185 0.067647 0.208665 -0.055929 -0.052189 0.047862 0.089743 0.033737 0.013060 -0.014221 0.081053 -0.054107 0.072263 0.040841 0.072398 0.054642 0.029783 0.064735 0.001734 -0.049734 0.006934 -0.067341 -0.017995 0.015808 0.064861 0.060424 0.007742 -0.009003 -0.074828 -0.050841 0.070833 0.041790 -0.088913 0.049292 0.048113 -0.059012 -0.050715 0.021004 0.073582 0.042278 -0.046847 0.026650 0.064710 0.070082 -0.029871 0.050711 0.031948 0.003413 0.052547 -0.056033 -0.212192 -0.029622 0.019850 0.010131 0.017618 -0.105257 0.079360 -0.068564 0.006175 -0.014867 -0.044476 0.008720 -0.076726 -0.038984 -0.029458 0.067297 0.028734 0.004639 0.018095 -0.058661 -0.058125 0.041923 0.025386 -0.063899 0.005594 -0.035089 0.065992 -0.033711 -0.025736 0.049428 -0.040008 0.021124 -0.079996 -0.011542 -0.055332 -0.040679 0.043129 0.010217 -0.007601 -0.022803 0.079730 0.062284 0.106101 -0.070624 -0.052684 -0.047825 0.069811 0.014507 0.030674 -0.003030 0.032307 0.077202 -0.004084 -0.004498 -0.072708 0.040209 0.065282 0.083433 0.049743 -0.054779 0.016786 -0.053155 0.046411 0.017156 0.043546 0.077616 -0.040910 -0.006673 -0.004379 0.049725 0.051119 -0.006485 0.038187 0.088203 0.001367 0.058759 0.058328 -0.012048 -0.006022 0.097996 0.068843 -0.050143 -0.009663 -0.077734 0.027170 -0.000061 0.022396 -0.006878 -0.024533 -0.007981 0.031830 -0.076938 0.019624 -0.018291 0.049345 -0.024001 -0.028177 0.086730 0.058397 0.050836 0.016358 0.023515 0.002133 -0.027533 -0.030413 0.032456 0.002247 -0.052805 -0.053502 0.021916 0.027899 -0.055376 0.047902 -0.057273 -0.052335 -0.006226 0.007867 0.060712 0.067127 -0.061115 -0.040901 -0.053193 -0.096070 0.063767 0.075746 0.052412 -0.045073 -0.035345 0.023807 -0.065360 -0.069842 -0.035673 0.032154 -0.033096 0.018079 0.071265 -0.057310 0.048445 -0.072846 -0.017909 -0.010581 0.062794 -0.009367 -0.053504 0.083414 0.037773 0.032264 0.023433 0.009095 0.011415 0.039871 0.064694 0.016973 0.062700 0.040734 -0.066946 0.054153 0.080353 -0.027489 -0.022500 -0.081983 -0.013110 0.022151 0.032028 0.040791 -0.036938 0.049162 0.062661 -0.074610 0.052383 -0.034817 -0.002360 0.060005 0.055553 0.035686 0.018286 0.010396 -0.017264 -0.040262 -0.005810 -0.079358 0.077538 0.072691 -0.052505 0.072045 0.026167 -0.035328 0.021602 0.004018 0.017958 0.077913 0.018935 -0.080938 0.021605 0.026867 0.039309 0.059312 -0.077806 0.022608 0.070031 0.105914 0.067511 0.002160 -0.005059 0.038603 -0.074543 -0.063333 -0.033494 0.004194 -0.026230 -0.014930 0.008109 -0.026128 -0.024257 0.037826 -0.043631 -0.080069 0.083755 0.057451 0.019515 0.016017 -0.036918 -0.046145 0.017523 -0.003824 0.011371 -0.026090 -0.020142 0.014039 0.073403 -0.034144 -0.013273 0.068406 0.037784 0.065309 0.030429 0.047632 0.077816 0.066180 0.007765 -0.031704 -0.014637 -0.001789 0.015503 0.045177 0.024854 0.067120 0.041413 0.023511 0.031641 -0.021238 -0.023021 0.092069 0.006752 0.065007 -0.070438 -0.010442 -0.033811 -0.011888 0.044532 -0.053472 0.040950 -0.062873 -0.072507 -0.011441 -0.065785 0.069536 -0.046051 -0.072968 0.038128 0.027224 -0.021055 -0.024182 0.010566 -0.073710 0.053528 -0.050219 0.068021 0.012265 0.145752 0.027687 0.069204 -0.069717 -0.034871 0.022815 0.068682 -0.015494 0.045649 -0.088143 0.043337 -0.001076 -0.031956 0.002219 0.036796 0.020526 0.069121 0.044214 -0.032442 -0.052665 0.057425 0.130874 0.046684 -0.034023 -0.081567 -0.027783 -0.064001 0.046269 -0.001273 -0.053901 -0.014794 -0.024011 0.057650 -0.025244 -0.012018 -0.059197 0.068859 -0.023723 0.002148 0.018846 -0.007342 -0.035259 -0.141356 0.044409 0.049739 0.072324 -0.051932 0.037139 0.043048 -0.022101 0.063384 0.014301 -0.037279 0.039771 0.057579 -0.034092 -0.052491 -0.076794 -0.064043 -0.011604 -0.009552 0.001242 0.091155 -0.060423 0.059458 -0.014557 -0.043348 0.050641 0.040846 0.036824 -0.014215 -0.047867 -0.060469 0.088975 0.072026 0.055419 0.020837 -0.028755 0.020976 -0.023124 0.007385 -0.005519 0.080498 0.036844 -0.051658 0.045434 -0.073165 -0.020209 0.047846 -0.047587 0.067143 -0.060531 0.037098 0.099219 -0.084099 0.019906 -0.039631 -0.016924 -0.016953 -0.083109 -0.002384 0.062188 -0.037501 -0.060308 0.013215 -0.037751 0.072707 -0.043184 -0.014518 -0.009358 0.003948 0.070978 0.077233 0.003737 0.042984 -0.059510 -0.035321 0.054328 0.014163 -0.064827 -0.075735 0.016872 -0.054529 0.048158 -0.043007 -0.029423 -0.036099 -0.023554 0.022026 0.044717 0.001231 0.056231 0.026473 0.036433 0.078093 -0.042010 0.072098 0.036104 -0.008628 -0.029768 -0.015988 -0.079098 -0.082229 -0.016523 0.006684 -0.074861 0.007858 0.053356 0.068809 -0.079031 0.071062 0.070930 -0.018608 -0.061416 0.034780 0.022276 0.001229 -0.069217 -0.061338 -0.068681 0.039366 0.020229 -0.065239 -0.014853 -0.024609 -0.079425 0.039507 -0.031418 0.071433 -0.051333 0.011244 -0.025224 -0.023290 0.099229 0.035928 0.041288 0.075788 -0.075453 0.013223 0.056890 -0.035105 0.003573 0.047952 0.015936 0.024637 -0.002869 -0.034349 -0.053738 0.009662 -0.012116 -0.030713 -0.017075 -0.073220 -0.017696 0.058290 -0.014683 -0.022010 0.021072 0.035641 -0.033373 0.074072 -0.023445 0.026502 -0.078094 -0.036694 -0.005597 0.044911 -0.043775 0.028210 -0.025179 -0.080592 0.072321 0.062651 0.060377 0.017294 0.009409 -0.025542 0.065964 0.034989 0.063729 -0.028811 0.094788 -0.037339 -0.017451 -0.030238 -0.057400 0.047520 0.005319 0.036857 0.000820 0.081029 0.018098 0.061709 0.023656 0.021209 -0.057375 -0.081736 -0.018403 -0.022007 0.042868 0.042321 -0.003723 -0.027573 0.023434 -0.025507 -0.052469 -0.056036 0.030237 -0.069263 0.052410 0.011639 -0.015203 0.044623 0.058085 0.046132 -0.066422 -0.079109 0.014943 0.046720 0.045549 -0.075851 0.044304 -0.013135 -0.004114 -0.014654 -0.076448 -0.060331 -0.013152 -0.010309 0.003669 -0.082534 -0.050273 -0.072442 0.041931 0.053618 -0.025862 0.052484 0.077445 -0.077444 0.065845 0.048891 0.017093 -0.031808 0.009688 -0.007395 -0.066010 0.026079 0.001833 0.031098 -0.008892 -0.037785 0.047846 -0.045950 0.028064 0.060124 0.021697 0.033482 0.066573 -0.074324 -0.058415 -0.007101 -0.063964 -0.024360 -0.011903 0.041578 -0.047218 0.044296 0.011463 -0.057797 0.048809 -0.009149 0.073765 -0.016506 0.046412 0.003892 0.066790 0.061971 -0.050735 -0.015494 0.011665 0.022934 0.014913 -0.023663 0.060071 -0.037700 -0.061608 -0.001504 0.078876 -0.087311 0.006608 -0.063173 -0.005699 0.025388 -0.007887 0.064356 -0.015393 0.018767 0.043256 0.078175 0.044998 -0.006322 -0.008813 0.030731 0.060213 -0.044978 -0.042686 0.037537 -0.065237 0.001948 -0.072135 0.025984 -0.070719 0.026501 -0.077398 0.069821 0.071488 -0.055612 -0.012436 0.067217 -0.049838 0.106944 -0.078167 0.028275 -0.022453 -0.003361 0.007616 -0.077433 -0.067017 -0.048046 -0.081576 0.050730 0.027907 -0.005677 0.033330 0.005828 0.029444 0.052137 -0.038674 0.046730 -0.041552 -0.028817 -0.007523 -0.030173 0.079875 -0.002743 -0.041299 0.068218 0.023990 0.028612 0.053770 0.055135 0.022840 0.058067 -0.002469 -0.031986 -0.027910 -0.077072 -0.034334 -0.012774 -0.042599 -0.033828 -0.036296 0.067531 0.041013 0.058923 -0.005273 -0.011869 0.028379 0.033546 -0.047083 0.068574 -0.076444 0.027012 -0.042545 -0.078642 -0.056472 -0.002045 0.072992 0.049046 -0.054669 0.044406 0.018863 0.049696 0.020074 -0.064389 -0.071883 0.074881 -0.059866 -0.026010 -0.020505 -0.020068 0.026004 0.025709 -0.034937 -0.015425 0.002406 0.038375 0.067054 -0.051280 -0.009302 -0.074484 -0.064291 -0.003202 0.035925 -0.024800 0.000379 0.060236 0.055592 0.007808 0.025903 -0.083759 -0.047019 -0.035999 0.050145 0.054584 -0.018137 0.061044 0.047669 0.004749 -0.041680 -0.019853 0.067229 0.064764 0.053155 -0.049974 -0.033843 -0.026793 0.070771 -0.060921 0.004159 -0.020721 -0.053034 0.022228 0.058296 0.064712 0.079770 -0.023559 0.042692 0.053188 0.049601 -0.013660 0.053325 -0.079737 0.032544 0.021065 0.057997 -0.067951 -0.000217 0.023438 0.019145 0.037648 0.050733 0.004037 0.019102 0.021596 0.036355 0.067552 0.077095 0.024834 -0.075662 -0.001039 -0.078180 -0.046403 -0.061103 0.062408 -0.063984 -0.063625 -0.043443 0.061001 0.071855 -0.076135 -0.034951 0.042888 -0.073580 0.079885 -0.018339 0.066709 -0.070358 0.063736 0.007855 0.031079 0.019092 -0.023704 -0.047176 -0.044098 0.080184 0.071471 -0.058838 0.074987 0.014012 -0.052208 -0.008344 0.018125 -0.016319 0.012846 -0.001759 0.001990 0.031513 0.037090 -0.019301 0.021075 0.043248 0.028040 -0.018329 0.051960 0.025633 0.045624 0.036377 0.037567 0.027067 -0.038060 -0.013646 -0.036133 0.020529 0.021470 0.002062 0.018421 0.010648 0.025516 0.011116 -0.057632 0.055600 -0.079520 0.042785 -0.043011 0.015618 -0.041267 0.041271 -0.035162 0.078116 -0.060323 0.068206 0.039071 0.050009 -0.032416 0.008739 -0.006650 -0.069084 -0.037176 -0.051375 0.040275 0.007057 0.017271 -0.078149 -0.054707 -0.043551 0.006205 0.046007 0.049389 -0.050572 -0.025169 0.074049 -0.077264 -0.022397 0.034542 -0.037983 0.075514 0.075568 -0.079004 -0.041940 0.071391 -0.057035 -0.056027 0.028170 0.075267 -0.006150 -0.045384 -0.013675 0.007058 -0.000268 0.017242 -0.034959 -0.075503 -0.047779 -0.030817 -0.047918 -0.009039 0.057680 0.080381 -0.041942 -0.075184 -0.027080 -0.050185 -0.070156 0.032815 0.066649 -0.025847 0.026037 0.059925 -0.022559 0.066389 0.049023 0.002699 -0.071930 -0.005099 -0.004327 0.004212 0.031809 0.064290 -0.071023 -0.050751 -0.000760 -0.023690 -0.043962 0.033753 0.027786 -0.009587 -0.057578 0.003174 -0.011498 -0.017228 0.010282 0.043714 0.014880 0.022418 -0.005762 -0.000763 0.078863 -0.062018 -0.023130 -0.025988 -0.077921 -0.056399 0.059003 -0.067559 0.020794 -0.027616 0.018945 -0.029689 -0.045618 0.030214 0.001853 0.035915 -0.075768 0.040183 -0.012625 0.034310 -0.051696 0.012089 -0.044808 0.019098 0.077154 0.047766 -0.019480 0.009742 -0.012109 0.057050 -0.073313 -0.015538 0.077325 -0.014151 0.040767 0.081696 0.011742 0.017478 -0.068156 -0.049756 0.072154 0.033081 0.002847 -0.055755 -0.018997 -0.077593 0.062451 -0.012473 0.044883 -0.032466 -0.060455 0.075479 0.061916 -0.022971 0.012285 0.056778 -0.057497 0.075097 -0.015773 0.012686 0.049855 -0.006794 0.079441 0.044888 0.061347 0.037915 0.044291 -0.009203 -0.026899 0.058427 0.023333 -0.037037 0.009216 -0.056112 -0.010500 0.072512 -0.051412 -0.030341 -0.022253 0.075763 0.019486 -0.000415 0.068949 -0.000890 0.058906 -0.001059 -0.026405 -0.080884 -0.008254 0.040115 0.014094 -0.040691 -0.048971 0.011243 -0.078095 -0.069916 -0.033134 0.048488 0.003173 0.022259 0.024623 -0.055786 0.067515 -0.048453 -0.029606 -0.025277 -0.058233 0.001274 0.026674 0.001806 -0.005256 -0.036132 -0.080902 -0.018599 0.045270 0.060296 0.062635 -0.063427 0.061704 -0.027911 0.058980 -0.006493 0.013690 -0.072284 -0.077543 0.017887 -0.059908 -0.028384 -0.015918 0.025558 0.076167 -0.073587 0.052064 0.061390 -0.039748 -0.059835 -0.046179 -0.015689 0.023732 0.062787 0.068409 -0.063817 -0.055638 0.069799 -0.000123 0.071924 0.047803 -0.019781 -0.073795 0.027215 0.034600 0.067477 -0.061570 -0.034002 0.077485 -0.056821 0.066177 -0.064714 -0.002913 -0.032033 0.043135 -0.009037 -0.023327 0.012907 -0.029940 0.019217 0.035365 0.006173 -0.078764 -0.023196 -0.013332 0.071937 -0.004720 0.013322 0.059444 0.077449 0.002955 0.024955 -0.024625 0.011452 -0.030121 -0.072317 -0.003364 -0.009399 -0.024027 -0.008170 0.016072 -0.040142 0.009408 -0.069133 0.010118 -0.029749 0.004122 0.069083 0.065450 0.056474 0.006008 0.018522 -0.019645 0.009536 0.077619 0.049315 -0.000819 -0.009394 -0.019655 -0.023667 -0.014238 0.065592 -0.081003 0.043430 -0.005248 -0.028833 0.053405 0.073680 0.044060 -0.052914 -0.016782 -0.022160 -0.010763 0.074917 -0.009001 0.081647 -0.037124 0.077413 0.068438 -0.053966 0.051596 -0.007847 0.046848 -0.050341 -0.080603 0.042175 0.081266 0.000871 -0.049511 -0.020681 0.059497 0.018544 -0.037381 0.060785 -0.020319 0.039663 -0.050339 -0.049205 0.031051 0.076013 -0.019827 -0.068023 -0.028439 0.051702 -0.075398 0.044852 0.051057 -0.030230 0.039973 0.037203 -0.001904 0.009277 -0.052936 -0.037348 0.041228 -0.051247 -0.077465 0.040202 0.031917 -0.044684 -0.062771 0.009121 0.056152 -0.017859 -0.012386 -0.046459 -0.060488 0.019567 -0.013372 0.052855 0.013288 0.049093 0.067124 0.067141 0.018503 0.074018 0.029701 -0.012732 -0.038504 -0.012618 -0.057821 0.041884 0.078951 -0.028465 -0.077756 0.037887 0.002581 -0.072928 -0.004204 -0.047795 -0.035320 0.015318 0.043618 -0.061460 0.079750 -0.051060 -0.025627 -0.063030 0.050800 0.043294 0.072117 -0.018204 0.010095 0.056948 -0.033356 -0.053694 0.048674 0.078637 0.015866 -0.072122 -0.016273 0.040337 0.052054 -0.019614 -0.070420 0.056591 -0.064020 0.014453 0.065955 0.014069 0.048950 -0.051657 -0.052906 0.010276 -0.030825 -0.055448 0.041509 0.025841 -0.036186 0.010016 -0.013158 -0.046361 0.074104 0.079229 -0.071705 -0.041544 -0.056758 0.059261 -0.045199 0.041401 0.069431 0.020820 -0.000554 0.039193 -0.081087 0.011318 0.013492 -0.062814 -0.056521 -0.002845 0.033547 0.074721 0.027790 0.062933 0.002705 0.079257 -0.074806 -0.038079 0.022805 -0.028700 0.054230 -0.072645 0.007231 0.046042 -0.075709 0.017819 -0.077795 -0.050174 -0.005212 -0.040702 0.073519 -0.018073 0.062410 -0.009327 -0.061172 0.063616 -0.080301 0.034612 -0.081491 -0.054530 -0.050525 0.034349 -0.062101 0.059556 0.014990 0.022896 0.056521 0.022476 0.067110 -0.002966 0.076068 0.039047 0.006681 0.001007 0.002797 0.013264 -0.063466 0.007294 0.045383 0.013614 0.048036 0.036629 0.077840 0.029053 -0.055020 -0.065632 0.010305 -0.053594 0.051251 0.011317 -0.025554 -0.081555 -0.036873 -0.005064 0.060263 0.060429 -0.064463 0.034510 0.000666 -0.079636 -0.050886 -0.005556 0.041699 0.038248 0.077745 -0.037787 -0.030782 -0.068012 0.052009 -0.067688 0.027898 0.016996 0.051219 0.023413 -0.034929 0.078483 0.040070 0.057708 -0.056816 0.009219 -0.013459 0.000219 0.009879 0.032018 0.077472 -0.012227 0.010532 -0.069322 -0.059935 -0.071559 -0.066649 -0.028340 0.004816 0.057332 -0.072425 0.000878 -0.062756 -0.020911 0.014841 0.071294 -0.006537 -0.039454 0.007394 -0.036990 0.065742 0.054793 -0.041224 0.024022 0.030227 -0.015693 -0.049212 -0.065548 0.066823 0.042889 0.048909 0.061991 -0.051629 -0.023323 0.074944 -0.029152 -0.012342 -0.074032 0.024664 0.075077 0.065626 0.036088 -0.006520 -0.079517 -0.068626 -0.073853 0.074165 0.007329 -0.031002 -0.000749 0.052256 -0.047065 -0.028095 -0.070684 0.059284 -0.079301 -0.019533 -0.072980 -0.063472 -0.020118 0.052969 0.067513 -0.040446 -0.081140 -0.038113 -0.047581 -0.011337 0.033198 -0.039540 0.079075 0.024278 -0.056701 0.031331 -0.064350 -0.053304 0.044893 -0.055982 -0.061391 -0.031801 -0.004621 0.020298 -0.060003 0.030569 0.074231 -0.049163 0.007562 0.076260 0.047952 0.017580 -0.069595 -0.073824 -0.011749 0.080230 -0.031892 -0.010558 -0.040937 0.002642 0.043992 0.073797 0.045439 0.040589 0.015969 0.071261 -0.010202 0.033960 -0.064048 -0.047499 0.060305 -0.042917 0.004811 -0.026592 0.059020 0.027109 -0.078309 0.050262 0.060714 0.011810 0.045281 0.006859 -0.053015 0.062422 0.014958 0.017394 0.055925 0.065959 -0.075301 -0.066520 -0.013766 0.050962 -0.075058 -0.045612 0.009146 0.023466 -0.061333 0.081561 -0.025544 -0.043226 -0.048229 -0.047121 -0.003865 0.038861 0.005702 -0.026796 -0.016346 0.012508 -0.057766 -0.038153 -0.058239 0.069822 0.050949 -0.029053 0.045554 -0.015693 0.071437 0.019199 -0.032305 0.070733 0.034320 0.036431 0.047015 0.042217 0.067914 -0.026589 -0.018139 -0.075756 -0.034131 0.045871 -0.036566 0.006912 0.075369 0.042245 -0.035663 0.001565 -0.067579 0.029367 -0.068222 -0.042626 0.073386 -0.045861 -0.054834 0.042558 0.009014 0.072785 -0.055058 -0.002763 0.009708 -0.007999 -0.000893 -0.037288 -0.052144 -0.043033 -0.077869 -0.066387 0.016352 -0.012361 -0.060140 0.067575 -0.054439 -0.010138 -0.008009 -0.061333 -0.054215 0.039710 0.022253 -0.038851 -0.015772 0.037016 0.001077 -0.024680 0.074875 0.028246 -0.064239 0.001699 0.018772 -0.041073 0.081167 -0.054404 0.038379 -0.008242 -0.009180 0.072830 0.033663 -0.004592 -0.080161 -0.038388 0.065561 -0.057610 -0.053688 -0.070915 0.010889 0.025868 -0.049650 0.039238 -0.023844 0.055060 -0.082213 0.045440 0.009272 0.001173 -0.063309 0.002016 -0.053239 -0.045304 -0.079111 0.048547 -0.001094 -0.079595 0.075978 -0.044924 -0.005117 -0.014102 -0.058690 -0.058626 0.065587 -0.056429 -0.012921 0.040968 -0.031809 0.015525 0.058486 0.061526 -0.046130 -0.073997 0.017629 0.012182 0.063341 0.024177 -0.027044 -0.009665 -0.062169 -0.008005 0.074749 -0.032535 0.029004 0.078397 -0.066275 -0.054444 0.081343 -0.069954 -0.016878 -0.005676 -0.003191 0.006711 0.019597 -0.021863 0.032512 -0.075949 -0.055013 -0.081551 0.021897 -0.080726 0.062177 0.058107 -0.070573 -0.001741 -0.012055 0.072951 -0.065287 0.044222 -0.019019 -0.045501 -0.045629 -0.026388 0.004501 0.064391 -0.030524 0.020708 -0.072057 -0.030711 0.031509 -0.006622 0.044651 -0.053927 -0.082203 -0.018254 0.006508 0.032821 -0.011682 0.031819 0.033093 -0.071358 0.032596 0.012854 0.068323 0.043046 -0.070743 -0.025913 0.033687 -0.053741 -0.064895 -0.060531 -0.016566 -0.029400 -0.011934 0.070275 -0.048444 0.039751 0.008607 -0.037262 -0.074030 -0.042165 0.038200 0.052889 -0.014004 0.038495 -0.047507 0.075000 -0.011404 0.023174 0.024636 -0.060052 0.033431 -0.022814 0.037307 0.019501 -0.063620 -0.008840 0.067485 0.054488 0.076069 -0.070497 0.067233 -0.023753 -0.030859 -0.027641 -0.032699 0.075307 -0.070596 0.066994 0.061388 -0.061396 -0.069218 0.017083 0.073570 -0.001316 -0.022634 -0.058939 -0.007592 0.100714 0.049523 -0.067877 0.061221 0.002040 -0.008573 0.020891 -0.056476 0.016616 -0.002797 -0.069835 -0.019383 -0.022068 -0.058067 -0.033762 0.033694 0.006510 0.020613 -0.080551 -0.059599 0.038899 0.057143 -0.086120 0.063842 0.070014 0.018368 0.047662 -0.012320 0.075140 0.072861 0.072077 0.037184 0.040157 0.079999 0.023000 -0.042644 -0.015669 -0.041273 -0.003646 -0.082304 0.024875 -0.008132 -0.002723 -0.080112 0.008942 0.030519 0.041209 -0.060143 -0.029807 0.043800 -0.038273 -0.079144 0.058348 -0.042293 0.069226 0.005397 0.064840 -0.017250 0.061317 0.057713 0.012687 0.058866 0.012027 -0.031951 0.057087 -0.051806 0.010247 -0.035500 -0.005114 0.067434 -0.033840 -0.065704 -0.000947 0.030535 -0.018937 0.114713 -0.021530 0.070086 -0.263740 0.020932 0.037211 -0.018634 0.038099 -0.030761 0.026906 -0.011099 0.057103 0.030752 0.198657 0.054736 -0.006284 0.046645 0.035129 0.083161 -0.068822 0.012185 -0.052797 0.033211 0.045320 0.023754 0.092531 -0.063580 0.058924 0.076793 0.050464 0.074321 0.067653 -0.052297 0.070519 -0.002922 0.056766 0.008502 -0.006268 0.008924 0.063178 -0.046513 -0.060578 0.022508 0.029661 -0.026525 0.020094 -0.066114 -0.083255 -0.030494 -0.059570 -0.051992 0.054807 -0.034930 0.057525 0.021462 0.150960 -0.014149 0.042456 0.043376 -0.015811 0.005357 0.033626 -0.036516 0.052278 0.013575 -0.022772 -0.002112 -0.083209 0.055840 -0.081926 -0.076779 0.067895 -0.041710 0.045962 0.022240 0.011268 -0.027267 0.141872 0.010136 0.055017 0.051727 0.059852 -0.068030 -0.053998 0.036514 -0.073689 -0.062444 -0.060663 0.032080 0.066791 -0.007029 -0.023515 0.022088 0.062502 -0.088879 -0.042743 -0.038864 0.026526 -0.015853 -0.028646 0.125932 -0.011341 -0.069794 -0.068391 -0.078599 0.043306 0.013732 0.016181 -0.008161 -0.040708 -0.063974 -0.041994 -0.040824 0.262456 0.007801 0.072831 0.023391 0.027678 0.094402 -0.021377 0.002922 -0.004340 0.047026 -0.084313 -0.032424 0.098058 -0.027210 0.026165 -0.024033 0.045097 0.040709 -0.069110 -0.045973 0.067081 0.005176 -0.013694 -0.014876 0.029828 0.070101 0.064028 0.166309 -0.063381 -0.080794 -0.080876 0.034692 0.043676 0.060125 -0.036776 -0.055715 0.053284 0.029996 0.035290 -0.018153 -0.008202 0.043317 0.123982 -0.067045 -0.060236 -0.015347 -0.010925 0.052533 -0.012569 -0.011668 -0.048061 0.057054 -0.001386 -0.066296 -0.076333 -0.055378 -0.062682 -0.055549 -0.100149 -0.010723 -0.029806 -0.073404 -0.062084 0.069781 0.186346 -0.038612 -0.022223 0.031364 -0.065497 -0.054815 -0.005039 0.003318 0.012939 0.078904 0.015679 -0.001027 -0.013344 -0.087482 0.062009 0.007627 0.012832 -0.034524 -0.014833 -0.081175 0.079586 0.031551 -0.106064 0.088208 0.052302 -0.035943 0.046993 -0.095146 -0.010868 0.062730 -0.050415 -0.037594 -0.031892 -0.003390 -0.081164 0.014788 0.164854 0.040894 0.093454 0.021189 -0.023157 0.100792 -0.045040 0.023687 0.008723 0.050149 -0.061246 -0.069206 0.100947 0.013258 -0.077553 -0.074688 -0.024793 -0.031974 -0.010639 -0.060903 0.066040 -0.007128 -0.026898 0.066719 0.081576 -0.014599 -0.043459 0.065892 0.037072 -0.055509 0.030801 0.040532 0.036784 0.024505 -0.029665 0.061731 -0.042876 0.017589 0.031430 0.054022 -0.008180 0.040262 0.126330 -0.000184 -0.016072 -0.056231 0.020354 0.015151 -0.000206 0.079571 0.036427 -0.054736 -0.080719 -0.129491 -0.026998 0.087358 -0.028128 -0.020409 -0.072488 -0.056786 0.026706 0.066276 0.059066 -0.049414 0.091142 -0.116316 -0.006675 0.036844 0.041344 -0.107344 0.052652 -0.065931 -0.016531 0.012962 0.010136 0.019174 0.044775 -0.055730 0.068452 -0.029765 -0.051145 -0.106263 0.002536 -0.097553 -0.033464 0.027975 -0.154913 0.175929 -0.082507 -0.033276 0.079473 0.007166 -0.023426 0.038386 0.086016 0.050188 0.065620 -0.029107 0.005230 0.084579 0.339196 0.021156 0.076987 0.091793 0.067220 0.034767 0.024287 0.002970 0.000325 0.102796 0.043519 0.026971 0.127201 -0.022178 0.036121 -0.066084 -0.074486 0.040946 0.062754 -0.088561 0.010949 0.131196 0.038130 -0.020924 -0.034131 0.021220 -0.032521 0.098640 0.054020 0.030516 0.068557 -0.031767 -0.036038 0.038005 -0.046306 0.099828 -0.033703 0.071638 0.061500 0.024753 0.095165 -0.011921 0.066803 0.078997 0.084835 -0.039656 -0.043785 0.049326 -0.196487 0.081555 0.003169 -0.014623 0.013335 0.023235 0.139089 0.069296 -0.091402 -0.050629 -0.057273 0.075198 -0.063680 -0.087299 -0.045378 -0.052897 0.272811 -0.086297 0.081867 0.089916 -0.001719 -0.175797 0.093184 -0.010530 -0.047357 -0.080902 -0.022417 0.063337 0.017032 -0.011293 0.111301 -0.000611 0.006635 -0.022014 0.077228 0.032118 0.015360 0.068285 -0.067169 0.196112 -0.070648 0.040937 0.046478 -0.021254 0.067953 0.067761 -0.000638 0.026101 -0.025578 0.047780 0.003566 0.119326 0.368244 -0.053213 -0.008136 -0.003336 -0.030175 0.080534 -0.038759 0.004712 -0.050972 -0.045287 -0.086696 0.039762 0.191818 0.093773 0.110998 0.082016 0.051728 0.015391 0.049739 0.074828 0.007820 0.032688 -0.055349 -0.051672 -0.069020 0.000011 0.066123 0.137019 -0.040887 0.003151 -0.035024 -0.019933 0.074006 0.014329 0.052320 0.092133 0.043923 -0.077279 0.060379 -0.010142 -0.041192 -0.003653 -0.026213 0.045834 0.034934 0.098291 0.058008 -0.035154 -0.070747 -0.030899 -0.072322 0.058129 0.009452 -0.020251 -0.070556 0.064992 0.034027 0.078040 -0.070199 -0.068544 -0.004272 -0.023804 -0.010909 -0.068030 0.164628 -0.113525 0.211062 0.005401 -0.051949 -0.229044 0.110046 -0.036477 0.085276 -0.062825 -0.080819 0.007941 0.006679 0.035148 0.070596 0.020652 -0.038336 0.014772 0.005867 -0.048253 -0.012086 0.021802 -0.029119 0.253887 0.014543 -0.023078 -0.011172 -0.038557 0.064459 0.073273 -0.036301 0.070826 0.075875 -0.000393 -0.047862 0.010468 0.552685 0.018509 -0.010711 0.019651 -0.001764 0.054108 0.030624 -0.028664 -0.042116 0.001168 0.088027 0.011084 0.132969 0.012959 0.054690 0.030345 -0.072857 0.063432 0.112818 0.032905 -0.052049 0.022198 0.056916 -0.079783 -0.003847 0.052599 0.071285 0.225282 -0.070826 -0.015872 -0.031940 0.021359 -0.044796 0.034145 0.110009 0.056947 0.060041 0.072725 0.133779 -0.005021 -0.066632 0.044175 -0.061855 -0.043079 -0.024473 0.018472 0.051078 -0.027967 0.034779 0.021137 -0.087077 -0.049263 -0.096658 0.022927 -0.100675 0.042268 0.040437 -0.056045 -0.047146 0.022568 -0.032245 -0.000471 -0.042132 -0.003022 0.143437 -0.080416 0.187030 0.030349 0.038707 -0.276679 0.102159 0.075113 0.024659 -0.083331 -0.056591 0.116696 0.023481 -0.049926 -0.063396 -0.010527 0.058959 -0.052659 0.034199 -0.131823 0.079871 0.057647 0.032431 0.355993 0.074674 -0.057508 0.173164 0.025312 0.044570 0.000359 0.059940 0.081416 0.021413 0.116926 -0.018044 0.081695 0.496389 0.132096 -0.020125 0.142371 0.013499 0.055494 0.021395 0.050477 0.020659 0.057091 -0.056872 -0.000095 0.210586 0.034494 0.108096 0.051604 0.014337 -0.046657 0.014437 0.019381 -0.037096 0.029369 0.072384 0.073641 0.148430 0.002480 0.067178 0.380166 -0.039856 0.006744 -0.064566 0.040203 0.010569 0.003016 0.060512 -0.014230 0.116216 0.012596 0.144929 0.049737 0.083836 0.073268 0.040023 0.049608 0.049207 0.038079 0.014948 -0.032846 0.049091 0.054001 0.085437 0.058247 -0.042583 -0.024946 0.110012 0.027442 -0.016448 0.019734 0.027399 -0.001070 0.062789 0.042355 -0.049529 0.002036 0.059241 -0.016366 0.124643 0.027583 0.025568 -0.098853 -0.007800 0.068923 -0.028475 0.006523 0.031832 0.143136 -0.062079 0.038701 -0.180134 0.021489 -0.050384 -0.028510 0.008665 -0.260597 0.069551 -0.058131 -0.038663 0.326843 0.029912 -0.049106 0.144540 0.086293 -0.023422 0.043792 -0.052579 0.000672 -0.015888 0.108863 0.061555 0.055022 0.402551 0.235702 -0.033599 0.112395 0.085837 0.119368 -0.078751 0.055244 -0.054452 -0.034359 -0.071725 -0.064694 0.191806 -0.000185 0.193993 -0.051644 0.067194 -0.040464 -0.028602 0.006002 0.043880 0.161234 -0.040599 0.005658 -0.043600 -0.081576 0.089862 0.442379 0.026784 0.082544 0.063443 0.002248 -0.064711 -0.062442 0.066624 0.117818 0.044190 0.095455 0.099463 -0.034419 0.103802 0.056872 0.090442 -0.043384 0.069781 -0.045154 -0.007636 -0.018420 0.011411 -0.032915 0.244984 0.047647 0.057235 0.112619 0.124519 0.133094 0.032090 -0.052760 -0.018374 0.019752 -0.078393 -0.030663 -0.071148 -0.066036 0.014068 -0.065414 0.135848 0.042246 -0.114040 0.170981 0.054860 -0.071797 -0.031326 -0.041246 -0.042015 0.092556 -0.005021 0.078181 -0.095266 0.021062 0.064225 0.081294 -0.003045 -0.158767 0.088596 0.001303 0.019522 0.240869 0.021496 0.015432 0.028593 0.065738 0.007199 0.006161 0.053169 0.069666 -0.064178 0.074017 -0.025427 0.112529 0.413334 0.231911 -0.013909 0.141792 0.025640 0.102132 0.059947 0.052227 -0.072566 -0.061019 -0.111309 0.002969 0.450097 -0.009159 0.201187 0.087001 -0.062944 0.075411 0.052162 0.035476 0.111922 0.240692 -0.022348 -0.052442 0.097534 -0.089338 -0.068902 0.474258 0.012393 -0.001209 -0.070316 -0.001143 0.015606 -0.011318 0.069618 0.162148 0.082306 0.049774 0.076981 -0.041219 0.017305 0.065357 0.150061 -0.014054 -0.003411 0.031768 -0.005868 0.003652 -0.082778 0.062246 0.184167 -0.060538 -0.054830 -0.028543 0.126175 0.085591 0.052639 -0.030534 0.005368 -0.066828 0.033454 0.016387 0.013515 -0.044882 0.020503 -0.137411 0.034824 -0.061985 -0.092036 0.038999 -0.107302 0.079806 0.048182 -0.068044 -0.020382 -0.003540 0.048451 0.030079 -0.217622 0.031451 0.036173 0.079858 0.061255 -0.006513 0.064776 0.076983 -0.045646 0.224198 -0.058341 -0.058863 0.029564 0.095051 0.087434 0.009018 -0.047661 0.064607 0.023125 0.004175 0.051485 0.075911 0.545184 0.135467 -0.039853 0.231632 -0.033929 0.038353 0.049057 0.029917 -0.062705 0.019566 -0.067143 -0.001428 0.488293 0.085914 0.157861 0.030131 0.051429 -0.062743 0.008639 -0.080517 -0.029217 0.238157 0.064973 -0.076229 0.037274 -0.083841 0.084106 0.371595 -0.029657 0.052189 0.069683 -0.027599 0.021124 -0.066870 0.086057 0.140551 0.333948 0.129190 0.066485 0.055279 -0.036214 0.018248 0.183759 0.007817 0.005308 0.067492 -0.015815 -0.020684 -0.241538 0.069984 0.196270 0.038556 -0.000870 0.033178 0.249846 0.073492 0.013793 0.044428 -0.017659 0.024243 0.013065 -0.029486 0.070067 -0.018105 0.073488 0.061383 0.087885 -0.041527 -0.078141 -0.121285 0.003633 0.048662 0.041756 0.021368 -0.038931 0.009721 0.160388 0.054480 -0.225280 -0.017455 -0.012197 0.068774 -0.054634 0.008859 0.023799 0.061369 0.059445 0.180180 0.001198 0.056298 0.119920 -0.044659 -0.035764 -0.040076 0.017710 0.034212 -0.069920 0.093153 0.044114 0.179916 0.348741 0.163140 0.032890 0.124474 -0.136886 0.128808 0.017632 -0.012132 -0.048724 -0.032239 0.066397 -0.008039 0.492938 0.069711 0.137142 -0.002673 -0.000243 0.035285 -0.049181 -0.069975 0.050913 0.171599 -0.056022 0.024993 0.090629 0.025260 -0.021432 0.406255 0.027046 -0.052291 -0.020935 0.004487 0.000677 0.045158 0.088800 0.007662 0.209910 0.092472 0.085687 0.049523 0.041147 -0.050209 0.195139 0.048966 0.047834 0.131345 -0.037344 -0.007876 0.020215 -0.073235 0.274985 -0.051779 -0.020674 0.082766 0.261725 -0.037127 -0.012732 -0.028737 0.036694 -0.072499 0.002859 -0.079451 0.011462 -0.031011 0.122486 0.064294 0.129490 0.011159 -0.132646 -0.096837 -0.074469 0.037704 0.077320 0.041983 -0.008814 0.102432 0.089377 0.097836 -0.047543 -0.009717 0.049232 0.100503 0.040428 0.001226 0.002422 0.015868 0.026999 0.152231 0.039657 0.080624 0.197083 -0.045068 -0.085260 0.006669 0.038927 0.084433 -0.078887 -0.031633 -0.009525 0.082785 0.215625 0.191288 0.042191 0.095397 -0.180967 -0.045441 -0.013951 -0.046078 0.056736 0.053536 0.058648 0.035825 0.410441 -0.051430 0.153296 0.125838 0.040048 -0.081422 0.077699 0.004777 0.110715 0.172431 0.025196 -0.067128 -0.128166 -0.032100 -0.066961 0.521575 0.048591 -0.001055 0.014723 0.028777 -0.086057 -0.033723 -0.008664 0.059040 0.150544 0.110775 0.110786 0.013027 -0.001233 -0.038489 0.175247 0.063292 -0.005232 -0.025583 0.059395 -0.056061 0.117365 0.029365 0.190524 -0.027790 -0.039215 -0.052096 0.137190 0.071356 0.003316 0.032172 -0.035198 0.006784 -0.030522 0.034920 -0.050466 -0.034745 -0.031380 -0.016402 0.113074 0.041751 -0.067652 -0.115888 -0.048963 0.032959 -0.010128 -0.002866 0.001594 0.102300 0.101417 -0.021954 -0.029220 0.078044 0.080241 0.096913 -0.004509 0.027336 -0.052587 0.072608 -0.009539 0.175881 -0.011324 -0.006015 0.028769 0.027526 -0.068204 0.011284 -0.055204 -0.025310 -0.065469 -0.103864 -0.063163 0.085086 0.010361 0.030193 -0.069785 0.048256 0.103275 -0.000509 -0.040406 -0.007580 0.065831 -0.022298 0.035901 0.051439 0.373433 0.021773 0.031527 -0.004433 0.031816 0.014132 0.094619 -0.053838 0.168377 -0.054608 0.062835 -0.075095 -0.150907 0.051333 -0.015922 0.488466 -0.071665 0.020575 -0.005649 -0.054992 0.078400 -0.010041 0.036406 -0.003503 0.023485 0.133381 -0.127265 -0.062169 -0.037033 -0.019236 0.095772 -0.058667 -0.063946 0.047081 -0.047973 0.041150 0.352967 -0.037243 0.107816 0.039544 -0.030416 0.055822 0.187333 -0.022172 0.063196 -0.031933 -0.027647 0.017011 0.031064 0.031893 0.048723 -0.028086 -0.039327 0.049291 0.048627 -0.042154 -0.038087 -0.202705 -0.022784 -0.002668 -0.007169 -0.025619 0.016404 0.040404 0.059895 0.046362 -0.004934 0.001341 -0.072641 -0.018807 -0.021801 0.130480 0.139793 -0.058685 -0.043589 0.076586 -0.041731 -0.059963 -0.044258 -0.071769 0.041885 0.059627 0.002975 0.082035 -0.037969 -0.096360 -0.031922 0.280903 0.061396 0.097626 0.100662 0.093989 0.177005 -0.043085 -0.036668 0.021861 -0.003475 0.016049 -0.054802 -0.010013 0.320112 0.023227 -0.012236 0.042652 -0.006124 0.058947 -0.066806 0.053897 0.161937 -0.083402 0.071699 0.027822 -0.213967 -0.034325 0.029720 0.382740 0.042784 0.088166 0.060945 -0.058862 0.149496 0.051046 0.069837 0.013827 -0.028999 -0.119727 -0.104768 -0.080865 0.059621 -0.021215 0.139508 -0.002364 0.034592 0.023892 -0.071412 -0.036251 0.219771 -0.047841 0.040659 -0.019222 -0.041356 0.077485 0.094299 -0.025837 -0.018084 0.053777 0.024842 -0.081516 0.036569 -0.004051 -0.053073 -0.044279 -0.033270 -0.023728 0.016000 0.046311 -0.029698 -0.273440 0.033009 -0.064495 -0.005416 -0.027261 0.011254 -0.047744 0.092650 0.012777 0.003626 -0.009539 0.059834 -0.015892 0.063624 0.020494 0.040349 0.079456 -0.029119 0.036452 0.028463 -0.115821 0.047610 -0.004098 0.016307 -0.074950 0.055413 0.070115 -0.058407 -0.001920 0.032244 0.099184 0.099526 0.064121 0.033924 -0.062900 0.115990 -0.140935 -0.047792 0.043151 0.045618 0.034363 -0.043952 0.024147 0.070781 -0.024342 0.088625 0.062259 0.082223 -0.031200 0.027902 0.031839 0.061523 0.012208 -0.045005 -0.082908 -0.053240 0.069868 0.071387 0.337767 0.007917 0.000778 -0.051724 -0.054047 0.003941 0.025131 -0.046521 0.067129 -0.034737 -0.054661 0.008558 0.016370 -0.057778 0.057954 0.053977 -0.025397 0.057758 -0.088304 -0.060471 0.065342 0.107667 0.049733 0.096609 0.059757 -0.030253 0.034677 0.167910 0.075528 0.045108 0.057863 0.020829 -0.045322 -0.011733 0.047182 -0.015399 -0.007106 -0.006275 0.028748 -0.027743 -0.045122 -0.075169 -0.391612 0.042108 -0.056818 0.063963 -0.068873 -0.002604 0.039742 -0.040439 0.019017 0.029325 0.022727 -0.003754 -0.055959 0.008644 0.081799 -0.075148 -0.014991 -0.002079 0.014455 -0.050953 -0.090301 -0.045280 0.008772 -0.054564 -0.018638 -0.046435 0.014698 -0.082173 -0.027955 0.050439 0.012612 0.054359 0.046094 -0.046237 -0.005463 0.082208 -0.018106 -0.066328 0.065740 -0.034722 0.046282 -0.018621 0.051857 -0.043465 -0.086993 0.054395 -0.060105 -0.010622 -0.039107 0.044840 0.022435 0.069472 0.070125 -0.030084 0.033518 -0.101103 -0.008321 -0.032726 0.164322 0.076033 -0.083738 -0.050092 -0.007149 0.092784 -0.026812 0.051482 -0.010729 -0.100296 0.018153 -0.038034 -0.022795 0.032108 0.056883 -0.013988 0.027674 0.058694 0.050886 0.039121 -0.032260 0.147562 -0.004156 0.095230 0.011266 -0.045421 -0.063690 -0.009487 -0.035943 0.026772 0.014296 0.005174 0.025287 0.028230 0.037891 -0.063197 -0.025167 -0.016374 0.064861 0.028726 -0.072117 0.053305 -0.487846 -0.018147 -0.002339 0.073671 0.007715 -0.058780 0.059309 -0.034295 0.057459 -0.065284 -0.043454 -0.017564 -0.080752 0.055813 0.041192 -0.037917 -0.063203 -0.119558 0.098340 0.026468 -0.017132 -0.044462 -0.033269 -0.032561 0.042301 0.037471 -0.019802 0.027626 -0.026751 -0.004973 0.086334 0.044610 0.071503 0.069770 0.004808 0.019379 -0.081536 -0.038353 0.033867 0.078876 -0.019533 0.054426 -0.019957 -0.002975 0.032322 0.092118 0.040323 0.054595 -0.083018 0.025761 0.003593 0.029633 -0.020884 0.061271 0.058329 -0.090409 0.012755 -0.044234 0.114017 -0.073788 0.031580 -0.047098 0.016710 0.043836 -0.056330 -0.069833 -0.072328 0.027951 -0.044411 0.037354 -0.037962 0.037031 0.032932 0.027827 -0.063277 -0.010198 0.027803 0.048973 -0.036474 0.065076 -0.009226 -0.005360 -0.050878 0.039270 0.031994 -0.113036 0.043843 -0.050182 -0.035726 0.007576 -0.033400 0.080375 0.041438 0.066099 0.011973 0.093248 0.075334 0.004730 -0.052152 -0.029998 -0.206019 -0.007039 -0.077825 -0.066204 -0.068754 -0.060393 0.019143 0.034817 0.068867 0.052016 -0.026713 -0.018646 0.014856 0.005883 -0.056682 -0.036482 0.014513 0.071551 0.051289 0.058909 -0.009654 0.049649 0.054977 -0.040415 0.037306 -0.012115 -0.056233 0.032390 -0.084471 -0.026160 -0.039282 0.011533 0.047742 -0.071602 0.008057 0.078424 -0.049793 -0.070505 0.014710 -0.065671 0.068315 0.058614 -0.001558 0.006169 -0.008706 -0.000403 0.039165 -0.077239 0.011716 -0.035309 0.065915 -0.020353 -0.063364 0.040112 -0.031492 0.056882 -0.054195 -0.005656 -0.026027 -0.045307 0.050103 0.007954 0.028143 0.024566 0.013969 -0.049085 -0.002877 0.065949 -0.042451 -0.068147 0.059261 -0.055340 -0.081665 -0.022265 0.026360 -0.006425 0.079422 -0.011948 -0.001618 -0.004816 0.035430 -0.090468 0.019830 0.054425 -0.060127 0.046439 0.025614 -0.036787 -0.017113 -0.048175 0.005077 -0.048020 0.041776 -0.048873 0.051717 -0.017025 -0.020618 -0.033969 -0.065510 0.031979 -0.012693 0.079507 0.058539 -0.018268 -0.028344 0.002181 0.056878 -0.031095 0.071876 -0.026481 0.060849 0.026204 0.035822 -0.002228 -0.005060 0.060827 -0.012733 -0.046978 -0.049840 0.051938 -0.020212 0.036731 -0.077953 -0.062098 0.066374 0.055513 -0.005807 -0.030301 -0.062684 0.011071 -0.065652 0.008786 0.006016 0.060318 0.068025 0.061055 -0.017139 0.042706 -0.052573 -0.029347 -0.064038 -0.078107 0.079379 0.053199 0.006530 -0.018490 0.026307 0.075192 0.021981 0.057137 0.045223 -0.054527 0.007878 0.048817 -0.061948 -0.007605 0.022421 0.014508 0.010131 0.045818 -0.056498 0.045671 -0.032316 0.033244 0.023714 -0.046946 0.009590 -0.057609 0.075869 0.040953 -0.025661 -0.070351 0.048350 -0.028679 0.065284 -0.027580 0.048935 0.013309 -0.034738 -0.022135 -0.011228 -0.111371 -0.011012 0.079335 0.059341 0.000209 -0.011757 -0.001620 -0.058525 -0.048785 -0.037014 -0.032678 0.079253 0.012986 0.082079 0.020720 0.045740 0.010728 0.024761 0.044763 0.015540 0.082970 0.056533 -0.065442 -0.029168 0.039559 -0.010815 -0.062240 -0.029970 0.036801 0.009018 0.041464 0.046599 0.079850 0.035640 0.024750 0.007265 -0.049320 -0.064071 0.031081 -0.019537 -0.013738 0.080638 -0.023955 0.081471 0.080356 0.079048 0.047827 0.008512 0.021456 0.010252 0.059340 0.020758 -0.015374 0.076214 0.073854 -0.058135 -0.016923 -0.070660 -0.005359 -0.062492 0.020628 -0.046095 0.066835 0.018608 0.074780 0.008548 -0.056455 -0.061963 0.031912 0.056852 -0.000614 -0.064118 0.055198 0.057724 -0.064939 0.053261 0.054479 0.065180 -0.020519 -0.006357 -0.006860 -0.043471 -0.067891 0.060058 -0.049550 -0.076329 -0.080369 0.015819 -0.064696 -0.003436 0.035619 0.038224 0.032761 0.020162 -0.025460 0.025249 -0.053582 0.000378 0.045578 0.060622 -0.025063 -0.037328 0.078796 -0.052158 -0.061897 -0.068435 -0.081189 0.074875 0.079036 -0.019415 -0.013774 -0.010116 0.019406 0.000628 -0.032351 0.052148 0.006591 -0.030428 -0.014325 0.024187 0.048428 -0.060998 -0.019881 -0.001103 0.041457 0.036951 -0.058146 0.070167 -0.044964 0.069725 0.048497 0.012266 -0.049896 0.045001 0.042400 -0.029500 0.058858 0.043504 -0.036917 0.055602 -0.058204 0.031601 -0.036806 0.043494 -0.050063 0.013135 0.013351 0.038820 0.065000 0.081318 -0.019286 0.031136 -0.061972 0.043125 -0.052259 0.061777 -0.002216 -0.028112 0.049651 0.035113 -0.040680 0.015856 -0.034914 -0.008283 -0.021435 -0.074806 0.044509 -0.044870 0.050990 -0.074700 -0.071560 0.075079 0.039193 -0.026074 0.036281 0.071422 0.069353 -0.032660 0.027949 0.052061 -0.033635 -0.073629 0.000905 -0.013314 0.051789 0.030938 -0.033829 -0.032719 -0.079466 -0.066470 -0.079899 -0.037854 0.031678 -0.032521 0.036155 -0.072050 -0.025034 -0.001628 -0.034628 -0.056336 0.005963 -0.023896 -0.063550 -0.037136 0.032322 0.055024 -0.048006 0.019383 -0.059929 0.062235 -0.010849 -0.011271 0.070899 0.072348 0.057706 0.040396 0.020994 -0.058415 -0.074616 0.023820 -0.042593 -0.072223 0.068258 0.071377 -0.022451 0.022121 0.081619 0.034807 -0.061799 -0.035300 0.060763 0.026456 0.023096 0.079505 0.071613 -0.026874 0.052237 -0.058686 0.074801 0.074600 -0.078743 -0.018340 -0.018963 0.074449 -0.028284 -0.043549 0.032552 0.075003 -0.019672 0.040228 0.016531 0.020027 0.050298 0.002497 0.009112 -0.054445 -0.057674 0.008439 0.062654 -0.037181 0.055431 0.041124 0.071567 -0.003765 0.038338 0.060887 0.051653 0.008282 -0.080091 0.044162 0.000590 -0.076541 -0.056470 0.063919 0.080200 -0.002462 -0.061922 0.030459 -0.009751 0.000698 -0.011605 -0.075513 -0.061568 -0.043599 0.009276 0.029836 -0.015752 0.033894 -0.044018 -0.035391 0.079005 -0.070879 -0.076558 0.068279 0.007648 0.044072 0.046875 -0.022992 -0.029938 0.049076 -0.061122 0.052945 0.054827 -0.035300 0.034572 0.052735 0.044530 0.054941 0.000902 -0.047513 -0.026653 0.071589 -0.040734 -0.005929 -0.054302 0.050834 -0.058385 0.012238 0.002435 -0.020110 0.059140 -0.000852 -0.008697 0.064874 -0.014865 0.081243 0.026653 -0.050283 -0.024041 0.079007 0.081086 -0.002871 0.049659 0.053620 0.044121 0.001939 0.024063 0.006360 -0.025412 -0.057328 0.041138 0.030227 -0.068031 -0.081888 -0.057994 -0.040040 0.051238 -0.034086 0.054490 -0.028619 0.028096 0.031337 0.052821 -0.062894 0.013919 -0.044336 -0.063943 -0.041720 -0.012326 -0.005692 -0.045006 -0.013533 0.073730 -0.077638 -0.042205 0.035559 0.006593 0.064150 -0.040374 0.063473 -0.075470 -0.081528 0.011408 -0.061208 -0.081123 0.035707 -0.018956 0.052407 -0.080672 -0.046759 -0.058504 0.029716 0.066871 0.076610 0.049115 -0.001502 -0.050018 0.067464 0.039069 0.019947 -0.020520 0.076356 -0.075878 -0.029083 0.081010 -0.035791 -0.075816 0.005311 -0.053933 -0.033898 -0.013509 -0.047110 -0.033133 0.080192 -0.026026 -0.031964 0.033606 0.037310 -0.061849 0.035226 0.072844 -0.038061 -0.017350 0.057423 -0.043743 -0.050528 -0.026372 -0.011469 -0.065356 -0.069595 -0.073814 -0.003584 -0.075531 -0.067400 0.049626 -0.076813 -0.020898 0.056102 0.010790 0.007462 -0.060088 0.079573 0.042644 -0.010929 0.077473 -0.065675 0.039400 0.028786 0.053928 0.059843 -0.019852 0.044547 -0.060712 0.046743 0.019480 -0.021977 0.078370 0.072155 0.048786 -0.066027 -0.076984 0.057317 0.009257 -0.071649 0.072517 -0.023242 -0.064111 -0.030966 -0.049336 0.029004 0.057741 -0.025685 0.026252 0.019439 0.043936 0.021316 0.035569 0.001368 -0.031616 0.007435 -0.019433 0.029149 -0.030795 0.000694 -0.003736 0.071484 0.060926 -0.007468 0.064725 0.027887 0.005492 0.070669 0.005125 -0.067291 -0.081192 -0.007350 -0.007022 -0.064535 0.043362 0.024484 0.048086 0.020459 0.078836 -0.007861 -0.042924 0.042115 -0.068711 0.075278 -0.039539 -0.018547 -0.003935 0.021936 -0.068875 0.055080 -0.061045 0.009687 0.043427 -0.081048 -0.080044 0.023909 0.028815 0.007691 0.012332 -0.050873 0.023052 0.013269 0.023545 -0.067737 0.032645 0.006834 0.039631 -0.001584 -0.076476 0.036839 0.072944 -0.033573 -0.003658 -0.080247 -0.056344 0.039402 -0.014306 0.039853 -0.021005 -0.001267 0.008738 0.001634 -0.073016 -0.030951 0.002921 -0.068949 0.029374 -0.051375 0.018888 0.004083 -0.018984 -0.040733 -0.064963 -0.081600 -0.026297 0.052399 0.035530 -0.057704 -0.034194 -0.004526 0.047425 -0.047452 0.041292 -0.036360 -0.039060 0.079526 -0.079782 0.029557 0.044998 -0.017673 -0.054175 -0.036580 0.065818 -0.045384 0.012148 -0.013526 -0.030766 0.059238 0.018109 0.066945 -0.074688 0.081366 -0.056026 -0.056367 -0.078917 -0.002086 0.075844 -0.006158 0.013632 -0.040356 0.071035 -0.019516 -0.002184 0.030450 0.026573 0.041843 0.028488 0.029778 -0.010437 -0.017676 -0.070186 0.016363 0.027134 0.078078 0.051584 -0.040512 -0.016441 -0.062104 0.044194 -0.079896 -0.066845 0.052014 0.082615 -0.050938 0.078833 -0.078681 0.031608 0.072107 -0.002661 -0.038088 -0.036431 -0.015181 0.026765 0.030736 -0.063917 -0.031286 -0.010923 0.046893 0.081479 0.061622 -0.053212 -0.079101 -0.003472 0.055699 -0.078619 -0.031482 -0.068443 -0.010526 -0.011147 0.057823 -0.009905 -0.005980 0.029429 0.013710 0.025361 0.025241 -0.025140 -0.024385 0.015427 0.073643 0.021541 0.047246 -0.021432 -0.038536 -0.004094 -0.001050 0.029154 0.076555 -0.037047 0.011277 0.027812 -0.012594 0.022039 -0.042732 -0.036353 0.028069 0.013140 -0.021623 -0.039532 -0.081616 -0.044506 0.014863 -0.004458 0.066109 0.080646 -0.064613 0.005006 0.010917 -0.004803 -0.061321 -0.017755 -0.069232 0.068822 0.045467 -0.025223 -0.019853 -0.041807 0.070092 -0.032557 0.001491 -0.001528 -0.066922 0.070442 -0.060736 -0.026387 -0.043320 0.050365 0.069651 0.017601 0.067910 0.070332 0.052753 -0.005891 -0.016980 0.035268 -0.003581 0.010795 -0.039605 0.066463 0.079867 -0.009391 -0.030874 -0.070807 -0.031185 -0.074342 -0.014683 0.032502 -0.031574 -0.027265 0.080037 0.056030 0.050257 -0.062292 0.031334 0.075608 -0.007406 -0.096637 0.044231 -0.022970 0.016946 0.030290 -0.039210 -0.012973 -0.056233 0.029285 -0.058636 0.018390 -0.048291 -0.015143 0.008417 -0.051847 0.048248 0.045803 -0.040066 -0.065454 0.061386 -0.003192 0.047643 -0.048614 -0.081808 0.050043 -0.081591 0.055354 0.060226 0.043675 0.041961 -0.007970 0.038913 0.016739 0.025102 -0.016312 -0.032574 0.070958 0.045585 -0.018532 0.017659 0.077582 -0.083961 0.143773 -0.000320 0.002210 0.096995 -0.060656 -0.036533 -0.038555 -0.045215 -0.051111 0.075943 -0.072222 -0.017340 0.067974 0.052856 -0.015810 0.042145 0.036968 -0.056673 0.010862 -0.080218 0.077336 -0.062120 0.024378 -0.030174 -0.020015 0.020657 -0.058687 0.039333 -0.048992 -0.076413 0.053395 -0.082753 -0.021143 -0.030817 -0.081844 0.001399 0.024225 -0.034129 0.014308 0.060428 -0.050992 0.055026 -0.028470 -0.067415 0.020609 0.025789 0.055945 -0.033955 0.045519 -0.011825 -0.030915 0.041360 0.043517 0.081709 -0.088911 0.059325 0.009899 0.011671 0.020924 0.042887 -0.048612 -0.000269 0.044676 0.011283 0.032150 0.050229 -0.065872 -0.005237 -0.074650 0.056547 -0.028081 -0.049174 0.003464 0.005757 -0.014170 -0.036161 -0.043965 -0.049561 -0.160762 -0.066189 0.021791 0.054035 0.056312 -0.052646 0.050757 0.041523 -0.066182 -0.021898 0.044588 0.091783 -0.054319 -0.044076 -0.025405 0.076746 0.050993 -0.066538 0.027523 0.065381 0.018103 0.036186 0.226476 0.100554 0.099439 -0.008813 -0.005106 -0.064867 0.013632 0.029726 -0.010380 -0.022067 0.048691 -0.072373 0.070861 0.013135 -0.038768 0.027351 -0.001649 -0.061482 -0.063370 0.002666 -0.045740 -0.043948 0.038273 0.000977 -0.070779 0.009029 0.026112 0.046757 -0.005604 -0.056749 0.074601 -0.054249 -0.075021 -0.001635 0.007305 0.003807 0.037520 -0.058157 -0.017677 -0.044675 -0.047095 -0.087669 0.025304 -0.060341 0.020183 0.008239 0.055748 -0.077308 0.060092 0.081474 0.006184 -0.074392 0.038966 -0.053214 0.027853 -0.028310 0.060289 -0.103953 -0.111323 -0.030864 -0.039404 0.043199 -0.000964 -0.043802 -0.014942 -0.069149 0.052029 -0.073598 -0.053341 -0.068674 -0.035203 -0.035215 -0.084708 0.015898 0.055557 0.075276 -0.059789 -0.021152 -0.199510 -0.069239 -0.018954 -0.049563 -0.058025 0.018363 0.002110 0.022207 0.078767 -0.014946 0.350648 -0.134355 0.060323 0.072215 0.078485 -0.025766 -0.052271 -0.058365 -0.055233 0.080566 -0.025387 -0.022116 0.126558 0.033339 0.069044 -0.043381 -0.065690 -0.065934 0.031878 -0.050202 0.004166 0.067110 -0.024301 0.057543 0.030177 -0.021386 0.000813 -0.123699 0.100607 -0.048555 -0.007508 0.029657 0.046541 -0.064031 0.007484 0.013871 -0.069939 0.031497 0.047012 -0.022698 0.041721 0.079185 0.152104 0.041072 -0.010306 -0.003599 0.058249 0.009436 0.009997 0.006442 0.034341 -0.051450 0.077465 -0.083342 0.063318 0.039284 0.023552 0.007182 0.010317 -0.017234 0.077620 -0.057208 -0.078063 0.007654 0.020180 0.059282 -0.083945 -0.017069 0.020626 0.021405 0.024927 -0.057180 0.053847 0.045103 0.067114 -0.062599 -0.033858 0.060215 0.047987 0.074573 -0.015587 0.021793 -0.061309 0.028090 0.025085 -0.043273 0.071225 0.030299 0.038401 0.006529 -0.233387 0.025551 0.037008 0.006394 -0.026306 0.071696 -0.049568 0.060025 -0.007556 0.037576 0.292790 -0.019367 0.063129 0.079026 -0.040389 0.045941 -0.067398 -0.027449 -0.025609 0.058126 0.012777 0.047060 0.151702 0.053698 -0.020037 -0.022327 0.030542 0.068616 -0.040260 -0.036920 0.011473 0.150884 -0.052861 -0.073690 -0.001134 -0.014709 -0.070402 -0.016210 0.131451 -0.031949 -0.071139 0.069231 0.074010 0.046109 0.045799 -0.095809 0.008481 0.084656 0.051850 0.014196 0.060446 0.054849 0.090366 -0.050781 -0.027178 -0.007809 -0.027438 0.079156 -0.034752 0.013973 -0.141112 0.044536 -0.015600 -0.012639 0.186930 0.080275 0.130211 0.066985 -0.066306 0.027056 -0.008540 -0.022452 -0.000448 -0.049221 0.013085 0.017845 -0.121823 -0.008059 0.077224 -0.048037 -0.064461 0.084708 0.013938 0.033856 -0.050694 0.011698 -0.118260 0.042798 0.119049 0.010850 -0.045675 -0.003243 -0.037107 0.048722 0.041854 -0.031382 -0.081783 0.227089 -0.063691 -0.009534 -0.107494 -0.052388 0.083049 0.042791 0.055219 0.076865 -0.058807 0.197770 0.000220 0.027599 0.401389 0.175578 0.060865 -0.036396 0.011186 -0.067984 0.058825 -0.022222 -0.078011 0.036654 -0.027503 -0.040246 0.320908 0.037718 0.101737 0.009891 0.047368 -0.006250 -0.041815 -0.032060 0.075390 0.090376 -0.038605 -0.064076 0.046521 0.073571 -0.049516 -0.097013 0.094260 -0.011405 0.017747 -0.015372 0.032686 0.079916 -0.014095 0.088525 0.076088 -0.035284 0.044763 0.018497 0.087889 -0.029299 0.149284 0.055425 0.083948 -0.011534 -0.040348 -0.006924 -0.106886 0.011597 -0.151694 0.041693 0.055574 -0.022305 0.080097 0.114082 0.011798 -0.045631 -0.058850 -0.035260 0.071042 -0.078434 -0.000441 -0.061575 0.036430 0.015417 0.048206 -0.053073 0.153325 -0.069001 -0.105922 -0.012896 0.018074 0.054317 -0.063733 -0.085303 -0.068371 0.019667 0.285695 0.045582 0.060645 0.039827 -0.006411 -0.018919 0.111499 0.073958 -0.000599 0.147337 0.061298 0.043115 -0.042942 0.015497 0.099455 0.059609 0.086184 0.062903 0.082015 0.260918 -0.015665 0.003298 0.559399 -0.017776 0.195539 -0.010500 0.030942 -0.127611 -0.002752 -0.011968 -0.051616 -0.010081 0.051090 0.074529 0.465959 0.069638 0.080430 0.099166 0.045803 -0.090753 -0.053757 -0.047908 0.191059 0.039249 -0.036199 0.012591 0.084172 -0.073205 0.013629 -0.124684 0.084485 0.046048 0.002196 -0.013209 0.017611 -0.027464 -0.005769 0.079702 0.056422 -0.027416 0.048209 0.005329 0.002708 -0.005530 0.077425 0.057488 0.046538 0.065673 0.039649 -0.074753 -0.010713 0.083054 -0.102349 0.024558 -0.039274 0.036466 0.102351 0.048712 0.123564 0.075811 -0.008571 0.018493 0.080212 -0.035347 0.045564 -0.045419 0.180792 0.101700 0.002217 0.004705 0.211379 0.260767 -0.114851 0.076170 -0.006194 0.018596 0.019188 0.071284 -0.014911 0.016440 0.295143 -0.012110 -0.041287 0.127526 -0.085320 -0.000573 0.110973 0.102427 -0.018937 0.248233 0.008095 -0.042171 0.104671 -0.000254 0.083496 0.094873 0.049504 -0.042441 -0.035957 0.261706 -0.106545 0.084002 0.607736 -0.237085 0.176247 0.095477 0.222519 0.070149 0.020506 -0.040300 0.011896 0.114556 0.155627 0.047635 0.305160 0.076685 -0.053754 0.015421 0.042207 0.022275 0.005796 -0.098444 0.167368 0.053046 0.028761 0.016917 0.307765 -0.063872 0.067075 0.096705 0.058095 0.079519 0.018509 0.047774 -0.047978 -0.020981 -0.005655 -0.022646 0.218319 0.073535 0.123970 -0.023781 0.048749 -0.058961 -0.000638 0.106580 0.025550 -0.032083 0.011095 0.013137 0.096011 0.041468 0.091154 0.069700 0.010066 -0.093285 0.059010 0.041544 -0.012634 0.002833 -0.090998 0.086557 0.012159 0.066261 0.001987 0.030534 0.169527 0.024893 -0.078033 -0.112135 0.179832 0.084322 -0.107496 0.062015 -0.055452 -0.002005 0.032064 0.043258 0.107665 0.015751 0.438521 0.027227 0.085850 0.036268 -0.014146 -0.024323 0.054639 0.140969 0.119006 0.412668 0.048990 0.041563 -0.034990 -0.014148 0.146780 -0.009553 0.087220 -0.069404 -0.044009 0.242744 -0.105947 0.051601 0.867234 -0.081030 0.051758 0.130687 0.408417 0.170515 0.045410 0.000327 -0.062691 0.114969 0.021633 -0.057945 0.343699 0.141272 0.101641 -0.002225 -0.043161 -0.033352 0.013328 -0.002978 0.350837 0.059299 -0.028181 0.030188 0.171582 0.072281 0.039934 0.104464 0.060307 0.045545 -0.079025 0.043091 0.027570 -0.043424 -0.016341 0.014771 0.197423 0.296583 0.063973 -0.031464 0.010692 0.034086 0.115643 -0.032596 0.073531 0.100363 0.014858 0.031928 0.124158 0.038361 0.100449 0.073742 -0.088946 -0.066419 0.183463 0.129839 0.056995 -0.026807 -0.063507 -0.051664 -0.060232 -0.021924 0.030517 -0.033840 0.199001 0.181538 -0.145710 0.020088 0.209691 0.239820 -0.121579 0.003100 0.022880 -0.008556 0.001747 0.057307 -0.056284 -0.024347 0.177747 -0.007329 0.053553 -0.007336 -0.050742 -0.127862 0.035766 0.137924 -0.117430 0.394758 -0.023751 -0.017303 -0.255593 0.033071 0.163899 -0.057000 0.016180 0.022503 0.088561 0.304581 -0.037585 0.242032 1.311779 0.105240 0.060539 0.353225 0.371975 -0.011160 -0.061676 -0.051307 0.072974 -0.066935 0.078814 0.032017 0.229730 0.235855 0.192390 0.006966 0.064764 0.093119 0.013109 -0.027464 0.267655 0.315001 0.060137 0.072608 -0.073956 -0.064912 0.012478 0.032800 0.200240 0.013188 -0.016153 -0.035814 0.084788 0.033941 -0.019334 0.175128 0.227339 0.237142 0.091980 -0.007100 -0.089468 -0.004542 0.228595 0.066382 0.026027 -0.044689 0.086336 -0.026091 -0.030107 -0.026306 -0.313140 0.010782 0.028811 -0.162826 0.310955 0.038023 -0.032996 0.053284 0.037457 0.085846 0.003079 -0.072708 -0.068050 0.028590 0.260074 0.060765 -0.008691 -0.032099 -0.080567 0.134622 -0.065474 -0.023322 0.013515 0.024272 -0.058567 0.094821 0.038699 0.103563 -0.011356 -0.019178 0.114197 -0.018730 0.038785 -0.163248 -0.046241 0.089015 -0.245924 0.479915 0.073325 -0.110851 -0.047500 0.017414 0.019721 -0.022052 0.059074 -0.036659 -0.034141 0.244203 -0.015916 -0.048423 1.015901 0.169786 0.167639 0.329840 0.397805 0.141525 -0.000139 0.009294 0.062545 0.128157 0.003297 -0.047289 0.473620 0.145599 0.241331 0.063404 0.047071 0.215404 0.006356 0.067347 0.108993 0.217348 0.120914 0.012879 -0.078188 0.009232 0.061778 0.195815 0.170053 0.013297 0.078083 -0.045756 0.116548 0.045339 0.057203 0.169397 0.113997 0.405107 -0.035488 -0.025242 0.084964 -0.051475 -0.006863 0.026533 0.082020 0.015807 0.015036 -0.028420 -0.046636 0.011341 -0.148720 -0.019815 0.007453 -0.106798 0.235326 0.154678 -0.068967 -0.009389 -0.031351 0.092488 0.011928 -0.065366 -0.061791 0.062852 0.144018 0.117419 -0.084891 0.027804 -0.099739 0.066674 0.062942 0.033119 -0.145749 -0.065641 -0.048611 0.268088 0.070581 -0.006202 0.260185 0.016398 0.054200 -0.183886 0.032808 -0.176573 0.111053 0.108667 -0.060991 0.528970 0.052314 0.028032 0.024517 0.063796 -0.124635 0.058834 0.090921 0.089554 0.092168 0.331339 -0.028075 -0.044446 0.769020 0.419234 0.043137 0.343539 0.261135 0.043887 0.015786 0.064500 -0.012164 0.083726 -0.049032 0.023332 0.487516 0.218776 0.429085 0.023461 -0.018987 0.151343 0.094681 -0.019259 0.153334 0.384968 -0.057251 0.018445 0.148478 -0.043702 0.024586 0.242827 0.132945 0.131604 0.043894 0.010770 0.221583 0.012079 0.027961 0.138284 0.043250 0.320023 -0.053138 0.041373 0.098854 0.011318 -0.038592 0.054805 -0.037085 0.191234 0.048061 0.056497 0.011013 0.136929 -0.002264 0.079238 -0.062967 0.040291 0.068260 0.183945 0.038842 0.059654 -0.003396 0.008031 0.079266 -0.045833 0.065489 0.077967 0.085639 -0.005071 -0.147421 0.000533 -0.026681 0.022610 0.023006 0.081973 -0.074055 0.028193 0.014737 0.268564 0.215556 -0.042595 0.038717 0.057529 0.088231 -0.029569 0.007851 -0.096329 0.230497 0.197778 0.034784 0.429633 0.045957 0.029445 0.076121 -0.005070 -0.054926 0.017943 -0.015179 -0.044910 0.008924 0.328376 -0.061908 -0.028646 0.622070 0.500271 -0.029869 0.455258 0.198282 0.015150 0.025656 -0.030569 0.020064 -0.008440 0.123599 -0.006244 0.314175 0.175558 0.309181 -0.058276 -0.043890 0.098983 0.150881 0.138549 0.076541 0.333661 -0.083432 -0.002923 0.356953 -0.003949 0.045767 0.242447 0.028669 0.084689 0.011218 0.070351 0.328292 0.021016 0.072121 0.114916 0.184488 0.372062 0.105767 0.036696 0.076671 0.028852 0.037445 -0.048405 -0.067546 0.210983 0.056104 0.062564 -0.158720 0.011266 0.053900 0.060731 0.039269 -0.098771 -0.031648 0.191272 -0.069528 0.070781 -0.017066 0.090227 0.084238 0.052046 0.036000 0.029371 0.104879 0.027804 -0.059154 0.053521 -0.128502 0.129834 -0.016034 0.051663 -0.062719 0.059046 0.048863 0.169249 0.092568 0.011860 -0.215053 -0.015067 0.053903 -0.120924 0.105907 -0.094254 0.254097 0.061386 0.003359 0.385886 -0.057688 0.122703 0.119686 0.005829 -0.037436 -0.034938 0.007850 0.103371 0.012289 0.294673 0.020390 0.164186 0.562467 0.503855 0.070345 0.336827 -0.033438 0.021950 -0.048334 0.032102 0.028017 0.019613 0.124224 0.089657 0.277418 0.214856 0.331824 -0.027010 0.126544 0.074095 0.078447 0.016515 0.107700 0.168917 0.040654 -0.028056 0.205414 -0.043587 -0.010822 0.302768 0.017873 0.088892 -0.032962 0.001808 0.156928 0.047637 0.001697 0.082061 0.541059 0.292170 0.159594 0.036225 0.092525 -0.016409 0.220731 -0.042834 -0.078914 0.149067 0.035220 0.060637 -0.218852 0.024370 0.153891 0.003351 -0.056033 0.139131 0.140095 0.066952 -0.128166 -0.013704 0.038536 0.020849 0.035412 0.038804 0.063509 -0.028246 0.175622 -0.017543 -0.119465 0.057525 -0.169027 -0.197732 0.052804 0.085571 -0.087965 -0.083735 -0.074508 0.127849 -0.207778 0.175602 0.044795 0.092607 0.007391 0.050345 0.037630 0.068450 0.073505 0.047960 0.071132 0.176603 -0.003705 0.074862 0.071112 -0.011818 -0.028991 0.091145 -0.024979 0.091855 0.087271 0.142609 0.035863 0.046171 0.344618 0.441053 0.092529 0.318349 0.009294 -0.015918 -0.035930 0.042628 0.038718 0.076754 0.100847 -0.037051 0.695890 0.105705 0.227047 -0.152619 -0.005933 -0.028677 0.136040 0.066591 0.227749 0.062516 0.007294 0.058253 0.177668 0.028794 0.076499 0.221401 0.064548 0.026401 0.069697 0.089080 0.319982 0.071811 0.088369 -0.009685 0.553211 0.288910 -0.009829 0.023810 0.095892 -0.027696 0.275433 0.037822 -0.133693 0.108964 0.080275 -0.059872 -0.049624 -0.042725 0.121658 0.060265 -0.082950 0.000384 0.023812 0.113146 -0.142102 0.043750 0.023093 0.072951 -0.019880 -0.029959 0.039777 -0.078845 0.087961 0.099916 -0.056002 0.018924 -0.092711 -0.088179 0.069829 -0.041891 -0.098431 0.026287 0.042490 0.097128 0.063256 0.055525 0.177653 -0.042219 -0.046779 0.123054 0.127953 0.084977 0.052192 0.036387 0.170521 0.301726 -0.022254 0.101304 0.112124 -0.107230 -0.069691 -0.018421 0.059291 0.003091 0.081571 -0.010179 0.091996 -0.029360 0.212710 0.223754 0.157499 0.187293 -0.069982 -0.120341 -0.036492 0.070647 -0.094587 0.094353 0.199183 -0.057986 0.524887 0.043883 0.074805 -0.021475 0.113134 0.018040 0.091543 -0.034605 0.120922 -0.172813 0.066262 -0.048760 0.231542 0.001687 0.034632 0.429570 0.051530 0.102135 0.088445 -0.051241 0.256817 0.001280 0.119148 -0.047277 0.405014 0.162472 0.117339 0.072228 0.009062 -0.049610 0.287338 0.005249 -0.126697 0.143131 -0.053299 0.045520 0.121006 -0.000626 -0.020033 -0.023705 0.026902 0.052383 0.048520 0.014934 -0.082982 0.010841 0.088350 -0.033122 -0.045914 0.064425 -0.032242 -0.102196 -0.091377 -0.026663 -0.038194 -0.024935 -0.120245 -0.507185 -0.004911 0.080051 -0.139735 -0.063498 -0.039885 -0.021456 0.189217 -0.022638 0.137605 0.033683 -0.009067 0.118937 -0.026433 0.154484 0.136091 0.044436 0.188806 0.259410 -0.068487 -0.009483 -0.053067 -0.119180 0.003343 0.008279 -0.013826 0.086429 0.078819 0.045851 -0.037109 0.169813 0.347006 0.097063 0.113556 0.280052 0.094034 0.098152 0.007192 -0.080106 -0.045795 0.006876 0.376709 0.026750 0.497946 -0.009680 0.004469 -0.001188 0.045316 0.078067 0.071355 0.021065 0.152532 -0.055381 0.101179 -0.078893 0.210854 -0.054650 -0.069810 0.516761 0.014747 0.015480 0.065301 -0.061588 0.069249 -0.033926 0.039578 0.086772 0.440070 0.092178 0.045491 -0.026293 0.063791 0.052531 0.145999 0.043399 -0.029401 0.064178 -0.031903 0.060535 0.080688 -0.023643 -0.292923 0.018990 0.015352 -0.160890 -0.000487 -0.074602 0.042703 0.052205 -0.062988 -0.032784 0.096441 -0.057743 -0.030382 -0.027231 -0.083525 0.041609 -0.318163 -0.007950 -0.262356 -0.609659 0.060263 0.074044 -0.053998 0.063369 0.009308 0.061525 0.013120 0.117289 0.076581 -0.060277 0.082765 0.094335 0.064586 0.182765 0.029219 -0.050038 0.078538 0.184905 -0.078939 0.008354 -0.073098 -0.118782 -0.072142 0.010085 0.025693 0.006391 0.036871 -0.099351 0.076644 0.235555 0.318495 0.139560 0.097189 0.216772 -0.090053 0.059900 -0.030046 0.031582 -0.040543 0.056298 0.224331 -0.018154 0.587450 -0.000632 0.123057 -0.045827 0.079436 0.027436 -0.044645 0.052546 0.048853 -0.028788 0.088031 0.030846 0.271642 -0.001459 -0.036902 0.350920 -0.000949 -0.085492 0.007290 -0.076057 0.082860 -0.040781 0.047272 0.002283 0.422650 -0.004144 0.030384 0.101120 0.074410 0.056192 0.097221 0.012429 -0.039090 -0.017802 0.028247 0.085150 0.152733 0.007434 -0.036716 0.026261 -0.092174 