var config = [784,100,10];
var w1 = [0.078094,-0.033220,0.040796,0.042140,0.082003,-0.061517,0.072191,-0.015001,-0.013763,-0.027881,-0.035557,-0.055588,-0.016720,-0.006743,-0.034712,0.075920,-0.053575,0.052017,-0.081784,-0.029151,0.039374,-0.011742,0.022026,0.041397,0.030796,0.072900,-0.041092,0.013527,0.042408,0.015470,0.031215,0.038209,0.064542,-0.010282,-0.001943,0.064253,0.010493,-0.012045,-0.033040,0.079023,0.042366,0.013696,-0.058858,-0.056647,-0.075340,-0.011278,-0.063019,-0.046622,-0.041553,-0.062511,0.006519,0.080113,0.008039,-0.053747,0.039218,-0.043458,-0.063139,0.080418,0.052361,0.061561,0.013596,0.001284,0.017478,-0.004154,0.073295,-0.066757,-0.022193,0.001496,0.003490,0.027059,-0.001773,-0.036436,-0.041538,0.021661,-0.010791,-0.034585,-0.071908,0.008482,0.001085,-0.031169,0.028263,-0.074688,-0.033348,-0.045991,-0.046143,-0.076422,-0.007156,-0.026990,-0.078296,-0.037087,-0.047721,0.017592,0.046489,0.052050,-0.068855,0.037492,0.067585,-0.008756,-0.043304,-0.011217,-0.063989,0.037215,0.034639,-0.023235,-0.023416,-0.058444,0.024473,-0.013032,0.032330,-0.056735,0.038091,-0.021699,-0.049131,-0.077549,0.014603,-0.012981,-0.071679,-0.074846,0.042322,-0.067684,-0.029641,0.076893,0.032200,-0.065443,0.046651,0.045638,0.054341,0.031944,-0.045410,-0.071255,-0.061565,-0.027107,0.048252,0.055366,0.031950,-0.057456,0.079214,-0.025869,0.011805,0.029252,-0.000312,-0.032396,-0.074740,0.032850,-0.027653,0.022155,-0.062423,-0.017040,0.029602,0.062190,-0.002431,0.082253,0.056791,-0.052523,-0.065482,0.021150,0.075407,0.071151,-0.029198,-0.052296,0.082188,-0.008472,0.002889,0.048149,-0.035398,-0.047453,0.072985,-0.038477,0.008970,0.002498,0.073067,-0.073634,0.052394,0.080620,0.041508,-0.057551,0.020483,0.061377,0.007701,-0.032208,0.041275,-0.077023,-0.032247,0.015774,-0.047254,-0.015436,-0.045368,-0.054140,-0.026577,0.007726,-0.024143,-0.026681,0.081546,0.061038,-0.060825,-0.036144,-0.068707,-0.070132,0.007671,0.022555,0.014658,-0.001554,0.031213,-0.015240,-0.003226,-0.009571,0.009501,-0.065036,-0.030487,-0.065091,-0.014952,-0.071504,-0.059822,0.035094,0.026562,-0.024783,-0.062635,0.063486,0.003369,-0.006920,-0.011081,0.061518,0.048691,-0.011826,0.040264,0.070158,0.034322,0.053849,-0.082266,-0.040299,-0.005889,0.014684,0.040440,-0.056968,0.081736,-0.045079,0.015753,0.008945,-0.027823,0.067558,0.026146,0.039517,0.078347,0.048617,-0.007681,0.022616,-0.058459,0.011976,0.003810,0.027203,-0.077236,0.075022,0.006429,0.053747,-0.019097,-0.035599,0.041613,-0.067067,-0.064043,0.041639,-0.025074,0.012361,-0.025969,-0.066926,0.037685,-0.026525,-0.029713,-0.028854,0.064712,0.024756,-0.043588,0.008566,-0.018019,-0.047533,-0.025109,0.056592,0.057375,-0.001276,-0.013723,-0.021107,-0.056365,-0.008667,-0.028377,0.032356,-0.037212,0.034819,0.079049,-0.077891,0.050044,-0.067286,0.046040,-0.057322,0.027367,-0.062221,-0.041956,-0.017240,-0.006453,0.010623,0.036199,-0.024033,-0.046913,0.074903,0.066825,0.017360,-0.054922,-0.040576,-0.008340,-0.079839,0.040440,0.060229,-0.018653,0.066367,-0.030730,0.035262,0.016431,0.014350,-0.012211,0.013187,0.018751,-0.044460,0.028193,-0.017501,-0.019489,-0.026732,0.002571,0.020847,0.038320,0.078410,-0.050823,-0.007773,-0.027916,-0.015444,-0.015162,-0.043383,-0.080376,0.012207,-0.001667,-0.006424,0.014661,-0.043518,-0.028487,0.078299,-0.059443,0.023075,0.031269,0.039280,-0.044867,-0.063234,-0.029825,0.056176,-0.025402,0.080660,-0.043617,0.037401,-0.028364,0.041246,-0.024044,-0.072336,0.037363,0.007426,0.002183,-0.072844,0.074274,0.069313,-0.033935,0.076190,-0.000772,0.046691,-0.012526,-0.068403,-0.079120,0.041280,-0.072396,-0.056271,-0.017937,0.041165,0.065301,0.019488,0.060223,-0.046817,-0.006628,-0.047471,-0.048449,0.032048,0.072222,0.005480,-0.008999,-0.034114,0.015436,-0.053927,0.055604,-0.064673,-0.044480,0.047586,-0.077653,0.003878,0.041484,0.003868,-0.031724,-0.053334,0.017756,-0.028552,0.070238,0.027652,-0.002530,-0.029991,-0.013475,-0.019522,0.071789,-0.035544,0.015954,-0.017131,-0.000723,0.049797,-0.067375,-0.010793,-0.027015,0.005918,0.037385,0.070713,0.034283,0.010697,-0.076253,0.072096,-0.024009,-0.071613,-0.006319,-0.064818,0.014547,0.044250,-0.035860,-0.049989,-0.066594,-0.047914,0.059955,0.013168,0.004387,-0.035812,0.075938,-0.006116,0.010936,0.009600,0.059046,-0.072079,-0.022895,0.073962,-0.000580,0.032382,-0.002412,-0.045487,0.020803,-0.050421,0.047502,0.026842,-0.060617,-0.058799,0.037521,0.015357,-0.041325,-0.030224,-0.022686,0.005107,0.002079,-0.006988,0.039486,-0.020258,-0.076112,-0.038419,0.026222,0.082118,0.037757,-0.045134,0.009426,0.014511,-0.034921,0.068823,0.006181,0.046791,0.018913,-0.078523,-0.080988,-0.042577,-0.046651,0.048806,0.066558,-0.024976,0.072299,0.021787,0.072673,-0.051318,0.073854,-0.032306,0.036082,-0.006359,0.042999,-0.006725,0.055675,0.049179,0.037148,-0.000396,0.049005,-0.007387,0.036762,-0.023862,-0.075168,-0.080451,-0.037331,0.013305,0.048632,0.063874,0.017074,0.049936,-0.060995,0.052715,0.016450,-0.076729,-0.054554,0.006457,0.027350,-0.064173,0.037432,0.018912,-0.014187,-0.008779,-0.069739,-0.053480,0.066789,0.068228,0.077991,0.021645,-0.014460,0.044703,-0.068034,-0.059990,-0.061451,-0.060910,-0.058149,-0.016490,0.034687,0.072775,-0.034908,-0.030531,0.040419,-0.013610,-0.060109,-0.025423,-0.008047,-0.032370,0.063326,-0.062989,-0.014251,0.018466,0.038216,0.053854,-0.072605,0.050769,-0.081918,0.076476,0.036704,0.078365,0.015828,-0.060048,0.040776,0.030087,-0.037747,0.061617,0.051469,-0.013604,-0.037165,0.003864,-0.023121,0.010220,0.055625,-0.064995,0.078902,0.077808,-0.008126,-0.011437,-0.036854,-0.027092,0.007867,0.031187,0.073666,-0.036210,0.002749,-0.081232,-0.067733,0.003123,0.077536,0.051263,-0.000804,0.011072,0.073507,-0.042321,-0.041133,-0.046532,-0.062996,-0.071956,0.022156,-0.017869,0.014200,0.081328,0.074644,-0.012468,-0.065959,0.071254,-0.016952,0.008207,-0.022475,0.028486,0.063407,0.067684,-0.022619,0.054781,-0.050818,0.062422,0.055842,-0.036259,-0.016748,0.051086,-0.067288,0.064740,-0.020134,-0.076074,-0.059873,0.021025,-0.040314,-0.040576,0.031361,0.064135,0.023847,-0.036731,0.063170,0.016199,0.033093,0.079503,0.005160,-0.066151,0.005418,0.064977,0.044627,-0.013467,0.050369,-0.060285,-0.040978,0.081843,-0.080156,-0.067428,-0.036708,-0.014611,0.065950,-0.021704,-0.032163,-0.036476,-0.015486,-0.009743,0.066841,0.026493,0.031972,0.015910,0.008336,-0.026473,0.061471,-0.010786,0.072018,0.012272,-0.013575,-0.005114,0.028412,0.074135,-0.022429,-0.009253,-0.021624,-0.054353,0.012754,0.019690,-0.054802,0.014891,0.034554,-0.009218,-0.082012,0.018212,0.051369,-0.031883,0.064028,-0.046409,0.040666,0.048577,0.062376,-0.009654,-0.017804,-0.011580,0.046166,-0.038626,0.059926,0.035892,0.055938,-0.035942,-0.051515,0.002058,-0.044099,0.008348,0.075098,0.016569,0.036287,0.005559,-0.046033,0.063777,-0.061842,0.070814,-0.027734,-0.061562,0.006734,-0.058656,-0.011153,-0.011530,-0.022773,-0.052780,-0.045245,-0.042689,0.019859,0.019243,0.028023,-0.016268,0.062909,0.005657,-0.062669,0.036555,0.052007,-0.031891,-0.043678,-0.074384,0.058749,-0.050873,0.024477,0.012744,0.036979,0.060737,-0.005772,0.057429,0.049259,0.048787,0.078159,-0.026300,0.072423,-0.015287,0.044462,-0.032643,0.014226,0.081509,0.006961,-0.048208,0.018459,-0.047308,0.017816,-0.000923,0.040640,0.037440,-0.046660,0.010355,-0.076744,-0.008046,0.018263,0.064297,0.023373,-0.039551,-0.005251,-0.021940,-0.061106,0.071269,-0.046804,0.070444,0.037764,-0.050938,-0.038148,0.027894,0.016068,-0.075978,0.077544,-0.051999,-0.076761,0.002212,-0.017914,0.023990,0.037196,0.082194,-0.059225,-0.004456,0.037342,-0.023593,-0.076392,0.042890,0.050653,0.024163,0.024895,-0.008266,0.066904,-0.062648,0.052085,-0.076494,-0.073671,-0.077011,0.076242,0.046384,-0.045656,-0.044198,-0.008014,0.052704,-0.037884,-0.012763,-0.081587,-0.032353,0.071742,-0.017209,0.073930,0.026646,-0.017307,-0.067587,-0.060102,-0.062258,-0.008888,-0.054202,0.062925,-0.040528,0.052253,0.005528,0.033498,0.036865,0.025172,0.003291,0.042663,0.033793,0.008573,0.036613,-0.002115,0.045209,0.074707,0.072163,0.015621,-0.045469,-0.022892,0.016326,0.004471,-0.033442,0.081409,-0.003892,0.075496,-0.018190,0.010813,-0.066899,0.001845,-0.080368,-0.038809,-0.017522,-0.038603,-0.068848,0.070298,0.077187,0.050309,0.013178,-0.001813,0.010680,-0.035321,-0.075533,-0.034999,0.044856,0.051969,-0.042585,0.034727,-0.014703,-0.005761,-0.070457,-0.080668,0.081001,-0.021607,-0.081551,-0.005183,-0.028403,-0.017449,-0.076662,-0.013009,0.066688,-0.074737,0.030474,-0.033126,-0.031048,0.043919,-0.045120,-0.036153,0.011936,0.050350,0.044326,-0.059676,-0.067263,0.051085,-0.012383,0.059885,0.020762,0.027324,0.012320,-0.076233,-0.060729,0.024156,-0.074609,-0.062020,-0.079743,-0.073868,0.015090,-0.025854,-0.009025,0.020720,0.043429,-0.024629,0.028275,-0.008389,0.024537,0.079519,-0.046762,0.061709,-0.038926,0.047466,0.029767,-0.076893,0.070082,0.044796,0.056485,-0.024593,0.022389,-0.005046,-0.079562,-0.047583,0.001013,-0.057999,0.058866,0.008696,-0.037727,0.061415,0.017120,0.059655,-0.046731,-0.074197,-0.001917,0.078991,-0.016534,-0.055935,-0.011690,-0.074289,-0.058708,0.023840,0.069712,-0.015342,-0.010986,0.017187,-0.009942,-0.023196,-0.020309,-0.035750,0.034503,-0.080212,0.041496,0.037233,-0.045502,-0.039783,0.061527,-0.068929,0.051206,-0.058492,0.074778,-0.013966,-0.081129,-0.054245,-0.005871,-0.000754,-0.057546,0.059887,0.025604,0.013056,0.067891,0.049188,-0.045396,0.055311,-0.048446,0.025911,-0.009794,0.023904,-0.079578,0.052189,0.070446,0.037218,0.054270,0.029650,-0.007841,-0.073524,0.072160,-0.028606,-0.060161,0.041073,-0.004806,-0.067674,-0.055185,-0.003643,-0.039627,0.021236,0.077895,-0.014881,-0.001169,0.021206,0.080468,-0.015571,-0.011898,-0.047220,-0.042552,0.021948,0.060983,0.029946,-0.036440,0.063697,-0.000157,-0.048286,0.018623,-0.028179,0.063656,-0.071511,-0.019411,0.053524,-0.017825,0.002720,0.012305,0.059661,0.017338,0.039412,-0.026274,0.060004,-0.021645,-0.030671,-0.037169,0.059478,0.072827,-0.038994,-0.038385,-0.021363,-0.003922,0.001355,-0.081707,-0.025231,-0.050991,-0.035854,-0.043826,0.031144,-0.001849,0.057089,-0.079327,-0.020485,0.067870,-0.016446,-0.049253,-0.032247,0.068567,0.045344,-0.054878,0.003613,0.002464,0.001140,-0.018676,0.063111,0.052761,0.026447,0.040297,0.043296,0.069745,-0.080380,-0.060359,-0.016468,0.003267,-0.059773,0.040593,0.034568,-0.013335,0.079059,-0.016580,0.067108,0.053856,-0.013615,-0.035669,0.039434,0.052231,-0.002630,-0.075105,0.038506,-0.039578,-0.047691,-0.040174,0.045178,0.035741,0.023442,0.025997,0.006210,-0.032403,-0.015999,-0.032786,-0.044950,-0.014087,-0.010853,0.020874,0.071472,0.011666,-0.020825,0.023747,0.080623,-0.024059,-0.075125,0.065439,-0.052495,-0.006448,-0.052522,0.069230,-0.036509,0.027141,0.076417,-0.080295,0.069855,-0.053566,-0.038177,0.032741,0.064468,0.067558,-0.023555,-0.011614,-0.047137,0.042738,0.037892,-0.009795,-0.053641,-0.055253,-0.071213,-0.064461,0.038706,-0.009746,0.041578,0.037037,0.048487,0.048745,0.020184,0.078284,-0.039995,0.049954,0.065222,0.005788,-0.005197,0.059348,0.007785,-0.017634,-0.076510,0.051900,-0.067186,0.070249,0.037166,-0.008448,-0.023657,0.072321,-0.048002,-0.068058,-0.019766,-0.019351,-0.041018,-0.008687,-0.001520,0.079980,0.063859,-0.042234,0.034724,0.030054,-0.075781,-0.027384,0.026046,-0.033484,-0.059722,0.008976,0.054597,0.017373,-0.013969,-0.019911,0.082031,-0.008187,-0.050303,-0.067447,-0.020230,0.069155,0.006397,0.038405,0.059184,0.040687,0.052640,-0.042875,-0.060956,-0.070670,0.030730,0.019816,-0.072983,0.012297,0.059823,0.044305,-0.039841,0.066454,-0.065506,0.066850,-0.048888,-0.043233,-0.007379,-0.077014,0.056706,0.063495,-0.014800,0.067765,-0.026939,0.017284,0.072217,0.034914,0.004042,-0.006703,-0.008396,-0.018929,-0.046052,-0.038624,0.020876,-0.024059,-0.031211,-0.030891,0.077025,-0.017656,0.061601,0.054652,-0.056969,-0.058353,0.038490,-0.039207,-0.072646,0.071769,-0.000034,0.004520,0.076893,-0.026101,-0.014227,-0.019325,-0.051505,0.041018,0.079474,-0.057831,-0.006033,0.000988,0.014786,0.067218,0.064874,0.050907,-0.053899,0.002845,-0.055924,0.001569,0.053999,-0.064360,0.066566,0.036336,0.076619,-0.071908,0.058462,0.032210,-0.028736,0.067438,0.024590,0.052856,-0.009205,0.015762,-0.054409,0.059274,0.078456,-0.023875,0.018571,0.064511,-0.004531,-0.070888,-0.005975,-0.069573,0.074795,-0.023443,0.061084,-0.056214,0.061725,-0.077712,0.026810,0.033680,-0.057355,0.010604,-0.013711,-0.064131,0.021665,-0.037360,0.050231,0.074761,-0.051081,-0.014367,0.045622,0.022715,-0.077299,0.073672,-0.000846,-0.084261,-0.031532,-0.065807,0.071744,0.045767,-0.053834,-0.012279,0.055875,-0.032099,0.046813,0.034848,-0.030557,0.025847,0.039381,0.072155,-0.021579,0.064967,0.005328,0.045923,-0.080735,-0.054659,-0.083148,0.051291,-0.064321,-0.042039,-0.046050,0.063260,0.060233,-0.036917,0.054614,-0.020934,-0.037082,-0.058829,-0.004392,-0.043846,0.068941,0.022517,0.026579,0.044233,0.048823,-0.009509,-0.004542,-0.056034,-0.065035,-0.048556,-0.072474,-0.005798,-0.064509,0.014673,-0.042552,-0.064070,0.041459,-0.033443,0.069226,0.054309,0.009366,-0.052220,0.043211,-0.012797,-0.011492,0.014208,0.048980,0.032129,0.044076,-0.037729,0.072697,0.023235,0.068886,0.017292,-0.015340,0.035776,-0.073257,0.038167,0.049494,-0.057957,-0.068908,0.064246,0.010335,-0.051597,-0.007897,0.061867,-0.032777,-0.050024,-0.056712,-0.045820,-0.074350,0.033757,-0.019825,0.048781,-0.061774,0.050221,-0.019543,0.068699,0.004349,-0.072005,-0.051518,-0.005540,0.040712,-0.065262,-0.070908,-0.056751,0.051850,-0.063142,-0.077173,0.020514,-0.039037,-0.065100,-0.001400,0.062231,-0.033833,0.073128,0.037664,0.015589,-0.058810,0.063416,0.051918,-0.050148,0.013402,-0.049711,0.080806,0.032932,-0.080543,-0.021073,0.019512,0.006239,-0.003221,0.049681,-0.081405,-0.045503,0.067468,-0.070205,-0.020756,0.037755,-0.051271,-0.016913,-0.023971,-0.008568,0.000617,0.056693,-0.028708,0.048661,0.047943,-0.073577,-0.017815,0.070770,0.072358,-0.048257,-0.061417,0.003233,-0.015615,-0.062654,-0.045902,-0.013466,-0.001153,0.057925,0.077031,0.078214,0.024310,0.075885,-0.050335,0.009491,-0.076358,0.011067,-0.034991,-0.043741,0.076053,0.023350,0.029245,-0.006288,-0.002158,-0.080739,-0.039917,-0.036373,-0.073512,0.025145,-0.047801,0.080627,0.059379,-0.027330,0.002727,-0.038035,-0.007100,0.039089,0.029668,0.073459,0.012884,0.024253,0.068340,-0.045053,0.015702,-0.065570,0.046805,0.021867,0.029803,-0.069529,0.058932,0.022865,0.035859,0.005704,-0.065482,-0.048428,0.006147,-0.022809,-0.002799,0.015750,-0.080320,0.031541,0.015288,0.060839,-0.077722,-0.064240,-0.060614,-0.002769,0.057230,0.051449,-0.011463,-0.012201,-0.008279,-0.025284,0.024925,-0.074415,-0.007290,-0.010349,0.029859,-0.060498,0.002011,0.006474,0.044667,-0.044452,-0.070083,0.061469,-0.010621,0.018386,-0.043641,0.068819,-0.048154,-0.041692,0.018082,0.049416,-0.063149,0.022635,0.067485,-0.041481,-0.062417,0.042396,-0.072315,0.008410,-0.052087,0.001689,0.065420,0.055141,0.009576,-0.024146,-0.037488,-0.042773,-0.002270,0.046827,0.045951,-0.039980,-0.079949,0.058160,-0.060792,-0.008283,-0.005745,-0.022074,-0.021773,0.028394,0.018495,0.078573,-0.004478,0.037681,0.018916,-0.019279,0.078430,0.038815,-0.059172,-0.076198,-0.035059,-0.028983,0.007831,-0.051911,-0.056110,-0.064886,0.006189,-0.011329,-0.025444,-0.078379,-0.046838,-0.061784,-0.036156,-0.044548,0.078671,-0.014647,0.029545,-0.009326,0.045509,-0.074549,-0.063235,-0.018295,-0.078259,0.014585,-0.062953,0.022961,0.077584,-0.066781,-0.020531,-0.063883,-0.060637,0.026680,-0.010560,0.029489,0.057016,0.015613,0.046898,-0.019084,-0.078003,-0.060839,-0.015241,-0.042543,-0.040335,0.030915,-0.004745,-0.043947,-0.066020,-0.057523,0.029001,0.061782,-0.049780,0.048059,-0.038806,-0.045747,-0.019649,-0.019466,0.059507,-0.024357,-0.003955,-0.043316,-0.005948,0.017701,0.065655,0.065785,-0.035103,0.040379,-0.000895,-0.070497,-0.060997,0.003394,-0.049043,0.006055,0.043143,-0.007086,-0.045323,-0.043894,0.031259,-0.029051,-0.019125,-0.022032,-0.049561,0.013387,-0.056265,-0.006075,0.049933,0.006378,0.056751,0.027148,0.064313,-0.029496,0.066124,-0.023927,0.070497,0.049487,-0.040434,-0.046898,0.007573,0.040963,-0.035102,0.028869,-0.037934,-0.001853,-0.047369,-0.077083,0.073353,-0.010400,-0.038685,0.022320,0.042842,0.024483,-0.082005,0.075573,-0.044422,-0.055978,-0.012793,-0.076781,0.032692,-0.038334,0.032659,0.014713,0.014462,0.016490,0.073079,0.002667,-0.016315,-0.049647,0.038061,0.073550,0.073608,-0.079333,0.020127,-0.046618,0.001106,0.055050,-0.041409,-0.007834,-0.037642,0.002198,-0.067806,-0.077092,-0.055611,-0.067519,0.080773,-0.017741,-0.041205,-0.014312,-0.012230,0.073780,0.029645,-0.061864,0.006201,-0.038185,0.036919,-0.003012,0.046774,-0.061689,0.029633,0.002543,-0.070431,0.020948,0.005502,0.031988,0.056622,-0.075684,0.004745,-0.067079,-0.001226,0.049396,0.017411,0.013260,0.054596,0.044092,0.028033,0.053077,-0.055942,0.069121,-0.043528,0.014120,0.060609,0.068410,0.034549,-0.015483,-0.052068,-0.010825,0.063797,0.076999,0.009778,0.011138,-0.002750,0.021639,-0.050206,-0.079540,-0.028665,-0.075876,-0.072932,0.058372,-0.060663,0.008134,0.025476,0.039041,-0.060898,-0.002221,0.000840,0.049428,-0.031437,0.027191,0.036257,0.007328,-0.040981,0.014573,-0.006555,0.075859,0.081383,0.023670,-0.017258,0.062888,0.018376,0.074812,-0.008266,-0.066666,0.014159,0.023820,-0.063914,0.067786,0.030236,-0.054554,0.043866,0.051865,0.035872,-0.012950,0.008614,0.057267,0.067121,-0.072838,0.024403,-0.046608,0.036645,-0.021633,0.043012,0.077956,0.075232,-0.045835,0.071523,0.074323,0.060127,-0.028028,0.054919,-0.003789,-0.035508,-0.035640,0.011837,0.060944,0.070472,0.030215,0.046438,0.018416,0.057953,0.008012,-0.012011,0.011534,0.077354,0.078895,-0.013492,0.062183,-0.076235,-0.071381,-0.066717,0.042702,-0.010722,0.058587,0.038365,-0.017782,-0.069540,0.027595,-0.025751,0.072879,0.081860,-0.053125,-0.013202,-0.035940,-0.006472,0.080927,-0.057288,-0.018293,0.028850,0.071442,-0.082169,0.004511,-0.002839,-0.011888,-0.066248,-0.007777,-0.015285,0.002553,-0.027887,-0.009228,0.013464,-0.012312,-0.048819,-0.079550,-0.036017,0.071838,-0.015040,-0.023265,0.017141,0.041501,-0.032678,0.016709,0.070669,0.036412,0.063062,-0.018096,0.035046,-0.076519,0.045904,-0.018396,0.077215,0.046027,0.068407,-0.007916,-0.048153,-0.080133,0.066599,0.018854,0.004712,-0.043580,-0.072667,-0.064116,0.026400,-0.039193,-0.061375,0.072676,-0.049647,0.005877,-0.032882,0.049786,-0.034914,0.016732,-0.015797,-0.046537,-0.029148,-0.035027,0.017659,-0.076394,-0.029254,-0.018730,-0.012498,-0.034331,-0.054995,-0.026384,0.040045,-0.020856,-0.024225,0.024352,0.080290,0.062780,0.063065,-0.074669,0.080956,0.007173,-0.031570,-0.062711,-0.002444,0.001075,0.025458,0.046967,-0.031431,0.072837,-0.018593,0.035065,-0.055993,0.034551,-0.082255,0.043958,0.040449,-0.029217,-0.057064,-0.054342,0.018744,-0.029767,0.001567,-0.023503,0.031669,0.059634,-0.081443,0.029666,0.040122,0.063914,0.037290,0.038785,-0.011205,-0.076573,0.058366,0.068644,0.006795,0.001532,0.033319,0.057656,-0.007924,-0.067567,0.010428,0.018376,0.049277,0.010465,-0.019958,0.007433,0.063541,0.005270,0.035384,-0.000007,0.057796,-0.045342,0.058782,0.007173,-0.068000,0.059632,-0.045453,0.054414,0.041254,0.074129,0.010907,-0.052243,0.079848,-0.013020,-0.065891,0.004351,0.070804,0.049719,-0.020285,-0.019412,0.064445,0.072435,0.081256,0.031430,0.000608,-0.020994,-0.043429,-0.018143,0.066568,0.074247,0.064142,0.042072,-0.053388,0.040632,-0.033048,-0.039095,0.017972,0.003791,-0.066974,-0.023066,-0.004372,0.026225,0.006983,-0.006816,-0.069087,0.023384,0.079827,-0.080575,-0.009189,-0.022751,-0.017694,-0.027036,-0.032608,-0.018730,-0.077899,0.050293,0.042568,-0.039036,-0.050142,0.026845,-0.047081,-0.068293,-0.013376,-0.018176,0.054631,0.035869,0.025021,-0.009689,-0.042632,0.040339,0.049537,0.035288,-0.015728,-0.025772,-0.053821,-0.002522,0.079904,-0.056286,-0.000805,-0.011577,0.003255,0.063793,0.043679,0.052940,-0.037228,0.048073,0.020940,-0.076952,-0.073255,0.053090,0.032185,-0.038044,0.067090,-0.063483,0.026072,0.039429,0.054678,-0.031200,-0.052552,-0.070247,-0.073153,0.079277,0.047333,-0.006589,-0.028788,0.075805,0.073181,-0.031176,-0.062773,-0.009916,0.039539,0.022774,-0.028414,0.000925,-0.006578,0.016649,-0.033294,-0.067930,0.021989,-0.024257,0.067452,-0.028118,0.019991,0.052249,-0.009310,-0.036229,0.009386,-0.036924,0.014863,0.039126,-0.024878,0.024003,0.036110,-0.059837,-0.064878,-0.074970,-0.066325,-0.073989,-0.023854,-0.046806,-0.001613,-0.066607,0.058261,0.052265,0.016610,-0.030610,-0.013378,0.065608,-0.016248,-0.073681,-0.040941,-0.031088,-0.019507,0.061343,-0.061130,0.053476,-0.057178,0.030548,-0.065741,0.039977,-0.012618,-0.008327,-0.018313,-0.058800,0.014128,-0.000899,-0.051478,0.030096,0.007404,0.006961,0.065582,-0.076500,0.022645,0.041551,0.058057,-0.043037,-0.071351,-0.037613,-0.059721,-0.005306,-0.029002,-0.018369,0.045898,0.033783,-0.039319,0.067060,0.004966,-0.014205,0.015316,0.021518,-0.056520,-0.079595,-0.069101,0.007460,-0.056103,0.027319,-0.075731,-0.025288,-0.024878,0.013965,0.063965,-0.041588,0.019757,0.004318,0.082255,-0.004478,0.043573,-0.071388,0.040201,0.066145,0.005598,-0.071093,-0.034517,-0.030796,0.044982,0.008457,-0.046028,-0.032344,0.076544,0.051580,0.071467,-0.062268,0.054277,-0.079927,0.027483,0.080467,0.029684,0.034044,-0.027114,-0.077486,-0.034282,-0.045441,-0.036781,0.067767,0.041169,-0.036818,-0.019003,0.002450,-0.025914,-0.061094,-0.013698,0.061977,-0.049896,0.034078,-0.051111,0.077379,-0.039757,-0.014847,-0.037257,-0.045506,-0.045559,-0.048083,-0.025482,-0.073574,-0.045717,-0.080290,-0.075399,0.066259,0.036046,-0.020220,0.071065,-0.080528,0.016631,-0.048008,0.069531,-0.024493,-0.002534,-0.031764,0.060249,0.053844,-0.010566,-0.035741,0.033529,0.021830,0.080630,0.064710,0.016917,-0.041420,-0.032430,0.061952,-0.004633,0.004304,-0.068423,0.052177,0.013022,-0.031848,0.054179,0.019915,-0.047882,0.007933,0.081987,-0.059109,0.009697,0.016325,-0.024825,-0.003064,0.074125,0.054933,0.047464,0.052082,0.026485,-0.045395,-0.065951,-0.022279,0.058728,-0.067614,-0.039861,-0.006648,-0.026741,0.010001,-0.026988,0.050917,-0.067988,-0.013119,0.020802,0.027327,0.037325,-0.007311,-0.035051,0.071736,-0.081670,-0.035356,-0.069665,0.010319,0.063262,-0.012198,-0.075037,0.055094,-0.039557,0.054719,0.024884,0.069220,-0.072968,0.041225,-0.035351,0.068051,0.055904,0.007080,-0.020889,-0.053130,-0.065211,0.034416,0.080080,-0.050907,-0.060995,0.018590,0.058712,0.058622,-0.071013,-0.058631,0.048066,-0.070391,-0.011694,0.060693,0.022220,-0.030725,-0.033797,0.029475,-0.057923,0.008939,0.001901,0.049253,-0.004133,0.011225,0.008186,0.042808,-0.003016,-0.018203,-0.032404,0.058388,0.010960,-0.015323,0.010511,0.008748,0.016063,0.031808,-0.054955,-0.007517,0.008138,-0.043676,0.016144,-0.026088,-0.031775,-0.077842,-0.047687,0.072737,-0.026275,0.000808,0.019919,-0.001906,-0.072545,-0.060472,-0.034945,0.005614,0.033046,0.055533,-0.033870,-0.052262,-0.044962,0.016018,-0.076167,0.048290,-0.081598,0.016637,-0.025254,0.016757,-0.033847,0.002083,-0.073053,0.056583,0.040700,0.025384,-0.051797,-0.073368,0.029834,-0.017192,0.081662,-0.078734,0.065909,0.019289,0.001652,0.075656,0.041109,0.048999,-0.001022,-0.008137,0.022240,0.047400,0.021892,0.059570,-0.018875,0.028018,0.025569,-0.018180,-0.037638,-0.081978,0.080869,0.010807,0.002397,-0.074476,-0.014902,-0.039195,0.033200,0.015593,-0.030271,-0.019258,0.080694,-0.030901,-0.015700,0.064310,0.070680,0.068245,0.057674,0.029497,0.034952,-0.025641,-0.060933,-0.025100,-0.060533,0.043252,-0.047822,0.002884,-0.011023,0.060039,0.066996,0.033632,0.060353,0.065573,-0.037853,-0.019542,0.073390,0.029538,0.023555,0.024298,-0.037161,0.075576,-0.077253,-0.038760,-0.037617,-0.010660,-0.056742,-0.049230,-0.024708,-0.081361,0.062559,-0.072048,-0.024710,-0.080666,-0.014856,-0.002951,0.044878,0.019614,0.082225,-0.048437,-0.002639,0.066929,0.067488,-0.024579,0.050210,-0.052658,0.038171,0.041307,0.059172,-0.020566,-0.016687,-0.060281,-0.027282,-0.011648,-0.016749,0.017393,0.059984,0.008801,0.050455,-0.047016,0.009732,0.030722,-0.036772,0.067315,0.032348,0.030664,-0.017928,-0.005066,-0.032014,-0.017995,0.028789,0.047638,-0.033358,0.013985,-0.059233,-0.065440,0.043619,0.061231,0.058160,0.020499,-0.041627,-0.040820,0.042510,0.013383,0.029825,-0.056531,-0.051516,0.007516,0.034562,0.081231,0.042792,-0.037998,0.029661,-0.076272,-0.052976,-0.020284,0.036684,0.011388,0.056943,-0.077623,0.075686,0.003440,0.052308,-0.039964,-0.064868,0.075368,-0.023112,0.061044,0.054307,-0.047245,-0.000749,-0.069613,-0.005772,-0.040531,0.026063,-0.058240,-0.014770,0.056839,0.031569,-0.062500,0.055777,-0.007931,-0.018206,0.003146,-0.001911,0.011110,0.065154,-0.047520,-0.059793,0.039805,-0.042850,-0.066400,-0.039048,-0.072834,-0.024072,-0.021623,-0.079759,0.035108,-0.042872,0.056840,0.070156,0.038671,0.069519,-0.017908,0.080432,0.013290,0.006144,-0.016630,-0.012164,-0.044580,0.003162,-0.038679,0.029781,0.067248,0.046759,-0.054422,-0.003934,0.029622,-0.019650,0.018565,-0.012866,0.019792,0.034457,0.030378,0.029250,-0.071907,-0.073537,0.031783,0.045494,-0.034117,0.006331,0.033358,-0.077738,-0.006442,-0.066843,-0.079598,-0.075444,0.021593,-0.013935,-0.005316,0.059306,0.071519,0.038297,0.006795,0.056475,0.002765,0.034665,-0.029751,-0.049906,-0.067277,0.071106,0.019520,0.034807,0.023271,-0.032394,-0.018235,0.033657,-0.023639,-0.068744,-0.003142,0.024537,0.019879,-0.052077,0.029091,-0.068855,-0.036628,0.031786,-0.062008,0.067258,-0.064442,0.014969,0.044271,-0.075215,-0.029026,-0.031227,0.063552,0.056031,-0.078854,-0.048491,-0.076167,-0.063840,-0.059678,0.025645,0.053260,0.045885,0.075544,-0.047268,-0.002750,-0.030387,-0.033720,0.076400,0.076442,0.068452,-0.057969,0.023241,0.081889,-0.012304,-0.027265,-0.062411,-0.027339,-0.009415,0.034850,-0.065360,-0.002338,-0.076469,-0.014294,-0.021078,0.061854,-0.010856,0.012723,0.067979,0.007596,0.035337,0.011332,-0.021436,-0.001069,0.004583,0.013588,0.078473,0.056488,0.062161,0.072581,0.050638,0.048320,-0.067680,-0.008413,0.047917,0.002308,0.046614,0.067798,0.057261,-0.045094,0.020355,0.074194,0.034861,0.026179,-0.022393,-0.068509,0.005741,0.049043,0.026507,-0.008573,-0.025653,-0.020448,-0.079533,0.035203,0.060775,0.007342,-0.033501,0.056955,-0.018462,-0.053632,0.047243,-0.050116,0.076980,0.061855,0.023763,0.042604,-0.018129,-0.011916,0.028110,-0.043160,0.025283,-0.033827,-0.051259,-0.022148,0.074643,0.008640,-0.008365,-0.001908,-0.024609,-0.064150,0.071811,0.032030,-0.002306,0.074570,-0.015059,-0.023824,-0.000380,0.033732,-0.049161,0.063450,0.062392,0.080375,-0.068958,0.057080,0.059938,0.037097,0.017392,-0.040484,-0.057111,-0.036791,-0.001352,0.050464,0.011674,0.029681,-0.053976,0.004025,-0.043971,0.019951,-0.080175,0.013712,0.038093,0.073928,-0.036550,-0.046505,0.066206,0.030683,0.011963,-0.016466,-0.017878,0.045094,-0.035308,-0.037778,0.043177,-0.021973,-0.062991,0.020822,-0.067168,0.036693,0.062631,-0.041987,0.082195,-0.021014,-0.073815,0.011577,-0.073625,-0.045499,-0.066690,-0.035304,0.056745,-0.064573,0.060701,0.012546,-0.072936,-0.058142,0.048333,0.075562,0.054833,-0.021996,-0.023196,-0.045336,-0.059194,0.023788,-0.000822,0.066275,-0.080478,0.018479,0.004805,-0.065354,-0.027120,-0.014857,-0.025049,-0.027217,0.046422,-0.016571,0.066652,0.055089,0.020223,0.082255,-0.062507,-0.005324,-0.064610,0.080486,-0.075070,-0.055254,-0.059948,0.055555,-0.061984,0.077178,-0.048733,-0.002888,-0.050451,-0.025636,-0.061392,0.031019,-0.041653,-0.059578,-0.032794,0.045444,-0.042639,0.022379,-0.051705,0.014604,0.077454,0.077008,0.080326,0.061814,0.049805,0.018256,0.061776,0.069591,-0.069361,0.079458,0.067785,-0.062139,-0.058088,-0.074455,0.075709,-0.037780,-0.079570,-0.055317,0.041624,-0.047729,0.001340,0.062523,0.065583,0.041979,-0.079347,-0.049503,0.005130,-0.039694,0.055167,0.035717,0.057203,0.050329,0.030434,0.055236,0.029851,-0.002053,-0.008800,0.009335,-0.014755,0.004132,0.006501,-0.029263,0.024286,0.030705,-0.021426,0.017702,0.075217,-0.018703,0.044677,0.034548,0.015860,-0.036276,0.014779,-0.000849,-0.076589,0.017725,0.031940,0.010833,0.060324,0.004815,-0.035741,0.035234,-0.027148,0.076984,0.008179,-0.079590,-0.007361,0.081671,0.012037,0.060176,0.003511,-0.063755,-0.051379,-0.054496,0.049243,0.009488,0.045499,0.042167,0.073076,0.007883,-0.005577,0.006645,0.053900,-0.073090,-0.076497,0.059603,0.026927,0.037735,-0.011856,0.004959,-0.039742,0.034695,-0.042099,0.015402,0.029387,0.048372,0.018104,-0.060266,0.047751,-0.052151,0.082202,-0.031031,-0.033613,-0.051469,-0.003234,-0.066663,0.040311,-0.040028,0.057796,0.031095,0.050148,-0.030073,-0.044553,0.021756,-0.020870,-0.038757,-0.000933,-0.076235,0.081270,0.069504,0.011016,-0.040764,0.021907,0.051209,0.056930,-0.030998,0.017288,-0.007258,-0.008972,-0.017254,0.022884,-0.009062,0.034008,0.071563,0.021761,-0.051518,-0.077392,-0.020221,-0.009254,0.062696,-0.071418,-0.041398,-0.049669,-0.033679,0.062651,0.011753,0.009856,-0.020575,0.017810,0.008834,-0.033363,-0.053466,0.050362,0.070836,0.080035,0.025000,-0.042455,0.015030,-0.064550,0.030866,0.080069,0.040626,-0.060489,0.031785,0.029897,0.043564,0.062559,0.034796,-0.058949,-0.028987,0.015200,-0.048075,0.011907,0.047824,0.000538,-0.007734,-0.022715,-0.071898,0.053984,0.077388,0.019229,-0.061672,-0.058371,-0.012701,-0.073128,-0.060629,-0.069993,-0.033290,0.036694,-0.052251,0.079867,0.034471,0.070667,-0.062914,-0.016037,0.018272,0.062942,-0.035771,-0.029224,-0.078300,0.017534,0.068268,-0.044083,-0.052851,0.033800,0.038748,0.021708,-0.071207,0.049142,-0.006601,-0.076112,-0.013921,0.014019,-0.052191,0.055669,0.023184,-0.030527,0.067968,0.072185,-0.076125,-0.066575,0.069761,0.040637,-0.078200,-0.075446,-0.057692,0.022364,0.069789,-0.011171,0.075432,0.073781,-0.075929,0.061408,-0.052593,-0.046487,0.012916,0.068447,0.057513,0.024001,0.035297,-0.031381,0.030181,-0.060917,0.064931,0.060283,0.077044,0.005823,-0.052537,0.062720,-0.004284,-0.046370,0.078438,-0.016816,0.076560,-0.082055,-0.009969,-0.063424,0.022602,-0.022473,0.007697,0.015742,-0.030983,0.014061,-0.005142,-0.001285,0.049866,-0.074518,-0.015130,0.025086,0.031775,-0.062126,0.075998,-0.020336,-0.040751,0.058637,-0.042345,-0.045999,-0.017833,-0.012590,-0.065570,0.060175,0.023333,-0.069425,-0.038933,0.017600,-0.069188,0.033390,0.036468,0.035706,-0.071374,-0.038127,-0.030844,-0.020066,0.058226,0.046306,0.060942,0.025799,0.054080,-0.036481,-0.031407,0.003563,-0.016315,-0.037701,0.065519,0.025227,-0.061357,-0.059119,0.061520,0.003102,0.010583,0.078242,-0.019015,-0.048376,-0.073475,0.024345,0.051516,-0.060371,-0.024557,0.005692,0.057628,-0.013639,0.049857,-0.055508,0.048587,0.025791,0.073090,0.027237,-0.030703,0.044878,0.073048,0.020233,-0.033857,-0.025566,0.064769,-0.050634,0.081956,-0.078882,-0.027454,0.061143,0.006542,0.065424,0.057139,0.069796,-0.065314,0.066196,0.011854,0.068489,-0.076722,0.069578,-0.008022,0.063206,-0.026346,-0.040472,-0.074586,-0.060081,0.067603,0.080923,0.049474,-0.045386,0.043379,0.040250,0.057089,-0.072768,-0.067624,0.039568,-0.041097,-0.067947,0.042991,0.013740,0.075543,-0.032768,-0.003137,0.050372,-0.045294,0.013922,0.034040,0.048876,0.000181,0.039625,0.036140,0.074446,0.020544,-0.072478,-0.048317,0.028276,-0.050241,-0.062871,0.026756,0.081523,-0.026096,-0.012161,0.039232,-0.051334,-0.002632,0.054149,0.070538,0.038555,0.068485,0.031272,-0.030003,0.061716,0.080787,0.049177,0.029838,-0.046793,-0.019191,-0.018479,-0.080215,0.063361,-0.061039,0.038237,0.055457,0.042049,0.048049,-0.075165,-0.012276,0.080085,-0.055861,-0.067856,0.079319,0.000298,0.002311,0.036511,0.031350,0.081882,0.008340,0.019637,0.038206,-0.005465,-0.031363,-0.073927,-0.026039,-0.032911,0.057380,-0.078544,0.002735,-0.044112,-0.014681,0.004906,-0.063023,0.006513,-0.039365,0.074642,-0.034767,-0.072910,0.081791,0.035707,-0.075868,-0.056405,0.050401,-0.078818,0.026260,-0.029659,0.039997,-0.024781,-0.030041,-0.033968,0.077220,-0.074106,0.042868,-0.036408,-0.065896,-0.065122,0.012932,0.073789,-0.061644,-0.066708,-0.052578,0.005925,0.020316,-0.033337,-0.069892,0.063184,-0.041077,-0.021618,0.071870,-0.041500,-0.068138,0.078347,-0.015682,0.064661,0.081834,-0.071653,-0.047297,0.039614,-0.014069,0.005350,-0.076717,-0.019142,0.013176,0.048456,0.026005,0.029378,0.065289,-0.042582,0.020984,-0.078708,-0.027039,0.050780,0.009503,0.075506,-0.064860,0.021980,0.056511,-0.023613,-0.081930,0.045906,0.017068,-0.067289,0.042274,-0.080768,0.079329,0.042626,-0.070151,-0.050285,-0.001018,-0.001951,0.037003,0.004453,0.061200,-0.032240,-0.028360,0.005675,0.079774,-0.046537,0.045283,0.018578,-0.042777,-0.064033,-0.012836,0.048309,-0.069824,0.004576,-0.011353,0.068118,0.075856,-0.011184,0.031334,0.024846,0.004181,-0.008387,-0.000363,0.000698,-0.085448,0.012034,0.032949,0.031436,-0.072686,-0.012828,-0.045783,0.070219,0.037997,0.006832,-0.005773,0.034855,0.042567,-0.065283,-0.028810,-0.082072,-0.024403,0.040819,0.048594,0.004430,-0.037481,-0.044390,-0.024912,-0.055987,0.026868,-0.077769,0.024884,-0.051803,-0.004662,-0.058359,0.031400,0.028703,0.035536,-0.017512,-0.031833,0.045795,0.051888,0.015502,0.033957,0.007537,-0.060588,-0.054244,-0.040083,0.064646,-0.015658,0.013572,0.067035,0.043700,-0.028632,0.024272,-0.051878,0.018421,0.069460,0.003516,0.043669,0.011095,0.009378,-0.013892,0.044375,-0.078203,0.009515,-0.005750,0.032371,-0.036770,0.051051,-0.064168,-0.073450,0.027215,0.024296,0.048212,-0.048484,0.047304,0.071486,-0.004946,0.028258,-0.024910,-0.074175,0.011475,-0.006155,-0.019566,-0.039712,-0.032632,0.079760,-0.052999,0.052833,0.041431,0.044535,-0.023248,-0.052975,0.006615,-0.017867,0.037520,-0.058038,-0.068131,-0.082830,0.109630,-0.056377,-0.072804,0.004013,0.050244,-0.023286,0.039413,0.015377,0.040372,-0.049247,-0.038906,-0.065549,-0.042063,0.056320,-0.047625,0.021470,-0.066732,0.001821,-0.028813,-0.036669,-0.026146,-0.021218,-0.074222,0.033030,0.050790,0.013914,-0.065200,-0.034869,0.014790,-0.051302,-0.038177,-0.008488,-0.026484,-0.030893,0.077586,-0.057721,-0.060298,0.033495,0.040702,0.048541,0.067572,-0.080310,0.081308,-0.056640,0.057868,-0.049675,0.046866,0.073146,0.035768,-0.018900,-0.045677,-0.071430,0.045895,-0.036666,0.029275,-0.031363,0.060649,0.059776,0.012490,-0.008639,-0.077384,0.059065,0.065621,-0.017925,-0.055484,0.060014,0.007899,-0.034274,0.011530,-0.046844,-0.042185,-0.003266,-0.034845,-0.057955,0.033371,-0.061251,-0.022418,-0.011262,-0.067806,-0.072879,0.055733,-0.031865,-0.062818,0.131471,0.013239,0.062505,0.071151,-0.010820,0.039331,0.000601,0.063213,0.050651,-0.022937,0.049437,-0.049941,0.000643,0.025734,0.064888,0.048736,-0.048319,-0.037559,0.074815,0.033062,-0.030793,-0.061073,-0.065192,-0.007410,-0.001640,0.045720,0.008006,0.007773,0.022220,0.056795,0.030630,-0.048908,-0.012824,0.009263,-0.060352,-0.010895,-0.030763,0.031859,0.047850,-0.073677,-0.081229,0.053552,-0.033772,0.017084,-0.050371,-0.075062,-0.033149,-0.008539,-0.074068,-0.042345,-0.066939,-0.017923,-0.012415,-0.013934,0.055442,0.065498,-0.042602,-0.020372,-0.005388,0.050476,-0.046788,-0.058531,-0.080634,0.021959,0.032642,-0.061489,-0.005024,-0.080649,0.053251,-0.042524,-0.053547,0.033630,0.043533,-0.016680,-0.025559,0.072500,-0.005053,0.034411,-0.031495,0.007050,0.070590,-0.012934,0.070377,-0.024779,0.055437,0.037598,-0.077650,-0.079812,-0.060921,0.029591,0.057322,-0.014292,0.050693,0.055282,-0.082661,0.003507,0.081479,0.000497,0.005158,0.054348,0.135712,0.027379,0.025715,0.007179,-0.069600,-0.080043,-0.006676,0.008662,0.035363,0.048169,-0.065971,0.018468,-0.045913,-0.079086,0.081896,-0.072304,0.044029,-0.047468,-0.071366,0.068470,0.060139,0.065271,-0.001072,0.031558,0.037928,-0.032146,-0.046213,0.037274,0.049882,0.040121,0.009919,0.005105,-0.017660,-0.045113,-0.072261,-0.022398,-0.042316,0.010475,-0.071634,0.070213,-0.028393,-0.020984,0.004749,0.019094,-0.060500,-0.004812,0.019392,0.074827,0.023766,0.031626,0.056137,0.004823,0.019932,-0.066035,-0.046750,-0.026110,0.008941,-0.012522,-0.071978,-0.054422,-0.056395,0.021343,0.032808,0.007874,0.056653,0.042746,-0.081641,-0.068867,-0.044408,-0.071489,-0.049574,0.017268,-0.052882,0.002362,-0.047052,-0.028819,-0.080309,0.057185,-0.009114,0.028457,0.007017,-0.071031,-0.046827,-0.057640,-0.053502,-0.018237,-0.009222,-0.025728,0.055192,0.006573,0.040067,-0.077821,-0.055543,-0.012653,0.012150,-0.081479,-0.053495,0.014027,-0.066687,-0.005087,0.052740,-0.064642,-0.058617,0.057046,0.021495,-0.022107,-0.057410,0.023050,-0.040538,-0.031283,-0.028680,0.041326,-0.005655,0.003357,0.075193,0.022298,0.070956,-0.021015,-0.055081,0.046719,0.068653,0.060658,0.132446,-0.058726,-0.032171,-0.006618,-0.065068,0.000150,0.058174,-0.047570,0.080657,0.014208,-0.035922,-0.057372,-0.011323,0.032515,-0.000439,0.012181,0.012830,0.051170,0.073044,0.081956,-0.008240,-0.014097,-0.017764,-0.029638,-0.073336,-0.024823,0.031339,-0.040001,-0.065638,0.022711,-0.058146,0.066918,0.034918,-0.009075,0.036712,0.050047,0.067770,-0.052889,0.078933,0.068691,0.041404,-0.040539,-0.076431,-0.050814,-0.057779,0.004066,0.020167,0.042604,0.005091,0.022095,0.020573,0.030316,-0.060854,-0.076098,-0.079247,-0.050307,0.032373,0.038885,-0.016599,-0.000874,-0.018255,0.004651,-0.014873,-0.071572,0.062248,-0.027560,0.060483,0.060705,0.053579,0.055619,0.045214,0.014036,-0.054143,0.050637,0.037098,-0.032017,-0.024395,-0.015438,-0.020810,0.013672,-0.057489,0.032027,-0.041224,-0.039180,0.034107,-0.036122,-0.005652,-0.090831,-0.074596,0.055026,0.011694,-0.016883,-0.022669,0.077716,-0.007187,-0.034826,0.018099,-0.024297,-0.052863,-0.016654,0.056644,0.108441,0.081753,0.013152,0.045348,0.040587,-0.002011,-0.058997,-0.049264,0.033272,0.031250,-0.019043,-0.015668,0.018782,0.016610,-0.071184,-0.041232,-0.084787,-0.065072,-0.007623,0.065005,0.030546,0.027972,-0.052648,0.028246,-0.060874,-0.003037,-0.033527,-0.009620,0.037484,0.039286,0.031479,0.022322,0.035417,-0.013310,-0.014859,-0.012048,0.027130,0.001339,0.022753,-0.025553,-0.052261,0.075648,0.037489,-0.066272,0.009682,0.024492,-0.010917,0.062231,0.068651,0.030904,-0.007287,0.026136,-0.021098,0.023049,-0.020125,0.047552,-0.055264,0.012192,0.080498,0.062185,-0.034766,-0.001300,-0.000592,0.026422,0.003857,0.060419,-0.017998,-0.022692,-0.024826,-0.078297,0.035153,0.030329,0.081186,-0.019462,0.043986,0.010595,-0.057035,0.033810,-0.058831,-0.068824,0.066105,0.014714,0.034843,-0.043722,-0.044147,-0.081483,0.063319,-0.010426,0.014337,0.035961,-0.038135,0.054494,-0.015453,0.038974,0.053743,-0.068409,0.023853,-0.043343,-0.018833,-0.041596,-0.020038,-0.062870,0.048516,-0.042344,0.003811,-0.017564,0.051258,0.031987,0.014299,0.074179,0.050018,-0.004562,-0.051089,-0.000520,0.034096,0.051649,-0.009345,-0.013717,0.064576,-0.043405,-0.060263,0.003653,0.070671,0.004923,-0.039343,0.041997,0.013963,0.058193,-0.063504,-0.078528,0.068971,-0.036850,-0.057183,0.053514,0.006318,0.029592,0.073490,-0.030532,-0.019842,0.004282,-0.038901,-0.060100,0.082650,0.027295,0.019782,0.023025,0.025180,-0.014457,-0.040119,0.062103,-0.045924,-0.031878,-0.017574,-0.056331,0.053443,0.066081,0.073344,-0.021245,0.005927,0.088622,-0.014187,-0.089773,-0.036103,-0.060646,0.068411,0.043677,-0.051821,0.067397,-0.073960,0.016389,-0.003895,-0.006350,0.027736,-0.022211,-0.044882,-0.033196,-0.062643,0.154284,-0.011802,-0.048299,0.047787,0.014998,-0.006985,-0.056825,0.053645,-0.052520,0.047195,0.050670,0.019442,-0.025490,0.046840,-0.074903,0.050573,-0.076632,0.004898,0.046366,0.056334,0.041491,0.033257,0.144955,-0.034847,-0.052146,-0.004023,0.076095,0.020768,0.005397,-0.038696,0.040024,-0.010564,0.028033,0.079732,-0.048691,-0.067497,-0.014093,-0.024960,-0.054446,0.018647,-0.066298,0.103958,-0.031940,-0.002196,0.038779,-0.041548,-0.035961,0.043953,0.047156,-0.074890,0.014251,0.018552,0.048718,0.009212,0.058767,0.079237,0.109389,0.054173,0.015673,-0.010737,-0.072094,-0.024470,0.059003,0.036486,-0.036476,-0.065526,-0.082237,0.029642,-0.032037,-0.041180,0.015546,0.008639,-0.054778,0.015242,-0.064856,0.067989,0.053897,-0.020096,0.098001,0.026502,-0.022675,-0.033149,-0.039329,-0.055170,0.018895,-0.065398,-0.096331,0.003798,0.063412,0.032186,-0.060770,0.073672,-0.073321,-0.079923,0.045134,-0.032194,-0.080791,0.047533,0.082325,-0.015704,0.006333,-0.029798,0.075087,-0.049528,0.071527,0.079905,-0.067147,0.042118,-0.033035,0.038059,-0.010349,0.027911,-0.070115,0.027852,0.072994,0.070146,0.042907,0.074239,0.016216,0.028840,0.022362,0.044294,0.069007,0.021731,0.046326,0.006472,0.075781,0.052466,-0.038479,0.084039,-0.039320,-0.055128,-0.022251,-0.042797,-0.034239,-0.065421,-0.048742,-0.012632,0.024629,0.005035,-0.070437,-0.032140,-0.071326,-0.035288,-0.075554,0.071440,-0.053228,0.049766,0.057700,0.046310,-0.006617,0.008959,0.005895,-0.058396,-0.051865,-0.020094,0.042361,-0.056745,-0.053144,0.025139,-0.064812,-0.005769,0.049759,-0.018313,0.025220,-0.028521,0.011357,0.056578,0.023180,0.020759,0.028372,0.043635,0.075375,-0.002364,-0.071453,-0.079324,-0.013414,-0.050537,0.157157,-0.034660,0.077815,-0.028138,0.054725,0.010743,-0.006605,0.067470,0.128672,0.017140,-0.065657,-0.064041,0.007626,-0.054569,0.010657,-0.012244,0.015612,-0.047870,0.000773,-0.041309,-0.070375,-0.069109,0.123432,-0.022161,0.054974,0.033664,0.068792,0.057603,0.047588,-0.040545,-0.039111,0.008434,0.017795,0.083031,0.076287,-0.015621,0.036216,-0.008756,-0.017718,0.016188,-0.018116,0.005926,0.016445,-0.081414,0.046851,-0.053619,-0.012811,0.006705,-0.027521,0.069710,0.042244,0.003012,-0.074739,-0.005244,0.069634,0.068520,-0.050931,-0.013600,0.035532,0.076589,-0.026811,0.034867,0.001112,0.028590,0.024859,0.017022,0.086637,-0.039580,0.082925,-0.023439,0.036042,-0.015182,0.061918,-0.021741,-0.012769,0.031760,0.000754,0.056292,-0.037861,0.063122,0.043760,0.045128,-0.033512,0.056856,-0.043278,-0.065170,0.030313,0.045721,0.050752,-0.019357,0.048203,0.059679,-0.023155,-0.075938,-0.013551,0.058649,0.030441,-0.014477,-0.067986,0.022748,0.131602,0.056017,-0.082120,0.032390,-0.046759,-0.011869,-0.018235,0.023607,-0.073760,-0.024587,0.004628,-0.077052,-0.041308,0.058762,0.058958,-0.002120,-0.108178,0.004601,0.062621,0.057309,0.071933,-0.029417,0.103637,-0.086757,-0.014255,-0.072431,0.055700,-0.078517,0.003602,0.061986,0.023210,-0.015046,0.047952,0.023102,-0.080657,0.079677,-0.060169,-0.017648,0.028059,-0.025196,0.066165,-0.040807,-0.027370,-0.050965,-0.063282,-0.038740,0.021442,-0.064859,0.038496,0.008692,0.098538,0.038100,0.064996,0.022084,0.032627,-0.053564,0.028588,-0.025889,-0.031343,-0.038655,-0.004675,0.080943,0.043361,-0.010087,0.029076,0.017049,-0.039859,0.026082,0.076445,0.073765,0.072533,0.063859,-0.037468,-0.030133,-0.072317,-0.030239,-0.005407,0.028215,0.022576,-0.048073,-0.048398,-0.015422,0.056924,-0.061552,-0.075158,0.008970,-0.015882,0.020633,-0.073119,0.037727,0.123024,0.004718,0.006533,0.005542,0.051997,-0.040065,-0.073264,-0.071444,0.067433,-0.072025,-0.056400,0.055444,0.069901,-0.037304,-0.064107,0.075822,0.013185,0.014687,0.013039,-0.063720,0.050451,0.053137,-0.012217,0.029100,0.070240,-0.009723,-0.076596,-0.025594,-0.042250,-0.040940,-0.075588,-0.046664,0.118922,0.037779,0.043192,0.016330,0.062555,0.054012,0.042723,0.116758,0.076097,0.053236,0.030259,0.051935,-0.068063,0.050503,0.046764,0.027817,-0.015699,-0.000092,0.034433,-0.047462,-0.045472,-0.055271,0.122266,-0.054519,0.022349,-0.078185,-0.000896,0.064063,-0.026267,0.017105,-0.060378,-0.063812,-0.042257,0.059092,0.037115,-0.066756,0.040626,0.007526,-0.075437,0.028450,-0.008590,0.045989,0.013580,-0.003813,0.001729,-0.041498,-0.059868,0.065919,0.020928,0.058189,-0.057359,0.060689,0.083269,0.080588,-0.079636,0.023843,-0.046491,0.002904,0.002779,-0.029795,-0.073791,0.026161,-0.013010,-0.032129,0.009356,-0.054270,-0.003476,-0.031158,0.039346,0.001915,0.099643,-0.073236,-0.047850,-0.011012,0.009384,0.035331,0.029388,0.030946,0.076156,-0.031603,0.005557,0.049037,-0.056170,0.005484,0.046993,-0.051546,-0.081908,0.042984,0.034947,0.030308,-0.069916,0.035526,-0.031761,0.008577,-0.077627,0.068906,0.041507,0.004096,-0.047312,-0.010430,-0.036879,-0.055094,0.006101,-0.042663,0.012445,-0.069045,0.080707,-0.013903,0.046395,0.019959,0.011433,-0.031982,-0.010507,0.038331,0.067033,-0.045601,0.068305,-0.077405,-0.077101,0.020637,0.032472,-0.055784,0.029430,-0.067809,0.035589,-0.012720,0.074609,-0.007187,0.081550,-0.052555,0.069552,0.081506,-0.027901,-0.006895,-0.042474,0.050518,0.009975,-0.039404,-0.051917,-0.027533,0.059197,0.052218,0.024279,-0.026129,-0.002713,-0.003787,0.009094,-0.015345,-0.004216,0.013547,-0.081226,-0.049990,0.043066,-0.016384,-0.044378,-0.005121,0.068179,-0.050993,0.071347,0.044910,-0.024335,0.058509,0.043080,0.030175,-0.032850,-0.068710,0.017048,0.059611,-0.049477,0.049401,-0.002247,-0.061228,0.006070,0.057774,0.004291,-0.078676,-0.028463,-0.068189,0.033012,0.050717,0.026067,-0.007983,0.082908,-0.014769,0.056378,-0.044984,0.023513,0.012570,-0.014509,0.046819,-0.019941,0.038104,0.020659,-0.048587,-0.004308,0.072618,-0.047245,-0.070846,0.051077,-0.001358,0.113239,-0.080287,0.028575,-0.014859,0.061675,-0.049095,-0.011644,-0.050557,-0.025824,0.054334,0.083719,0.071732,-0.032198,0.082779,-0.018869,-0.056236,-0.046402,-0.049804,0.052731,0.024206,0.082189,-0.042294,0.008278,0.026003,-0.008294,0.063972,0.011321,0.027179,0.085994,-0.017266,-0.053737,0.050348,-0.017902,0.057191,-0.050299,-0.099451,-0.073869,0.024114,-0.010195,-0.030292,-0.012215,0.008739,-0.028601,0.047250,-0.008744,0.015364,0.073399,0.026858,0.047736,0.041570,-0.037911,0.056243,-0.084802,0.035790,-0.009752,-0.004678,0.037794,-0.079216,-0.058179,0.005112,-0.017684,-0.027655,-0.028567,0.045273,-0.059493,0.018549,-0.079856,-0.050729,-0.064989,0.000241,0.054729,0.022950,0.067489,0.045983,0.000655,-0.023770,-0.020289,-0.009193,-0.024537,-0.052868,-0.050945,-0.029684,0.085012,-0.046055,-0.079009,-0.012213,-0.020152,-0.009806,-0.010634,0.050144,-0.071008,0.054980,-0.063721,-0.005391,0.030265,-0.038347,-0.086234,0.029621,-0.004597,-0.051680,0.001000,0.080430,0.059914,-0.068249,0.046592,-0.023741,-0.012299,-0.059133,0.054954,-0.007557,-0.026550,0.078993,0.042276,-0.027288,-0.069044,0.048914,0.043126,0.050563,-0.017317,-0.045613,0.028992,0.003177,-0.023722,0.050489,0.080927,0.039171,-0.072608,0.080999,-0.009487,0.006763,-0.052058,0.006860,0.002387,-0.074646,0.015167,-0.068510,-0.015595,-0.074549,-0.011367,-0.052395,-0.012368,0.050598,-0.026565,-0.045892,-0.066267,-0.025366,-0.079034,0.059459,-0.048119,-0.014284,-0.072921,0.072722,0.067255,-0.056856,0.032116,0.073872,0.084849,0.042058,0.072397,-0.042788,-0.036774,-0.058778,0.044886,0.047689,-0.054065,-0.012095,-0.072573,0.010130,-0.026634,0.006314,0.084289,0.071272,-0.037164,0.066656,-0.055421,-0.019848,-0.038501,-0.051121,0.004210,-0.003335,0.014397,-0.028666,-0.014315,0.008033,-0.006105,-0.075368,-0.035140,-0.056523,0.053231,-0.012659,-0.000829,-0.084262,0.007499,-0.025292,0.082559,0.034584,0.034452,0.080857,-0.035876,-0.057347,0.018237,-0.077613,-0.071610,0.045422,0.068831,-0.045595,-0.057529,-0.048950,-0.013097,-0.018903,0.032704,0.078553,0.035633,-0.068665,0.003999,-0.050134,-0.056460,-0.083167,0.005142,0.081457,-0.010407,-0.068080,-0.020161,0.079775,-0.011405,-0.078401,0.031148,-0.056853,-0.078931,0.077970,-0.030381,0.000239,0.081955,-0.019704,-0.037877,0.052661,0.015842,-0.011839,-0.058416,0.078731,0.050279,0.053729,0.086947,0.003266,0.070213,-0.003292,0.037390,-0.068385,-0.001931,-0.040699,-0.072484,0.071306,-0.026417,-0.052204,0.067537,0.045636,-0.033688,0.016624,0.071008,-0.049541,0.011090,-0.041200,0.032146,0.009742,0.020888,0.086826,-0.000503,-0.046476,-0.020017,0.025814,-0.024881,-0.044345,-0.002727,-0.054599,0.041611,-0.015117,0.024501,0.008929,0.035680,-0.059558,0.039051,0.011866,-0.069537,-0.068667,0.041745,0.075824,0.019629,0.053017,0.013402,0.047042,-0.066708,-0.070626,-0.077869,0.056558,0.045534,0.025514,0.051487,-0.047410,0.061959,-0.047513,0.062902,-0.069141,-0.011173,-0.028933,-0.044490,-0.051372,0.040285,0.063412,0.008078,-0.040816,-0.077124,-0.015945,0.050591,-0.065939,-0.001211,0.009981,-0.069684,-0.025490,0.001371,0.026226,-0.061612,0.024238,0.055283,-0.056803,-0.001493,0.003921,0.050727,-0.032125,0.032648,0.030490,0.003437,0.014846,0.043138,0.074895,0.071373,-0.102683,-0.059476,0.028913,0.064841,0.049525,0.066474,0.082748,-0.038757,0.035760,-0.078504,0.031628,-0.036027,-0.066214,-0.077119,0.047058,0.041341,-0.056520,-0.004329,0.010235,-0.031120,0.070609,-0.061700,-0.062025,-0.044152,0.051855,0.050154,0.042277,-0.016147,0.010438,0.033943,-0.026275,0.011513,0.056745,-0.080241,-0.005395,0.031497,0.070095,-0.018885,0.059651,0.024017,-0.015224,0.008905,0.074961,0.006299,0.014143,0.035056,-0.039368,0.040150,-0.057398,0.053091,-0.072998,-0.076554,0.065097,-0.053557,-0.031838,0.034058,0.076390,-0.072534,-0.062729,0.011992,0.044057,-0.008546,-0.062616,0.018513,-0.007302,0.025625,-0.038954,-0.020213,0.078183,-0.068459,-0.078706,-0.020196,0.029113,0.065749,0.066089,-0.038631,0.026708,-0.058847,-0.081094,0.052670,0.076347,-0.072265,0.066943,0.060489,-0.043452,-0.050059,0.013293,-0.059637,-0.040083,0.032975,0.043686,-0.078499,-0.057801,0.063884,0.022182,0.017229,-0.005227,0.065570,0.079443,-0.010319,-0.082948,-0.081402,0.052151,0.033227,0.074855,0.032738,0.090968,0.020115,0.056303,0.078077,-0.011695,0.050452,-0.076894,-0.030018,0.028454,-0.038111,0.001937,-0.040462,-0.002611,0.044103,0.075235,-0.043810,0.048277,-0.065122,-0.060737,-0.011962,0.034720,0.016009,-0.028685,0.031602,-0.076399,-0.025161,0.032677,0.059875,-0.073654,0.025307,0.007993,-0.079557,-0.037516,-0.017194,0.080645,0.032877,-0.050506,-0.078451,-0.079607,0.061650,-0.034234,0.004698,-0.060657,0.045423,-0.033511,-0.068932,-0.075959,-0.067718,-0.050916,-0.057802,0.006393,0.065866,0.041350,0.056461,0.015530,0.046874,-0.050647,-0.034190,0.022893,-0.029293,0.073396,-0.050916,-0.039101,-0.048101,0.014006,-0.040900,0.068665,0.047273,-0.037016,0.071350,0.026881,0.010983,-0.006357,0.048384,-0.025911,0.042393,0.062668,-0.022092,0.056892,-0.070348,0.003110,-0.022835,0.078019,-0.038017,-0.048809,0.011191,-0.073283,-0.017165,0.059322,0.031804,0.023017,0.050468,0.063291,0.066118,-0.078332,-0.004740,-0.056992,0.072660,-0.039561,-0.011716,0.061718,0.069612,0.081559,-0.026931,0.035704,-0.026645,-0.066831,0.016080,0.033556,0.072354,0.028024,-0.045626,-0.032774,0.023751,-0.001352,0.000709,-0.047351,0.007658,0.065836,-0.070321,-0.042831,0.006561,0.062439,-0.061832,-0.009614,0.066400,0.015719,0.015686,0.056768,0.058450,-0.078322,0.036194,0.045770,-0.079056,-0.073030,-0.000819,-0.023408,-0.057568,-0.067031,-0.072144,-0.067506,0.043285,-0.035479,-0.017988,-0.015257,0.045462,0.065013,0.019685,-0.029173,0.048557,0.031657,0.010289,-0.027174,0.011804,0.030748,0.045504,-0.004089,-0.035825,-0.021102,-0.029613,-0.059666,-0.017131,-0.075711,0.068395,-0.013895,-0.066449,-0.014716,0.044989,-0.041724,0.000545,0.055137,-0.026938,-0.038463,-0.062634,0.037366,0.028573,0.065121,0.020087,-0.034034,-0.046344,-0.013648,0.079915,0.046237,0.041470,0.009426,-0.005307,0.004682,-0.076955,0.041160,0.065872,-0.024276,0.063786,-0.033552,-0.017695,0.049889,0.034846,-0.001851,-0.047119,-0.002457,0.038717,0.035718,-0.029612,-0.070514,0.079548,-0.009953,0.049144,0.025829,-0.027125,-0.013061,0.074087,0.008823,0.055583,0.071710,-0.027233,0.014761,-0.001156,0.049752,-0.062850,0.004181,0.008620,-0.079270,0.062198,-0.009886,-0.030529,-0.037789,-0.042288,-0.077976,0.042652,-0.007115,0.001859,-0.000924,-0.053689,0.054540,0.010854,-0.056433,-0.037706,-0.022294,0.051688,0.017461,0.046937,0.043483,-0.056008,0.020227,0.032901,-0.000949,-0.047304,-0.050547,-0.033489,-0.027862,0.035927,0.057424,-0.024840,0.015832,-0.034754,0.026923,0.060335,0.005250,0.031239,0.020695,0.080427,-0.049193,-0.062521,-0.055554,-0.076946,0.030625,-0.029694,-0.032360,-0.073962,-0.060298,0.067393,0.055267,0.065477,-0.070907,-0.006798,0.016086,0.010437,0.028190,0.047832,0.059240,-0.081964,0.001466,0.034372,-0.024512,-0.064994,0.081911,-0.079881,0.077634,0.004868,0.033650,0.016036,0.003003,0.066749,0.035807,0.029742,0.072095,-0.015860,-0.082245,-0.042557,-0.007529,-0.060251,-0.057456,-0.034554,-0.077066,-0.046070,0.040940,0.021313,0.046659,-0.013161,-0.013148,0.023607,-0.012833,0.070611,-0.024313,0.044947,-0.076675,-0.024695,0.047358,-0.081334,0.062466,-0.001284,0.016995,-0.016823,-0.016827,-0.029490,-0.069374,-0.027024,0.036942,-0.069326,0.012711,-0.052879,-0.047285,0.037547,-0.005141,-0.042059,0.073769,-0.046493,0.061547,0.038135,0.022638,-0.033893,-0.020550,-0.072488,-0.045575,0.037429,0.054752,-0.039958,-0.069558,0.019818,-0.039000,0.075200,-0.063759,0.060287,-0.023916,0.001706,-0.051495,-0.010997,0.056974,0.067739,0.001969,-0.012607,-0.067432,0.036976,-0.057352,0.009718,0.077210,-0.065875,0.045517,0.056464,0.054552,-0.014137,-0.059721,-0.048290,-0.004333,-0.023004,0.071431,-0.031873,0.019330,-0.080419,0.070237,0.062622,0.077073,-0.075814,0.040617,-0.029135,0.008184,0.071414,0.042160,-0.017134,0.056861,-0.038163,0.052551,0.071721,0.081105,0.077491,-0.000853,0.076023,-0.070677,-0.037627,0.050195,0.066168,0.030528,0.072766,-0.064414,-0.056097,-0.032531,-0.075276,-0.005678,0.069092,-0.073403,-0.017733,0.049422,-0.078623,-0.011255,0.007747,-0.025465,0.079221,-0.003131,-0.065598,-0.020205,-0.028562,-0.021469,-0.049946,-0.039133,-0.022656,-0.054747,0.042307,-0.028926,-0.043132,-0.077613,-0.061023,-0.059256,0.035207,-0.070550,-0.041378,0.061403,-0.020788,-0.034362,-0.026567,-0.033989,-0.025472,0.037991,-0.066859,-0.021803,-0.055556,0.023180,0.035024,-0.058627,-0.062243,0.051719,0.003460,-0.008512,-0.052042,0.035806,0.034647,0.007594,0.063351,-0.005338,0.060960,-0.062073,-0.000658,0.082229,-0.039037,-0.047743,-0.070613,0.001877,-0.068633,-0.009109,0.049808,-0.012908,0.039195,-0.057957,-0.057209,0.054628,0.002533,-0.030473,-0.004484,-0.044736,-0.006808,0.015565,-0.075309,0.078944,-0.075239,-0.045060,0.032458,0.041700,0.044826,0.013516,-0.045930,0.023494,0.033735,0.035704,0.023432,0.076991,0.070253,0.035111,-0.003424,-0.080672,-0.056290,-0.035909,-0.011288,0.065197,-0.011573,0.013796,0.037532,0.073251,0.065615,-0.049244,-0.053777,-0.023485,0.048613,-0.046794,-0.026833,0.055666,-0.009561,-0.076668,0.015074,-0.047027,0.019141,0.051437,0.058760,-0.029416,0.004848,-0.000101,-0.034718,-0.007191,-0.047282,0.044150,-0.005571,-0.021280,-0.074051,0.065434,-0.038375,-0.003332,-0.003062,0.081449,-0.012373,-0.019739,-0.050087,0.016143,0.039068,0.080818,0.051641,-0.070057,0.054192,-0.040212,-0.064433,-0.013026,-0.004947,0.037000,-0.043882,-0.028479,-0.074708,0.043259,0.053712,-0.027134,-0.046224,-0.075862,-0.065275,0.030498,-0.014850,-0.057034,0.013639,0.029067,0.021927,-0.071715,0.028224,-0.072738,-0.009163,0.060429,0.025697,-0.052387,0.058955,-0.004954,-0.040152,0.030855,0.037126,-0.022293,-0.064463,-0.050113,-0.067585,-0.026053,0.003700,-0.060001,-0.065086,-0.024881,-0.004843,-0.029018,-0.018451,0.012174,-0.080813,0.048991,0.037432,0.015119,-0.004234,-0.022933,0.025696,-0.058303,-0.013379,-0.065759,-0.080166,-0.069975,-0.035854,0.061081,0.007363,0.006286,0.009643,-0.037803,0.066286,0.027472,-0.005624,0.080993,-0.080873,0.080368,-0.061301,-0.063667,-0.026805,0.016148,-0.010392,0.037036,-0.053970,-0.008913,0.003735,0.065755,-0.076086,0.081793,-0.039471,0.031902,-0.058802,0.029442,0.048436,-0.056676,0.041759,-0.069710,-0.077888,-0.033170,0.018868,0.014048,0.011319,0.002862,-0.040772,-0.076597,0.001562,-0.039353,-0.078522,0.022553,-0.020728,-0.023035,-0.043591,0.051172,-0.068291,-0.015268,-0.040033,0.017736,-0.031806,-0.033826,0.017236,0.011016,0.080368,0.040726,-0.041835,0.046511,0.066342,0.082217,0.059093,0.070746,-0.033245,-0.004331,0.002502,0.060459,0.080820,0.044014,0.066057,0.000084,-0.077893,0.069855,-0.059638,-0.016069,-0.035510,-0.020941,-0.047182,-0.021495,0.045862,-0.004962,0.078529,-0.068004,0.043540,0.013492,0.025329,0.041583,-0.028093,0.065756,0.005840,-0.044074,0.065609,-0.017263,-0.055578,-0.049850,0.060616,0.029210,-0.071802,0.059314,-0.008800,0.076559,-0.023058,-0.004431,0.064104,-0.000408,0.061856,-0.053691,0.060926,-0.067538,0.007076,0.024720,0.009743,0.003321,0.039079,-0.028994,-0.065458,-0.018024,-0.069683,-0.011228,-0.034558,0.018477,0.027016,-0.051207,-0.081191,0.053706,-0.018666,0.061729,0.000582,-0.007422,0.038542,0.073815,-0.013975,-0.066812,-0.012838,-0.032513,0.015099,-0.033293,-0.003589,-0.006315,-0.018652,-0.078782,-0.063904,0.073147,0.007073,0.057366,-0.037885,0.023690,-0.043195,-0.025474,-0.069771,0.004833,0.075611,0.039432,0.035898,0.076595,0.010840,-0.065082,0.055539,-0.070829,0.008925,0.012255,-0.079341,0.077238,0.027745,-0.009826,-0.036475,-0.039427,0.039188,0.041453,0.036484,-0.061748,0.045026,0.054901,-0.070638,-0.030005,0.030079,-0.026226,0.075576,0.069421,0.024892,-0.076356,-0.008052,0.023938,0.045148,-0.054422,0.018275,-0.026266,-0.037224,-0.008022,-0.014833,0.053976,-0.078089,-0.012148,0.048917,0.031981,0.060636,-0.070606,0.074756,0.018026,0.052861,0.028945,0.038187,0.015859,0.001571,0.049724,0.067745,-0.049903,-0.058834,0.060788,-0.063599,0.054269,0.066734,0.010676,-0.004023,0.029619,0.038547,-0.068058,-0.078980,-0.080986,0.006195,-0.011615,0.055308,0.010439,0.058853,0.021951,-0.034967,0.037173,0.033405,-0.047542,-0.027494,0.004511,0.063626,-0.071726,-0.061929,-0.016895,0.060309,-0.076482,0.014671,-0.080803,0.066814,0.033390,0.055967,0.051217,-0.038842,-0.029740,-0.001301,-0.081998,-0.016365,0.009898,-0.080700,0.072156,0.072687,0.056928,0.000351,0.049332,-0.003428,0.042356,0.013272,-0.052100,0.077496,0.059128,0.034710,0.058990,0.069696,0.055068,-0.040308,0.047756,0.060848,0.056724,0.049199,0.045317,0.007624,0.022748,0.014356,0.051773,0.074296,-0.069289,0.052178,-0.024365,0.004777,0.053782,-0.034456,0.005632,0.028564,0.048493,-0.026847,-0.057529,0.008507,0.059148,-0.027081,0.003580,0.035459,-0.074199,-0.019539,0.023261,0.062718,0.024029,-0.011526,0.042780,-0.002963,-0.044499,0.004640,-0.077856,0.060477,-0.063478,0.056690,0.052482,-0.050477,0.026972,-0.054236,0.046704,-0.001642,-0.006171,-0.030230,-0.055450,-0.040133,0.024195,-0.030494,0.050667,0.000979,0.024965,-0.027820,-0.045608,0.032281,0.034667,0.062115,0.012671,-0.023157,-0.032819,-0.028185,0.054366,0.004786,0.058469,0.059260,-0.017936,0.081878,0.033728,-0.047422,-0.055619,-0.021601,-0.019211,0.072571,0.058907,0.057290,-0.041261,-0.078742,-0.065603,0.066916,-0.024920,0.067565,-0.013486,0.080329,-0.043036,0.022747,0.030227,0.074031,0.000516,-0.033410,-0.033238,0.049429,0.014900,-0.060856,-0.028556,-0.008856,0.080283,0.039354,-0.013876,0.032004,0.071086,0.012797,-0.071949,-0.029975,0.003976,0.069355,-0.053121,0.047107,0.072925,-0.038752,0.032160,-0.037896,-0.053541,-0.063951,-0.038503,-0.014539,0.041339,0.074143,-0.022866,-0.040188,-0.047549,0.026148,-0.073108,0.049431,0.045602,-0.019313,-0.041661,0.045278,-0.065298,0.026605,-0.003741,-0.076576,-0.042831,0.005555,-0.024665,0.043418,-0.007580,0.002194,0.008014,-0.017130,0.045755,-0.041959,0.028973,0.074282,-0.023506,0.072853,-0.022490,-0.064335,0.064457,0.036928,-0.022402,-0.065451,-0.019147,-0.013144,0.066611,-0.054404,0.049782,-0.057231,0.073345,0.067433,0.051178,-0.014066,0.072344,-0.073554,0.073534,-0.034627,0.051859,-0.015111,0.049897,-0.022152,0.048957,0.013435,0.018285,-0.002153,0.005334,0.075208,-0.014226,0.065317,-0.069826,-0.031975,0.020830,-0.010190,-0.014881,-0.081461,0.059194,-0.030920,-0.053643,0.026645,-0.005993,-0.059374,0.011012,-0.037061,0.005622,0.000948,-0.028498,-0.003141,0.048738,-0.058631,0.063865,0.017585,0.001053,0.029203,-0.052331,-0.054544,-0.057127,0.034590,-0.036332,0.011831,0.018318,-0.055592,0.061520,-0.077785,0.024411,-0.035408,-0.043292,-0.006799,0.015334,-0.014598,-0.057182,-0.072046,0.004522,0.032535,-0.029251,-0.073527,-0.094292,0.026196,0.009075,0.081180,0.038468,-0.012380,0.044151,-0.030801,-0.065011,0.049106,-0.011330,-0.040544,0.003675,0.003583,0.051362,-0.070278,0.024327,0.031994,-0.028652,-0.035283,0.079612,0.009435,0.041310,0.012684,0.078015,0.060868,0.022767,-0.000669,0.009519,0.077403,0.011467,0.041052,0.021357,-0.061075,0.040618,-0.013150,-0.000439,-0.025605,0.041189,0.016903,-0.062849,-0.053223,0.059167,0.021621,0.032033,0.033131,0.034350,-0.019836,-0.015606,-0.022295,0.027201,-0.070567,0.029738,-0.013123,0.075081,0.006748,-0.027897,0.018761,-0.071228,0.059471,0.011821,0.020902,0.018540,-0.050404,0.037624,0.024493,0.021977,-0.042878,0.034169,-0.021685,0.060348,0.054440,0.008546,0.042984,-0.007063,-0.036923,-0.006684,-0.059134,0.023298,0.111750,-0.054180,-0.036420,0.052142,0.045437,0.035620,-0.049381,-0.028128,-0.006521,0.076290,-0.017446,0.060006,-0.023075,-0.083468,-0.000608,0.016348,0.038886,0.052486,-0.047698,0.069773,0.000608,-0.091892,0.055270,-0.014213,-0.060915,0.017546,0.052875,0.029635,-0.075690,0.086068,0.088426,0.069212,-0.060822,-0.028397,-0.056433,0.063564,0.067480,-0.027419,-0.044917,0.079461,-0.054697,0.023443,0.070425,0.007133,0.025353,-0.027713,-0.068544,-0.021138,-0.060027,-0.038604,-0.029163,0.031991,0.048309,-0.055414,-0.071222,0.073922,0.030143,0.034157,-0.034379,0.052683,0.041087,-0.034745,0.037503,0.074035,0.035204,0.064095,0.062389,0.012305,-0.037659,-0.058425,0.079602,-0.016822,-0.027527,0.008760,0.078941,-0.018745,0.013731,-0.045788,0.035942,0.059212,-0.021946,-0.064653,-0.009164,-0.053161,-0.040595,0.014081,0.122355,-0.076434,-0.009856,-0.015028,0.052489,-0.036260,0.034148,0.010618,-0.022826,-0.024890,0.000515,-0.053270,0.056462,0.041107,0.016947,-0.016665,-0.063492,0.022003,0.042450,-0.060670,-0.006815,-0.005616,-0.108406,-0.015725,-0.031371,0.004191,-0.029649,0.050889,0.048893,0.024812,-0.015745,0.049463,0.016686,0.046874,-0.047343,-0.125224,-0.058667,0.096195,0.124733,0.002920,-0.036624,0.084781,0.014672,-0.030279,-0.052101,0.066374,0.000058,-0.012244,0.066557,-0.042526,-0.035155,-0.004414,0.041833,0.011802,0.027639,-0.068838,-0.021821,0.080225,0.074331,0.060019,0.004481,-0.034093,0.027178,-0.070657,-0.066207,0.050484,-0.009053,-0.042797,0.046673,-0.003717,0.026751,-0.082501,0.062887,-0.048979,-0.044040,-0.076962,-0.055139,0.077923,0.029454,-0.058386,-0.055983,0.037271,0.018796,0.077717,0.019675,-0.049444,-0.163890,-0.025256,-0.047263,0.059432,-0.062392,0.065892,-0.068084,0.071030,0.069263,-0.037761,0.042672,-0.015117,0.001595,0.054574,0.235118,-0.047663,-0.081732,0.048540,-0.010775,-0.018299,0.050753,0.017775,-0.022592,-0.054218,0.050045,-0.007660,0.056210,-0.021132,0.020927,-0.058435,0.009878,0.039522,0.002234,0.056480,-0.034702,0.044593,0.060422,0.046611,0.030062,-0.020075,0.031909,0.008661,0.083044,-0.036801,-0.025464,0.055190,-0.011327,-0.033031,0.009188,0.019959,0.043320,0.018998,0.065727,-0.031221,0.022580,0.054812,0.003024,0.006158,0.009344,0.069357,0.014555,-0.046818,-0.034464,-0.046927,0.041104,0.030402,0.065847,0.002732,-0.068545,0.018391,-0.072523,0.047031,-0.059325,0.078695,0.073641,-0.007779,0.045242,-0.037657,0.045644,-0.040191,-0.070726,0.008023,0.008490,0.003181,0.022504,-0.031283,0.027780,-0.068560,0.025016,-0.057023,-0.070542,0.040884,0.025465,-0.013403,0.038187,-0.045732,-0.072855,0.030030,0.152496,-0.075763,-0.107815,0.040455,0.069064,-0.032886,0.017352,0.087787,0.014831,0.005770,-0.041828,0.008530,0.064072,-0.034819,-0.066307,0.064571,0.204123,0.042058,-0.030063,-0.006616,0.052598,-0.026739,0.025274,0.062009,0.101088,0.052870,-0.019568,0.027754,-0.060403,-0.019978,0.035697,0.061695,-0.012557,0.096215,0.023909,-0.016273,0.060506,-0.028581,0.031962,0.104392,0.056327,-0.018138,-0.053964,0.046126,0.059465,-0.022398,0.019242,0.020864,0.096098,0.047751,-0.102181,-0.027860,-0.036536,0.087311,0.082815,0.052560,0.047979,0.206493,0.069678,0.080966,-0.001332,-0.042101,0.033813,0.060549,0.053615,-0.025246,-0.090970,0.049630,0.013102,-0.018611,-0.022957,0.011050,0.094612,0.005528,-0.042048,0.017993,0.036048,0.063293,-0.061898,0.025841,0.045073,-0.051020,-0.017040,-0.070148,0.005801,-0.063955,-0.011556,-0.018367,-0.078337,-0.038128,-0.050069,-0.042217,0.020567,-0.021701,0.099892,-0.008621,0.020296,-0.024550,-0.058236,-0.025296,0.177804,-0.013525,-0.068115,-0.005303,-0.068719,-0.076301,-0.095300,0.088102,0.034272,-0.012986,0.012210,0.037968,-0.001701,0.058360,0.048864,0.003056,0.327768,-0.049314,-0.062957,-0.096125,-0.023147,0.032019,-0.028927,0.079239,-0.034564,0.007942,-0.000040,0.021408,0.047764,0.018720,0.116365,0.008550,-0.075453,0.137701,-0.059687,-0.057202,0.050993,-0.040018,0.080118,0.082388,0.004216,-0.008391,-0.008697,-0.071004,0.001518,-0.010022,0.008076,-0.034721,-0.003678,0.008069,-0.070702,-0.062272,-0.015908,0.051971,0.083563,0.033420,-0.018908,0.166913,-0.064064,0.086800,0.072142,-0.086964,-0.011412,0.074733,0.041004,-0.023503,0.055709,0.029730,0.041120,0.058680,-0.028373,-0.025434,0.127465,0.046432,-0.019810,0.001545,0.069649,0.059478,0.031698,-0.038186,0.000173,0.067801,-0.103167,0.072198,-0.034903,0.043445,-0.033448,0.010011,0.065727,-0.009476,-0.018685,0.015660,0.002534,-0.049735,0.133125,-0.041649,0.016986,0.009287,0.052303,-0.017090,0.104072,-0.056712,-0.154741,0.043024,0.078252,0.062682,-0.097544,0.107205,0.013701,0.064310,-0.038144,-0.030272,0.034564,-0.058838,-0.049171,-0.006211,0.338676,0.015910,-0.089290,0.039409,-0.077057,0.013609,0.000619,0.000556,0.092917,-0.029950,0.054407,-0.035741,0.011702,0.020700,0.069105,0.086234,0.029312,0.065979,0.013891,0.033959,-0.050999,0.039009,0.046607,0.099552,0.005941,0.056088,-0.053495,-0.037529,0.056341,0.012466,0.027746,0.044583,0.091606,0.022561,0.026112,-0.035459,-0.037072,-0.028595,-0.030839,0.110458,0.066497,0.231669,-0.027145,0.073916,0.048965,0.058453,0.051701,0.029807,-0.069680,-0.010825,-0.065878,-0.011032,-0.027112,0.023435,-0.044399,0.035383,0.146778,-0.009633,0.117986,-0.053175,0.037108,0.014025,0.070257,0.025906,-0.055395,0.039935,-0.017370,-0.000332,-0.014194,-0.076385,-0.002363,-0.105931,-0.061888,0.035708,0.017776,0.065003,0.011383,0.098500,0.073350,0.034287,-0.052682,0.008169,-0.085318,-0.022390,0.105214,-0.030789,-0.163801,-0.022267,0.035067,0.044841,0.009650,0.049492,-0.055996,-0.024123,-0.071167,0.027474,-0.077800,0.022761,-0.069792,0.080782,0.358737,-0.000659,0.049451,0.045351,-0.033007,0.033136,0.026092,0.060812,0.059901,-0.041088,0.007039,0.025362,0.007781,0.002939,0.122687,0.036257,0.017295,0.152111,-0.078113,-0.024714,0.022078,0.032172,0.131840,0.138942,-0.042550,0.086759,0.016234,-0.036018,-0.022889,0.030281,-0.051660,0.072172,-0.045521,-0.072505,0.059474,0.015050,0.044720,0.034100,-0.121102,-0.013401,0.121650,0.232344,0.056635,-0.027725,0.071817,0.036231,0.040304,0.085281,-0.009125,0.078239,0.081209,-0.043161,0.060295,0.012504,-0.069169,0.056486,0.128963,0.032556,0.003381,0.021780,-0.042665,-0.031979,0.012185,-0.023027,-0.060258,-0.021431,-0.001812,0.084225,0.053893,0.010996,-0.080254,-0.059036,-0.059782,-0.076655,-0.074985,-0.049231,0.042115,0.027316,0.236232,-0.046534,-0.055587,0.042680,-0.026087,0.050488,0.119175,-0.007899,-0.061391,0.054297,0.085298,-0.012424,-0.056836,0.060195,0.012694,-0.018868,-0.015898,0.082759,-0.083810,-0.028834,0.069091,0.106697,0.304418,-0.058308,-0.053399,-0.051432,-0.050886,0.031994,-0.027314,0.121717,0.158171,-0.020198,-0.053561,-0.055009,0.062775,-0.010923,0.094526,-0.044442,0.019061,0.019588,0.018564,0.043399,0.042592,0.044343,0.143817,0.005152,-0.012544,0.077193,-0.008439,-0.004925,0.070764,0.030743,-0.031592,0.088628,0.015348,0.016830,-0.053668,0.062198,-0.042934,0.028549,-0.044885,-0.011364,0.101764,0.214666,-0.046792,0.031639,0.045317,-0.066006,0.018317,0.062628,-0.025969,0.019357,-0.030558,-0.016443,0.002982,-0.048228,-0.004712,-0.002480,0.226999,0.070009,0.104430,0.024501,-0.063292,-0.037839,-0.002311,0.000002,-0.005967,-0.032246,-0.093961,0.051782,-0.021638,-0.037396,0.031156,0.026433,0.050024,-0.028161,-0.121927,0.047684,-0.012913,0.120908,0.268271,0.027632,-0.069492,0.009490,0.041997,-0.049388,0.205972,-0.044702,0.057468,0.075033,0.058576,-0.058493,-0.041826,0.032844,-0.042286,-0.046039,-0.008926,0.083674,-0.074353,0.031022,0.039696,-0.023554,0.220963,0.042710,0.022989,0.069248,-0.074786,0.056801,0.021297,0.090095,0.068078,0.091268,-0.061650,0.040806,-0.018676,0.041000,0.105938,-0.060689,0.044285,0.010166,-0.020351,0.062137,0.006291,-0.002192,0.103701,0.141082,0.073779,0.075365,0.050551,0.080140,-0.034839,0.085636,-0.061868,-0.011072,0.006062,0.060943,-0.035310,0.002293,0.036024,0.109480,-0.146149,-0.014968,0.123497,0.218530,-0.080519,-0.006861,-0.029173,0.050690,-0.040194,0.019992,-0.089605,0.092078,0.090305,0.086732,-0.004576,0.075006,-0.009935,-0.058330,0.165233,-0.038398,0.011702,0.040433,0.033156,-0.030742,-0.079341,0.062934,0.064245,0.034420,-0.079079,0.019091,0.094230,0.022317,-0.000968,-0.051479,-0.039018,-0.066817,-0.044896,0.021362,0.065251,0.076106,0.381443,0.056281,-0.023000,0.062045,0.001337,0.010875,0.304826,0.040943,0.061073,0.040241,-0.096314,0.002688,0.098112,0.164354,0.015526,0.019788,-0.043845,0.041883,-0.046581,0.048477,-0.024633,0.028490,0.260459,-0.055456,0.011687,0.020880,-0.018706,-0.084086,-0.017581,0.061147,0.119991,-0.007490,0.096047,0.078083,0.079042,-0.010492,0.088402,0.048926,-0.060341,0.141741,0.079972,-0.037263,0.025246,0.069220,0.118497,0.142387,0.052516,0.043449,-0.073118,-0.081725,-0.022156,0.085098,0.016430,0.072380,0.117307,-0.061071,0.021217,0.072983,-0.045374,-0.042003,-0.196826,0.059561,0.053212,0.119835,0.060844,-0.023708,-0.015300,-0.031578,0.069307,0.088172,-0.056454,0.096805,0.074667,0.120047,0.108972,0.052161,-0.036200,0.023059,0.135356,-0.019227,0.061125,0.061335,0.031551,-0.032028,0.031843,-0.036376,-0.028329,0.016387,-0.060316,0.016918,0.126662,-0.054690,-0.066987,0.004971,-0.058280,-0.022500,0.052969,0.007102,0.021505,0.106335,0.210358,0.054395,0.038225,-0.054682,0.047239,0.009810,0.408863,-0.055877,-0.154119,0.072938,-0.017137,0.008593,-0.054554,0.013279,0.023671,0.032566,-0.117434,-0.029574,-0.024544,0.001988,0.057721,0.045195,0.353087,-0.041526,-0.061335,0.071889,0.016674,-0.082161,0.012538,0.107045,0.195306,0.098602,0.084704,0.009512,0.067070,0.031787,-0.024497,0.064252,0.019528,0.008298,-0.051113,-0.077454,0.045016,-0.032500,0.060269,0.188213,-0.054008,-0.007942,0.054875,-0.027776,-0.000746,0.119227,-0.073811,0.021999,0.153704,-0.034292,0.025931,0.049342,-0.026100,-0.046014,-0.012953,-0.050843,0.030977,0.138542,0.070419,0.069161,-0.059239,0.056042,0.032108,0.091449,0.020908,0.103746,0.066835,0.079871,0.012511,0.059875,-0.040445,-0.021690,0.103480,-0.065365,0.069309,-0.073923,0.039570,0.055634,0.010543,0.029843,0.059310,-0.029662,-0.082501,-0.036951,0.024797,0.019851,0.072797,-0.013421,-0.066969,-0.032935,-0.025257,-0.030484,-0.064443,-0.022835,0.172234,0.060117,0.066705,0.086751,0.031351,-0.068198,0.396206,0.086775,-0.124253,0.026460,0.069464,-0.090608,-0.090091,0.048554,0.009010,0.012928,-0.107933,0.038183,0.024897,-0.023780,0.081642,-0.030261,0.134619,-0.010558,-0.027480,-0.041626,0.038423,0.028474,-0.004259,0.203422,0.143464,0.043245,0.047924,0.008152,0.019843,-0.034934,0.088487,0.012679,-0.082601,0.119282,0.011466,0.073355,0.071438,-0.009140,0.149932,0.194996,-0.074638,0.045944,-0.028774,0.041180,-0.108059,0.031221,0.063736,-0.053267,0.127870,-0.033320,-0.024591,0.066084,0.077065,0.045200,-0.026145,0.034625,0.026688,0.189480,-0.026318,-0.096941,-0.057328,0.050329,-0.006808,-0.015833,-0.012734,0.134528,-0.071543,0.082270,0.037812,0.029196,-0.031023,0.000235,0.123484,0.019528,-0.097821,0.008864,0.068292,-0.052747,0.015997,0.028245,-0.054407,0.131269,-0.085004,-0.043165,0.037110,-0.027270,0.214690,-0.052175,-0.064824,-0.041037,-0.070399,-0.024836,0.088015,0.082077,0.334782,0.022394,0.028808,0.031659,-0.010746,-0.063492,0.244244,0.045083,-0.179485,0.080898,-0.030285,0.026170,-0.067757,-0.015038,0.024206,0.072499,0.028472,-0.058836,0.042310,0.056156,-0.012197,0.019040,0.076206,-0.026158,0.017416,-0.029814,0.017347,0.064312,0.001802,0.076917,0.069965,-0.080120,-0.041652,-0.043409,0.032776,0.007425,0.034642,0.100621,-0.073612,0.057658,0.042597,-0.025597,0.005128,0.069065,0.104287,-0.009008,0.044210,-0.027998,-0.009370,0.014298,-0.032496,0.094186,-0.061270,-0.046644,-0.043588,0.049080,-0.002724,0.127196,0.032644,0.077240,-0.038104,-0.030509,-0.038008,0.044856,0.058158,0.010429,0.035239,0.043869,0.022918,0.091824,-0.019062,-0.021285,-0.073333,0.013252,0.015901,0.025036,-0.000175,-0.063129,0.154148,0.063858,-0.097671,0.077801,0.035388,0.051453,-0.067641,0.050581,0.011207,0.038571,-0.020028,-0.056128,-0.050748,0.034483,0.229983,0.010163,0.035405,0.086728,0.003074,-0.000718,0.043439,0.076985,0.329505,-0.014415,-0.049234,-0.000378,0.020802,0.005314,0.159736,-0.030592,-0.170852,0.021178,0.085943,-0.056165,0.038556,0.005957,0.062873,-0.048766,0.033287,0.002375,0.014885,0.069093,0.039601,-0.081295,0.013677,-0.061387,-0.002346,-0.017466,-0.038488,0.037981,0.009148,0.099281,0.043827,0.040590,-0.003941,0.035486,-0.029086,-0.068684,0.014614,-0.004721,-0.070272,0.052426,-0.019677,-0.069570,-0.080055,-0.034703,0.116892,0.061585,-0.029751,-0.036066,-0.002807,0.070524,0.047701,-0.029698,0.083251,0.020496,-0.025951,0.005731,0.025982,0.048805,-0.035716,-0.026664,0.006236,0.060892,-0.159248,0.073595,0.012785,0.007258,0.065092,0.036012,0.058112,-0.029241,-0.015808,-0.034734,-0.074602,0.025585,-0.021247,0.059390,0.002052,0.065417,-0.006671,0.073352,-0.018452,-0.030451,-0.060311,0.044498,0.059951,-0.014605,-0.024020,0.027190,0.062119,0.011991,0.041486,-0.002780,0.122701,-0.076478,-0.043202,0.075820,0.033470,-0.052327,0.021515,-0.003195,0.248600,-0.053487,0.027497,-0.026814,0.030840,-0.044250,0.163556,-0.025106,-0.220179,-0.046362,-0.046563,0.056998,-0.021016,-0.051859,0.010170,0.014466,0.052150,0.083463,-0.064661,0.014621,0.017465,0.051613,0.104840,0.072038,-0.087025,-0.032154,0.084712,0.005039,-0.026521,0.022617,0.141568,-0.006841,0.044130,0.009150,0.059789,-0.004558,0.070987,-0.071626,0.015739,0.057938,-0.031150,0.047940,0.039005,0.061473,0.000620,-0.026624,-0.022878,0.042508,-0.020883,-0.007964,0.011036,0.084087,-0.009664,-0.026133,0.080964,-0.006496,0.010100,0.056426,0.081207,0.065594,-0.016742,0.069562,-0.054442,-0.060062,-0.021817,-0.028138,0.003073,-0.048168,-0.038495,-0.024865,-0.084342,0.027362,0.069072,0.042241,-0.004499,-0.080602,-0.055047,0.055403,0.067669,0.001885,-0.060198,-0.058361,-0.003763,0.032515,-0.012067,-0.024728,-0.058334,0.091032,-0.052178,-0.064509,-0.004576,0.016522,-0.002694,-0.052610,0.029168,-0.001645,0.002844,-0.044560,0.023306,0.077551,0.189328,0.039133,-0.019286,-0.023628,0.002074,0.060833,0.065704,0.059073,-0.289319,-0.081841,-0.051475,0.069132,-0.066691,0.020490,0.013294,0.036864,-0.063385,0.049605,0.021119,-0.046158,0.072134,-0.040377,0.080248,0.067754,0.019612,0.009815,-0.000752,-0.058442,0.030236,-0.074148,0.056279,-0.075387,0.052130,-0.037722,-0.013975,-0.031767,-0.054114,0.045033,0.068272,0.047203,0.064166,-0.063987,0.035554,-0.071139,0.069012,-0.026156,0.041639,0.047035,-0.059617,-0.020172,0.085316,-0.073280,0.051598,0.049350,0.091996,-0.007005,-0.044007,-0.066478,0.015346,0.078354,-0.004235,-0.000596,-0.113781,-0.020771,0.054942,-0.018096,0.006417,0.059775,-0.052191,-0.000905,0.016249,-0.063344,0.006224,-0.015380,-0.059943,-0.029903,0.034219,0.063824,-0.057462,0.056679,-0.053441,-0.069006,0.066805,-0.070482,0.054426,0.059211,0.001252,-0.049386,-0.037010,-0.071084,-0.110468,0.052224,0.082204,-0.070115,-0.080195,-0.022973,0.004510,0.012272,-0.050335,0.057027,0.060490,0.056440,0.045260,0.021261,-0.044213,0.068334,0.095571,0.074262,-0.237616,-0.126049,0.042333,-0.080638,-0.088376,0.022798,-0.076261,0.070612,0.025886,0.012946,0.079796,0.055262,0.028294,-0.093714,0.046999,-0.044183,-0.063203,0.021329,0.007611,0.027945,-0.053575,0.040307,-0.013187,-0.046812,0.022973,-0.057365,0.053652,0.054421,-0.075249,0.043071,0.035951,0.054112,0.043185,-0.005345,0.055285,0.050896,-0.063013,0.068478,0.034350,0.027286,-0.002920,0.033753,-0.000704,-0.058538,0.040574,-0.063446,-0.018107,0.061249,0.032685,0.057579,0.005621,0.066718,0.042402,0.068991,-0.086867,0.006992,-0.064812,0.057628,-0.047099,-0.063627,0.031542,0.066537,0.070429,-0.000694,-0.017845,0.051439,-0.034298,0.001959,0.029003,0.079091,-0.059768,-0.056543,0.019441,0.028844,-0.033223,-0.012210,0.044102,0.028363,-0.034605,0.002183,0.022030,0.052362,-0.025529,-0.008067,0.074523,0.000879,0.045995,0.051747,-0.010268,0.082282,0.067681,-0.053261,0.124279,0.055954,0.016077,-0.027094,0.018994,0.061443,0.060821,-0.040591,-0.081839,-0.107625,-0.007398,0.002769,0.020408,0.040470,0.069364,-0.007931,-0.006862,-0.045047,0.071535,-0.072695,-0.073965,-0.037109,0.011446,0.046328,0.055751,-0.045669,0.012212,-0.033617,-0.044236,-0.003536,0.032982,-0.055739,-0.024765,-0.075895,-0.001564,0.075163,0.068036,-0.027630,-0.043390,0.041386,-0.027140,0.028676,-0.038965,-0.079059,-0.019427,-0.049776,-0.005328,0.053338,-0.012275,-0.014772,0.065515,-0.005311,0.039697,-0.025174,-0.039735,0.013264,0.011926,0.059882,0.062006,0.051900,-0.023996,-0.029674,0.074226,0.035085,-0.024948,-0.009784,0.025405,-0.039224,0.049325,0.063155,-0.080768,-0.057043,0.010993,-0.035541,-0.056134,0.078081,-0.004656,0.021720,0.006497,0.064913,-0.075795,0.031383,-0.021877,0.045631,-0.076980,0.020572,-0.022997,0.016832,-0.005548,-0.043160,0.001021,0.055633,0.010735,-0.014506,0.003472,0.067595,0.060617,-0.052979,-0.054569,0.028679,-0.065623,-0.053402,0.053766,0.022216,-0.009342,0.081169,0.022332,0.064864,0.013280,-0.016686,0.052132,0.026612,-0.070673,-0.053110,-0.010867,-0.060674,0.049961,0.049583,0.040582,-0.037135,-0.075983,-0.052423,-0.057948,0.015360,0.015249,0.018275,0.000743,-0.004237,0.048487,0.026518,-0.025397,0.059738,0.056923,0.079920,-0.000584,-0.033976,0.078883,-0.065047,-0.047386,0.016295,0.001796,-0.078208,-0.039591,0.018794,-0.049734,0.032044,0.040459,-0.080762,-0.000095,-0.000491,-0.033657,0.005773,0.029021,-0.018972,-0.060901,-0.037999,-0.081994,0.024129,0.040431,0.048848,-0.032548,0.066766,0.027154,-0.060320,0.063443,-0.056621,-0.009697,0.060281,-0.038913,0.024057,-0.005569,0.046390,0.029729,0.036784,-0.019391,0.063145,-0.012655,-0.059422,0.038550,0.069474,0.022027,-0.052703,-0.006559,-0.031331,0.010471,0.014917,0.013213,0.009317,-0.045871,-0.028560,-0.016219,0.003826,-0.048661,-0.077778,0.028159,-0.062589,-0.052561,-0.063736,0.079882,-0.008946,0.036743,-0.008220,-0.044786,-0.009144,-0.053666,0.019926,-0.028077,0.014386,0.071967,-0.042305,0.003325,-0.017354,-0.017227,0.078290,0.033578,0.076521,0.010671,-0.035473,0.005253,0.047861,0.018100,0.065323,-0.027470,0.055972,0.069810,0.079425,0.075517,-0.064358,-0.066224,0.073193,0.031682,0.059835,-0.017319,0.046994,-0.031593,0.011374,-0.015367,0.022424,-0.054913,-0.054818,0.058988,0.030580,0.010015,-0.039441,0.027183,-0.038703,-0.045132,-0.043700,0.008102,0.042412,-0.078161,-0.056034,0.025453,-0.026553,0.082249,0.012913,-0.029089,0.075581,0.030849,-0.013064,0.066483,-0.041944,-0.035522,-0.033129,-0.077242,0.015177,0.060537,-0.010316,-0.044691,-0.076668,0.017158,-0.067995,0.036204,-0.055119,-0.025143,-0.018905,-0.011530,0.012018,0.019687,0.078864,-0.027863,0.023818,-0.059461,0.079883,0.079557,-0.059504,0.010504,-0.031824,-0.066215,-0.040939,0.037404,-0.082025,-0.000591,-0.080410,-0.032862,0.004459,0.017060,-0.054617,0.076435,0.054661,-0.048993,0.011301,0.068959,0.069504,0.038474,-0.038476,-0.031694,-0.055347,0.055833,0.070285,-0.058775,-0.054321,0.011811,-0.035944,-0.056731,0.009076,-0.013156,0.036065,0.059544,0.002921,0.077418,0.014656,0.003188,-0.005465,0.016538,0.052619,0.081286,-0.048694,0.080294,0.075429,-0.076325,-0.050991,0.004438,0.074926,-0.063779,-0.039380,-0.045843,-0.013181,-0.012435,-0.072302,-0.025188,0.011082,-0.044331,0.068915,0.057430,-0.018770,-0.004302,-0.038019,-0.064997,-0.027050,0.047194,-0.069871,0.069898,-0.031910,0.006956,0.004144,-0.061583,0.005950,0.037742,-0.063581,-0.000913,0.043708,-0.032280,-0.078767,0.036342,-0.013767,-0.035855,0.072791,0.055345,0.034003,-0.081803,-0.052136,-0.037208,-0.043842,-0.065513,-0.062070,0.019681,0.012478,-0.017797,0.036976,0.067720,-0.052895,0.049397,0.055326,-0.002512,-0.025939,-0.022822,0.018197,0.062302,-0.067373,0.036908,-0.020903,0.058628,-0.077664,-0.017378,0.012677,-0.009138,0.029059,0.003176,-0.036086,-0.019230,0.003665,-0.005929,0.025854,0.042115,0.010850,0.046077,-0.020497,-0.058965,-0.054012,-0.065813,-0.073537,-0.024615,0.065877,0.064081,0.055165,-0.042355,-0.041033,-0.008930,-0.062345,-0.026114,-0.054315,-0.000956,-0.049779,-0.049687,0.063958,0.045191,0.023467,0.010726,-0.033926,0.069673,0.073788,0.052032,-0.018548,0.017350,0.011854,0.074594,-0.018866,0.073650,-0.066663,0.009414,-0.074455,-0.057907,0.067092,0.073714,-0.076118,0.039965,-0.050933,-0.034859,-0.051257,-0.030986,0.021319,-0.023280,0.050351,0.053833,0.009325,0.032017,0.016731,-0.049500,-0.039550,0.065098,-0.062119,-0.048054,0.034837,0.001625,0.051588,-0.035601,-0.006073,-0.049570,-0.044243,0.009556,0.042137,-0.036405,0.033941,0.026936,-0.044983,0.040115,-0.015391,-0.013624,-0.077037,0.015644,0.037683,0.026575,0.074656,0.005741,-0.001885,0.001689,-0.044534,-0.067446,0.034481,-0.001791,0.079944,0.054655,0.032447,0.032489,-0.026013,0.001743,0.079180,0.050206,0.034465,-0.047355,-0.022530,-0.005690,-0.001468,-0.070882,-0.061046,0.035841,0.051525,0.005855,-0.060075,0.056781,-0.060793,0.059900,0.001063,-0.068429,-0.016651,0.081470,0.015552,0.021107,-0.068268,-0.032259,-0.062977,-0.070616,-0.059896,0.051763,0.044165,-0.003617,-0.028787,0.041053,-0.035703,-0.076614,0.075991,0.024059,-0.000012,-0.007769,0.035470,0.021234,-0.054220,0.004703,-0.055203,-0.032003,-0.020809,-0.033703,-0.054396,0.062547,-0.019840,0.011245,0.061725,0.078004,-0.049940,0.075750,-0.036547,-0.030625,-0.077159,-0.014151,-0.061155,0.049298,0.064524,-0.007649,0.008060,-0.053471,-0.001971,0.001758,0.052880,0.080310,0.076281,0.006058,0.019252,-0.060231,-0.071532,0.046342,-0.009942,-0.010048,-0.069654,0.017954,-0.029793,-0.007202,-0.053093,-0.050360,-0.011490,-0.020741,-0.056903,0.034255,0.030926,-0.051770,-0.062188,0.052064,0.079821,-0.079956,-0.037878,0.005588,-0.051134,0.042444,-0.074946,-0.080546,0.040461,-0.080956,0.007803,-0.022579,-0.058895,0.018564,-0.058530,0.013455,-0.073777,-0.045891,-0.050883,-0.021278,0.029199,-0.021683,0.010654,-0.064583,0.039868,0.036043,0.051964,-0.011499,0.066565,0.072068,-0.041727,0.064094,0.074405,0.002688,-0.012610,-0.059022,-0.037161,-0.005263,-0.057276,-0.078991,-0.003927,0.032819,-0.019278,0.019470,-0.030768,0.004443,-0.049377,-0.022404,0.040846,-0.018494,0.038637,-0.012164,0.042752,-0.033156,0.005510,0.000222,-0.079255,-0.025355,0.070783,0.069581,-0.035092,-0.053029,0.051380,-0.042333,0.031856,-0.043517,-0.019722,0.077115,0.033120,0.004926,0.080857,-0.052684,-0.044063,-0.028219,0.049106,0.007753,0.066014,0.082542,0.067486,0.024230,-0.018330,0.023505,-0.070245,-0.057793,0.072822,0.018033,0.024815,0.074912,0.074978,0.013342,0.063030,-0.042268,0.042646,0.032203,-0.003023,-0.007692,0.070992,0.059624,-0.012835,0.022287,-0.014605,-0.014739,0.051811,0.020860,0.046422,0.018478,-0.052400,0.029714,0.018387,-0.069460,-0.028622,0.082370,0.035638,-0.015782,-0.057918,0.026898,-0.081261,0.048902,0.020332,0.076079,-0.020599,0.011044,-0.048616,-0.059590,-0.048897,0.030006,0.014800,-0.060067,0.008164,-0.080623,0.044249,0.072922,-0.012538,0.013742,0.011610,-0.049470,-0.050050,0.039665,0.063042,0.050581,0.052606,-0.047075,0.049550,0.009574,0.019071,0.075083,-0.048776,0.019890,0.041676,0.054132,0.013900,-0.060652,-0.025732,0.047795,-0.037895,0.006311,-0.003913,0.042072,0.029980,-0.078178,0.061239,-0.009744,0.077000,-0.033137,-0.076416,0.006395,0.000488,-0.045851,-0.036428,-0.018648,-0.080242,-0.066030,0.017005,0.053582,0.023070,-0.046688,0.059005,0.055911,0.055326,0.007582,0.028405,-0.012829,0.028945,-0.080889,-0.041339,0.073315,0.005818,0.030188,0.050338,-0.046192,0.034955,0.030322,0.026463,0.029833,0.078503,0.030481,-0.046393,-0.003390,0.066762,-0.000084,0.061393,0.071420,0.016193,0.008052,0.044867,-0.044013,0.030930,0.010274,-0.068582,0.002877,-0.064886,0.042068,0.074026,0.046181,0.043490,-0.056012,0.037487,-0.031273,0.057146,0.017653,0.004487,0.004825,-0.044602,-0.050001,-0.042749,-0.051582,0.084884,-0.007326,0.028160,0.046761,0.075667,0.007199,0.035937,0.009484,-0.083124,0.022605,0.048449,0.032281,-0.073780,0.062290,-0.045706,-0.056275,0.021785,-0.055024,0.072243,-0.016306,-0.028041,0.027586,0.034744,-0.052776,-0.048871,-0.043348,0.039559,-0.013101,-0.011380,0.078868,0.017365,-0.035199,-0.008119,-0.036748,-0.066512,-0.017295,0.051344,0.050933,0.080141,0.053438,-0.032568,0.040301,0.005140,-0.024244,0.017479,0.040092,0.001489,-0.039092,0.060350,-0.009040,0.026038,-0.042190,-0.070711,-0.021132,-0.012709,-0.029812,0.017737,-0.056530,0.043002,-0.080607,-0.061297,-0.026176,-0.025379,0.012809,0.019180,-0.008756,0.078400,-0.011218,-0.042125,0.070593,-0.040820,0.007095,0.026017,0.045032,0.065883,-0.031696,0.002452,-0.011762,0.013472,-0.010338,0.058185,-0.044164,0.029108,0.078409,0.016947,-0.066323,-0.033186,-0.047030,-0.038431,-0.078485,-0.041591,-0.015934,-0.021681,0.036075,0.080708,0.071261,-0.077020,0.073672,-0.015121,-0.037355,0.069872,0.025405,0.051093,0.012665,-0.010196,0.035095,0.060478,0.075308,-0.065702,-0.000814,-0.019433,0.076326,0.029078,-0.071616,0.072264,-0.038154,-0.055534,-0.046559,0.003494,-0.010233,-0.039156,0.036798,0.056016,0.022630,-0.029086,0.050596,0.028911,-0.028652,0.044023,-0.079749,0.021114,0.018556,-0.006619,-0.014401,-0.046650,-0.062681,-0.061612,-0.068385,-0.076083,-0.042965,0.003931,-0.033415,-0.046568,-0.050050,-0.011319,-0.058329,-0.001882,0.033069,-0.028564,0.084690,-0.055139,0.022218,0.026445,0.075331,-0.040597,0.076293,0.040633,0.056395,-0.037161,-0.003258,0.070485,0.070573,-0.053967,0.009657,-0.029349,-0.016464,0.028652,-0.004517,-0.004804,0.039631,0.030300,0.080747,-0.053142,0.062951,-0.051716,0.034895,-0.078823,0.024654,-0.015065,-0.027858,0.012772,0.002767,-0.079715,-0.031430,-0.004108,-0.045477,-0.045732,-0.026204,-0.055846,0.000594,0.040475,-0.080278,-0.012374,0.124686,0.019854,0.069782,-0.008802,-0.049604,-0.052940,0.038834,0.081234,0.058295,0.041872,-0.046020,0.042122,0.072576,0.067669,0.046661,0.027135,-0.013783,-0.054471,-0.056017,0.061946,-0.048617,-0.015406,-0.034087,-0.001052,0.013850,0.006603,0.028550,-0.061786,-0.040383,0.032286,0.025659,-0.052590,-0.039770,0.008061,-0.006430,0.005203,-0.006703,-0.039554,-0.033432,-0.047324,0.080307,0.033908,-0.069438,0.069566,0.021806,0.061232,0.003742,0.075419,-0.083420,0.030111,0.048391,-0.131967,-0.067167,-0.062174,0.044995,0.000739,0.033482,0.032017,0.053216,0.061451,-0.052134,-0.021421,-0.080576,-0.030682,0.021565,0.009677,0.044442,-0.045458,0.041713,-0.016687,-0.008158,0.034790,-0.046672,0.006004,0.028222,0.046667,-0.019273,-0.055368,0.036333,-0.013886,0.053097,0.001960,0.022150,0.067032,0.014492,-0.008982,-0.007843,-0.060121,0.050591,-0.010254,-0.071757,0.068275,0.046392,-0.051693,-0.015340,-0.004960,0.005049,-0.059580,0.014329,-0.035312,0.139573,-0.070098,0.018254,0.078793,0.009586,0.016361,-0.017541,0.091174,0.032956,-0.058949,-0.014286,0.016163,0.021953,-0.074178,-0.000462,-0.028688,0.080941,-0.063857,-0.009193,-0.030477,0.005313,0.000609,-0.053956,-0.019829,0.010533,-0.014881,0.065172,-0.057829,0.007690,-0.002393,0.048864,-0.071838,-0.004140,0.046788,0.033922,-0.068460,-0.083460,-0.050367,-0.113204,-0.065631,-0.031975,-0.001407,-0.028392,0.072739,-0.006160,0.067569,-0.043258,0.074426,0.037446,0.035067,-0.039126,-0.118505,-0.049234,-0.005664,0.073702,0.018867,0.056716,0.116848,0.063962,-0.012063,-0.046382,-0.024749,-0.008847,0.032697,0.035341,-0.081119,0.010006,0.074985,-0.012790,0.043990,-0.001937,0.026463,0.002513,0.055485,0.036412,0.034810,0.022395,0.054605,0.022233,0.006254,-0.003924,0.058865,-0.077670,0.030561,-0.022222,0.083114,-0.035055,-0.096264,0.019942,-0.018059,0.054212,0.058593,0.037781,0.109297,0.038967,-0.004842,-0.060782,-0.041921,-0.051888,0.006757,0.220865,0.042584,-0.129515,0.011388,-0.016927,0.037946,0.046618,-0.036137,-0.002777,0.014542,0.042637,-0.067741,-0.037632,0.042242,0.042765,0.058672,0.244843,-0.046209,0.043090,-0.020399,0.023077,-0.036091,-0.065780,-0.032631,-0.031499,0.012373,0.055676,-0.007897,0.046611,0.087564,0.152329,0.039898,0.026005,0.024243,0.066428,-0.049628,0.054538,0.080100,-0.066390,-0.108602,-0.027171,-0.057054,-0.004032,0.035744,0.048096,-0.046390,-0.019143,-0.001842,-0.117218,-0.061290,0.057851,-0.128671,-0.006017,0.087589,0.069177,-0.018722,0.031541,0.127103,-0.060895,-0.021779,-0.056975,-0.055795,-0.071105,0.069636,-0.041798,-0.089672,0.051175,0.002530,0.085983,-0.031359,-0.000536,-0.044385,-0.055446,0.080716,0.078339,-0.048445,-0.053193,-0.036269,0.027678,0.012278,-0.020527,-0.039218,0.027800,0.061728,0.055083,0.103089,-0.039666,0.003351,-0.060775,0.046277,-0.024912,-0.018624,0.075008,0.001810,0.050339,-0.047212,-0.029012,-0.055703,-0.047499,-0.039553,0.104841,0.048061,-0.096096,0.087233,0.024003,-0.033834,0.062290,0.096121,-0.021263,0.086566,0.007915,0.081080,-0.080811,-0.059714,0.051610,0.069676,0.194203,-0.008795,-0.014224,-0.024580,-0.045685,0.021714,0.008057,-0.064917,0.137060,0.044269,-0.025240,-0.035472,0.042516,0.017210,0.109685,-0.056933,-0.028500,0.182667,-0.084730,-0.066940,-0.048047,0.091748,0.101044,-0.045397,0.021743,-0.051445,0.037354,0.021201,0.043111,0.010110,-0.040291,0.031837,-0.005430,-0.013867,-0.086070,-0.025509,-0.026793,0.079064,0.168452,-0.059999,0.014447,0.225390,0.012502,-0.055559,-0.030371,-0.043652,-0.030116,0.037624,-0.043079,0.014475,-0.040380,0.040332,-0.011209,-0.004779,-0.059240,0.080291,-0.029395,0.066255,0.035927,0.023875,-0.012120,0.061501,-0.021804,-0.030746,-0.008285,-0.066127,0.012636,0.064937,0.073706,0.089500,-0.149019,-0.108265,-0.018406,0.059312,-0.113179,0.020283,-0.064506,0.102703,-0.111499,-0.048511,-0.051604,0.019847,-0.014141,0.016573,0.175125,0.019937,0.079355,-0.064091,0.013318,-0.060032,-0.015260,0.116548,-0.002865,-0.007164,-0.017127,-0.000317,-0.006735,0.056474,-0.032017,-0.023429,0.336441,0.018251,0.067023,-0.093331,-0.033293,-0.012692,0.012115,-0.019489,0.099283,0.025762,-0.001593,0.004063,-0.060752,0.077808,0.045449,-0.058916,0.007222,0.089804,-0.055358,-0.067610,0.019464,0.072956,0.118726,-0.168812,0.068479,-0.044062,-0.066324,-0.037335,-0.055604,-0.017027,0.063975,0.055617,0.077896,-0.003727,0.060198,-0.012139,-0.039927,0.086455,0.309480,0.014527,0.019222,0.344481,-0.054471,-0.004475,0.100583,-0.025319,0.008476,0.037771,0.084058,0.057459,-0.069341,0.058942,0.113213,-0.016703,-0.066875,0.024003,-0.071827,-0.052502,0.067726,0.071797,0.002865,0.040494,0.040055,-0.022353,-0.010364,-0.010271,0.016943,0.055277,0.008535,-0.020473,0.001437,-0.054800,-0.078599,0.014868,-0.084018,0.086790,0.111096,0.022657,0.038057,0.042915,-0.040022,0.066005,-0.059915,0.088022,0.363139,-0.007162,0.222772,-0.033656,0.022022,-0.008992,0.022576,0.092175,-0.148796,0.124998,0.000573,0.030470,-0.021729,0.067148,-0.016611,-0.088702,0.349495,0.078858,-0.072227,-0.099956,-0.016693,0.066424,0.065046,-0.027583,0.152383,0.021711,0.081073,0.025291,-0.072863,-0.041082,0.123332,-0.036555,-0.010489,0.032473,-0.062984,0.071247,-0.012208,-0.018794,0.040626,-0.264373,0.062759,-0.050983,-0.017328,-0.041519,-0.033617,0.043710,0.056543,-0.067213,0.077781,-0.002063,-0.046528,-0.020570,0.061244,0.051510,0.274650,-0.068575,0.136562,0.282933,0.072583,0.102586,-0.007692,0.025126,0.053700,0.103723,0.043662,-0.176595,-0.033863,0.033116,0.197947,-0.025697,0.041782,-0.031319,0.049236,0.080060,0.153347,0.050103,0.016912,-0.044621,0.063813,-0.053845,-0.084971,-0.150291,0.068129,0.090259,-0.019101,-0.041795,-0.050454,0.039418,-0.059870,-0.068677,-0.118280,0.012908,0.082798,0.031534,0.017787,-0.019431,-0.006446,0.042529,-0.016222,0.077942,0.203770,0.010202,0.013344,-0.023881,-0.039351,0.006671,-0.048555,0.068105,-0.030216,0.090908,0.077876,0.057222,0.006607,0.058877,0.038617,0.082970,0.569696,-0.040277,0.007046,-0.059715,-0.032891,0.067237,-0.015616,0.126807,0.179588,0.092645,-0.018323,0.034265,-0.042744,0.082024,0.153201,-0.038552,-0.054129,0.122091,-0.135272,-0.016122,-0.081617,0.063136,-0.036416,-0.183528,0.073077,-0.023493,0.026344,-0.022641,0.119287,-0.051081,-0.039641,0.053515,0.065155,-0.000268,-0.063007,-0.074007,0.051557,0.091646,0.114152,-0.083095,0.112186,0.445865,0.019331,0.105153,0.049021,-0.024466,0.032469,0.126159,0.072804,-0.041107,-0.054206,0.110662,0.282278,-0.038974,0.000562,-0.031936,0.156895,0.085861,0.058762,-0.019590,-0.046106,0.043769,-0.039351,0.022803,-0.026725,-0.074041,-0.081890,0.000925,0.119774,0.030032,-0.013700,0.051767,-0.037567,-0.069333,-0.105127,-0.048998,-0.053360,0.030316,0.051956,-0.053006,0.073283,-0.060041,0.024906,-0.022906,0.297656,0.040359,0.170934,-0.034459,-0.036376,0.086722,-0.109402,0.080406,-0.012262,-0.002982,0.044644,-0.018908,0.019457,0.078114,0.026461,0.005245,0.612047,-0.039549,-0.033410,0.061297,0.002487,0.017029,0.021439,0.106214,0.349441,0.076385,0.005879,0.052863,0.021952,-0.007205,0.251397,0.060612,0.033528,0.138269,-0.046718,0.078705,-0.044230,0.138223,-0.042477,-0.050705,-0.063228,0.039591,-0.003996,0.005313,-0.006466,0.061585,0.081343,0.023351,0.030195,-0.069846,0.018781,-0.150889,0.077379,0.024227,0.045532,0.012597,0.169553,0.435019,-0.095075,0.059054,0.016100,-0.001054,-0.059697,0.121023,0.047626,0.042176,0.010438,0.117735,0.436927,-0.021445,0.029127,0.033155,0.214967,0.080662,-0.125127,0.062820,0.055355,-0.067450,0.002188,0.082678,-0.091929,-0.028327,-0.039265,-0.025559,0.159651,0.028486,0.051694,-0.041228,-0.079014,0.002019,-0.013838,0.061165,-0.031202,0.129326,0.043955,-0.011723,0.015395,0.094376,0.039755,-0.047934,0.164301,0.131401,0.039384,-0.003445,-0.064897,0.027001,0.089221,0.113201,0.049938,-0.110438,-0.023495,0.068435,0.074858,-0.047170,-0.079160,-0.064690,0.956898,0.089754,-0.073345,0.076426,0.038702,0.002648,0.017303,0.273938,0.202807,0.092345,0.060365,0.072071,0.010609,0.045538,0.129191,0.058008,-0.061601,0.062652,-0.043987,0.007682,0.078218,0.063534,0.047601,-0.145397,0.029444,0.132187,0.045092,0.015767,0.116010,-0.011357,-0.050938,0.029967,0.122724,-0.099018,0.003843,0.008914,0.046168,0.080738,0.211676,0.105434,0.053540,0.478163,-0.020441,0.060446,-0.092705,0.035831,0.076201,0.203838,0.064274,0.108459,0.094684,0.150550,0.403265,-0.061813,-0.007934,0.055958,0.253105,0.071250,-0.077941,-0.027393,-0.016657,-0.003412,0.057978,0.099219,-0.034479,-0.195591,0.025996,-0.047206,-0.054432,-0.016470,-0.125957,0.020254,-0.036441,0.070601,-0.019710,0.009944,-0.066532,0.089330,0.173916,-0.031265,0.089815,0.103740,0.093122,-0.042416,0.258895,0.074150,0.013075,-0.016901,-0.099975,0.066841,-0.019247,0.112849,0.007793,0.012191,-0.081872,0.010612,-0.040602,0.076041,0.019275,-0.058303,0.807236,0.052375,0.018260,-0.081672,0.054611,0.066250,-0.015065,0.350779,-0.025489,0.151399,0.076162,-0.057214,0.067710,0.067938,-0.053782,0.106212,-0.073015,0.086216,-0.022644,-0.031142,0.043604,0.090934,0.110356,-0.084765,0.009495,0.161269,0.019190,0.024753,0.192751,-0.051208,-0.063695,0.059739,0.200912,-0.010210,0.000131,0.001238,0.020939,0.097802,0.123474,0.023179,0.053353,0.497756,0.014214,0.157537,0.001992,0.078587,0.041136,0.317396,-0.026105,0.159033,0.126281,0.070703,0.395635,0.019147,-0.038492,0.049700,0.257134,0.033747,0.112586,-0.014713,0.052964,-0.012108,0.070953,0.044657,0.044903,0.006827,0.026600,0.007261,-0.060615,-0.163435,-0.005672,0.080338,-0.021227,0.043880,-0.099279,-0.039838,0.019374,0.080967,0.261423,0.075667,0.047561,0.051229,-0.015847,0.096876,0.364925,0.087454,-0.150158,0.052601,0.105662,0.056786,-0.003957,0.140308,-0.041721,-0.106279,-0.116737,-0.061727,0.064235,0.061258,-0.011476,-0.063535,0.580199,-0.035875,0.035674,0.018280,0.019382,-0.056125,0.032249,0.277179,-0.017623,0.086688,-0.026385,0.070996,-0.060886,-0.002783,0.090438,0.006639,0.012488,0.026941,-0.088491,0.031897,-0.032480,0.012967,-0.003454,-0.025400,-0.021767,0.058974,-0.000516,0.066041,0.096864,-0.037280,-0.063670,0.020781,-0.030611,0.048441,-0.081558,-0.039964,0.086290,0.197447,0.020168,-0.048740,0.034715,0.404960,0.072729,-0.004714,-0.063268,0.080642,0.009027,0.304705,-0.128937,0.238888,0.053479,0.208062,0.373864,0.025726,0.041867,-0.021985,0.309120,-0.050093,0.160107,0.091704,0.094334,-0.014005,-0.025494,-0.025318,0.077967,-0.015936,-0.032322,0.083570,-0.081063,-0.101355,-0.044739,0.024463,0.010304,0.087944,-0.127583,0.068365,0.085129,0.105783,0.097794,0.042665,0.090578,-0.054214,-0.020361,0.119958,0.235788,0.185915,0.072723,-0.023043,0.068694,-0.029404,0.093714,0.083448,0.056991,0.020145,-0.054893,0.016595,-0.004134,-0.025881,-0.000466,-0.019456,0.418419,-0.020427,0.026623,0.065788,0.039163,-0.017645,0.000618,0.337097,0.153862,0.022082,0.074848,0.007660,-0.034639,0.077095,0.053481,0.109123,-0.016651,0.139822,-0.018552,-0.004929,-0.036140,0.105276,0.091250,-0.015246,0.057588,0.116890,-0.005056,-0.084717,-0.002127,0.000963,-0.003472,-0.026602,-0.264848,-0.006157,0.119190,0.059280,0.030140,0.030275,0.122422,-0.032237,0.146088,0.222098,0.060933,0.015678,-0.040835,-0.041608,0.019602,0.163328,-0.024040,0.224513,0.014810,0.360810,0.453197,-0.039078,0.056726,0.047550,0.171370,-0.032383,0.108773,-0.048590,-0.034618,-0.012219,-0.048121,0.014544,-0.018930,-0.009590,-0.068590,0.066573,-0.016590,-0.085369,0.060829,-0.041989,-0.066934,0.028372,-0.026658,-0.010807,0.069864,0.156461,0.084306,-0.035524,0.032028,-0.020500,0.013095,0.065959,0.259523,0.099496,-0.178889,0.081221,-0.043646,-0.097112,0.181818,-0.002301,0.001135,-0.008863,-0.023942,-0.012787,0.080591,0.108756,-0.018419,-0.114314,0.506600,-0.064122,-0.028248,-0.011192,0.084706,-0.008902,-0.014152,0.263738,0.234672,0.080986,0.029032,0.000800,-0.069551,0.077344,0.021507,0.047934,0.027018,0.067111,-0.052217,-0.055438,0.007936,0.059767,0.134254,0.068096,0.015759,-0.024723,-0.036455,0.013464,0.038800,-0.046077,0.073634,-0.043360,-0.136820,-0.003463,-0.032330,0.089651,0.056388,0.016263,0.201207,0.101296,-0.035593,0.301752,-0.014047,-0.086087,0.029258,-0.032024,0.028795,0.163265,-0.078231,0.233236,0.060977,0.197018,0.298744,-0.068217,0.046675,-0.060756,0.198157,0.074980,0.005196,0.020249,0.013052,0.021754,0.000010,-0.042239,0.068465,0.009451,-0.035964,0.011318,-0.115898,-0.070609,0.051420,-0.037168,0.025232,-0.054329,-0.100190,0.026720,-0.003051,0.003595,0.199521,0.063271,0.085688,0.027628,0.089558,0.034888,0.491117,0.199786,-0.120526,0.183351,0.051687,-0.093728,0.151460,0.029962,0.029014,0.041570,-0.096048,-0.024092,0.003852,0.021691,0.069555,-0.175098,0.280957,0.072448,0.013598,0.062103,0.039265,-0.045327,0.010372,0.218770,0.332883,0.014574,0.016036,-0.042815,-0.047903,0.014790,0.125097,0.077947,-0.092684,-0.068794,0.032523,0.045587,-0.002457,-0.072223,0.162299,-0.114742,-0.074932,0.073718,-0.007994,0.019517,0.053813,-0.109389,-0.048835,0.079382,-0.076617,0.080549,0.064417,0.026321,-0.041688,0.074034,0.141579,0.054109,0.017158,0.109563,0.125198,-0.049721,-0.002677,-0.001688,-0.060991,0.230912,-0.047736,0.098603,-0.006380,0.156371,0.331363,-0.044914,-0.031560,0.063990,0.134312,0.011945,0.065651,0.015421,0.073262,0.026188,-0.028942,0.090324,0.046139,0.029806,-0.060835,0.015863,-0.304652,-0.070974,0.012795,-0.008793,-0.062124,0.016508,-0.022613,0.069043,-0.059523,-0.041779,0.321831,-0.092113,0.076312,0.070112,-0.024452,0.068669,0.381858,0.147603,-0.401499,0.016616,-0.008117,-0.091978,0.169906,0.091090,0.022681,-0.110163,0.075860,-0.073395,0.008085,-0.058978,0.050114,-0.137195,0.090469,0.048732,-0.093307,0.075050,0.093471,0.093266,0.064718,0.167828,0.144498,-0.017173,0.079574,0.067904,-0.039148,-0.039624,0.108608,-0.009260,-0.012961,-0.049808,-0.007107,0.024210,-0.022115,-0.074231,0.029201,-0.090637,-0.036863,0.000065,-0.062801,0.060688,0.011370,-0.034159,0.011125,0.027477,-0.035631,0.039656,0.194692,-0.066188,0.030401,0.066658,0.141280,0.048825,0.051111,0.122472,0.050912,-0.074651,0.038098,-0.045829,0.009741,0.120543,-0.050095,-0.058664,0.084715,0.223229,0.129959,0.001131,0.050424,-0.008457,0.147384,0.043463,0.089058,-0.015603,0.022695,0.048683,0.057268,-0.076472,0.007996,-0.017292,-0.086093,0.073653,-0.276642,-0.041821,0.045276,0.007493,0.036404,-0.082119,0.065684,0.058578,-0.076216,-0.038715,0.446556,0.028290,0.013884,0.079740,0.026909,0.060981,0.398454,0.160324,-0.351254,-0.008066,-0.018597,-0.021680,0.076179,0.009072,-0.058773,-0.115352,0.027450,0.021754,-0.058641,0.059098,0.029126,-0.074285,0.236182,-0.062319,-0.078369,0.132496,0.017564,-0.070867,-0.074410,0.196877,0.400915,0.069958,0.015294,0.080424,0.067161,-0.050033,0.061011,-0.022366,-0.026364,-0.009440,0.024351,0.010421,-0.025435,-0.065604,0.014474,0.127997,0.031341,0.071179,-0.052957,0.061062,-0.028232,0.001346,0.010566,0.028487,0.152384,0.047799,-0.014755,-0.022709,0.036839,-0.028892,-0.030863,-0.063150,0.131577,-0.045120,-0.064254,-0.111263,-0.004529,0.060487,-0.017143,-0.004860,0.016452,0.083305,0.003094,0.126452,0.064164,0.044003,0.011328,0.052679,0.048802,0.025714,0.051182,