784 128 784
0.058550 -0.063635 -0.004823 -0.046921 0.073024 -0.019602 0.067578 0.045121 -0.004548 0.077657 -0.009706 0.026769 0.021535 0.027520 0.080791 0.004602 0.031101 -0.030356 -0.052077 0.068009 0.071415 -0.002330 0.004705 0.039985 0.020828 -0.021542 -0.026356 0.072979 0.071864 0.077051 0.047567 0.001308 0.069098 -0.028578 0.008814 0.001256 0.075514 0.060675 0.079532 0.017215 0.039779 -0.021349 -0.071704 -0.009922 -0.032544 0.054007 0.038117 0.023517 0.077210 0.036526 -0.007598 -0.001303 0.050186 -0.058846 0.003653 -0.003269 0.008065 0.003944 -0.040830 0.057969 -0.038050 -0.051804 -0.058615 -0.036646 -0.016519 -0.079421 -0.047090 -0.027388 0.054619 -0.011393 0.028647 0.029560 -0.060178 0.004023 0.032612 -0.047228 -0.024232 -0.047762 -0.031556 -0.031814 -0.028574 -0.067461 0.049435 0.052673 0.050666 0.055669 0.029517 0.047154 -0.027529 -0.052119 -0.061048 -0.073269 0.054968 0.033575 0.069328 -0.004898 -0.012097 -0.058611 -0.035061 -0.048770 0.038008 0.000383 0.080852 -0.002205 0.054793 0.009228 -0.069170 -0.002570 -0.059715 -0.019352 -0.075045 -0.074438 -0.078944 -0.010733 -0.002716 0.038221 -0.001930 -0.046315 0.069355 0.015175 -0.005141 0.001528 0.032237 -0.041041 0.023906 -0.009822 0.047010 -0.009083 -0.039458 0.017707 -0.020410 -0.054816 0.065471 -0.023949 0.028878 0.030063 0.077247 -0.002462 -0.027382 -0.001650 -0.035563 0.069976 0.050848 0.032540 -0.055062 -0.000363 -0.048298 -0.019898 -0.036802 -0.022660 0.044195 0.000119 0.065748 0.016647 -0.044544 -0.045359 0.063683 0.047501 0.060318 -0.043997 0.050524 -0.043177 0.018084 0.037223 0.075092 0.034391 0.048133 -0.030088 0.059289 -0.056264 0.054329 0.021619 -0.074413 0.077658 0.002917 0.001468 0.012779 0.017306 0.072548 0.064091 0.050394 -0.024275 0.063016 -0.042161 -0.052483 0.046024 0.033307 0.059660 -0.038096 -0.080601 -0.059643 0.056928 -0.028837 0.017135 0.026618 0.062263 0.030796 0.050339 0.007609 -0.006253 -0.075625 0.068291 -0.050825 0.001473 -0.031494 0.044314 -0.036291 -0.019267 -0.009056 -0.030011 0.030634 0.049890 0.061751 0.011561 0.062709 -0.030301 -0.051092 0.068239 0.034316 0.010368 0.073203 0.024261 -0.033256 0.061887 0.000174 -0.049137 -0.005520 0.041074 -0.007601 -0.033469 -0.061621 -0.043653 0.000858 0.013180 0.008360 0.040515 0.018094 0.057507 0.005043 0.014510 -0.079146 -0.042973 -0.014663 -0.024117 -0.014620 -0.037374 -0.033822 0.029101 -0.046349 0.001740 -0.051610 0.056392 0.036120 -0.041734 0.028426 0.038353 -0.046905 0.035053 0.053681 -0.062960 -0.018184 -0.002721 0.055252 0.059751 -0.013729 0.019820 -0.068771 0.000716 0.052911 0.010956 -0.077809 0.006388 0.061596 0.059110 0.076625 0.029745 0.065953 -0.077734 -0.061139 -0.050514 -0.067214 -0.078964 -0.041998 0.010204 0.039685 -0.040593 -0.016443 0.051829 -0.058794 -0.052690 0.014918 -0.040387 0.032239 0.007623 0.046637 -0.035941 0.078332 -0.073923 0.011429 0.044976 -0.038907 -0.065185 -0.060208 0.028457 -0.015023 0.017761 -0.026100 0.046280 -0.004251 -0.055039 0.058908 0.059417 0.014063 0.066159 0.013404 -0.025083 0.050360 -0.031699 -0.009246 0.027264 -0.073955 0.001639 -0.077344 0.036272 -0.023747 -0.015508 -0.019404 0.042471 0.072585 -0.060462 -0.057907 -0.008684 -0.041711 0.028809 0.002242 0.062220 0.054379 0.059730 -0.042217 -0.028726 0.046903 -0.061755 0.001416 0.033796 0.051924 0.016489 0.074527 0.003247 -0.011171 -0.039995 0.061487 -0.001302 0.005980 -0.072056 0.025811 -0.029160 -0.014310 0.013778 0.008973 -0.046072 0.000040 -0.009047 -0.012295 0.002489 0.002444 0.009615 0.002350 0.001257 0.070566 0.054175 0.066369 0.001164 -0.039228 -0.058386 0.057776 0.065451 0.060227 -0.077163 0.010378 -0.078049 0.005306 0.042387 -0.075289 -0.067358 0.036692 0.079533 0.072517 0.008184 -0.025155 -0.074017 -0.063466 -0.079293 0.042475 0.066095 -0.021940 -0.075247 -0.012673 -0.063812 -0.074488 0.011498 -0.019112 -0.046262 -0.065826 -0.071299 -0.004343 -0.060588 0.078360 -0.001890 -0.079468 -0.041091 -0.068326 -0.003462 -0.023699 0.000948 0.037084 0.070377 0.038601 -0.042107 0.063163 0.045160 0.062615 0.054378 -0.034796 -0.068994 -0.001727 0.062564 -0.043733 0.018541 0.043419 0.049358 0.004358 0.034636 0.064591 0.066288 -0.036212 0.015451 0.071710 -0.069064 0.071141 0.077586 0.021285 -0.019729 0.066594 -0.061088 0.055490 0.070982 0.073267 -0.053207 0.022033 -0.059599 0.032502 -0.069761 -0.029705 0.070739 -0.044639 0.055216 0.004632 -0.075340 0.047018 0.078129 0.058585 0.034482 -0.020884 -0.030756 -0.065647 0.057565 -0.050908 0.054262 0.060644 0.024540 -0.053107 -0.050739 -0.013036 -0.027825 0.033894 -0.024545 0.049047 -0.028387 0.063852 0.070454 0.068343 -0.072062 0.059982 0.074660 -0.067125 0.076051 -0.062654 0.068068 0.020585 0.043888 -0.053768 -0.030218 -0.000261 -0.040648 -0.004921 0.027736 -0.017037 -0.056136 0.067726 -0.029710 -0.010953 -0.040510 0.067697 -0.032891 -0.001134 -0.002218 -0.005182 0.011955 -0.034598 0.059495 0.040608 -0.080236 -0.023222 0.006967 0.034530 0.059026 0.014661 -0.052860 0.013852 -0.026242 -0.028980 0.013561 -0.026780 0.057891 0.022848 0.012747 0.044621 0.060322 -0.034856 0.003558 0.005992 0.051473 -0.025295 0.057195 0.003636 0.051051 -0.027197 -0.002301 0.078785 -0.080730 0.013846 -0.046192 0.072427 0.054167 -0.080251 -0.017617 -0.055495 -0.019953 -0.026119 -0.046496 0.010107 0.019090 0.028711 0.062274 0.001189 0.038339 -0.005984 0.029921 -0.057476 0.059752 0.065911 0.078492 0.023110 -0.047308 0.017503 0.062717 0.043782 0.042264 0.053905 0.061433 -0.071240 -0.044761 0.021981 0.053804 0.019968 0.046622 -0.028609 0.001224 0.020835 -0.006998 0.044340 -0.045497 -0.051056 -0.049914 0.048439 0.066901 -0.075952 -0.079689 0.052874 0.073355 -0.029827 -0.077426 0.014518 -0.061599 -0.044253 0.045261 0.013309 0.043458 -0.059638 -0.079516 0.061657 -0.047481 -0.047959 0.032394 -0.040746 -0.075334 0.047006 -0.000661 -0.080575 -0.001541 -0.031583 0.012468 0.008693 -0.009720 -0.079007 -0.040255 0.044156 -0.031922 0.036171 0.009365 0.022486 -0.062862 -0.009152 -0.006786 -0.032873 -0.078916 -0.023108 -0.045730 0.013359 0.005295 -0.029456 -0.031846 0.050562 -0.038708 -0.047696 0.010949 0.020822 0.069722 0.010523 0.014267 0.036511 0.053418 -0.007369 -0.006026 0.067024 -0.062277 0.052128 -0.062254 0.028242 -0.075482 -0.074037 -0.068856 0.044246 -0.023106 0.009247 0.070445 -0.058652 0.071298 -0.008307 -0.047869 0.006364 -0.071398 0.021065 0.008832 0.006252 0.042390 0.040470 0.001005 -0.054208 -0.015634 0.015773 0.021304 -0.025890 -0.053311 -0.066949 -0.070545 -0.073012 -0.069957 0.019772 0.018334 -0.035272 0.059260 -0.080251 0.011488 -0.029986 0.017456 0.022267 -0.024166 -0.003607 -0.068379 -0.014804 -0.051151 -0.072780 -0.019290 0.014796 -0.046969 0.073207 -0.037442 0.013645 0.058521 0.032114 0.062026 0.042148 0.023118 -0.011490 0.014317 -0.053800 -0.068414 0.071595 -0.029974 -0.001991 -0.017295 0.028621 -0.015962 0.054423 0.023545 -0.033376 0.056033 0.054074 -0.007874 0.032608 -0.026605 0.071572 0.053109 0.057024 0.031699 0.029711 -0.038741 -0.029264 0.060228 -0.000578 0.020088 -0.026410 0.060550 -0.071935 0.052002 -0.049904 0.004623 0.074129 -0.060706 -0.003040 -0.004285 0.044114 -0.036597 0.036332 -0.079392 0.015587 -0.064271 -0.002282 -0.015595 0.034110 0.051828 0.032025 -0.034429 -0.042369 0.066997 -0.077895 -0.003320 0.071637 -0.060866 -0.066263 0.014696 0.024173 -0.051191 -0.000539 0.068691 0.032629 0.014674 0.043226 -0.021449 0.069241 0.045052 -0.058839 0.079623 -0.002369 0.003139 0.016139 0.035067 0.045943 0.071111 -0.059746 -0.033440 -0.077143 0.062040 -0.080262 0.071347 -0.017351 0.040994 0.055324 -0.048029 -0.049187 -0.069738 0.003688 0.022299 0.077022 0.022409 0.005301 -0.067929 -0.073962 -0.072364 0.011746 0.034559 -0.011261 -0.010171 -0.029554 0.006075 0.010555 0.039180 -0.076480 -0.012950 -0.017973 -0.047201 0.040957 0.038957 -0.020646 0.064807 -0.032259 0.066609 -0.062076 0.030590 -0.028625 0.020938 0.076583 -0.002773 0.003632 -0.059118 0.000368 -0.062433 -0.019799 0.075464 0.050699 -0.072635 -0.074911 0.050563 0.024736 -0.046948 0.068655 0.058556 -0.012409 0.015804 -0.006407 0.003207 -0.076711 0.014010 -0.076653 -0.063214 -0.063378 0.056716 -0.061653 0.056101 -0.075027 -0.048418 0.032281 -0.008408 -0.052635 -0.045131 -0.068892 0.072162 -0.062124 0.016446 -0.006289 0.061398 -0.027500 0.064526 0.074106 -0.048706 0.007912 0.055281 0.058284 -0.010985 0.043013 0.025974 0.050395 -0.025822 0.061958 0.005680 0.025084 0.055100 -0.071354 -0.019110 0.035604 -0.080566 0.057837 0.024495 0.035095 0.007010 -0.039811 0.068196 -0.012969 -0.023257 -0.073067 0.054596 -0.017358 0.021090 0.005473 -0.030095 -0.001365 -0.051755 0.060746 0.021304 -0.016805 0.021202 0.022973 0.021821 0.008728 -0.010034 -0.062818 0.008200 -0.004472 0.075584 -0.073390 -0.031257 -0.026845 -0.069633 -0.074399 -0.065711 -0.004929 0.075635 0.034201 0.070294 -0.072998 0.021281 0.072648 0.058855 0.053387 -0.055407 -0.029344 -0.004656 -0.068882 0.013571 -0.026346 -0.059887 -0.068888 -0.039782 0.011914 -0.034600 -0.026119 -0.019295 -0.041621 -0.002965 -0.033135 0.068517 0.078891 0.080581 -0.059247 0.009145 0.062607 0.066901 0.060073 0.070135 -0.004286 -0.021657 0.062188 0.031193 -0.075532 0.033734 -0.007693 -0.070429 0.067355 0.022303 -0.009198 0.069507 0.007297 -0.017064 0.004375 0.022281 -0.006854 -0.069717 0.045764 -0.010501 -0.056120 0.036461 -0.050544 -0.034590 0.045071 0.078617 0.071637 0.013412 -0.051117 0.047618 0.003668 0.052151 -0.076941 -0.006373 0.017799 -0.025323 -0.030644 -0.011137 0.035526 0.014635 0.076087 0.010776 0.002572 -0.052057 0.045337 -0.049015 -0.045212 -0.078466 -0.061506 0.037594 -0.044014 0.075679 0.013785 0.075672 -0.051474 -0.050443 0.055794 0.079199 0.022996 -0.066896 0.076066 -0.008602 0.043535 0.011298 0.024505 0.047727 -0.077491 0.012655 -0.061098 0.049559 0.068455 -0.025747 0.069524 -0.013548 0.078675 0.032009 -0.021986 0.032558 0.018092 -0.075508 0.062831 -0.033834 0.054731 0.019698 -0.046774 0.040785 0.055441 -0.063306 0.056138 -0.057059 -0.031633 0.063757 0.028937 -0.030921 0.016027 -0.000145 0.014317 -0.037918 -0.079994 -0.025728 0.074949 0.039734 0.045595 0.044347 0.017285 0.047792 -0.061787 0.006434 0.056743 0.079115 -0.071725 0.073781 -0.067601 0.009714 0.023743 0.030913 0.071050 0.007446 0.026204 -0.021357 0.061330 -0.027164 -0.029217 0.022420 -0.074389 -0.006334 -0.067914 -0.001233 -0.061985 0.037285 0.071475 0.066540 0.019892 0.047319 0.007164 -0.024722 -0.071649 -0.053606 -0.071615 -0.039047 -0.027098 -0.078199 0.002023 -0.080712 -0.025493 -0.018014 -0.002765 -0.064874 -0.062576 0.002009 0.076584 -0.043416 0.046113 -0.056826 0.001752 0.049062 0.025503 -0.046481 0.016095 -0.026386 -0.048738 0.029257 0.009751 0.059127 0.073960 -0.075265 0.068787 -0.025635 0.005013 0.058560 0.017020 -0.033262 0.040127 -0.023439 0.029562 -0.064914 -0.039485 -0.034306 0.045565 0.005333 0.080562 -0.007678 -0.075876 -0.071517 -0.036009 0.063357 -0.003475 0.030340 0.041054 0.053885 0.028488 -0.064030 -0.000235 0.023154 0.019722 -0.073179 -0.006355 0.040982 0.080176 -0.034352 0.032854 0.045740 0.064464 0.002157 0.066253 0.052507 0.042302 -0.071172 -0.001867 -0.047053 0.015272 0.033213 0.014155 0.049074 -0.063624 0.046445 -0.006961 0.019109 -0.053147 -0.080754 0.015121 0.054974 0.033370 -0.010303 0.018671 0.020118 -0.034507 0.031144 -0.004615 -0.038428 -0.050201 0.031955 -0.021410 0.003475 -0.056816 0.062803 0.038220 0.042772 -0.048860 -0.041141 -0.035686 0.065156 -0.024887 -0.057448 -0.051152 -0.000983 0.057985 -0.056293 0.001745 -0.007825 -0.024469 -0.075560 0.019977 -0.064119 -0.077894 0.013870 0.055422 0.023771 0.028009 0.034225 0.061501 0.023501 0.009097 -0.074341 0.015396 -0.035087 0.060966 0.068853 0.027426 -0.079160 -0.030779 -0.058530 0.027346 0.021159 0.004654 0.007682 -0.076082 -0.005145 -0.065092 0.029324 -0.025867 0.041302 0.040643 -0.036911 0.005018 0.009887 -0.059583 0.029971 0.026843 -0.076498 0.073354 -0.076166 -0.014082 0.054559 -0.024757 0.031960 -0.065340 -0.023252 0.021310 0.016446 -0.005905 0.001936 0.019406 -0.050573 -0.063315 -0.064256 -0.056381 0.066842 -0.015376 0.051368 0.028064 -0.034994 -0.030705 0.029632 -0.043069 -0.018214 -0.006790 0.047827 -0.054105 -0.042226 -0.036424 0.069104 0.069068 -0.026123 0.065661 0.023140 -0.008742 -0.001986 0.000584 0.041202 0.068094 -0.034214 0.026875 0.069875 0.062400 -0.022970 0.059260 -0.039934 -0.009199 -0.014770 0.020601 -0.015725 0.015915 0.077765 0.015651 -0.075045 0.061394 -0.027233 0.053322 0.042761 -0.043930 -0.057267 -0.062786 0.060706 -0.054667 -0.054889 -0.008399 0.074735 0.053176 0.041534 -0.078694 -0.079536 0.043679 0.032054 -0.021657 -0.063203 -0.077022 -0.072967 0.031176 0.027947 0.032247 0.052823 0.076867 0.066071 -0.009380 -0.040647 -0.046945 0.010564 0.023301 -0.064698 0.061258 0.044211 0.009457 0.001763 -0.079095 -0.022144 -0.019687 0.028748 -0.006035 0.020209 -0.049314 -0.038407 0.025957 0.077701 -0.077498 0.018763 0.039986 0.043062 0.051818 -0.048276 0.027905 -0.004559 -0.033066 0.005776 -0.066757 -0.057009 -0.065419 0.006981 0.017497 0.056114 -0.047224 0.062682 -0.080805 0.017308 0.069000 -0.014117 -0.021507 0.053880 -0.016999 -0.038163 0.055912 0.072930 -0.040103 0.071644 0.018914 -0.006389 -0.028363 -0.007304 0.009950 0.056272 -0.007461 0.007099 0.075015 -0.012859 0.011126 0.041470 0.033499 0.064031 0.024523 0.009736 -0.044335 0.023044 -0.015181 0.053572 -0.044390 -0.049226 0.007719 -0.032072 -0.026013 0.009212 0.034235 0.074778 -0.061941 -0.074186 0.066687 0.018905 -0.002072 0.007181 -0.003141 0.029562 -0.067212 -0.001820 -0.045257 0.035801 0.070743 -0.017115 -0.007430 0.067520 -0.014323 -0.029247 0.051555 0.019657 -0.037095 0.056642 0.004356 0.046725 0.078355 0.052745 -0.005508 0.052197 0.061540 0.028416 0.017889 0.061001 0.070929 0.072667 -0.079256 0.042242 0.077826 0.041415 -0.073254 -0.019897 0.008642 -0.003271 0.039894 0.076429 -0.066239 0.077650 0.030479 -0.051281 0.027228 0.008810 0.075464 -0.050012 -0.045300 -0.047973 0.068380 -0.057020 0.000356 -0.001652 -0.067611 -0.006418 -0.007506 -0.060730 -0.041037 0.005812 -0.080442 -0.029400 0.080521 0.076734 -0.046789 0.036849 -0.007074 0.046265 -0.044606 0.067481 0.067477 0.037574 0.065707 -0.051122 0.052663 0.079982 0.026001 -0.012697 -0.052508 0.007998 -0.041329 -0.061142 -0.012405 0.058236 -0.078755 -0.077593 0.012510 -0.030203 -0.007289 0.030190 -0.015884 0.002483 -0.033316 0.044070 -0.029144 0.039995 0.037184 0.030960 0.078632 -0.000975 -0.017727 -0.072901 0.036043 -0.011671 0.012169 0.020643 -0.051478 -0.076616 0.012093 -0.004470 -0.042540 -0.077087 0.004969 0.013696 -0.059072 -0.015790 -0.078907 0.049292 0.024647 0.063030 0.057136 0.078929 0.022105 0.008167 -0.017256 0.013256 0.079012 -0.050832 0.055728 0.003682 -0.019717 0.055203 -0.011587 -0.007676 -0.001255 -0.067111 -0.051563 0.003231 0.064769 -0.004797 -0.079890 -0.019425 -0.027002 -0.013586 0.020763 0.059472 0.032478 0.059951 0.030824 0.028788 -0.076975 -0.073747 0.018650 -0.028078 0.078273 -0.001965 0.069630 -0.057665 -0.020040 -0.041820 0.003565 0.037114 0.001385 -0.065370 0.039110 0.041512 0.047295 -0.036552 0.078863 -0.028564 -0.043973 -0.053592 0.061528 0.044917 0.013809 -0.066651 -0.043054 -0.006104 -0.055069 -0.017910 -0.028614 0.016859 -0.033726 -0.016693 0.065514 -0.064573 -0.031021 0.015364 -0.040841 0.008339 0.017304 -0.007045 -0.035915 -0.037824 0.056074 -0.001243 -0.020414 -0.056946 -0.040787 -0.077374 0.041184 0.055139 -0.028202 0.073386 -0.001923 -0.040263 -0.068132 -0.079511 0.054941 0.045722 -0.038919 0.054473 -0.012493 -0.062712 -0.042925 0.013001 -0.056105 -0.078732 0.011407 0.005522 -0.005541 -0.080745 0.072927 0.019062 -0.047772 0.048536 -0.052943 0.077378 0.018825 -0.075281 0.077837 -0.013061 0.039368 0.014810 -0.027405 0.010586 -0.018528 0.002324 0.045524 0.024043 0.039367 -0.025890 0.024785 -0.027934 0.025118 0.039077 0.028074 0.011294 0.056461 0.077196 -0.070897 -0.013473 -0.064326 0.078842 -0.011535 -0.009619 0.022419 0.029265 0.044222 0.008730 0.068301 -0.060048 -0.053607 0.012341 -0.053467 0.015065 0.062355 -0.002470 -0.063420 -0.062228 -0.040197 0.032393 0.060737 0.000356 -0.047064 0.051337 0.014307 -0.079930 -0.036031 0.050792 0.028883 -0.057031 0.016462 0.068557 -0.071887 0.047635 -0.000557 -0.022170 0.007144 0.052900 -0.068364 -0.018515 -0.023869 0.021329 0.063334 -0.047050 -0.044279 0.064489 -0.035392 -0.081091 0.029773 -0.047525 0.033165 0.023530 0.071278 0.027093 0.080809 0.048632 -0.057228 0.002697 -0.069608 0.025493 0.042344 0.033509 -0.071177 0.042632 -0.067320 0.039927 0.044480 -0.020164 -0.011916 0.010426 0.039542 0.035253 -0.011716 -0.023149 -0.056165 0.000290 -0.059295 -0.003899 -0.024667 -0.067032 0.035767 -0.021546 0.003467 0.038100 -0.029795 -0.047314 -0.002073 -0.012166 -0.026064 0.032997 -0.063824 -0.053711 0.006021 0.050639 0.033671 0.071812 -0.010956 0.073291 -0.072549 0.034134 -0.019172 0.059104 0.018702 0.021046 -0.008863 -0.060596 -0.068280 0.051748 -0.011807 -0.020928 0.009554 -0.033844 -0.038291 -0.044127 0.032315 0.034744 0.057608 -0.013993 -0.049337 -0.045328 0.007694 0.015292 -0.022052 -0.057625 0.008005 -0.041834 -0.048136 0.014353 -0.075986 -0.001176 -0.017127 -0.047404 -0.078287 0.032943 -0.052197 -0.068325 -0.003361 0.072539 0.009006 0.030884 0.040155 -0.017135 -0.067497 -0.032396 0.034961 0.049361 -0.001879 0.041951 0.072750 0.073322 0.039811 0.002051 0.024582 -0.040339 -0.066988 -0.017928 0.063178 0.043272 0.047707 0.038043 0.073144 0.009806 0.019923 0.027383 0.006604 -0.064178 0.027351 0.016582 0.003713 -0.047281 0.028632 0.053100 0.029614 -0.069875 0.057791 -0.068473 -0.016943 0.077619 -0.020397 -0.080688 0.066694 -0.016292 0.067307 -0.023102 0.018188 -0.048399 -0.054365 0.064857 -0.031696 -0.063203 0.054199 0.059981 -0.021015 -0.039948 0.010644 -0.002620 0.057097 0.041535 0.067510 -0.037531 -0.053334 -0.029981 -0.043250 0.007642 -0.033516 0.015525 -0.052530 -0.063330 0.013598 0.009963 0.036610 0.044875 -0.031934 0.055677 -0.077331 0.042086 -0.037155 -0.059590 -0.075110 -0.000125 0.009431 -0.068910 -0.030233 -0.037874 0.012752 -0.040256 -0.038232 0.017348 -0.015696 -0.028926 -0.078771 -0.071474 -0.044052 0.034552 -0.036291 -0.065281 -0.035027 0.026281 -0.033196 0.064971 -0.073522 -0.077961 0.018490 -0.056282 -0.031050 -0.003898 0.069630 -0.026954 0.061233 -0.041686 0.004506 -0.079931 0.071745 0.013780 -0.063610 -0.022197 0.031127 -0.031142 0.009470 0.056464 0.014255 -0.073588 -0.023788 -0.049612 0.046944 -0.032387 0.071723 0.046179 -0.049379 -0.007752 -0.026448 -0.062389 0.050824 -0.001954 -0.069650 -0.038258 0.059965 0.065409 0.019321 -0.018363 0.040025 0.032732 0.020358 -0.030169 -0.009884 0.008459 0.000558 0.072023 -0.018399 0.080829 -0.008868 -0.059934 -0.022106 0.037766 -0.006684 -0.047241 -0.024460 0.063240 0.073602 0.047138 0.074669 -0.016980 -0.071793 -0.017930 0.007452 0.079175 0.032880 0.058588 -0.078211 0.052884 -0.033745 -0.079480 -0.072814 0.040310 -0.067113 0.069188 0.039118 -0.045177 0.026116 0.002956 -0.065608 -0.073176 -0.047203 0.057218 -0.027928 0.016104 -0.054975 0.050000 -0.062328 -0.028828 -0.020904 -0.031140 -0.036245 -0.071165 -0.045137 0.020936 0.059237 0.066545 -0.000066 0.059417 0.046783 -0.010512 -0.043112 0.073344 -0.065063 0.004521 0.072454 -0.020289 -0.048042 0.008583 -0.013518 -0.076469 0.058420 0.073237 -0.001742 -0.012474 0.041934 -0.050270 0.039671 0.046144 0.042475 -0.036048 0.058652 -0.076343 -0.022877 0.026649 -0.068827 0.023184 0.011722 -0.006134 0.034054 -0.017799 0.028107 0.000980 -0.040885 0.067075 0.003229 -0.018543 -0.058742 0.046252 0.027907 0.002920 0.059740 -0.004712 0.070620 0.018670 -0.013187 -0.034257 -0.004264 0.033615 0.047192 0.060739 0.018243 -0.026824 0.047061 0.063752 0.010390 0.038638 0.057013 0.051208 0.042611 -0.010148 -0.069937 0.067429 -0.009217 0.013705 -0.038852 0.054127 0.071648 -0.062092 -0.017582 0.028329 0.040272 0.032826 0.022521 0.018747 0.019935 -0.029097 0.078425 -0.055011 0.063951 -0.079825 -0.026100 0.049158 -0.020702 0.042009 -0.046255 0.042051 -0.015088 -0.069813 0.021618 -0.059493 -0.032174 -0.073752 -0.075050 0.059249 -0.028506 -0.058914 -0.056382 -0.073318 -0.006039 -0.060753 -0.010619 0.018211 -0.017412 -0.004186 0.001983 0.018903 -0.017982 -0.061770 0.003521 -0.022038 -0.023365 -0.019397 -0.006519 -0.056643 -0.042783 -0.056297 -0.050969 -0.078753 -0.036094 -0.074414 0.076873 0.053836 0.030977 0.021729 -0.022725 0.063423 -0.038334 0.068225 0.068849 0.049792 -0.033524 -0.051103 0.035033 -0.036022 0.024249 0.020440 -0.003887 -0.049054 -0.017443 -0.001539 0.045748 0.063182 0.032074 -0.032996 0.007707 0.053558 0.018953 0.009844 0.010073 0.030610 0.045539 0.058572 -0.052968 0.069613 -0.039509 0.041937 -0.018928 0.028951 -0.076594 -0.067802 -0.062482 0.041101 -0.036872 0.017560 0.022901 -0.024816 -0.026357 0.005345 0.048067 -0.009507 -0.037420 -0.017469 0.041472 -0.065221 -0.077102 0.000777 0.030812 0.059259 0.049549 0.016841 -0.053118 0.063639 -0.078553 0.032788 -0.040995 -0.020725 0.067859 -0.023020 -0.000808 0.006538 0.010091 -0.007068 0.049713 0.004096 0.032782 -0.040296 0.032567 0.069002 0.031192 -0.079263 0.005786 -0.080168 -0.019775 0.056242 -0.013800 -0.050805 0.079316 0.045302 0.076523 -0.044874 -0.047022 0.015699 0.074747 0.048797 -0.053960 -0.077572 0.070228 0.004699 0.028407 0.034400 0.030897 -0.031783 -0.011001 0.032740 -0.070295 0.066995 -0.036253 0.018370 0.031560 0.023682 0.079244 0.064093 -0.052386 -0.035230 0.037986 -0.063877 0.057886 0.004473 0.074331 0.014510 0.080625 0.064334 0.044937 0.077919 0.000359 -0.046952 -0.044733 0.000571 0.006674 -0.073471 0.078233 -0.039197 0.030826 0.030362 -0.005096 0.067789 -0.005727 0.005190 -0.000320 0.018397 -0.014236 -0.028387 0.059718 0.020065 -0.043162 0.045316 0.076770 0.019424 -0.074767 -0.025156 -0.065433 -0.023362 0.072010 -0.041248 0.061466 0.071279 -0.003956 0.020998 -0.038865 0.002917 -0.070269 -0.003885 -0.053146 -0.036874 0.043270 -0.011192 -0.073714 -0.072177 -0.004890 -0.039958 0.038671 0.056923 0.036172 0.044023 -0.078498 -0.024221 -0.044364 0.043897 0.029748 0.017831 0.051006 0.032892 0.012431 0.038120 0.071497 -0.066791 0.058638 0.060856 0.065972 -0.015131 0.000353 -0.055050 0.048312 0.059004 -0.053335 -0.045930 -0.003972 -0.001504 0.039712 -0.052011 0.068988 -0.015823 -0.010045 0.075220 -0.059086 0.072315 -0.024472 0.034967 0.005998 -0.055603 -0.030476 -0.019328 -0.079288 -0.065557 -0.066605 -0.051870 -0.034845 -0.016442 0.001721 0.059322 -0.017413 0.061934 0.023359 0.023010 -0.024654 -0.025378 -0.024142 0.038959 -0.065905 0.003950 0.032342 -0.070208 0.045659 0.031398 -0.022043 -0.063267 -0.040790 0.062172 -0.038360 -0.013202 0.064026 0.074348 0.040759 -0.035376 0.043033 -0.040620 -0.066514 -0.017617 -0.070699 0.074501 0.073741 0.012865 0.017367 0.010493 -0.043595 -0.003452 -0.049278 -0.011963 -0.015853 -0.028449 -0.059144 0.057309 0.066899 -0.028198 -0.070459 0.030069 0.000433 0.043827 0.080619 0.045562 -0.048028 -0.032014 0.058990 0.024828 0.004004 -0.078760 -0.007068 0.011995 0.036652 0.028779 -0.030284 -0.070149 -0.037262 0.028901 -0.027897 -0.025689 -0.035190 -0.047351 0.002129 -0.079241 0.060662 -0.038723 -0.048419 -0.050143 -0.044182 0.023261 0.033204 0.047562 -0.047188 0.078816 -0.079744 0.050454 -0.032587 -0.051741 0.008003 0.058990 -0.066103 -0.052945 0.068424 0.017484 0.042170 -0.047859 0.046911 -0.062250 -0.063045 -0.069811 -0.062723 -0.068371 -0.070844 -0.040198 -0.034025 0.041241 0.004485 0.074408 0.068754 -0.052783 -0.010230 -0.035365 0.064952 -0.050946 0.042148 0.054708 -0.069770 -0.064705 0.023886 -0.077287 0.075466 -0.070623 0.061127 -0.024532 0.017537 0.019104 0.044808 0.063933 0.004445 0.054716 -0.044941 0.061871 -0.059298 -0.017173 -0.006215 0.033827 0.077335 -0.040922 -0.061275 0.001129 0.023645 0.017721 0.066522 -0.058696 0.049776 -0.063011 -0.073961 -0.056269 0.062948 0.009592 -0.028089 0.032331 0.011546 -0.007000 -0.029817 0.055947 -0.010144 -0.001085 0.036129 -0.034461 0.039689 0.002507 -0.006254 0.070983 -0.070250 -0.050837 0.009226 -0.074794 0.046220 -0.019619 -0.055559 -0.012936 0.023567 -0.014156 0.002499 0.026875 -0.037883 0.078505 0.059358 -0.023257 -0.019608 -0.049183 0.037441 -0.039966 0.071396 0.033352 0.064237 0.002732 0.044471 -0.023427 0.027248 0.037929 0.020059 0.039899 0.075242 -0.021565 -0.057553 0.019486 -0.074698 -0.021995 0.080728 0.044013 -0.031077 0.006750 0.023958 -0.004531 0.012725 -0.011188 0.007212 -0.027558 0.052236 0.060387 -0.062697 -0.015538 0.017089 -0.062657 -0.015081 -0.021502 0.005070 -0.000749 -0.072091 0.005049 -0.059378 0.060421 -0.030311 -0.041411 -0.009396 -0.016030 -0.018672 0.006001 0.067623 0.014325 -0.021674 -0.059616 -0.043926 0.079808 -0.077905 -0.032220 -0.006016 0.022569 -0.032150 -0.053518 0.005033 0.009027 0.048262 -0.000670 -0.031969 0.000669 0.011433 -0.014851 -0.002203 0.003398 0.021019 0.050133 0.029476 -0.054092 0.004942 0.043751 -0.002486 -0.077533 -0.072796 -0.071045 0.078357 -0.021468 0.043060 -0.007490 -0.040224 -0.022034 0.011066 0.055119 -0.033858 -0.072629 0.008340 0.070844 0.054081 -0.014837 -0.007045 -0.050513 -0.018224 -0.044730 0.020113 -0.071270 -0.040980 0.052803 0.056708 -0.048973 -0.036271 0.046703 0.055492 0.076237 -0.022940 0.034242 -0.077612 -0.077577 0.079508 -0.060621 0.003742 0.010467 -0.073095 0.018939 -0.036243 0.027562 -0.013369 -0.030632 -0.046170 -0.038910 0.061182 0.065796 -0.035914 -0.002953 0.070883 0.055614 0.076637 -0.062277 0.056192 0.061707 -0.070219 0.035348 -0.051532 0.042040 0.064691 -0.042283 0.026421 -0.006660 -0.039308 0.031368 -0.006858 0.032649 0.004852 -0.042849 -0.002560 0.005386 -0.016633 0.076462 -0.064287 0.039317 0.021812 0.005555 0.057900 0.048794 -0.003202 0.022419 0.024783 0.074825 0.073639 0.011281 0.004960 -0.013734 0.006850 0.050800 0.010275 0.052418 0.068206 -0.043819 0.024890 -0.071633 0.034557 0.055261 -0.002691 -0.044603 0.066118 -0.035083 0.058172 0.006783 0.001159 -0.056253 0.033833 0.063818 0.046165 -0.067170 0.019105 0.032071 -0.051735 0.071211 0.038198 0.079740 0.076140 -0.029674 0.010492 -0.059652 -0.017577 -0.027958 -0.071568 0.058283 -0.041879 -0.008924 -0.020942 -0.044003 0.069984 0.012479 -0.059749 -0.062765 -0.059528 -0.039924 0.056916 -0.031771 0.066683 -0.079993 0.030901 -0.055783 0.043682 0.036345 -0.054769 0.062070 0.050040 -0.000331 0.013874 0.051315 -0.001329 0.048651 0.044127 0.011841 0.041595 0.041689 0.008989 0.080253 -0.039128 -0.052299 -0.013126 -0.024512 0.024116 0.008834 -0.044050 0.059399 -0.043460 -0.004258 -0.052176 -0.055647 0.078349 0.015741 -0.060118 0.022210 0.068015 -0.032215 -0.018360 0.061805 0.069448 0.018617 -0.017255 0.050048 -0.055185 -0.070308 0.068755 -0.024832 -0.070874 -0.073532 0.022816 -0.032517 0.027393 0.064240 0.008643 0.026354 0.037459 -0.040439 0.025745 0.011785 -0.074375 -0.010664 -0.065583 0.021122 -0.042875 -0.029831 0.027035 -0.027810 -0.060134 -0.065080 0.000555 -0.051648 0.055145 0.071841 -0.006903 -0.065164 0.050045 -0.013105 0.039736 0.005891 -0.045826 -0.038984 -0.074788 -0.068913 0.054493 -0.063259 -0.032250 0.062039 0.073606 0.021981 -0.057043 0.002724 0.057732 -0.037988 0.020195 -0.018401 -0.077918 -0.012167 -0.011451 -0.063992 0.059507 -0.030410 -0.048698 -0.053507 0.040728 0.016898 -0.048689 0.022288 0.061716 0.017039 -0.061121 0.024871 -0.013239 -0.022047 -0.065079 -0.007890 -0.006680 0.045457 0.018711 0.050079 0.047452 -0.028743 -0.064750 -0.045637 -0.018296 -0.061061 -0.013195 -0.078241 -0.071816 -0.071925 0.019073 -0.048407 0.040745 -0.026685 0.021101 0.055945 0.022007 0.047940 -0.001552 0.036889 0.013246 0.012293 0.035185 0.061281 0.058276 0.054682 -0.043899 -0.008952 -0.072225 0.080694 0.018731 -0.021501 0.019451 -0.080649 0.003400 -0.080636 0.028191 0.002474 -0.071524 -0.024343 -0.055970 0.067650 -0.034765 0.049662 -0.015766 0.047542 -0.005742 -0.058947 -0.046857 -0.044104 -0.061934 0.058588 -0.071367 0.006321 0.004043 0.046260 -0.011381 0.065034 -0.032812 -0.071791 0.011324 -0.023326 0.036173 0.078344 -0.040482 0.023428 0.044666 0.015538 -0.040855 -0.070230 0.008286 0.039424 -0.019562 -0.000349 -0.070559 0.028087 0.026395 -0.040441 0.033247 0.017282 -0.054296 -0.007254 -0.069582 -0.046774 0.021330 0.077191 0.030164 -0.011359 -0.047408 0.043602 0.024654 0.080206 -0.056079 -0.080298 0.026478 -0.019058 -0.013322 0.047559 -0.035630 0.061129 0.067385 0.057600 0.019324 0.042821 0.044123 -0.070884 -0.075933 0.043830 -0.002397 0.036287 -0.019810 -0.017705 0.034871 -0.040317 -0.018630 0.064841 -0.048232 0.058756 0.007616 0.050910 -0.018858 -0.073969 0.063181 -0.026205 -0.003459 0.047785 0.018841 0.017604 0.055345 0.043043 -0.060447 -0.014226 -0.046688 -0.058983 0.065137 -0.019681 -0.022716 -0.067735 0.005912 -0.073976 -0.051678 0.019596 0.040490 -0.010712 0.021601 -0.046308 0.005893 0.009922 -0.035595 0.027616 0.033135 0.028289 0.015349 0.040355 -0.017818 0.059160 -0.072425 -0.001228 -0.013041 -0.016056 -0.058759 -0.053513 0.029910 -0.071233 -0.010616 0.063136 0.058073 0.005428 -0.004487 0.038908 -0.014482 -0.026687 -0.061521 0.055914 -0.078631 -0.017895 -0.045986 -0.027142 0.070734 0.073024 -0.054655 -0.072617 0.030551 -0.071756 -0.069173 0.045335 0.042678 -0.072390 -0.011273 -0.003592 0.007016 -0.041489 -0.061932 0.069950 0.027144 -0.031760 -0.034036 0.045474 0.080074 -0.032238 -0.045815 -0.016467 -0.068266 0.028058 0.001460 -0.006201 0.005946 -0.078598 0.078036 -0.074776 0.042508 0.063715 0.022311 -0.052881 0.063036 -0.001700 0.035912 -0.042582 -0.040752 -0.044718 -0.070871 -0.050272 -0.060025 0.063798 -0.064404 0.003091 0.016372 0.077316 -0.051715 0.033360 -0.066349 -0.032710 -0.073946 0.079087 0.057377 -0.010285 -0.018440 0.012041 -0.075628 0.025615 -0.021758 0.026264 -0.063938 0.005529 -0.030645 0.006187 -0.060273 -0.027960 -0.076776 0.040583 0.075427 0.038995 0.009597 0.062134 0.029053 0.003750 -0.008786 0.064302 0.073521 -0.074967 0.031131 0.038491 0.050634 0.042869 -0.001242 0.074862 0.042355 0.018723 0.023016 0.041716 -0.063889 -0.001959 0.007076 -0.032233 -0.077303 -0.032415 -0.035162 -0.076608 0.007265 -0.009234 0.046230 0.017453 0.063506 0.005194 -0.016072 -0.066117 -0.060174 -0.067140 0.062152 0.067752 0.012335 0.026577 0.065554 0.018978 -0.052699 0.061855 0.044751 -0.010728 0.033985 0.036684 -0.073222 -0.025594 0.045991 -0.059511 -0.079467 -0.022747 0.034703 -0.053210 -0.072561 -0.036825 0.031585 0.063798 -0.016037 0.042014 0.037548 0.057311 0.035502 0.031338 -0.034853 0.076207 -0.061963 -0.073557 0.016519 0.073781 -0.021732 0.021664 -0.052131 -0.045207 0.005715 -0.062246 -0.066876 0.063354 -0.044017 -0.044356 0.028836 0.020961 -0.038701 0.067508 0.037239 -0.034618 -0.051172 0.035511 -0.024335 0.041968 0.024808 -0.016445 0.043844 -0.049129 0.013587 -0.054751 -0.065640 -0.073307 -0.019171 0.032415 0.001794 0.010715 0.026258 -0.030269 -0.016393 -0.025726 0.020307 -0.051274 0.046825 0.042804 -0.013769 -0.037328 -0.040983 -0.047253 0.065741 -0.055457 -0.025883 0.004956 -0.008927 -0.026832 -0.017792 -0.021093 -0.050928 -0.056916 0.006797 0.051146 0.020665 -0.068665 0.010869 -0.060267 -0.069187 0.061420 0.062288 0.068007 0.038592 -0.049740 0.036978 0.018020 -0.025074 -0.079350 0.033623 -0.040671 0.045352 -0.017459 -0.036348 -0.032532 0.004945 0.061418 -0.032812 -0.043067 -0.053237 0.028778 -0.030683 0.027649 0.023774 -0.033619 0.023518 0.076146 0.034553 0.003106 0.008329 0.025187 -0.032874 0.019245 -0.000150 -0.067583 0.035655 0.039250 0.057873 -0.020753 0.026445 0.057087 0.004439 0.005675 0.016285 0.050774 -0.004499 -0.058445 0.023523 0.059576 0.027263 0.032455 0.026989 -0.018207 0.059185 0.022197 0.015129 -0.000798 0.001501 0.053126 -0.041769 0.023477 0.056773 -0.000609 -0.070865 0.000500 0.042659 0.075011 0.080853 -0.052475 -0.064072 0.019664 -0.076958 0.061601 0.077340 0.000895 -0.019821 -0.044775 -0.052153 0.076053 0.004146 0.079038 -0.071080 -0.027716 0.025537 -0.041348 -0.001929 -0.077700 0.010777 -0.072194 0.065679 -0.020018 0.014174 0.026200 -0.064139 0.063663 -0.067708 -0.063155 -0.051337 -0.064201 0.073974 -0.007084 -0.011050 -0.068114 0.032387 0.010799 0.059168 -0.061459 -0.038874 -0.018695 -0.027303 -0.021449 0.066861 0.054685 0.067002 -0.047074 0.014758 -0.012492 0.012579 0.009157 0.054060 -0.024999 0.072130 0.017403 -0.073894 0.045375 0.046762 -0.068233 0.031086 -0.059049 -0.074881 -0.036671 0.007849 -0.044972 -0.078738 0.012154 -0.036153 0.038252 0.060474 0.013102 0.035075 -0.056445 0.007242 0.046177 0.003917 -0.053111 -0.075643 0.037979 0.029619 -0.045321 0.038945 0.036450 0.072384 0.012015 0.059108 -0.043114 0.079152 -0.002530 0.008059 0.080733 0.059600 -0.021682 0.052331 0.049093 -0.010097 0.021860 -0.070381 0.035719 0.078249 0.067986 0.058284 -0.004009 0.069408 0.001124 0.064710 0.059533 0.037887 -0.078571 0.073775 0.021575 0.014129 0.069586 0.055158 -0.019805 -0.051382 -0.074377 0.074995 0.045105 -0.033258 0.050910 -0.016080 -0.033738 -0.074678 0.038941 0.027862 -0.070140 0.056505 0.001671 0.003698 0.020846 -0.030759 0.067555 0.021000 0.056906 -0.041543 0.040792 0.029653 -0.041531 -0.053090 0.035650 -0.039163 -0.051348 -0.076713 0.000001 0.007362 0.027763 0.028782 -0.051200 0.013507 -0.025784 0.027115 -0.013100 -0.075552 0.078480 -0.018638 -0.044423 0.000429 -0.055662 -0.027951 0.052186 -0.042651 -0.011204 -0.075520 -0.029431 -0.035049 -0.073687 -0.063938 -0.048514 -0.055747 -0.018532 0.047741 -0.066467 -0.029492 -0.022315 0.060001 -0.004792 0.018670 -0.033200 0.061964 0.041875 -0.072487 0.002283 -0.051422 0.064364 0.013791 0.072095 0.078819 0.026000 0.028199 0.052201 0.006157 -0.044352 -0.004799 -0.065816 -0.011166 0.047209 0.071101 -0.075132 0.049360 0.005688 0.009593 0.001499 0.006672 0.080637 -0.063346 -0.019865 0.015393 0.049810 0.064581 -0.074850 -0.037759 0.070889 -0.003920 0.064241 0.030623 -0.075663 -0.070221 0.055316 0.077223 0.035611 0.002487 -0.000273 0.075626 0.010081 -0.009701 0.003678 -0.034479 -0.020700 -0.064193 -0.069872 0.047992 -0.014709 -0.073317 0.008476 -0.048631 0.006801 -0.001381 0.036213 0.076965 -0.015303 0.018052 -0.004110 0.030334 0.002964 -0.015277 0.065453 0.037040 0.036941 -0.002494 0.061733 0.009003 0.020308 0.031378 -0.048835 -0.035312 0.063970 -0.000631 0.011671 0.052054 0.002656 0.080463 0.055529 0.057037 0.041591 -0.033256 -0.036492 -0.010266 0.060017 0.003238 0.057072 0.035657 0.049065 0.034000 -0.072921 0.061313 -0.056725 0.046494 -0.043588 0.047475 -0.069073 -0.023042 -0.054859 -0.075241 0.029579 0.021799 -0.066976 0.040308 -0.005525 -0.041380 -0.015036 0.064899 0.000328 0.002944 -0.038383 0.052120 -0.006747 0.033539 0.060426 0.037410 -0.027686 -0.015698 -0.019855 -0.021078 0.003321 0.027956 -0.002368 -0.070562 0.019729 0.070465 0.013771 -0.024638 -0.009067 -0.005449 0.028990 0.050916 0.016566 0.064285 0.036562 -0.069709 -0.057693 -0.011255 -0.070702 0.026392 -0.031802 0.027037 0.030127 -0.075267 -0.042269 0.020645 -0.023393 -0.060851 0.056699 -0.046507 0.007372 -0.029582 -0.059974 -0.038574 0.016111 -0.035963 0.003070 -0.077072 -0.008429 0.080633 0.020329 0.052454 0.070767 0.008047 -0.001471 -0.040134 -0.068106 -0.038778 -0.020483 -0.061117 0.076494 0.015061 -0.007267 -0.078967 0.042870 0.074992 0.004922 0.078611 0.018995 -0.020625 0.013875 -0.012139 0.019147 -0.051196 -0.057954 -0.069355 0.054662 -0.078985 -0.025467 -0.015739 -0.027942 -0.010672 0.018568 -0.049116 -0.047016 0.031269 -0.053517 -0.034442 0.016961 0.062755 -0.027450 -0.066525 -0.058404 0.010791 -0.033449 0.025647 -0.033675 -0.031333 0.017337 0.011384 -0.064603 -0.049466 0.056398 -0.022613 -0.079609 0.052022 0.050620 -0.033674 -0.068930 0.035717 0.051698 -0.021025 0.045533 -0.015208 0.067738 -0.012703 0.074233 -0.070258 0.019586 0.041409 0.029974 -0.074315 -0.000699 0.018277 -0.027090 -0.077429 -0.027997 0.016165 0.055332 -0.058983 0.070076 0.068269 -0.015268 -0.051657 -0.043364 0.046571 -0.070080 -0.065625 -0.041699 0.008697 -0.014312 -0.054754 -0.056526 0.040028 -0.071340 0.052194 -0.008569 -0.013601 -0.017175 -0.068890 0.067359 -0.025660 0.026971 0.040085 0.048207 0.029275 -0.016649 0.003530 -0.016199 -0.037813 -0.017368 -0.030565 0.060429 0.077585 0.033470 0.057931 0.063599 -0.066875 -0.076366 0.019498 -0.004853 0.066166 0.006776 0.060545 -0.047113 0.022122 0.068502 -0.014235 0.074257 -0.027278 0.025832 -0.069137 -0.070849 0.061233 0.031579 -0.036726 -0.009989 0.019602 0.016451 0.078239 -0.064441 0.015579 -0.044530 0.008269 0.042058 -0.015097 -0.073097 -0.053376 0.032474 -0.048366 0.076722 0.034839 -0.072209 0.071553 -0.068108 -0.024370 -0.026406 -0.074961 0.071591 -0.059869 0.032328 0.014767 -0.032656 -0.024265 0.056948 0.024292 -0.032493 0.045850 0.042469 -0.060723 0.063410 -0.007032 -0.044173 -0.039769 -0.043413 0.032066 -0.013908 0.034410 0.072203 0.020617 -0.040729 -0.079560 -0.065519 -0.030476 -0.074610 0.078778 -0.027589 -0.057918 0.008322 -0.028979 0.047251 -0.073498 0.050950 0.031053 -0.010695 0.054498 0.062675 -0.022431 0.011808 0.012857 -0.056217 -0.011106 0.005340 0.020823 0.066413 0.068020 0.073722 0.044254 0.031298 0.028335 -0.003070 0.017555 -0.072332 -0.076467 -0.021016 0.074888 0.010010 0.014976 -0.048996 -0.060570 -0.064121 -0.079227 0.063243 0.010254 0.066476 0.044134 -0.021234 -0.076476 0.002491 0.056462 0.039749 -0.035581 -0.038465 -0.050121 0.011150 -0.005216 -0.066542 0.039794 -0.071001 0.000722 -0.054233 -0.056710 -0.015236 0.043151 -0.017026 -0.007758 -0.048471 0.045119 0.060649 -0.020095 -0.054889 0.076574 0.007851 -0.035092 -0.021611 0.016570 -0.034339 0.050666 0.079740 0.055725 0.047724 -0.025396 0.064739 -0.014277 0.031927 -0.011265 0.065073 0.044632 -0.014519 -0.010355 -0.059552 -0.074064 -0.024506 0.058069 0.048391 -0.039803 0.046455 -0.069792 -0.022183 -0.049201 0.077655 -0.009934 -0.063546 -0.067538 -0.078199 -0.047330 0.002553 0.032123 0.004765 -0.025073 0.008385 0.023711 -0.011784 0.015094 -0.043670 0.000298 -0.047059 0.025961 0.028575 0.065879 0.004910 0.034959 0.033290 0.000594 -0.059123 0.067078 -0.080482 -0.077075 0.000782 -0.019346 -0.052503 -0.036260 -0.060119 -0.019581 -0.041854 -0.009982 -0.022249 -0.065581 -0.061209 0.046801 0.074937 -0.076827 -0.055957 0.008190 0.080162 -0.005535 0.066039 0.049646 0.014819 -0.069187 -0.065543 0.030426 0.033566 0.063127 0.015255 -0.046486 -0.020995 0.033644 -0.046941 0.017517 0.003046 0.066563 -0.073454 -0.054741 -0.058979 -0.030368 -0.002570 -0.030903 -0.067762 0.043455 0.044797 -0.029234 -0.075773 0.047797 -0.074800 0.030328 -0.039855 -0.006681 -0.033938 -0.077784 0.048513 0.046366 0.069313 0.016347 -0.024589 -0.009748 0.046599 0.035831 -0.057114 0.048016 0.051640 0.070095 0.056865 0.054445 0.024717 -0.007746 -0.013948 0.018886 0.064957 -0.019272 -0.001660 0.068993 -0.044707 -0.034883 0.045612 -0.018907 -0.037201 -0.002604 0.065536 -0.053829 -0.031499 -0.042244 -0.020782 0.058914 0.060172 0.025289 -0.078265 -0.013358 -0.067116 0.026747 0.074020 -0.007369 -0.064959 -0.041572 -0.060039 0.070234 -0.049726 0.041196 0.069387 0.079750 -0.024857 0.066922 -0.040416 0.050284 0.046337 -0.049954 -0.060845 0.025519 0.062199 -0.016271 0.021606 -0.074158 0.020872 0.047785 -0.070637 -0.031700 0.042203 0.051313 -0.054371 0.024474 -0.027303 0.076314 -0.063597 -0.003671 -0.036133 -0.030545 -0.025882 0.024981 -0.037692 -0.013615 -0.024671 0.048707 -0.019519 0.020562 -0.039070 -0.072216 0.002122 -0.019820 -0.026787 0.033062 0.068254 0.013028 -0.050178 0.080421 0.076821 0.006354 -0.016660 -0.007086 0.050928 -0.045695 -0.007919 -0.034840 -0.076713 0.028134 -0.062829 -0.025981 -0.029081 0.064797 -0.035756 -0.047778 0.001825 -0.031592 -0.019849 -0.068111 0.007825 0.062164 -0.039208 0.035367 -0.046122 -0.079284 0.077040 0.066849 0.067433 0.019288 -0.038018 0.005708 0.066791 -0.027299 0.050708 -0.065038 0.014547 0.033089 0.031235 -0.020193 0.054776 0.031008 -0.023668 -0.028654 0.051731 -0.062353 -0.052399 -0.050842 -0.045825 0.066647 -0.076366 -0.021407 0.010659 0.070769 0.007806 0.055923 0.021988 0.007829 0.049823 0.050517 -0.058760 0.034928 0.055632 -0.001897 -0.020139 0.049521 -0.040465 0.038589 0.043859 0.043362 -0.047469 0.076655 -0.065428 -0.076249 -0.064620 0.021832 -0.018444 0.037251 0.031936 -0.035397 0.029455 0.012643 -0.063120 0.029283 0.052922 -0.040372 -0.027855 -0.024858 -0.026097 0.068183 0.053751 0.051186 -0.055242 0.047469 -0.036874 -0.006135 0.017088 0.004329 0.005038 0.025435 -0.004909 -0.047044 -0.005144 -0.052374 0.005362 -0.046504 0.021743 0.018923 0.047321 0.017769 -0.075643 -0.069758 -0.059223 -0.024047 0.057398 0.042673 0.001265 -0.037516 -0.062518 0.079058 -0.001214 -0.061152 0.026441 0.077247 -0.056914 0.000945 -0.026746 0.060976 0.031993 0.051708 -0.073181 -0.065334 0.006743 -0.051206 -0.005666 0.025676 0.037386 0.062991 0.066084 -0.074869 0.001293 -0.047313 0.039758 -0.025576 0.070589 0.078327 0.044681 -0.041156 -0.061266 0.030619 0.010380 0.056169 -0.015915 -0.045398 -0.010357 -0.058507 -0.024361 -0.049058 -0.048208 0.076887 0.002683 0.055516 -0.055638 0.063239 0.042225 -0.047075 -0.034483 -0.040310 -0.037882 -0.016245 -0.074697 -0.026418 -0.067825 0.065060 -0.046858 -0.077881 -0.006097 -0.080231 0.030990 0.013354 -0.022960 0.040573 0.004011 -0.004217 -0.071456 -0.070870 0.071702 0.046046 -0.014387 0.025190 -0.037362 -0.004425 -0.037544 0.027555 0.068357 0.007745 0.016054 0.051919 0.038935 -0.067124 0.034448 0.076649 0.074096 0.056736 -0.029673 0.006068 -0.034394 0.064028 -0.017615 -0.009490 -0.073216 -0.049846 -0.050340 0.037545 0.075305 0.012608 -0.025535 -0.031270 0.023227 0.008578 -0.017765 -0.047859 0.014983 -0.046106 -0.005229 -0.029966 -0.019521 0.005682 -0.072408 0.003146 0.010701 -0.009847 -0.048073 -0.047239 0.015862 0.038385 -0.077728 0.002307 -0.063241 -0.031491 -0.014710 0.026233 -0.049397 0.054560 -0.077511 0.019086 0.057624 0.021972 0.079464 0.076337 0.067709 -0.055845 0.041896 0.024412 -0.010134 0.068358 0.008933 -0.012767 -0.078893 -0.021751 0.020047 0.055119 0.057120 0.034527 -0.033140 0.005888 -0.009812 -0.037658 -0.000500 0.060851 0.014380 -0.008744 0.069496 0.076106 -0.051541 -0.008060 0.030813 -0.056392 0.038807 -0.079064 0.000642 -0.001793 0.071077 -0.051017 -0.060527 0.002758 -0.045752 -0.023766 0.036841 0.021854 -0.008843 -0.061491 -0.009794 0.022948 -0.026586 0.021138 -0.009779 -0.018877 0.038629 0.001459 0.076510 0.023161 0.069679 -0.006365 0.057527 -0.008468 -0.048297 -0.057326 0.051857 -0.012804 -0.073207 0.004244 -0.069704 0.009238 -0.061550 -0.004146 -0.030168 0.024164 0.075888 -0.065597 0.068122 0.044838 0.030534 0.022962 -0.031524 0.060645 0.032226 0.002260 0.050789 -0.037931 0.053672 -0.051155 0.080515 -0.001283 0.076768 0.025041 0.032205 0.017840 0.054935 -0.008594 0.071626 -0.061614 0.021147 0.039889 -0.004206 0.078222 0.070993 -0.022405 0.030569 0.007516 0.067207 0.020397 0.012590 -0.010318 -0.028419 -0.012023 -0.012533 -0.007503 0.023101 -0.064671 -0.032188 -0.013409 -0.025720 -0.058280 0.057213 0.019554 0.033051 -0.038747 -0.027382 0.000361 -0.023280 0.019695 -0.009391 0.044755 -0.000275 0.030673 0.074099 0.026567 -0.039884 -0.070130 -0.037032 0.077136 0.040733 0.014586 0.007167 -0.017989 -0.073246 0.013044 0.030611 0.011666 -0.047024 0.043855 0.021624 0.010990 0.074731 -0.042755 -0.007060 0.054460 0.035365 0.041316 -0.075338 0.066017 0.011703 -0.076532 0.060903 -0.079663 0.036846 -0.054672 0.030103 -0.036822 0.049862 -0.021305 0.019733 -0.024664 -0.029013 0.016760 0.038970 0.054919 0.060305 0.036142 0.002420 0.057073 0.046064 -0.081206 -0.047708 0.022153 -0.022993 -0.042709 0.074302 0.064106 -0.034959 -0.018526 -0.061008 -0.056753 0.081443 0.063642 0.040876 0.028008 -0.071776 -0.018495 0.003759 0.078786 -0.017845 -0.065272 0.038949 0.031642 0.011085 0.073705 -0.067611 0.054552 0.004502 -0.010921 0.070024 0.032018 0.047016 -0.054027 0.050706 0.054161 0.023350 0.047909 0.010218 0.054659 -0.001964 -0.045563 0.033854 -0.057507 0.055853 0.036609 -0.039308 -0.053255 0.001350 -0.013222 0.058761 -0.039788 0.035722 -0.024288 -0.054321 0.012253 -0.067491 0.103880 -0.020518 -0.051713 -0.011213 0.071584 0.022194 0.023757 0.004219 0.072165 0.050032 -0.068103 0.064265 0.074041 -0.001302 -0.049041 0.002470 0.063974 0.024007 -0.002864 -0.026348 0.016002 0.053598 -0.077530 0.064751 0.066170 -0.062525 -0.034523 0.060799 -0.066724 0.052397 -0.023176 -0.046260 0.031380 -0.058164 -0.085435 0.077266 -0.036559 0.039760 -0.083564 -0.047045 -0.016737 -0.057620 0.020797 0.056576 -0.075520 0.058045 -0.057986 -0.058801 -0.079665 -0.056204 -0.034927 0.045878 0.022550 0.016663 -0.016985 -0.065280 -0.016141 0.001938 0.033368 0.055495 -0.019908 0.047749 -0.082440 -0.029996 -0.054516 0.030955 -0.076843 -0.007555 -0.023630 -0.094582 -0.054394 -0.068845 0.084706 0.125282 0.051344 0.036100 -0.039296 -0.005348 -0.036709 0.065094 0.015881 -0.044357 -0.027499 0.091208 0.116298 -0.068369 -0.080458 0.014305 -0.111777 -0.067215 -0.079047 -0.039859 -0.009793 0.079646 -0.015295 0.081906 0.058219 -0.023915 -0.013084 -0.040066 0.025166 0.052356 -0.041455 -0.046202 0.106197 -0.077357 -0.008481 -0.011478 0.027474 -0.007518 0.048292 0.003421 -0.088010 -0.049290 0.032116 -0.068853 0.067833 0.049166 -0.087192 -0.002753 -0.033036 0.053157 -0.012435 0.063063 0.045211 0.082358 0.033043 0.075106 0.058297 0.006947 0.046206 0.090314 0.106745 0.071799 -0.129283 0.057712 -0.048528 -0.025997 -0.064687 -0.031246 -0.028549 -0.040403 0.053461 0.055373 -0.017655 0.032614 -0.064872 -0.058848 0.080836 0.012336 0.082353 0.074375 0.089865 0.000005 0.085922 0.012964 -0.082922 -0.071022 -0.069134 -0.073309 0.014252 0.085793 0.018225 0.038655 -0.057955 -0.070328 0.007529 -0.024755 -0.054566 0.002126 0.024156 -0.035585 0.022600 -0.026057 -0.074954 -0.012296 -0.082057 0.027227 0.015005 -0.033062 0.011091 0.056725 0.081669 -0.008356 -0.062531 -0.046575 0.119806 0.060284 0.050585 -0.069920 0.007307 -0.078540 0.001753 0.002382 -0.017219 -0.025330 0.049807 -0.059798 0.028369 0.077440 0.014710 0.017068 -0.027409 0.018532 0.057116 -0.095340 -0.047959 0.080496 -0.067433 -0.024035 0.029521 -0.051375 0.135374 -0.018058 -0.069074 -0.013801 -0.076382 -0.055632 -0.077616 -0.063304 -0.002670 -0.031547 -0.068840 0.013660 0.047744 -0.039935 -0.087740 -0.033725 -0.047257 0.023258 -0.042986 -0.002779 0.041266 -0.011639 -0.045462 0.033732 -0.086922 0.062358 0.019547 -0.048104 -0.009000 -0.046514 0.073795 0.026437 -0.041176 -0.070941 0.003459 -0.062451 0.018552 0.047528 0.097964 -0.036921 0.050926 -0.054483 0.003723 -0.040180 0.063082 -0.108905 0.040965 0.044298 0.037314 -0.012806 0.034145 0.011357 -0.052370 -0.069783 -0.113210 -0.040963 -0.061961 -0.001726 -0.040889 0.081169 -0.060428 0.060572 -0.025735 -0.001062 -0.056203 0.015760 -0.060702 0.040690 0.000022 0.092402 0.051827 0.065091 0.038425 0.081297 -0.050542 -0.066813 -0.012690 0.060783 -0.057416 -0.032060 0.024634 0.067511 -0.151088 0.014331 -0.057977 -0.025445 0.030399 -0.009895 -0.043750 0.045770 -0.091755 0.097794 -0.106807 0.037402 0.036397 0.047702 0.148904 -0.058704 -0.019372 -0.072993 0.050629 -0.160213 0.211842 -0.079071 0.085616 -0.076804 -0.011086 -0.152056 -0.034849 0.056035 0.094228 -0.100479 -0.022375 -0.198207 -0.085554 -0.075457 -0.001636 0.119090 -0.018717 0.032152 0.052974 -0.065765 -0.042595 0.013139 -0.081426 -0.125795 0.083887 0.077739 0.170472 -0.095753 0.081718 0.077656 -0.074688 0.020155 -0.162755 -0.025701 0.092605 0.118217 -0.062987 -0.116424 0.009153 -0.078116 -0.041089 -0.012780 -0.088777 -0.023272 -0.007646 -0.031512 -0.017118 -0.024013 -0.025061 -0.099445 -0.120207 -0.061945 0.062312 -0.060230 -0.043545 -0.023452 0.073122 -0.090450 0.036187 -0.094747 -0.105802 -0.142154 -0.101595 -0.008380 0.058327 -0.044793 -0.093840 -0.089274 0.095603 0.011321 0.033003 0.067805 0.035731 0.030341 -0.018537 0.066580 -0.080995 0.014364 -0.073630 -0.017069 -0.156664 -0.038689 -0.000339 -0.019563 0.017028 -0.031509 -0.050470 0.028965 -0.002555 -0.077010 -0.059455 0.062387 -0.012039 -0.092126 -0.050817 0.054770 -0.048529 -0.069914 -0.071922 -0.056123 -0.027950 -0.011322 -0.022546 -0.044233 -0.062750 0.062293 0.026304 -0.025130 -0.067293 -0.076157 -0.084673 -0.070835 0.026039 0.055098 0.022491 0.026110 -0.100325 0.059898 -0.047405 -0.069205 0.136395 -0.007225 0.099546 0.059466 -0.102721 0.011345 -0.054388 -0.115979 0.122626 0.041805 -0.015838 0.082939 -0.021645 -0.047374 -0.026947 0.025981 0.145763 -0.015507 0.103137 -0.166592 -0.080747 0.038781 -0.034123 0.097152 -0.086094 0.021377 0.070891 0.029349 0.035628 0.075141 0.070115 -0.054058 0.066213 0.106404 0.097412 -0.089079 0.053855 0.003873 -0.052654 -0.002410 -0.112217 -0.092972 0.022581 0.040157 -0.141405 0.020147 0.045639 -0.002677 0.048196 -0.034570 -0.085784 -0.016135 -0.056707 -0.106413 -0.021654 -0.099633 0.023745 -0.104564 -0.089450 -0.002131 -0.002387 0.110490 -0.114514 -0.041639 -0.026988 -0.032524 0.119607 -0.114526 -0.106369 -0.154993 -0.121125 -0.002636 0.121781 0.053800 -0.093500 0.013416 0.068117 -0.149592 0.100985 0.024490 -0.068518 0.072262 -0.091234 0.127673 -0.029261 0.111333 -0.000182 -0.028633 -0.077804 -0.041878 -0.014459 0.024427 0.045265 -0.099429 -0.041339 0.086825 -0.060178 -0.024695 0.018930 0.140923 -0.055974 -0.093003 0.099314 0.057084 -0.035603 -0.068144 -0.049647 -0.012630 -0.045793 -0.011354 0.016977 0.045923 -0.023598 0.029011 0.106479 -0.027840 -0.026171 -0.103143 -0.078158 -0.013183 -0.107786 0.045486 -0.111733 -0.045270 -0.082943 -0.002167 -0.115413 -0.020799 0.043361 0.044585 0.000919 0.068059 -0.088251 -0.029558 0.050912 -0.057507 0.103806 0.064310 0.027900 0.015836 -0.017757 0.000734 0.031181 -0.068608 0.101425 -0.126440 -0.012149 -0.010151 -0.002995 0.033041 0.009103 -0.045999 0.139102 0.045549 0.058396 -0.045978 0.062644 0.101768 -0.054203 -0.009014 -0.019153 0.072662 0.175711 0.054368 0.087211 0.035436 -0.055931 0.051437 -0.101016 -0.117890 -0.030664 0.013779 -0.077547 0.042742 0.027269 -0.026369 0.007626 -0.002140 -0.037095 -0.076406 -0.133788 0.043144 -0.070654 0.001289 0.066328 -0.069235 -0.005609 -0.020871 -0.019357 0.040374 -0.123293 -0.121148 -0.119524 -0.037153 -0.011386 -0.056566 -0.075041 -0.101789 -0.002358 -0.121491 0.118747 0.027357 -0.080493 -0.097735 -0.045622 -0.011108 0.103859 -0.053075 0.078750 0.035935 -0.050251 0.055975 -0.034072 0.085260 -0.047930 -0.062842 -0.100646 -0.050856 -0.036488 0.001750 0.026577 0.007169 0.042214 -0.006933 -0.071204 0.049882 0.022501 0.009183 0.050338 -0.104151 0.017756 -0.059191 -0.052444 -0.034923 0.003331 -0.064961 0.058099 0.006198 -0.014986 0.046740 0.011112 -0.102659 0.017679 0.055568 0.013865 -0.056494 -0.070081 0.001845 -0.012104 -0.009651 -0.108900 0.004751 -0.024842 0.017471 -0.067257 -0.088001 0.068074 -0.037014 0.080497 0.076751 -0.065193 -0.097219 -0.012677 -0.168589 0.102982 0.017491 0.050880 0.112727 0.018220 0.018849 0.036578 -0.031628 0.109429 -0.099356 0.100977 -0.078127 -0.110287 0.143004 0.074309 0.059937 0.072174 0.040529 0.041114 -0.089724 0.136941 -0.001968 0.027887 0.087358 0.042378 -0.013938 0.194447 -0.043176 0.012587 0.104599 0.002419 0.024091 -0.162335 -0.076080 -0.061271 0.014346 -0.122640 -0.101437 -0.101483 0.013187 0.033048 0.074474 -0.084057 -0.042887 -0.117436 0.025142 0.048035 -0.045434 -0.067750 -0.088995 0.056227 0.091396 -0.015324 0.071228 -0.113290 0.043432 0.026402 -0.034019 0.052812 -0.100044 -0.084075 -0.036200 -0.024721 -0.100222 0.082940 -0.010167 -0.062141 -0.123469 0.056966 0.028670 0.127807 0.123181 -0.034773 0.118691 -0.079114 0.042741 -0.068900 -0.000481 -0.017672 -0.018162 0.033354 -0.030969 -0.165545 0.052064 0.013432 0.014600 0.012767 -0.098548 -0.130149 0.087275 0.042405 -0.018582 0.076765 -0.011249 -0.107359 0.048693 0.005010 0.020300 -0.015444 0.012228 -0.052112 -0.007784 0.091455 0.097430 -0.019092 -0.003471 0.035743 -0.051810 0.042545 0.032966 -0.044258 -0.007229 -0.093880 0.088799 -0.030730 -0.069683 0.024262 0.139560 -0.063457 -0.068094 0.140212 0.131458 -0.021624 0.018133 -0.037264 -0.167325 0.005001 -0.158040 0.046591 0.027081 -0.117108 0.042978 -0.038075 -0.033846 0.071652 -0.075120 0.077572 -0.115957 0.106585 0.107526 -0.032234 0.017031 -0.043056 0.120633 0.003720 -0.091447 0.131731 0.022384 -0.045796 -0.012920 -0.054842 0.010128 0.066803 -0.093574 0.190864 0.083373 0.086203 0.034164 -0.029020 0.055682 -0.109331 -0.045861 -0.028461 -0.034978 -0.042649 -0.061187 -0.033878 0.064737 -0.068471 0.115785 0.059521 -0.129683 0.034916 -0.058864 -0.080997 0.005208 -0.056626 -0.036011 0.051922 -0.027450 -0.050636 0.123390 -0.011651 -0.101854 0.059326 0.060514 -0.045373 0.022641 -0.088298 -0.015912 -0.034730 -0.010098 0.003698 -0.047960 -0.080635 -0.061146 0.030973 0.026339 0.026159 0.021131 -0.039159 -0.047192 -0.102858 0.086640 0.026169 0.042499 0.033065 0.036275 -0.033406 -0.071149 -0.068529 0.041951 0.109883 0.002523 -0.013703 -0.008150 -0.078600 0.109368 -0.071520 0.043409 0.017299 -0.011812 -0.018123 0.010016 -0.010409 0.050582 0.066010 -0.003451 -0.075961 -0.152982 0.009189 0.056169 -0.066950 -0.010068 -0.049390 -0.075835 -0.018797 -0.092816 -0.066503 0.016847 0.009705 0.058900 0.012334 0.028541 -0.054335 0.070043 -0.042815 -0.103074 0.217863 0.072552 0.095088 0.052219 -0.030476 -0.013832 0.042657 -0.113024 0.069755 -0.062285 0.052306 0.051450 -0.035661 -0.004351 0.049528 0.018005 -0.030320 -0.262084 0.106045 -0.021353 -0.105366 -0.095566 0.017955 0.029163 0.002776 -0.137614 -0.018761 -0.011581 0.012374 0.051478 -0.037813 -0.082532 0.063634 0.020532 0.077673 0.062355 -0.020206 0.068450 -0.075228 -0.017852 -0.134610 -0.081443 -0.058147 0.033297 -0.027949 0.002278 -0.139130 -0.041954 0.040732 0.103125 0.106235 -0.008093 -0.032873 -0.024396 -0.095727 -0.004953 -0.068416 -0.042911 -0.100630 0.043638 -0.087444 0.156691 0.006032 -0.083863 -0.071422 -0.008113 0.007844 0.032339 -0.088996 0.004083 0.043586 -0.079861 -0.076000 0.007579 -0.041306 -0.086186 -0.043699 0.023340 0.012399 0.010449 -0.048113 -0.017896 -0.130947 0.195239 -0.021580 0.066231 -0.087327 -0.076154 -0.007032 -0.076247 -0.107579 -0.081740 0.095837 -0.055958 0.073428 -0.021985 -0.085891 -0.008544 -0.051480 -0.015391 -0.036487 0.005299 -0.175076 -0.128078 0.002402 -0.078682 0.042514 -0.014263 -0.006050 -0.187325 -0.047157 0.065553 -0.003318 -0.044593 0.082556 0.083228 0.000605 -0.090847 -0.028365 0.052357 0.060851 0.047002 -0.041067 -0.013052 0.052916 0.053273 -0.000434 -0.068198 0.114175 -0.012728 0.117155 -0.048587 -0.047346 -0.126500 -0.022631 0.004721 0.193044 0.009383 0.094442 0.161455 -0.052448 -0.056261 0.014629 0.007127 0.064758 -0.202990 0.150335 0.070392 -0.129567 -0.031605 -0.077225 0.097725 -0.040347 -0.084089 0.087550 -0.054084 0.084811 0.057301 -0.070036 -0.000708 0.028771 0.001657 0.151603 -0.004012 -0.019852 0.088466 -0.055052 -0.024713 0.013202 0.020180 0.023486 -0.051014 -0.054031 0.038288 -0.012788 -0.006541 -0.054431 0.024683 0.060656 -0.126542 0.071312 -0.078687 -0.071056 0.002615 -0.028129 -0.022742 -0.048275 0.177267 0.074418 0.023099 -0.011625 -0.010712 0.051652 0.000691 0.026280 0.033324 -0.156753 -0.045523 -0.124069 -0.006486 -0.057078 0.082314 -0.076682 -0.035195 0.136119 0.020944 0.019050 0.105704 -0.134303 0.011011 0.073581 0.173936 -0.061195 -0.026725 0.036884 0.039179 -0.125348 0.072086 -0.027045 -0.027247 0.143949 -0.082735 0.097952 0.003115 -0.102836 0.098203 -0.046197 -0.012785 0.039995 -0.070815 -0.126501 -0.088575 -0.047020 -0.053314 0.066767 0.075278 -0.052345 -0.202029 0.041985 0.011723 -0.024307 0.069685 0.028717 -0.015154 -0.099504 0.044440 0.029688 0.035872 -0.001749 0.083430 0.045816 -0.070857 0.000311 0.058696 0.080040 -0.021033 -0.049852 -0.089487 -0.047888 -0.028180 0.002871 -0.010203 0.049207 -0.109520 0.067241 0.074172 0.009055 -0.033650 -0.090886 -0.020255 -0.098856 0.053341 0.029557 -0.063579 0.055141 0.102492 -0.103957 -0.017926 0.078260 0.112754 -0.124225 -0.080149 0.103915 0.013061 -0.073094 -0.048374 0.015236 -0.033551 -0.062741 -0.064880 0.206696 -0.084127 -0.013215 0.061576 -0.081983 -0.064381 -0.140123 -0.054436 0.085831 0.019836 -0.112965 -0.064539 -0.049589 0.013091 -0.043240 0.060176 0.052988 -0.113213 0.047690 -0.007765 0.000978 -0.076933 -0.109216 -0.079521 -0.005009 0.100050 -0.023408 0.010774 -0.027697 0.013142 -0.025438 -0.040077 0.006029 0.048696 -0.070515 -0.083045 0.004667 0.056750 0.017047 0.055042 0.064881 -0.075149 0.098796 -0.009942 0.057645 -0.032962 0.053617 -0.019153 -0.033052 0.000348 -0.114546 -0.027350 0.005857 0.072091 -0.050057 0.030175 0.051185 0.061116 0.065743 -0.057801 -0.051338 0.015223 -0.082386 -0.018896 -0.055459 0.039918 0.013982 0.024519 0.004288 -0.139146 -0.048245 -0.050148 0.082145 -0.018273 -0.045836 -0.246012 -0.056819 -0.048970 0.028361 -0.068957 -0.063950 0.009396 -0.078151 -0.006084 -0.064811 -0.037039 -0.038716 0.007223 -0.037588 -0.111289 -0.060666 -0.101375 0.003428 -0.087217 0.058592 -0.009332 0.031109 -0.048798 -0.066139 -0.095762 0.059799 -0.126275 0.124395 -0.037883 0.091948 0.013781 -0.047403 -0.124073 0.011510 0.059094 -0.035776 -0.010619 0.019063 0.120395 0.137181 -0.028597 0.067095 0.036376 -0.001477 0.004096 -0.004003 0.074205 -0.076427 0.006013 0.002790 0.069175 -0.011996 0.036508 0.097460 0.002403 0.022275 -0.015798 -0.120944 0.038270 -0.205843 0.073909 0.096669 -0.083434 -0.013279 0.036456 -0.009613 0.007275 -0.063993 0.038743 0.113193 -0.092422 0.031075 -0.010821 -0.002653 -0.036495 0.015722 -0.092625 0.002702 0.002178 0.068097 0.069623 -0.029701 -0.059185 -0.003574 0.056086 -0.069416 -0.105882 -0.015864 -0.080260 0.066505 0.030636 0.035971 -0.008370 -0.031788 -0.011070 0.004836 -0.010028 0.118468 -0.070310 -0.000496 0.058099 -0.069056 0.064336 -0.071337 0.045494 -0.077746 -0.070484 -0.014028 -0.039494 -0.049060 -0.036398 0.014532 -0.088803 -0.039353 -0.007947 0.004478 -0.041150 -0.068800 0.090515 -0.028677 -0.037286 -0.076653 -0.002088 -0.032940 0.002595 0.011478 0.044093 0.001827 -0.173424 -0.052276 0.027425 -0.073181 -0.052986 0.003584 0.016444 0.009450 0.005235 0.014872 -0.022049 -0.036530 -0.028369 -0.001728 0.041377 0.081139 -0.049094 0.061871 -0.033293 0.017073 -0.022566 -0.011090 -0.068696 -0.074476 -0.052653 0.021874 -0.043183 0.160510 0.070181 0.062973 0.064542 0.003062 0.043166 0.052412 0.024419 -0.026554 -0.147408 0.024148 -0.025253 0.057707 0.006248 -0.016391 -0.030206 0.028254 -0.086727 0.016345 -0.064221 0.032610 -0.048011 -0.050207 -0.050452 -0.052593 0.011094 0.127493 0.047806 0.047494 -0.082683 -0.062537 0.018410 -0.073477 0.066238 0.111687 0.039081 -0.060491 -0.065241 -0.019530 0.034575 -0.003073 -0.016787 -0.023370 -0.095103 0.052041 -0.111110 -0.074797 -0.030774 0.053024 -0.032504 -0.111089 0.000728 -0.068004 -0.048020 0.013269 0.006436 0.001930 0.040549 -0.007870 -0.065060 -0.093696 0.007747 -0.026413 0.100771 0.004184 0.053048 0.050972 -0.020601 0.079829 0.039689 -0.000989 0.035756 -0.125232 0.014279 0.020968 -0.006815 -0.047863 0.089529 0.033033 -0.054596 -0.037012 0.055130 -0.037743 0.012577 -0.035601 0.022265 -0.062687 0.002245 -0.084460 -0.089684 -0.002070 -0.063707 0.084626 -0.013285 -0.142705 -0.088375 0.091496 -0.027016 0.082585 -0.002422 -0.027212 -0.078824 -0.056922 0.071207 -0.037372 -0.034170 0.000852 0.091412 -0.092352 -0.008362 0.055281 -0.032027 -0.031315 -0.048517 0.048783 -0.024688 -0.016810 0.034016 -0.056399 -0.013094 0.077756 0.033928 0.067257 -0.017815 0.059147 0.034617 0.008847 -0.052286 0.074702 0.029020 -0.044558 0.063585 0.011153 0.054428 0.010653 -0.049425 0.084004 0.015313 0.144405 -0.038344 0.020782 -0.057790 -0.009200 -0.040394 -0.002778 -0.095928 0.007575 -0.004464 -0.098602 -0.056696 -0.061124 0.031140 -0.107729 -0.022132 0.103544 -0.073457 -0.056892 0.036906 -0.003625 0.035899 -0.032372 0.022058 -0.057618 -0.059619 -0.044899 -0.041571 -0.007935 -0.054049 -0.028444 0.032356 -0.061273 -0.017369 0.056712 0.053307 -0.058087 -0.006608 0.057308 -0.097622 -0.033456 -0.040159 -0.072841 -0.003001 -0.082843 0.006472 0.074381 -0.002588 -0.081722 -0.057213 -0.133487 -0.066266 0.014018 -0.039382 0.003836 -0.013411 0.003481 -0.102096 -0.031991 0.018555 0.089501 0.035701 0.047886 -0.082759 -0.079633 -0.062116 -0.007236 0.039910 -0.031820 0.014379 0.017790 0.060468 -0.054052 -0.054825 -0.035704 -0.057064 0.041416 -0.149101 0.025371 -0.041637 -0.002065 0.006546 0.036635 -0.056513 -0.044313 -0.121987 0.062908 -0.061259 -0.020924 0.033924 -0.023539 0.014514 0.023460 0.039538 -0.001724 0.037709 -0.052932 -0.020789 0.073843 0.040472 0.008529 0.056252 -0.059751 0.037229 0.016194 -0.064607 -0.054255 -0.075919 -0.066341 0.046403 0.005393 -0.004600 0.001709 0.053716 0.053226 0.050334 -0.003742 -0.041295 0.005160 -0.073134 -0.054982 0.048783 -0.070767 0.051345 -0.048869 0.011334 0.069815 0.035269 0.019556 0.039966 0.071261 -0.068850 0.045398 -0.054687 -0.042759 0.034068 -0.031282 0.063429 -0.043840 0.023366 0.040766 0.048130 0.040402 0.055272 0.094750 0.003601 -0.072340 0.045326 0.014204 -0.006589 0.028950 0.026457 0.057319 -0.061129 0.048587 -0.049556 -0.031478 0.067908 -0.093078 -0.002540 -0.053638 0.023672 -0.027581 -0.045215 -0.083126 -0.055010 -0.067282 0.052216 0.048995 -0.048073 0.061164 -0.000087 -0.040659 0.009259 -0.009537 0.024557 -0.065344 -0.052789 -0.016527 0.041189 -0.023303 -0.013948 -0.014354 0.008711 -0.012081 0.007285 0.024051 -0.050683 0.074494 -0.026322 0.023017 0.017468 -0.042554 0.064445 0.005130 -0.054272 -0.021098 -0.014027 0.022171 -0.038776 -0.058635 0.053179 0.077519 -0.045228 0.027161 0.015335 -0.039225 0.047737 0.058329 0.016341 -0.072955 -0.062933 0.067189 -0.030459 -0.010082 0.048055 0.009643 0.074056 -0.031065 0.053700 -0.021140 0.020586 0.079051 -0.055758 -0.009511 0.067974 0.055179 0.008349 0.017976 0.076879 -0.009611 0.038222 -0.066605 -0.076993 0.076455 0.030337 -0.040085 0.032836 0.061612 -0.033014 -0.025922 0.068981 0.081586 0.005712 0.048908 0.047891 -0.030093 0.075609 -0.042969 -0.062955 0.016140 0.041746 0.070948 -0.017733 -0.038657 -0.000577 0.025402 -0.044417 -0.004028 0.013270 -0.060121 -0.056632 0.030514 -0.049997 -0.036320 -0.082897 -0.001268 -0.014932 0.007917 -0.011794 0.032426 -0.033317 -0.037991 -0.078736 -0.035868 0.022553 0.011864 0.064044 -0.057893 0.035643 0.021196 0.007406 -0.045368 0.024975 -0.084407 -0.067492 0.035533 -0.041275 -0.045016 0.044520 0.020098 -0.032280 0.013324 0.063386 -0.001629 0.074847 0.039641 -0.009307 -0.076639 -0.073689 0.045368 0.013326 0.012708 0.011130 -0.056059 -0.045857 0.003648 -0.012976 0.076059 0.032936 0.071888 -0.074002 -0.079526 -0.061911 0.054449 0.015820 0.023086 0.067850 -0.037788 0.066816 0.042884 0.081691 0.003544 -0.000956 0.024321 0.002148 0.051160 -0.077116 -0.058007 -0.062596 -0.023965 0.043294 -0.001772 -0.073526 0.050423 -0.072079 0.078607 0.018131 -0.065171 -0.046833 -0.065420 0.076278 -0.052030 -0.031958 0.051834 -0.057393 -0.016149 -0.025629 0.012286 -0.042035 0.048432 -0.079956 -0.069949 0.059987 -0.067416 0.065253 -0.014129 0.079267 -0.036657 -0.030285 -0.070303 0.040271 0.079288 -0.076002 -0.048342 -0.050101 -0.023601 0.021496 0.007140 -0.018568 -0.001673 0.047225 -0.061819 0.004113 -0.053870 -0.059717 0.035492 -0.050551 -0.044331 -0.044212 0.038090 0.027772 -0.008377 -0.053516 0.035132 0.017437 -0.061192 0.026796 0.032796 0.019443 0.074993 -0.010032 0.058988 -0.022957 0.014310 0.062606 0.016496 0.026792 -0.062068 0.009628 0.057811 -0.010551 -0.051191 -0.000913 -0.063698 -0.076746 -0.059048 -0.052279 0.006450 -0.065296 0.022167 0.045591 0.065077 -0.001792 -0.031826 0.014921 0.044831 0.066895 0.007595 0.045149 -0.006683 -0.056419 0.005879 -0.046322 -0.057868 0.059282 -0.042876 0.024866 -0.073698 0.006327 0.077735 0.063096 0.041752 -0.022685 -0.033399 -0.073159 0.034371 -0.047691 -0.040467 0.050045 -0.006523 -0.064742 0.068523 -0.028557 -0.034867 0.054388 -0.010987 0.035393 -0.028317 0.070525 -0.010705 -0.058525 0.062129 0.020604 0.030650 0.026644 -0.053010 -0.035838 -0.077877 0.069718 0.043992 0.059025 0.018797 -0.080515 -0.066727 0.050932 0.025117 -0.036234 -0.046572 -0.033538 -0.075985 -0.062661 0.029491 0.015718 0.025098 -0.017277 0.001855 0.066743 0.062282 0.055291 -0.051702 -0.073317 0.038057 0.031033 -0.073624 0.079640 0.075669 0.006754 0.016224 -0.012520 -0.028011 0.023359 -0.018961 0.005389 0.025972 0.024984 -0.045213 0.002908 0.010659 -0.072560 0.002050 0.055577 0.029585 -0.048304 -0.039501 0.061898 -0.045820 0.012398 0.051427 -0.034317 -0.004570 -0.077138 -0.057510 0.048849 0.018174 -0.044700 -0.072930 0.008103 -0.065508 -0.066157 0.076985 0.063717 -0.051107 0.024468 -0.051918 -0.034471 -0.001589 -0.011058 0.017252 -0.000250 0.060992 0.003985 -0.039905 0.066367 -0.075282 0.079689 -0.025210 0.035562 0.029385 0.078180 -0.036712 0.058262 0.018804 0.075670 0.062454 -0.031793 0.051976 0.070504 0.009823 -0.025598 -0.016276 0.060973 -0.044393 0.012335 -0.071489 -0.052869 -0.072520 0.038416 0.028919 -0.032287 -0.028501 0.029810 -0.075724 -0.066007 -0.002965 0.002774 -0.075772 0.018161 0.010767 -0.074690 0.068012 0.014167 -0.040360 0.051893 0.063928 -0.058854 -0.035988 -0.039880 0.006317 0.022951 0.019645 0.065225 0.017380 0.039320 0.004146 0.073820 0.012620 0.018597 -0.018739 0.074920 0.055878 -0.059668 0.007912 -0.047984 0.026988 -0.033241 0.062508 -0.008265 -0.039315 -0.034073 0.016625 0.005782 0.015062 -0.016544 0.010262 -0.045507 -0.076611 0.073733 0.003815 -0.030717 -0.079394 0.030907 -0.000798 -0.080380 -0.069483 0.010847 -0.075455 0.018964 -0.074635 0.052716 -0.046105 0.021812 0.063974 -0.007149 -0.055414 0.018127 0.035964 -0.031336 0.071565 -0.061219 0.011845 0.000062 0.023146 0.023662 0.055973 0.019821 0.048075 0.066099 -0.033093 -0.047144 -0.003640 -0.046017 -0.021789 -0.051148 0.035935 -0.076892 -0.010511 0.055752 0.036160 -0.079603 0.016270 0.070195 0.063967 0.006472 0.079281 -0.012226 -0.058957 -0.038898 -0.041421 -0.011663 0.009396 -0.013532 0.062917 0.070359 0.008228 -0.029989 0.052510 0.029559 -0.076972 -0.042846 -0.034002 0.040670 -0.002460 0.068743 -0.045348 -0.050180 0.015052 -0.015757 -0.021062 0.036160 0.027635 -0.038782 -0.006907 -0.001667 -0.060874 -0.039400 0.024798 -0.041615 -0.022169 -0.027397 -0.070283 -0.012441 -0.027788 -0.045569 -0.037761 0.020683 0.030818 0.032609 0.080209 0.013517 -0.050533 -0.042231 0.079063 -0.001129 -0.051555 -0.015503 -0.055649 0.069669 0.030658 -0.067666 0.028894 0.013691 -0.054512 0.035411 0.028385 -0.008014 -0.021108 0.059734 -0.047121 0.045814 -0.037333 0.010038 -0.054196 -0.080480 -0.049648 0.030937 0.017162 0.046896 -0.011203 -0.035130 0.066624 0.033698 0.067134 0.073468 -0.029495 -0.011521 -0.044955 -0.059912 0.056678 0.015209 -0.023157 0.052524 -0.011902 -0.005506 0.046099 0.050328 0.076150 0.041595 0.006263 -0.031187 -0.013935 0.054579 -0.064622 -0.014344 0.018683 0.018370 0.005084 0.010690 -0.006990 -0.013483 0.036828 -0.016483 0.015003 0.027487 -0.047491 -0.072790 -0.001984 -0.042941 0.066074 -0.031873 0.054338 0.011112 -0.051838 0.070326 0.072479 0.043136 -0.048942 0.077466 -0.019175 -0.022903 0.068981 0.011030 0.038354 0.078844 -0.050346 -0.042417 0.075212 0.073234 -0.001596 -0.025142 0.029830 0.025496 -0.064529 0.003722 0.037607 0.024120 0.004646 -0.061513 0.024561 -0.032440 -0.076893 -0.001572 -0.044205 -0.069304 0.028006 0.045623 0.007467 -0.021029 0.009562 -0.040791 -0.045678 0.037160 -0.048268 0.022705 -0.039481 0.020736 0.015715 -0.024139 -0.023029 0.008240 0.080782 0.050849 -0.075323 0.046031 0.034818 0.076224 -0.014800 -0.079245 -0.079200 -0.047155 0.073710 -0.077237 0.001765 0.013233 0.018575 0.043788 -0.068946 0.076081 -0.002731 0.079978 0.038301 0.036117 0.028821 -0.079490 -0.007823 0.062071 0.000746 -0.024386 0.051657 0.017197 -0.014942 -0.015772 -0.010982 -0.021189 0.067920 0.051673 -0.039090 0.051424 0.005091 -0.027551 -0.060449 -0.067754 0.069179 0.080666 -0.079229 -0.009498 -0.041268 0.044505 0.062095 -0.023728 0.042217 -0.025334 -0.031892 0.040110 -0.060584 -0.058969 -0.042588 -0.049389 -0.045297 0.001277 -0.032674 0.024743 -0.044348 0.011044 0.030805 -0.045065 0.027646 0.071773 0.027134 -0.078136 -0.039583 0.045109 -0.064599 0.061283 -0.024903 -0.014188 -0.057192 -0.006938 0.065248 0.063388 0.055132 0.008453 0.033506 -0.076677 -0.076636 -0.005893 0.056909 0.026254 -0.027517 -0.034089 0.042276 -0.043146 0.057587 -0.068929 0.048584 -0.055331 -0.064424 0.000135 0.039876 -0.049842 0.024137 0.011450 0.011116 0.040222 0.016617 0.063251 0.044764 -0.017654 0.028723 0.052556 0.007801 -0.018602 -0.020728 0.034206 0.004616 -0.010619 0.011342 0.051047 -0.044805 0.040823 0.060166 -0.050675 0.046704 0.040021 0.068362 -0.026048 0.035343 0.015406 -0.041407 -0.058117 0.046931 -0.028549 0.009021 0.047365 -0.075057 0.077016 -0.024838 -0.067628 0.064075 0.046698 -0.074059 0.062835 -0.080460 0.059057 -0.040392 0.073513 -0.019875 -0.044545 0.043882 -0.032054 -0.039004 -0.025394 0.079023 0.075443 0.077422 -0.040474 0.079849 0.064038 0.065260 -0.013066 -0.058022 -0.031028 0.021155 -0.026314 0.064617 0.067149 0.008869 -0.045700 -0.047140 -0.050170 0.080491 -0.036646 -0.055916 0.069770 0.041418 0.020626 0.036432 -0.034715 0.034561 -0.076405 0.018807 -0.032853 0.009456 -0.011158 0.079646 0.013664 0.033951 -0.065222 0.044319 0.020965 0.025751 0.042131 0.072887 -0.071394 -0.027156 0.051825 0.032614 0.066528 0.077409 0.050948 0.032181 -0.031163 -0.003114 -0.033571 0.028462 -0.012346 0.002261 0.057747 -0.045795 0.060714 0.079669 0.053829 0.037763 -0.060319 0.034594 -0.047144 -0.008322 0.050725 0.004774 0.074440 -0.052002 0.071392 -0.064209 0.054066 -0.040891 -0.013563 -0.046209 0.033138 0.061859 0.060540 0.073465 -0.050469 -0.051880 0.037130 0.027831 0.032086 0.046953 0.005120 -0.018342 0.050184 -0.033247 -0.071728 0.035842 -0.037578 -0.059353 -0.047115 -0.056194 -0.045161 0.024338 -0.046557 0.025801 0.071437 -0.025258 0.057256 0.061841 -0.055780 -0.047151 -0.024412 -0.003342 0.025879 0.032745 0.067121 -0.058266 -0.063592 0.060529 0.020691 -0.078487 -0.072424 0.075468 0.032068 -0.042008 -0.004009 0.030712 0.063558 0.010926 0.025421 0.022813 -0.042448 0.065635 0.008150 0.066697 -0.020037 -0.038601 0.064807 -0.044832 -0.044250 -0.068740 0.036179 -0.075588 0.055025 -0.054581 -0.000946 -0.034596 0.062278 0.066905 0.010840 0.041550 -0.012809 -0.023619 0.080481 0.052434 -0.017352 -0.047056 -0.003718 -0.076392 -0.041550 -0.013951 0.078766 0.067491 0.040514 0.042517 0.042668 -0.012381 -0.018019 0.005289 -0.023446 -0.002253 0.073421 0.008592 0.069018 0.067670 -0.032578 -0.000973 -0.073888 -0.013731 0.001678 -0.027938 0.017702 0.043531 -0.002617 -0.034512 0.044045 0.080100 -0.016628 -0.077364 0.039405 0.017923 -0.010016 0.034193 0.049199 0.007775 0.047952 0.034332 0.044197 -0.060334 -0.064642 -0.040629 0.014395 0.065305 -0.047598 0.034707 -0.068782 -0.011232 0.058886 -0.055817 -0.030059 0.067639 -0.010617 -0.046682 0.062585 -0.052717 0.059807 0.075758 -0.045009 0.026389 -0.006793 -0.012820 -0.061592 0.033232 0.041971 -0.069180 -0.013629 -0.001894 0.001224 0.047373 0.058911 0.025246 -0.022872 -0.049375 -0.035501 -0.011590 -0.033037 -0.008008 0.010301 0.030932 -0.050801 0.080339 -0.072429 -0.043212 0.066884 0.072587 0.044850 0.073836 0.006330 0.038869 0.053372 0.033834 -0.060907 -0.021409 -0.077342 0.070894 0.080281 0.021975 0.027943 -0.074022 0.051901 -0.026819 -0.026124 -0.032618 -0.010495 0.032735 0.032621 0.058880 0.017282 -0.000183 -0.054007 0.031967 0.014393 -0.035618 -0.074207 -0.064411 0.022451 0.046967 0.028636 0.029557 -0.027809 0.074622 -0.077473 0.028697 0.035742 -0.036807 0.035099 0.008309 0.018890 -0.045185 0.067555 0.013276 -0.059448 -0.027661 0.077724 0.027673 -0.050951 0.033129 0.029269 -0.025540 0.030074 0.048919 0.038370 -0.050586 -0.054686 -0.044964 -0.013450 0.076258 -0.064055 -0.029008 0.028070 -0.028552 0.022817 -0.057649 0.044109 -0.073505 -0.008702 -0.014664 0.057505 -0.064991 0.066779 0.022077 -0.010869 -0.068624 -0.005390 0.024290 -0.031212 -0.078736 -0.010095 -0.062139 -0.012846 -0.079702 -0.033349 -0.022002 0.013325 0.043913 0.075773 0.010271 -0.014473 -0.018597 -0.022369 0.045251 -0.009338 0.009063 -0.073264 0.028205 -0.069546 -0.063539 -0.000152 -0.079903 -0.049088 0.004593 -0.079735 0.019467 -0.067707 0.032192 -0.074668 -0.024377 -0.053460 -0.075267 0.050115 -0.063226 -0.019830 0.045250 -0.064191 0.041397 0.020653 0.058632 0.055749 0.037389 0.012210 0.023561 0.056694 -0.064889 -0.071242 -0.028751 0.001431 0.042462 0.014627 -0.005148 -0.072916 0.031324 -0.048303 0.077180 -0.059323 -0.029235 0.048632 0.060087 0.067938 -0.033662 0.077231 0.020710 0.058588 0.042791 0.047676 -0.035137 0.012858 -0.051680 0.043348 0.032526 0.039411 -0.038770 -0.072498 0.010075 0.047667 0.067785 -0.077713 -0.066525 -0.046817 -0.076330 0.009425 0.012255 0.068351 0.020728 -0.012595 0.071384 0.070058 0.029162 -0.068274 0.049035 0.004265 0.009359 0.033563 0.030787 -0.047894 0.065037 -0.056875 0.015914 0.079024 0.011194 0.032184 -0.041851 -0.050570 -0.020444 0.046530 -0.012479 -0.040778 -0.010565 -0.003247 -0.003874 0.080270 -0.018549 0.025051 -0.068127 0.037303 0.060707 0.013182 0.006104 -0.012382 -0.043557 0.058559 0.065679 0.033472 -0.040822 0.038205 0.060635 0.028790 0.057240 0.028505 0.015956 0.003150 -0.008224 -0.060213 -0.013172 -0.037914 -0.022757 -0.016662 0.025804 -0.062078 0.022455 -0.023742 0.011273 -0.018808 -0.080719 0.015084 0.040559 0.028920 -0.017393 -0.002743 0.060791 0.050889 0.076199 0.037940 -0.078201 -0.074377 -0.018242 0.064419 0.076108 -0.012882 0.025995 0.040544 0.079133 0.075021 0.014882 -0.080512 -0.036449 0.055481 0.009316 -0.016042 -0.000915 -0.072814 -0.023022 -0.007693 0.060075 0.036162 -0.021042 0.054465 0.062345 0.034440 -0.000592 0.048977 0.011447 0.019326 0.029319 -0.072108 -0.027463 0.071476 0.004339 -0.043219 -0.058300 -0.016440 -0.055545 -0.004629 -0.010991 0.006253 0.036849 0.054885 -0.011063 0.035832 -0.040144 -0.030357 -0.080553 0.060940 0.028290 -0.073749 -0.058609 0.017775 -0.014380 0.024844 -0.008801 -0.039457 0.064307 0.018726 -0.061926 0.039653 0.037996 0.072255 0.020299 -0.079592 0.054785 -0.040253 0.073760 -0.063870 -0.074579 0.031179 -0.059396 -0.055527 -0.015720 0.049278 -0.030838 -0.035638 -0.015502 -0.042241 -0.048079 -0.034109 -0.052537 -0.004855 0.016777 0.024779 -0.055781 -0.068814 0.052478 -0.052647 0.046023 0.068697 -0.018817 0.050729 -0.001622 0.035255 0.013885 0.020149 0.059216 -0.025741 -0.057570 -0.005282 0.075314 -0.056558 -0.016115 -0.073612 -0.041417 -0.076759 -0.031794 -0.033187 0.024933 0.045757 -0.048825 -0.048122 0.051275 0.047688 0.020392 -0.024919 -0.018915 0.070890 -0.066517 0.034708 -0.067583 0.072221 -0.021402 -0.012432 0.064775 -0.040935 -0.033911 0.058877 0.076279 -0.040404 0.004410 -0.076590 -0.011330 -0.012794 -0.066792 -0.036140 -0.055562 -0.009090 0.000332 -0.041509 -0.027476 -0.079061 0.015655 -0.081637 -0.006823 0.027158 -0.064363 0.034257 0.043190 0.069510 -0.030302 -0.000768 0.058053 0.027931 0.052639 0.061040 0.063771 0.061470 -0.074266 -0.023977 0.039573 -0.048597 0.077959 -0.077484 0.055002 -0.073156 0.021974 0.037430 -0.020291 -0.007613 -0.045754 0.013131 0.044505 -0.070921 0.010985 -0.065184 -0.006041 -0.059215 0.061173 0.007076 -0.027982 0.000186 0.049937 -0.038046 0.070092 0.044403 0.033894 -0.005327 -0.000575 0.055948 0.051337 0.075124 0.027256 0.015895 -0.075672 0.011694 -0.067455 -0.042197 -0.057959 0.028935 0.003317 0.059104 0.020754 0.017125 -0.007542 0.026825 0.008949 -0.025422 -0.080884 -0.080486 -0.071805 0.072786 -0.029323 -0.058513 -0.033481 -0.018997 0.029895 -0.032712 0.076504 -0.016632 -0.040698 -0.047389 0.007683 -0.042067 -0.063811 0.062928 -0.027404 -0.009911 -0.061635 0.077957 0.042403 -0.067027 0.076364 0.014999 0.079854 0.060573 0.060822 -0.065731 -0.011775 -0.053395 0.067953 -0.065922 -0.058083 0.047753 0.065544 0.040478 -0.053862 0.062564 -0.042820 0.073763 -0.009151 0.008769 -0.020824 0.034866 -0.032888 0.039826 0.062618 -0.039186 0.065551 0.054095 -0.037894 -0.029408 0.013688 -0.056185 0.006613 0.071276 0.027898 0.009662 -0.058407 -0.048115 0.016809 0.065633 -0.042006 0.015770 0.062974 -0.046517 -0.025083 0.078052 -0.006869 0.046555 0.065567 0.024142 0.070817 0.071720 -0.072322 0.019854 -0.022091 -0.007239 -0.039433 0.078482 -0.059979 0.065905 -0.082225 0.020122 -0.059000 -0.040503 -0.019773 -0.004319 -0.071248 -0.010624 0.006137 -0.022761 0.017706 -0.016532 0.048070 -0.050848 0.071588 -0.040323 -0.037605 -0.010469 -0.026124 0.061674 0.033756 -0.055504 -0.029392 -0.020554 -0.020939 0.043311 0.012933 -0.037920 0.046870 -0.084094 0.033613 -0.021937 0.040434 -0.016607 -0.017890 -0.026679 -0.019255 0.067666 -0.061729 -0.091800 0.002788 -0.045537 0.057211 0.006973 -0.070024 0.050352 -0.033238 -0.065216 -0.123685 0.079019 -0.024415 -0.084193 -0.010536 -0.014790 -0.052345 -0.021262 0.023793 0.086011 0.048122 0.002299 -0.071420 -0.043786 0.013826 -0.064804 0.067380 0.078100 -0.060655 -0.029058 0.013390 0.066300 0.018679 -0.037661 0.013709 0.006709 -0.058927 -0.035939 -0.061866 -0.012082 0.056210 -0.057148 0.066998 -0.013183 0.026139 0.036774 -0.006818 -0.028109 0.047530 -0.032188 0.056257 0.027597 0.045786 -0.026573 0.077441 -0.041318 -0.074846 -0.014255 -0.065834 -0.064890 -0.008417 0.003085 -0.001322 0.058472 0.057852 -0.075938 0.080894 -0.075467 0.029985 -0.053411 0.063333 0.033056 -0.025091 0.035006 0.064925 -0.028137 0.018030 -0.007541 0.004733 0.020302 -0.087950 0.013976 -0.088151 -0.057788 0.072870 -0.001055 -0.094044 0.042482 -0.020496 -0.022697 0.046162 0.070569 -0.039958 -0.029241 0.089166 0.000895 0.070083 -0.030376 0.030021 0.033767 0.008148 -0.033435 -0.090524 0.049292 0.003208 0.074414 0.004307 -0.043393 -0.030841 0.024153 -0.037484 -0.054805 -0.021378 -0.086311 -0.028972 -0.016314 -0.027963 -0.023105 -0.006483 0.032015 -0.125668 -0.098175 -0.078935 -0.101971 0.057236 -0.051433 0.003105 0.035710 -0.048504 -0.101005 0.086423 0.050278 0.077133 0.071953 -0.007661 -0.094543 -0.045511 -0.035397 -0.080798 0.141848 -0.090102 -0.187751 0.023028 0.085440 -0.054193 0.034350 0.012861 0.095716 0.065314 -0.094360 0.022549 0.042346 -0.152986 0.009580 0.011824 0.081833 0.055672 -0.113831 0.084128 0.017456 -0.141467 -0.011489 -0.087986 -0.117221 0.060449 0.027763 -0.094063 -0.027189 0.014462 -0.029545 0.097340 0.012504 -0.070563 -0.008308 -0.019293 -0.073717 -0.015144 0.013249 -0.127425 -0.075550 -0.109583 0.069017 -0.011883 -0.088440 0.002246 -0.021502 0.000906 0.010265 -0.034998 -0.058974 -0.135839 -0.119072 -0.048846 -0.073240 0.112555 0.027146 -0.049536 -0.074468 0.095520 -0.072454 0.035017 -0.016741 0.044173 0.039900 0.075167 0.026577 0.009201 -0.039683 0.051419 -0.005227 -0.111788 -0.026266 -0.037907 0.035708 -0.146446 -0.002931 0.017183 -0.002014 -0.122413 -0.014842 -0.062809 0.001641 0.185761 -0.011739 0.107228 -0.005177 0.137931 -0.074665 -0.000157 -0.014194 0.021891 0.107627 0.074345 0.008220 -0.105543 -0.095042 -0.104892 0.116327 -0.132573 -0.008667 -0.087967 -0.041466 0.045314 0.030144 -0.110319 -0.080305 -0.047932 0.145764 -0.066441 -0.010878 -0.061351 -0.102166 0.143217 0.064167 0.030080 -0.117126 0.032923 -0.123726 0.126401 -0.052967 0.084246 0.055081 -0.069469 -0.056513 0.050046 0.072477 -0.123817 0.003851 -0.029940 -0.258222 0.042272 0.054691 -0.062732 0.084800 -0.135534 -0.036544 0.143680 -0.071899 0.032473 0.013855 -0.260654 -0.024755 0.137802 0.109538 0.149424 -0.009951 0.063125 -0.055002 -0.018561 0.054793 -0.123027 -0.054646 0.079669 0.117695 -0.077421 -0.016049 0.135929 0.043846 0.024334 0.055473 0.120340 -0.022766 -0.099535 -0.119067 0.002253 -0.092048 -0.019881 -0.065396 -0.104883 -0.079332 0.033286 -0.197113 -0.020213 0.000406 -0.031447 -0.065092 0.086072 -0.031223 -0.159132 -0.212526 0.039518 -0.113201 0.075331 0.051903 -0.049138 -0.105800 0.078367 -0.049541 0.044315 0.045184 0.161533 0.073265 0.018099 -0.032803 -0.073654 -0.062609 0.025309 -0.018221 -0.256771 -0.077466 0.016658 0.022426 -0.150696 -0.056590 -0.129556 -0.012714 -0.205972 0.111922 0.027291 -0.052313 0.155238 -0.049502 0.209328 0.003190 0.185144 0.006043 0.049083 0.092397 -0.052265 0.068749 -0.028612 -0.054819 -0.101664 -0.026219 0.036469 0.002285 -0.036572 -0.091759 -0.005172 0.005438 0.013440 -0.062384 -0.081208 0.004985 -0.093624 0.313423 -0.205837 -0.126951 0.115204 -0.086115 0.196414 -0.036430 -0.212341 -0.000230 -0.009005 -0.267438 0.096034 -0.068738 -0.021091 -0.098632 -0.162826 -0.122282 -0.105097 0.108919 0.048176 0.010139 -0.097406 -0.454169 -0.018590 -0.030997 -0.065822 -0.027481 -0.145740 -0.096166 0.076516 -0.155192 0.015775 0.068670 -0.105345 -0.185367 0.083893 0.211178 0.045663 0.124738 -0.075662 -0.093136 -0.044398 0.027968 -0.210140 0.104404 -0.015120 0.001346 -0.186876 0.020218 0.175404 -0.049677 0.117134 0.087751 0.013167 0.096046 -0.033446 -0.272067 -0.048564 -0.221634 0.068345 -0.089827 -0.035433 0.082897 -0.141148 -0.236973 -0.109359 -0.088999 -0.061507 -0.029666 0.078261 -0.099475 -0.126113 -0.160300 0.038660 -0.025894 0.037756 -0.037527 0.008816 -0.197905 0.115319 -0.033840 0.041889 -0.000601 0.069525 0.215078 0.036562 -0.060190 0.059343 -0.058620 0.024586 -0.038547 -0.189623 -0.068297 0.033820 -0.021656 -0.161317 -0.045803 -0.412069 0.083919 -0.316493 -0.105670 -0.133346 -0.038403 0.172637 -0.149092 0.073277 0.029303 0.318292 -0.023338 -0.068067 0.087237 -0.022443 0.051393 0.062728 0.101279 -0.093807 -0.070432 0.019341 0.167178 -0.179934 -0.031277 0.000257 0.067032 -0.110092 -0.027715 -0.161062 -0.034979 -0.100913 0.341973 -0.326056 0.013590 0.174072 0.001158 0.341149 0.177063 -0.291228 -0.069928 0.117897 -0.447724 0.299219 -0.115926 0.018895 -0.096032 -0.100750 -0.254043 0.084068 -0.088687 0.239624 -0.271062 -0.125718 -0.583025 -0.171397 -0.114694 -0.150768 -0.002472 -0.047932 -0.128012 0.294974 -0.297922 0.115123 0.129296 -0.219651 -0.251136 0.145367 0.124620 0.169803 0.198030 -0.055840 -0.073017 -0.097632 0.172458 -0.261259 0.162585 0.269535 0.349127 -0.420317 -0.031854 0.031393 -0.183475 0.122192 0.057144 -0.020451 -0.009438 -0.045618 -0.436977 -0.289530 -0.263969 0.101217 -0.428082 -0.177296 0.092057 -0.174581 -0.264481 -0.166142 -0.121170 -0.092579 -0.183416 0.254231 -0.211307 -0.241511 -0.258357 -0.026936 -0.187303 0.172337 -0.138492 -0.096691 -0.211713 0.150071 -0.047881 0.165536 -0.017117 0.052150 0.118170 -0.091223 -0.075560 -0.008530 -0.135810 -0.027600 -0.082985 -0.203415 -0.007265 0.159305 -0.028663 -0.031329 -0.036648 -0.310161 -0.055942 -0.363249 -0.041212 -0.101202 -0.049675 0.157482 -0.129568 0.170965 0.243019 0.011134 -0.066424 -0.115229 0.136667 -0.064002 0.068557 0.141191 0.193749 -0.085235 -0.000780 0.153044 0.136204 -0.031455 0.080046 0.069294 0.064782 -0.252918 0.059925 -0.247281 0.081625 -0.126388 0.312932 -0.249814 -0.144417 0.267167 0.082394 0.326834 0.048415 -0.247067 0.155045 0.027670 -0.722291 0.125550 0.208111 0.081407 0.025596 -0.090803 -0.282681 -0.131122 -0.071613 0.581116 -0.356504 0.010935 -0.789213 -0.284079 -0.151161 0.265866 -0.222068 0.047618 -0.115349 0.356212 -0.190078 0.298999 0.202988 -0.259612 -0.055813 0.329250 0.206194 0.339371 0.046319 -0.051807 -0.036685 -0.250968 0.401598 -0.232430 0.070330 0.307603 0.243478 -0.383895 -0.035828 0.134087 -0.100768 0.189610 0.341770 -0.317389 -0.198112 -0.110395 -0.378635 -0.323315 -0.108695 0.408793 -0.475641 -0.182854 0.100361 -0.303495 -0.205750 -0.210931 -0.258147 -0.099681 -0.261822 0.105246 -0.222987 -0.332389 -0.512071 -0.009576 -0.168825 0.051506 -0.032820 -0.226243 -0.135006 0.150671 -0.137113 0.154665 -0.012640 0.136698 0.241202 -0.253477 0.260367 0.033775 -0.120766 -0.107796 -0.240449 -0.153832 -0.105009 0.125917 0.090028 -0.052422 -0.055074 -0.181787 -0.025285 -0.334805 -0.219022 -0.254082 0.052931 0.291450 -0.077983 -0.116784 0.100126 -0.409721 0.021509 -0.083615 0.091411 0.085957 -0.014472 0.074441 0.201693 0.044816 -0.134851 0.247936 0.013661 -0.165365 0.051307 0.030628 -0.029811 -0.293056 0.100226 -0.228333 0.189019 -0.023156 0.495889 -0.528207 -0.262388 0.196569 0.400399 0.474000 -0.143066 -0.156691 -0.015114 0.019602 -0.704836 0.412454 0.206586 -0.028180 0.080359 -0.080093 -0.286412 -0.008970 0.070103 0.526259 -0.337554 0.091965 -0.467819 -0.306335 0.093776 0.284929 -0.494263 -0.205826 -0.158063 0.409116 -0.029067 0.234465 0.273707 0.064725 -0.141642 0.376017 0.235798 0.186315 0.198610 -0.104031 0.089866 -0.431323 0.408525 0.059138 0.007558 0.204119 0.109770 -0.467856 -0.176583 0.005553 -0.014222 0.086204 0.315532 -0.722839 -0.112765 -0.137311 -0.418449 -0.344912 0.022096 0.073360 -0.211857 -0.231834 0.411008 -0.395337 -0.070302 -0.250005 -0.093428 0.017867 -0.237232 0.086567 -0.224852 -0.238191 -0.492177 -0.083288 -0.279917 0.130644 -0.109965 -0.210611 -0.041333 0.030919 -0.209536 0.506974 0.397652 0.138635 0.320377 -0.207453 0.272281 -0.000876 -0.018560 -0.090433 -0.173629 0.383524 -0.164430 -0.055761 0.207646 -0.110483 0.094324 -0.067098 -0.050177 -0.376552 -0.136793 -0.167517 0.142468 0.126708 -0.215526 -0.276707 0.157212 -0.866061 0.098192 0.028792 0.148082 0.058109 -0.085188 0.254692 0.237135 0.215217 -0.182538 0.140834 0.045910 -0.105541 0.036025 0.062506 -0.054994 -0.124738 0.098286 -0.318384 0.083923 0.033311 0.584182 -0.518196 -0.302955 0.401066 0.493355 0.668821 0.071232 -0.471348 -0.085862 -0.172083 -0.818139 0.602054 0.287758 0.127900 0.203386 -0.123603 -0.258265 -0.023760 0.157805 0.221893 -0.276319 -0.025647 0.088197 -0.345365 0.499419 0.314680 -0.890320 -0.299342 0.151802 0.527313 0.091911 0.331864 0.218744 0.154216 -0.075898 0.710412 0.212841 0.247054 0.371610 0.124084 -0.051192 -0.631798 0.165775 0.025553 0.054731 0.160053 0.054666 -0.590957 0.013078 -0.188651 -0.331171 0.189141 0.508335 -0.573208 -0.369859 -0.199253 -0.566236 -0.522964 0.058522 0.159330 -0.304924 -0.303350 0.645416 -0.289178 0.282763 -0.234452 -0.196202 -0.224076 -0.339129 0.023040 0.020075 -0.273948 -0.719053 0.036503 -0.205103 0.052258 -0.258374 0.021401 -0.070956 -0.061926 -0.322694 0.480172 0.503414 -0.196185 0.274780 -0.213443 0.046338 0.080410 0.080614 -0.100857 -0.051169 0.582057 -0.332327 -0.048117 0.102897 0.172607 0.004272 0.210040 -0.015036 -0.582675 -0.035209 -0.323493 0.027165 0.027318 0.176569 -0.053819 0.041847 -0.999162 -0.057347 -0.087568 0.125071 0.110239 0.065124 0.224424 0.232427 0.261486 -0.032318 0.158808 -0.101838 -0.272096 -0.176342 -0.056637 0.065881 0.118582 0.184945 -0.225968 -0.018385 -0.037685 0.604415 -0.626537 -0.225229 0.007439 0.572888 0.709324 0.225951 -0.090729 -0.251416 -0.426530 -0.694581 0.825594 0.135757 0.192986 0.325804 -0.077196 -0.409040 -0.316715 0.031095 0.102545 -0.171635 -0.429579 0.318790 -0.524648 0.463234 0.233749 -0.668428 -0.751731 -0.077463 0.517219 0.214977 0.629914 0.049961 -0.180397 -0.275003 0.786614 0.154953 0.160726 0.501183 0.282949 0.085007 -0.671293 0.266896 0.200296 0.296066 0.457600 0.129738 -0.694967 -0.137315 -0.080569 -0.271446 0.288707 0.347532 -0.064072 -0.548841 -0.014087 -0.670159 -0.582732 0.023081 0.121782 -0.512727 0.078898 0.633432 0.026604 0.356767 0.031316 -0.311449 -0.185820 -0.399840 0.233094 0.221534 -0.091659 -0.901990 -0.004024 -0.048737 -0.049113 -0.273353 0.059362 -0.174937 0.202359 -0.178845 0.229443 0.342236 -0.499833 0.196793 0.059809 0.068126 0.193217 -0.283338 -0.111806 0.082860 0.641627 -0.138581 -0.638558 -0.064733 0.424861 -0.139530 0.500262 -0.146272 -0.718430 -0.033543 -0.424172 0.109377 -0.156870 0.243381 -0.046097 -0.216730 -0.281237 0.071854 -0.300222 0.139612 0.126145 -0.037894 0.283281 0.245072 0.302958 0.016531 0.176915 -0.217528 -0.190013 -0.197688 -0.341430 0.081459 0.230371 0.236409 -0.098144 -0.314522 0.146695 0.685265 -0.540102 -0.349306 0.396111 0.348086 0.597856 0.282934 -0.305964 -0.166454 -0.595297 -0.178587 0.628409 -0.157133 0.231858 0.353140 -0.151984 -0.285874 -0.274680 0.210262 -0.249691 0.104573 -0.586922 0.871653 -0.819680 0.055737 0.019262 -0.207612 -0.880088 -0.045598 0.335859 0.530876 0.436340 0.061151 -0.582364 -0.275955 0.649730 -0.099500 0.369480 0.157804 -0.127477 0.060249 -0.559100 0.167501 0.292657 0.163656 0.686189 0.329667 -0.559486 -0.194827 -0.187691 -0.220802 0.239522 -0.038084 0.807703 -0.645441 0.280815 -0.559483 -0.718998 0.448541 0.210537 -0.240311 0.148419 0.821205 0.321337 0.098301 0.079354 -0.334895 0.127907 -0.646216 0.444609 0.352502 -0.544427 -1.013007 0.028275 0.015337 -0.325806 -0.459224 0.086025 -0.619739 0.362635 -0.057143 0.112234 0.322022 -0.533443 0.089318 0.389629 -0.137131 0.011159 -0.352114 -0.116464 0.267922 0.055339 0.165468 -0.623164 -0.311774 0.333658 -0.035961 0.445743 0.062725 -1.102185 -0.155971 -0.384291 0.045499 -0.460828 0.281331 -0.117216 -0.543687 0.768754 0.100083 -0.202896 0.019274 0.187489 -0.041566 0.296039 0.209281 0.172843 0.005361 0.278471 -0.137151 -0.172173 -0.208307 -0.212573 0.110381 0.187018 0.146116 0.180644 -0.398202 0.050977 0.749255 -0.470973 -0.331254 0.015622 0.295126 0.493234 0.218328 -0.047252 -0.076520 -0.636663 0.056411 0.745325 -0.518844 0.344880 0.117460 -0.269254 -0.247816 -0.348786 -0.056020 -0.580648 0.240961 -0.562271 0.754273 -0.735822 -0.347252 0.060663 0.195248 -0.858705 -0.047508 0.364309 0.261356 0.052778 0.179681 -0.672567 -0.302367 -0.112920 0.033203 0.207441 0.097410 -0.452049 -0.026193 -0.295381 -0.156379 0.144322 0.334835 0.607306 0.326041 -0.648815 -0.019223 0.198543 -0.403179 0.328425 -0.103252 0.853910 -0.496414 -0.121509 -0.720619 -0.916712 0.470967 0.221422 -0.510267 -0.088139 0.507461 0.559162 -0.250070 -0.130094 -0.220302 -0.191062 -0.494027 0.388800 0.093567 -0.341642 -0.893464 0.215439 -0.035778 -0.168724 -0.369104 0.068431 -0.494187 0.585330 -0.335818 0.203991 0.271914 -0.426109 0.227592 0.494057 -0.218745 0.130866 -0.115219 -0.261276 0.549296 -0.512205 0.174103 -0.102344 -0.285843 0.248808 -0.135587 0.348433 0.046446 -0.788760 -0.070735 -0.411679 0.233886 -0.260661 0.374660 0.031740 -0.538460 0.913090 0.072209 -0.137734 0.054578 0.111803 -0.042434 0.282186 0.258918 0.061316 0.152461 0.261692 0.174808 -0.125580 -0.043875 0.025546 0.135024 0.074722 0.040063 0.293047 -0.598872 0.083143 0.721155 -0.185728 -0.357706 0.303583 0.171210 0.546099 0.268582 -0.096563 -0.226395 -0.223027 0.245398 0.468598 -0.750526 0.132175 0.036762 -0.382970 -0.358882 -0.275059 0.179858 -0.466010 0.451547 -0.238342 0.726400 -0.294410 -0.093467 0.294628 0.255258 -0.769729 -0.213788 0.259445 -0.169221 -0.292661 0.241419 -0.522577 -0.244225 -0.630356 0.165556 0.482237 -0.293935 -0.620975 -0.030608 -0.283380 -0.214272 0.079994 0.240923 0.408075 0.349331 -0.691887 0.190730 0.333796 -0.310461 0.158349 -0.191935 0.960211 -0.592388 -0.269889 -0.604755 -0.564334 -0.019552 0.526002 -0.447483 -0.175599 0.181807 0.016969 -0.590672 -0.112067 -0.157871 -0.040027 -0.430870 0.366107 -0.314708 -0.521230 -1.072013 0.566696 -0.151594 -0.070704 -0.358878 0.054728 -0.152520 0.818037 -0.445127 0.455989 0.296623 -0.390353 0.262728 0.484738 -0.269391 0.238573 0.117091 -0.219793 0.501372 -0.512013 0.307158 0.086159 -0.195778 0.032001 -0.480227 0.320383 -0.112854 -0.141668 -0.057350 -0.125688 0.565604 0.319060 0.492010 -0.540142 -0.515759 0.665324 0.135168 0.076361 0.064522 -0.006306 -0.142859 0.268238 0.480095 -0.058737 0.055148 0.265655 0.189309 -0.159133 0.080463 0.201336 0.222617 -0.038060 0.006477 0.136534 -0.628701 -0.024759 0.469685 0.000366 -0.161173 0.523327 0.341740 0.620933 0.007062 0.152116 -0.140969 0.144275 0.231388 0.157955 -0.604529 0.145681 0.261481 -0.529522 -0.365319 -0.192030 -0.054806 -0.239330 0.223761 0.299410 0.435906 0.300278 0.394890 0.327697 -0.132203 -0.599909 -0.244138 0.429317 -0.297211 -0.455053 0.264543 -0.442203 -0.263454 -0.614265 0.317336 0.335900 -0.056707 -0.692939 -0.055253 -0.682958 -0.103033 0.117617 0.359848 0.363233 0.326794 -0.761242 0.202478 0.130192 -0.298039 0.087988 -0.153161 0.834216 -0.696420 -0.241247 -0.637529 -0.893766 -0.133849 0.393337 -0.462385 -0.192947 0.003799 -0.177362 -0.559968 -0.328238 -0.325831 -0.281310 -0.530352 0.259009 -0.329539 -0.247245 -0.822242 0.370655 -0.011697 0.426225 -0.345113 -0.121377 -0.368492 0.528340 -0.484543 0.754644 0.192732 -0.215470 0.105960 0.229422 -0.422354 0.669252 0.159779 -0.187074 -0.012875 -0.602645 0.466371 -0.004891 -0.302187 -0.126952 -0.280030 0.279220 -0.153514 0.137399 -0.050341 0.103308 0.646300 0.422420 0.410528 -0.542898 -0.558142 0.323564 0.010951 0.058911 0.016120 0.008084 -0.010626 0.082234 0.326515 0.034828 -0.177116 0.008575 0.070498 0.038167 0.169706 0.265052 0.152878 -0.103214 -0.022270 0.169926 -0.452504 0.012506 0.483290 0.068195 -0.132068 0.602396 0.310651 0.398528 -0.118305 -0.009334 -0.012504 0.468276 -0.286200 -0.100960 -0.212084 0.166280 0.534313 -0.361338 -0.107180 0.030671 -0.151538 -0.045690 -0.121238 0.678315 0.138414 0.437783 0.340984 0.076220 -0.531694 -0.474832 -0.139172 0.265071 -0.287259 -0.466518 -0.148178 -0.208183 -0.239872 -0.051291 0.286199 0.126980 0.091149 -0.472845 0.005326 -0.542331 -0.148903 -0.238030 0.378382 0.284179 0.244222 -0.638067 0.441068 -0.115388 -0.251809 -0.066754 -0.065804 0.409485 -0.480429 -0.059641 -0.353645 -0.689852 -0.406652 0.531674 -0.403705 -0.157501 -0.381205 -0.311377 -0.608022 -0.340344 -0.044629 -0.000354 -0.335691 0.298455 -0.463503 -0.119199 -0.271047 0.195966 -0.083377 0.256272 -0.194612 -0.134973 -0.107561 0.110871 -0.283333 0.513034 0.158665 0.099533 0.083201 0.264199 -0.230742 0.669659 0.432479 -0.085639 -0.379755 -0.360030 0.204508 0.058568 -0.186466 -0.249080 -0.160887 0.220275 0.084596 0.388442 -0.101305 0.019493 0.435035 0.497747 0.272463 -0.425165 -0.479524 0.112834 0.075506 0.073654 0.046470 -0.015116 0.048041 -0.046402 0.265571 0.077964 -0.154906 0.019189 0.052158 -0.004077 0.040807 0.176766 0.145722 -0.071069 0.070487 0.101765 -0.111222 0.007534 0.246546 0.173408 -0.155579 0.170264 0.052662 0.337609 -0.163946 0.083631 0.075532 0.345644 -0.354217 -0.220102 -0.012279 -0.023243 0.418087 -0.218798 -0.014882 -0.038006 -0.082323 -0.062307 -0.122271 0.591712 -0.094486 0.347384 0.339473 -0.019228 -0.387327 -0.244457 -0.142946 0.311426 -0.015552 -0.122309 -0.372855 -0.234878 -0.066949 0.091674 0.217687 0.196187 -0.041343 -0.311366 0.175695 -0.467568 -0.159770 -0.270880 0.299150 0.319035 0.129376 -0.415051 0.242335 -0.022352 -0.196306 -0.129474 -0.043616 0.017408 -0.287933 0.005589 -0.159028 -0.423389 -0.170158 0.172349 -0.185934 -0.187427 -0.362538 -0.272992 -0.374346 -0.272570 0.064071 -0.058191 -0.196227 0.384510 -0.195043 -0.333186 -0.179248 0.079217 -0.069247 -0.012619 -0.087286 -0.053109 0.152354 -0.070427 -0.143254 0.373871 0.014445 0.212301 0.074813 0.037075 -0.244688 0.270324 0.109156 -0.088765 -0.249605 -0.270159 -0.129435 -0.243441 -0.050255 -0.143286 -0.264278 0.022655 -0.168999 0.421162 0.140201 -0.304926 0.104736 0.230874 0.004196 -0.394349 -0.544926 -0.073819 0.040134 -0.030591 -0.023041 0.006413 0.030225 -0.021722 0.060300 -0.001249 -0.149132 0.028430 0.005025 -0.130320 0.031366 -0.081778 0.081669 0.040144 0.134336 0.061286 0.073291 -0.031862 -0.002494 0.021370 -0.096138 0.279575 0.100192 0.318077 -0.073188 0.022208 0.021228 0.034522 -0.345978 -0.063961 -0.011604 0.100040 0.163825 -0.196572 -0.012126 0.030901 -0.143861 -0.064647 -0.185356 0.244079 -0.149419 0.139815 0.018321 0.132091 -0.287637 -0.182908 -0.076067 0.323219 0.066739 -0.119180 -0.241509 -0.176712 -0.082298 0.243636 0.157538 0.163702 0.068630 -0.218949 0.053659 -0.188740 -0.102505 -0.317625 0.186061 0.149140 -0.014902 -0.204026 0.043104 -0.162479 0.027124 -0.063181 0.115915 -0.170030 -0.143078 0.068398 0.008015 -0.096212 -0.135021 -0.018319 -0.119251 -0.072719 -0.151599 -0.076725 -0.120197 -0.149703 -0.148175 -0.058785 -0.090803 0.157773 0.069104 -0.205194 -0.231465 0.002802 -0.089708 -0.116567 -0.177896 -0.101750 -0.001847 -0.022580 -0.013684 0.213358 0.115959 0.151703 0.039657 -0.017409 -0.168973 0.039978 0.166429 0.140557 -0.242468 -0.049205 -0.070408 0.004575 -0.035074 0.035206 -0.018753 0.004064 -0.138934 0.113402 0.082918 0.009560 -0.044159 0.130701 0.028296 -0.326686 -0.333689 -0.008907 0.040255 0.019275 0.034020 0.102177 0.004661 0.033469 0.098421 0.056871 -0.064451 -0.038872 -0.005757 -0.157345 -0.000813 -0.007128 0.050481 0.012728 0.137029 -0.028158 0.047355 -0.008243 0.035368 0.014125 -0.034933 0.107739 0.251794 0.164866 -0.134139 -0.163678 -0.012285 0.095930 -0.199774 -0.024178 0.100044 0.087186 0.116709 -0.134568 -0.003877 -0.002852 0.058278 -0.135070 -0.206776 0.150818 -0.086006 0.119997 0.006729 0.069586 -0.063271 -0.111855 -0.051025 0.120932 0.042130 -0.057179 -0.041243 0.023863 0.094138 0.078842 0.030232 0.066331 0.160780 -0.026878 0.121735 -0.110717 -0.061142 -0.229036 0.040701 0.104635 0.060249 -0.055073 0.045487 -0.180753 -0.016319 -0.034557 0.127939 -0.051954 -0.167561 -0.023592 -0.092913 -0.179346 -0.172700 -0.136151 -0.065201 -0.094101 -0.076990 -0.078325 0.027584 -0.002220 -0.079929 0.038530 -0.012824 0.010882 -0.014623 -0.064848 -0.219786 -0.018504 -0.007811 -0.101172 -0.109167 -0.037486 0.083884 -0.048929 0.054043 0.140735 0.137712 0.038099 -0.114366 0.051482 -0.066756 0.174477 0.154887 0.076921 -0.227643 -0.023435 -0.084949 -0.125913 -0.066094 0.032254 -0.094403 -0.043133 -0.094382 -0.002299 -0.062551 0.031776 -0.033653 0.067665 0.137964 -0.030178 -0.040507 0.000488 -0.037958 -0.061154 0.086369 0.042087 0.004606 -0.070148 0.051706 -0.034420 -0.066580 -0.023338 -0.070773 -0.076512 0.016316 -0.075943 0.050116 -0.073464 0.100390 0.076599 0.005410 -0.000947 0.044782 0.047799 0.016174 0.030080 0.061456 0.032602 -0.038061 -0.110271 0.009803 -0.015820 -0.084481 0.029593 0.013555 -0.021000 0.055538 -0.042317 -0.060998 0.007640 0.047987 -0.088598 -0.139964 0.108077 0.062241 -0.048012 -0.063449 0.075397 0.028412 0.013073 0.040733 0.060231 0.043386 0.002108 -0.014181 0.051688 -0.003952 0.049783 0.036547 -0.064586 -0.039912 -0.078290 -0.008447 -0.013100 0.063663 -0.093906 -0.001105 0.041251 -0.105817 -0.016125 0.029142 0.021462 -0.026110 -0.064376 -0.005965 0.073304 -0.011239 -0.039675 -0.118898 0.006512 0.050827 -0.064797 -0.025744 0.014296 -0.008574 0.043301 0.078569 0.011468 -0.099307 -0.101316 0.021497 -0.035957 0.012494 -0.138666 0.001993 -0.053920 -0.032353 -0.125353 0.022760 -0.031572 -0.016124 -0.003255 0.015686 -0.000372 0.086745 0.046960 -0.086808 0.000220 0.016313 0.054057 -0.025865 -0.054928 -0.002610 -0.061124 -0.060681 -0.062484 -0.044855 0.076240 -0.134291 0.062251 0.025531 -0.023305 0.008304 -0.058353 -0.067637 0.092460 0.042656 -0.039986 -0.086885 0.011801 -0.028312 0.059483 -0.027617 0.013954 -0.023140 0.014658 -0.028333 -0.000667 0.059157 0.033285 0.014827 0.059424 0.038355 -0.030185 0.040797 0.022354 0.085524 -0.034198 0.072526 -0.017069 -0.036610 0.065031 0.063501 -0.051478 0.002767 0.085210 -0.050761 0.065464 -0.042455 0.028946 -0.049224 -0.027221 -0.043441 -0.023046 0.081924 0.072207 -0.017185 0.064256 -0.040412 0.014681 0.026559 0.007241 -0.093531 0.060820 0.024191 0.069102 -0.033729 -0.043895 -0.014117 -0.026689 0.030104 -0.064870 0.025659 0.019543 -0.018890 -0.021678 -0.004239 -0.018214 0.051330 -0.080345 0.056090 -0.103905 -0.019275 -0.067981 -0.004016 -0.023808 -0.076375 -0.051059 0.041905 -0.040236 -0.071002 0.052743 -0.035016 -0.076289 0.022510 0.007271 0.052531 0.022380 0.028868 -0.084983 -0.040313 -0.085500 0.065336 0.064805 0.038072 -0.026838 -0.062506 -0.045787 -0.036358 -0.003909 -0.050195 0.029514 -0.077697 -0.052630 -0.043548 -0.019952 -0.054227 0.033966 -0.087881 0.015356 0.037697 0.080575 0.030194 0.027599 -0.001282 -0.038557 0.045218 -0.050845 -0.046867 -0.010577 -0.044026 0.010408 0.034555 0.052301 -0.047734 -0.070011 -0.011557 0.042138 -0.077027 0.056343 0.011679 -0.015322 -0.088758 -0.043971 0.031932 -0.025301 -0.053609 -0.025083 -0.059342 -0.009444 0.081104 -0.033535 -0.048480 -0.044823 0.053840 0.075378 -0.033479 0.016227 -0.045095 0.022358 -0.004167 -0.042594 -0.025190 -0.075568 -0.012943 0.000234 -0.061870 -0.009558 0.041350 -0.027949 0.040811 -0.004036 -0.026146 0.082405 0.040505 -0.075591 -0.030811 -0.058107 -0.039567 0.027811 -0.036165 0.006327 0.018565 -0.056139 -0.055163 -0.021091 0.015053 0.076530 -0.042199 -0.080025 -0.006300 0.020763 0.080385 0.021748 0.078077 0.048187 -0.016569 -0.032882 -0.057358 -0.078553 0.018475 0.059752 0.060052 0.064402 -0.055361 -0.014700 0.064226 -0.020900 0.022439 -0.011709 0.078574 -0.031938 -0.020993 -0.002506 0.041234 0.003525 -0.024922 0.007345 -0.050768 0.041007 -0.073766 0.054109 -0.039130 0.063024 0.022542 -0.011522 -0.003036 -0.034131 -0.066815 -0.052589 -0.004532 0.068621 0.018718 0.039011 0.053340 0.023369 0.023355 -0.057320 0.003283 -0.014005 0.051410 0.007766 -0.023900 -0.036696 0.027683 0.010163 -0.000166 0.022976 -0.083873 0.031910 -0.015450 0.018003 -0.001070 0.002555 -0.080138 -0.007991 0.012869 -0.057592 -0.039989 -0.040339 0.037689 0.078145 0.001546 0.021005 -0.057680 -0.076108 0.009742 0.028855 0.080631 -0.058662 -0.051769 -0.060390 -0.058248 0.077454 -0.004449 0.058269 0.009973 0.013490 0.048085 0.015899 -0.052469 -0.076318 -0.014214 0.048407 -0.041419 -0.043330 -0.037720 -0.041196 0.039478 -0.072042 0.043110 -0.013111 -0.017387 -0.033477 -0.056751 