64 100 10
-0.158735 -0.102771 0.158882 -0.169368 -0.044748 -0.136319 0.149076 0.173596 -0.155319 -0.018233 0.017509 -0.051956 -0.011926 -0.124240 -0.144325 0.179766 -0.120515 0.138795 -0.046922 0.165453 0.088321 0.162963 0.153353 -0.056005 0.119021 -0.087446 0.102366 0.139073 0.158248 -0.097673 -0.160329 0.189345 -0.010611 0.188386 -0.169855 0.134473 -0.137766 0.169053 0.118237 -0.103253 -0.039013 -0.054087 0.034623 0.138893 0.011505 0.080131 0.128827 0.080823 0.029093 -0.107928 0.056444 -0.072419 -0.134797 0.019964 0.061408 0.174057 0.122351 -0.026057 0.123298 0.090767 0.066102 0.152801 0.090280 -0.134341 0.151354 0.110257 -0.189701 -0.176244 0.089477 0.118368 -0.089664 -0.139368 -0.125551 0.134791 0.189358 0.075787 0.025090 0.128352 -0.033223 -0.135649 -0.169408 -0.166612 -0.018236 -0.114372 0.043185 -0.146659 -0.130148 -0.024296 0.017115 0.182982 -0.123362 -0.106615 0.145951 0.156750 -0.051124 0.107473 0.077175 -0.050993 0.121061 -0.023180 -0.121298 -0.093999 0.025462 -0.060814 0.161503 0.027827 -0.173736 -0.027040 -0.027373 -0.035445 -0.013265 -0.031850 0.008507 -0.152704 0.082577 -0.099042 -0.122368 0.113642 0.010355 0.091516 0.143621 0.089909 0.181030 0.048871 0.057176 -0.055061 -0.011241 -0.057818 0.043920 -0.081251 0.117190 0.130311 -0.059112 -0.004240 -0.139097 -0.074148 0.163756 -0.087416 0.115966 -0.106886 0.091854 -0.032124 0.108454 -0.092390 0.041851 -0.011398 -0.044494 0.092338 -0.081539 0.184537 0.001629 -0.155315 0.077815 0.000984 0.079483 -0.126101 0.133471 -0.075585 0.102593 0.017221 0.012543 0.003222 -0.033997 0.150757 0.150164 0.054433 -0.073709 0.128551 0.211895 -0.181969 -0.107283 0.126576 0.012500 -0.188706 0.130714 -0.177385 -0.006216 -0.101977 0.142912 0.108908 -0.079071 -0.063442 0.145218 0.172425 0.125314 0.055819 -0.060115 0.062897 0.156575 -0.157236 -0.131320 -0.028038 0.015512 0.066349 -0.068524 0.013740 -0.067558 0.006540 -0.103212 -0.089366 0.041739 -0.146147 0.160494 -0.206285 0.085610 0.161507 -0.165431 -0.235072 -0.082306 0.102308 0.030039 -0.048325 0.047632 0.023317 0.099723 -0.045588 -0.169497 0.185813 -0.071857 -0.093635 0.123181 0.146834 0.032605 0.068832 -0.011703 0.173770 -0.153680 0.098959 -0.031034 -0.048778 -0.090624 -0.201775 0.098397 -0.149845 -0.133608 -0.022048 -0.117536 -0.161200 -0.035015 -0.275310 0.134524 0.053695 0.097648 -0.159643 0.192363 -0.220634 -0.120139 -0.135986 -0.113754 0.131811 -0.082963 -0.151478 0.129278 -0.182703 -0.135946 0.003491 0.169995 0.067620 -0.079260 -0.052015 -0.106735 0.019412 -0.159525 -0.090412 0.073022 -0.033143 0.046205 0.094020 0.111917 -0.128807 -0.057539 0.081853 -0.041330 0.127753 -0.004234 -0.043198 -0.125492 -0.248503 -0.017283 -0.014543 0.167177 -0.178208 -0.039932 0.157053 -0.213722 -0.106706 -0.235846 0.292746 -0.136664 0.039899 -0.236665 -0.105361 -0.107066 0.111568 -0.147851 0.173611 -0.060126 -0.282005 -0.082538 0.144594 -0.063403 -0.029211 0.054350 0.032573 -0.106604 -0.037846 -0.137342 -0.063257 -0.025492 0.050059 0.064090 -0.155888 0.321647 -0.131675 -0.236850 0.059035 -0.009312 0.091454 -0.005833 -0.037372 -0.043502 -0.115063 0.075083 0.082844 0.108809 -0.116578 0.028188 -0.138197 -0.005755 -0.155082 -0.064559 -0.157645 -0.045437 -0.019237 -0.208682 -0.204538 -0.213798 -0.189820 -0.048157 0.165938 0.165916 -0.047844 0.001237 -0.008795 -0.026892 -0.111861 -0.074587 -0.200330 0.079548 -0.130495 -0.045039 -0.025747 -0.081304 -0.085992 -0.137304 0.006879 -0.002281 0.009568 -0.007350 -0.002987 -0.104822 0.061900 -0.345183 0.263589 0.050118 -0.102430 0.005900 0.028152 -0.288879 -0.027823 0.392746 -0.213787 0.183617 0.035776 -0.241441 -0.079264 -0.117664 0.117472 -0.096919 0.200948 0.025400 0.124743 0.045955 0.083318 -0.185408 0.225934 -0.151799 0.112265 0.016606 0.138862 0.035033 -0.162995 -0.182646 -0.130857 -0.070651 -0.189554 -0.018440 -0.222889 -0.125173 0.094062 0.066478 0.210551 0.034900 -0.089617 0.193771 0.005378 0.020473 -0.250426 0.252732 0.206159 -0.035649 -0.059089 0.036295 -0.008778 -0.128663 0.234755 0.055011 0.040933 0.031758 0.039257 -0.092355 0.093371 0.156664 0.083556 0.072532 -0.126927 0.118803 -0.087117 -0.089295 -0.108428 -0.023969 -0.021005 -0.042529 0.172400 -0.228849 0.049766 -0.218620 0.197519 0.111098 0.023553 -0.003756 0.102958 -0.197118 -0.119232 -0.066781 -0.010015 -0.144391 -0.244101 -0.177630 0.037029 0.018370 -0.105563 -0.137185 0.017384 -0.211697 -0.243541 0.076193 0.282214 -0.010859 0.068652 -0.135381 0.128803 -0.045165 0.212708 -0.027009 0.076964 0.065694 -0.000700 -0.106183 0.048454 -0.020593 0.076096 0.154052 0.113035 -0.144949 -0.151205 0.022144 -0.095857 0.025018 0.025088 0.078425 0.080711 0.134434 0.106035 -0.085200 -0.113446 0.136253 0.201828 0.163151 -0.014974 0.099217 -0.158107 -0.152186 -0.098703 -0.343469 -0.027119 -0.241037 0.123811 0.116907 -0.171105 0.003866 -0.197217 -0.121737 0.048794 0.204721 -0.136758 -0.178253 -0.133319 -0.007285 -0.107010 -0.045397 -0.175530 0.302969 0.076788 0.165277 -0.381781 0.078603 0.160109 -0.010709 0.113931 -0.009367 -0.178332 0.123138 -0.097724 -0.079783 0.111211 0.013064 -0.064706 -0.200920 -0.098704 0.083692 -0.403996 -0.031793 0.102358 -0.187703 -0.107535 0.091450 -0.088548 0.004220 -0.264576 -0.154659 -0.040950 -0.173419 -0.071950 -0.198013 0.221640 -0.000473 0.163980 0.088889 0.107489 0.022914 -0.181611 0.108149 -0.030063 -0.367646 0.033921 -0.075583 -0.022800 -0.121900 0.142238 -0.185325 -0.092569 -0.033627 -0.014822 0.110475 -0.315629 0.354601 0.057818 0.011813 -0.042787 0.367112 0.505849 0.087412 0.090997 0.027571 0.157262 0.113627 -0.195501 0.120928 -0.004473 -0.114951 -0.036261 -0.029539 0.121276 0.297917 0.133580 -0.086662 -0.055488 -0.036726 0.146494 -0.304121 0.050570 0.097307 0.049162 -0.299126 0.129077 -0.181820 0.097569 0.187132 -0.136630 -0.107593 -0.230287 -0.032231 0.112342 0.195748 -0.040581 0.133738 -0.015418 0.101694 0.023346 -0.227622 0.111255 0.029679 0.057267 0.193090 -0.371629 -0.017071 -0.243616 -0.142345 0.098354 0.032773 -0.066469 -0.016215 0.163141 -0.095735 -0.047526 0.033217 -0.096206 -0.177162 -0.169347 -0.034085 -0.232874 -0.144795 0.169901 -0.017101 -0.174271 -0.059926 -0.206881 0.010337 -0.332724 0.181030 0.136451 0.175824 -0.126007 -0.090883 0.152536 -0.110010 0.109945 0.043233 -0.022349 0.045968 -0.004516 0.068832 -0.152725 -0.196386 0.092957 0.019920 0.094028 -0.198486 0.123341 0.133500 -0.031693 -0.177917 -0.239358 0.031258 0.012615 -0.010264 0.172389 0.093940 0.071521 0.431144 0.397458 -0.097755 0.138923 -0.002594 0.045608 0.023809 -0.182992 -0.007715 -0.056414 0.050818 0.176296 0.106897 -0.017791 -0.004561 -0.181101 -0.007787 0.070335 0.145106 0.082317 -0.065125 0.035091 -0.099048 0.044082 -0.066959 0.159555 -0.132622 0.089848 0.352624 -0.058175 -0.003501 0.114640 -0.075852 0.113978 0.008496 -0.026641 -0.023705 -0.095044 0.096136 0.095198 0.001429 -0.002761 0.012391 -0.077871 -0.158759 0.108639 -0.060954 0.013729 -0.014296 -0.158335 -0.119108 0.158791 0.093968 -0.041249 0.038258 -0.030085 -0.034137 0.188464 -0.083801 -0.084985 -0.054550 0.038712 -0.148236 0.053789 0.019838 0.134430 -0.157637 -0.186907 -0.163452 0.174974 0.105256 0.053107 -0.011957 0.012585 0.154738 -0.052499 -0.053765 -0.114772 0.136758 0.118415 -0.076490 -0.148795 0.072108 -0.170254 0.040776 -0.082414 0.004210 0.198804 -0.085012 0.091844 -0.085799 0.019835 0.017784 -0.052761 -0.066899 -0.168309 -0.093438 -0.035999 -0.169837 -0.066706 -0.069175 0.140840 0.165199 0.050497 0.062342 0.125307 -0.168955 0.160957 -0.174170 0.158317 0.022528 -0.063546 -0.155704 -0.090360 -0.088084 0.072526 0.013804 0.156530 0.067821 0.133363 0.098023 0.151392 0.040066 -0.125851 -0.103822 0.123051 -0.098006 -0.038173 0.038041 -0.078931 0.153671 -0.013536 -0.131687 0.125426 -0.149358 0.016258 0.061071 -0.135412 -0.079982 0.073717 -0.154290 0.130986 -0.181633 -0.117811 -0.140215 -0.032777 0.138692 0.057555 -0.088391 0.012742 0.005592 0.151961 -0.008202 -0.198688 -0.175248 0.124335 0.123854 -0.094082 -0.032831 -0.168894 0.017513 -0.070972 0.016673 0.077781 -0.135783 0.048031 -0.098033 0.120692 0.101926 0.011772 0.001039 0.140399 -0.046778 0.009158 -0.162620 -0.009378 0.159683 0.164740 -0.141290 -0.117721 -0.012466 0.048497 -0.155584 0.169387 0.067154 -0.134699 0.103983 -0.000815 -0.046096 -0.118564 0.004548 0.157728 0.001641 -0.174616 0.047957 0.056110 0.063416 0.139703 -0.010362 -0.023904 -0.036821 0.178323 -0.068701 0.104990 -0.002977 -0.041480 -0.094335 -0.034936 -0.065467 -0.045952 0.038968 0.111165 -0.187319 0.073043 0.090719 0.052112 0.121906 0.004885 -0.154113 -0.112840 0.075885 0.040304 -0.119782 -0.117384 0.055386 0.098315 0.135484 -0.070750 0.047102 -0.065233 0.104064 -0.230075 -0.093163 -0.150709 0.049310 0.113537 -0.008469 -0.230998 -0.083298 0.062277 -0.120617 -0.018822 0.001361 -0.032559 0.045634 -0.075381 -0.087725 -0.053878 0.112510 -0.123387 0.070170 0.029277 0.102311 -0.015957 0.074198 -0.008036 -0.035862 0.009378 -0.045048 -0.179620 0.184940 -0.059839 -0.119125 -0.009239 -0.221554 0.113706 -0.182141 -0.107894 0.141741 -0.060084 0.126338 -0.195380 -0.156032 -0.045822 0.097463 -0.042711 0.061882 0.117201 0.117842 0.026044 -0.201000 -0.065041 -0.168156 0.112921 0.131650 0.027094 -0.108869 0.121904 0.063277 0.174313 -0.024714 -0.082269 -0.071694 0.002326 0.019197 0.163727 0.049397 0.020231 -0.098674 -0.094752 0.161902 0.187433 0.093362 0.106951 -0.140688 -0.052619 -0.070747 0.138495 0.011134 -0.149374 -0.027739 -0.097547 0.017129 -0.051464 -0.166928 -0.007243 -0.134573 -0.065986 0.185578 0.069137 -0.043617 -0.075818 0.022023 0.075806 0.087590 0.143078 -0.014674 -0.085551 -0.107270 0.007128 -0.011021 -0.090670 -0.021965 0.176578 0.114950 0.084762 -0.039902 -0.062428 0.002005 -0.015492 0.073665 0.120427 0.127918 -0.038357 -0.055625 0.055124 0.181245 0.252903 0.001989 0.052723 -0.049221 -0.021620 -0.157299 -0.122712 0.098168 0.156187 0.167455 -0.033838 -0.073923 -0.183162 -0.057001 -0.126321 -0.022990 -0.007442 -0.437998 -0.017109 -0.046714 0.025980 -0.040089 -0.100420 -0.097500 -0.057537 0.116754 -0.235215 -0.175836 -0.089958 0.116533 -0.069484 -0.164617 0.071694 0.094706 -0.001093 -0.135799 0.183883 0.016408 -0.212304 0.168632 0.333838 0.125704 0.102930 -0.165602 0.145510 -0.092766 -0.075245 0.058705 0.056448 0.007124 0.166638 -0.140265 -0.147524 0.232405 -0.132349 0.143160 0.140354 -0.000084 0.105881 -0.066834 -0.048428 -0.017146 0.029655 -0.080011 0.046356 0.102777 -0.085687 0.027880 0.208286 0.013097 0.090139 0.316940 -0.077806 -0.048772 -0.232687 -0.114815 -0.038445 -0.158981 0.112134 -0.140943 0.102715 0.277113 0.012915 0.124263 -0.100430 -0.019339 -0.064422 -0.104465 0.148500 -0.116380 -0.077903 -0.064215 0.145469 -0.010111 -0.055144 0.187776 0.120804 0.256120 -0.036850 0.075013 0.042898 0.035324 0.003080 -0.099115 -0.071824 0.092028 0.036711 0.095192 0.137517 -0.078741 -0.168758 0.104410 0.060660 0.195433 -0.171770 -0.099697 -0.060224 -0.047435 -0.042656 0.113758 0.067420 0.095631 -0.030692 0.057877 0.005470 0.070196 -0.091505 0.055547 0.001431 -0.033180 0.013850 0.095360 -0.020563 -0.175392 -0.028283 0.010410 0.145635 -0.234483 -0.088108 0.084320 0.148012 -0.125650 -0.158357 -0.176073 0.037869 -0.131240 -0.071736 0.243965 0.101055 -0.007530 0.106341 -0.038815 0.052540 0.134818 0.009032 -0.036337 0.055505 0.065745 0.177939 -0.141015 -0.134970 -0.013104 0.171959 0.090415 -0.065016 0.008866 -0.069465 -0.012056 0.094409 0.054538 0.115077 0.092329 0.049057 -0.104415 0.062668 -0.230466 -0.010056 -0.058444 0.018404 -0.097156 -0.143612 0.034078 -0.136528 0.088145 0.132689 0.016731 -0.112428 -0.160308 0.003031 -0.187165 -0.295771 0.207326 -0.146874 -0.121275 0.010523 0.170616 -0.000714 -0.238006 -0.149361 -0.072911 0.055156 -0.132128 -0.174138 -0.136111 -0.102388 -0.191575 0.068363 -0.009759 -0.054655 0.069274 -0.231581 0.111827 -0.139626 -0.094223 -0.068569 0.142461 0.044587 -0.263859 0.035891 -0.185906 -0.236241 0.047135 -0.011998 0.020259 0.130018 0.187156 -0.180892 -0.075884 0.170001 -0.175207 -0.060728 -0.219718 -0.159262 -0.004619 -0.038078 -0.097563 0.032118 -0.098494 0.030022 0.147730 -0.071992 0.181868 -0.122597 -0.169146 -0.062858 -0.212652 0.131961 0.115121 0.008319 -0.161386 0.212140 -0.052612 -0.067011 0.087759 -0.168275 -0.083516 0.144381 0.095740 0.028085 0.129172 -0.096966 -0.066355 0.070008 0.135778 0.016754 -0.044561 -0.126484 -0.091899 0.105400 -0.236343 -0.152111 -0.000125 0.204650 -0.017202 0.010443 -0.198936 0.021116 -0.142346 0.110862 0.073308 -0.176419 0.394543 0.140576 -0.043755 0.189674 0.055721 0.046455 -0.110888 -0.115617 0.168764 -0.123370 0.118078 -0.091042 0.051290 0.133272 0.303782 0.017183 0.067543 0.090420 0.076012 0.109857 0.236828 0.151667 -0.189341 -0.056278 -0.026558 -0.205880 0.057652 0.107233 0.117640 -0.025312 0.198419 0.034522 0.000762 -0.131181 -0.058473 0.075564 -0.131952 -0.215605 -0.183736 0.135101 -0.053494 0.134558 0.042158 -0.019150 0.127071 -0.136651 -0.065469 0.061699 -0.147442 0.044186 0.050616 0.190108 -0.067280 0.040971 -0.092043 0.124917 -0.092050 -0.201677 0.068931 -0.055117 -0.047801 -0.093070 -0.118150 -0.065482 -0.349610 0.116639 0.083785 -0.010408 -0.138570 0.180929 -0.061346 -0.124007 0.221033 -0.245842 0.149112 0.080030 -0.105126 -0.092350 -0.007153 -0.154588 0.076336 -0.204776 -0.136064 -0.131023 0.079230 -0.036712 -0.057368 0.043303 -0.073593 0.189935 -0.196958 -0.109555 0.012453 -0.073668 -0.025684 0.062453 0.154663 0.048493 0.131177 0.091602 0.157299 -0.207897 0.084616 0.259610 0.118253 0.018815 0.006159 -0.155617 0.112381 0.151916 -0.111676 0.020114 -0.021881 -0.126487 0.185518 0.135189 0.175144 0.325079 0.044720 -0.063127 0.085735 -0.078975 -0.113943 0.160234 0.007802 -0.192957 0.014759 -0.074311 -0.092196 -0.125486 0.121326 -0.126289 -0.105734 -0.025368 -0.161359 -0.121648 -0.010733 0.066732 -0.138068 0.084325 0.040327 0.167175 -0.012286 0.102972 0.026582 -0.026107 0.013358 -0.001291 -0.048034 0.214679 -0.144795 -0.173698 -0.107280 -0.064632 0.161233 0.107418 0.149756 -0.211066 -0.131400 0.146976 -0.006641 -0.207743 0.153097 0.072076 -0.070043 -0.178283 -0.171763 0.072736 0.067151 -0.106494 0.035824 -0.034385 -0.000493 -0.073224 -0.155046 -0.171005 -0.015000 0.092715 -0.122822 0.087606 0.067822 -0.032787 -0.215951 0.123687 0.126514 -0.164326 0.183165 -0.092104 -0.000116 0.138104 0.157024 -0.090009 0.190362 0.182902 -0.039305 -0.040721 0.076354 -0.119858 -0.156495 0.123773 -0.187517 0.058806 -0.175013 0.134876 0.137814 -0.119686 0.110914 -0.012111 0.162411 -0.167738 -0.018259 0.023494 -0.049711 -0.012580 -0.033494 -0.161097 0.005384 -0.163707 -0.066017 -0.185494 0.160888 -0.079476 -0.082901 0.092651 -0.114969 -0.058649 -0.146500 -0.150288 0.065050 -0.117561 0.107927 -0.166662 0.144492 0.061931 0.180940 0.096944 0.217213 0.156513 -0.108106 0.152259 0.178607 0.087607 -0.008467 -0.034263 -0.083927 0.160125 -0.018030 0.050956 -0.180730 0.099463 0.062029 0.164151 -0.168489 0.178435 0.056937 -0.091739 -0.038331 0.102326 -0.046907 -0.180006 0.165914 -0.144887 -0.160582 0.108432 0.150961 -0.152325 0.044658 0.149995 0.190463 0.116762 0.137575 0.181899 -0.013217 -0.013822 -0.068127 0.060927 -0.045140 0.115672 -0.068907 -0.039259 0.031526 -0.185898 -0.130662 0.046405 0.186699 0.127388 0.068207 -0.042620 0.026705 -0.084060 -0.035928 0.024376 -0.023558 -0.021936 -0.016456 -0.069691 0.003543 0.190015 -0.078195 -0.038250 0.235736 -0.181448 0.001851 -0.084487 -0.068346 0.135851 0.160744 0.016036 0.068766 -0.101207 0.108139 -0.102563 -0.093707 0.173854 0.130068 -0.097454 0.099928 0.064087 0.045624 -0.040667 0.182155 -0.190928 0.171404 -0.054160 -0.006882 -0.056825 0.059133 -0.182515 -0.055822 0.136800 0.018849 -0.130839 0.144975 -0.186073 -0.032777 -0.122704 0.162608 -0.056888 0.092369 0.026781 0.031791 0.011188 0.114383 0.127601 -0.005060 0.058610 -0.159024 -0.085515 -0.043184 0.076449 0.062260 -0.051190 0.081220 0.043885 0.084470 -0.115481 0.183806 -0.044198 -0.108370 -0.088042 -0.099745 0.099646 -0.007051 -0.145619 0.119523 0.156993 -0.067131 0.084412 -0.090354 -0.164805 -0.077181 0.132874 0.070438 -0.131754 0.071318 -0.158904 0.095963 0.102130 -0.053922 -0.137947 -0.017838 -0.182277 0.001103 -0.119820 0.052229 -0.104435 -0.045518 0.041202 0.039156 0.035992 0.164896 0.129992 -0.046901 -0.031889 0.184771 -0.124877 -0.064606 -0.080470 0.156556 0.036103 -0.055959 -0.115811 -0.010254 0.184950 -0.148059 -0.030078 -0.108748 -0.161382 0.167822 -0.057395 -0.087562 0.002963 -0.017772 -0.017769 -0.189269 -0.179675 0.067760 0.000881 0.142866 -0.020187 -0.058798 -0.000678 -0.053668 0.162632 0.189939 -0.041414 -0.167594 -0.034739 0.030126 0.158361 0.155216 0.172159 -0.099529 -0.045063 0.050210 0.052829 -0.054199 0.126920 0.040759 0.071684 -0.076207 0.139071 0.095039 -0.018519 -0.088919 -0.069250 0.062727 -0.009489 -0.095066 0.053835 0.099870 0.122562 0.165710 -0.149177 0.066672 0.189397 -0.001790 0.069961 -0.078104 -0.088120 -0.037836 -0.081225 -0.174485 0.087046 0.155843 0.203262 -0.063627 -0.124387 0.056566 0.113425 0.023925 -0.110335 -0.028716 -0.099528 0.167443 0.136072 -0.071192 0.081037 -0.115788 0.048449 -0.080858 0.128044 0.100315 -0.144319 -0.154339 -0.057471 -0.100130 0.031823 -0.206867 -0.035012 -0.057510 0.140984 0.030538 0.042927 -0.055499 -0.145790 0.089063 -0.095041 -0.040663 0.165476 -0.049049 0.153669 0.098209 -0.248533 -0.079339 0.126472 0.074317 0.168828 -0.050329 -0.158546 0.074458 -0.067207 -0.070485 -0.058777 0.025266 -0.074261 0.114017 0.038927 0.219783 -0.163853 -0.267348 -0.095604 0.162186 0.186596 -0.148790 0.015511 -0.164551 0.109215 0.073661 0.006160 0.058902 -0.002660 0.078971 0.117899 0.061355 -0.010401 0.069435 -0.181939 0.091272 0.054184 -0.068660 -0.257747 -0.034550 0.154345 -0.104440 0.127538 0.118008 -0.144176 0.066959 0.116206 -0.146817 0.164966 -0.140642 -0.186165 0.042882 -0.067017 0.257356 0.351704 -0.148905 -0.041541 0.058840 -0.072965 -0.134001 -0.174949 -0.029532 -0.152099 0.170188 0.133492 -0.218362 0.063294 0.121896 0.025380 -0.122446 -0.062597 -0.033127 0.020049 -0.104105 -0.144010 0.070300 0.208726 0.104998 0.095282 0.031764 -0.200809 0.198984 -0.063223 0.081841 0.147182 -0.028053 -0.077148 -0.029087 0.014340 -0.102306 -0.075522 0.116604 0.061885 0.246550 -0.128678 0.064397 0.222876 -0.273784 0.016818 -0.033547 -0.266891 0.039900 -0.039939 0.074242 0.121856 0.071004 0.090487 0.027530 -0.106354 -0.148596 -0.103743 -0.105653 -0.117843 -0.000643 -0.219912 0.058187 -0.071849 -0.208173 -0.035111 -0.029993 -0.159761 0.157484 0.060333 -0.206832 0.050151 0.199024 0.076262 -0.100103 0.128004 -0.042130 0.107934 -0.011988 0.075909 0.279632 -0.118555 0.087756 0.319179 -0.001211 -0.039736 -0.019354 0.252292 -0.036139 -0.206269 -0.073836 0.130730 0.112265 -0.280601 -0.132865 -0.082637 -0.051266 -0.125325 -0.075498 -0.068809 0.011589 0.223329 0.135257 -0.303390 -0.140618 -0.090732 -0.055594 -0.106935 0.028846 0.031699 0.073095 -0.104914 0.080147 -0.088504 0.071775 0.023351 -0.167122 0.096335 -0.132627 0.165650 0.015553 -0.015895 0.052425 0.059145 -0.023847 0.243350 -0.164898 0.096565 -0.227995 -0.078462 -0.072615 0.065265 -0.066404 -0.040612 -0.266509 0.144667 -0.077287 -0.066203 0.127715 0.150892 -0.140353 0.013095 0.185421 -0.086858 -0.160695 -0.117095 0.098485 0.123165 0.084019 -0.147630 -0.295014 0.076173 0.015621 0.083013 -0.089534 -0.257629 0.186194 -0.106855 0.102060 0.084764 -0.116556 -0.098956 -0.022682 0.107558 -0.016440 0.045029 -0.315273 0.058374 0.173425 0.009189 0.083265 -0.082942 0.044314 -0.008480 -0.214957 -0.002118 0.087400 -0.257242 0.404583 -0.180635 -0.022029 -0.101435 -0.122779 0.278760 -0.125442 0.499859 0.157266 -0.247261 -0.279092 0.070068 0.127970 0.225226 0.097478 -0.184430 -0.049622 0.097636 0.070323 0.037764 -0.035976 0.086793 0.035044 -0.181459 0.143265 -0.372651 0.179902 -0.091181 0.014696 0.138775 -0.038775 -0.040678 -0.188154 0.070761 0.285634 -0.060831 -0.229667 -0.188626 0.183235 0.162459 -0.226627 0.171191 -0.104901 0.135529 0.101075 0.151727 -0.412396 -0.023470 0.148283 0.120417 0.128445 -0.172772 0.003714 -0.058747 -0.024438 -0.070626 -0.192725 -0.025409 0.287948 0.114798 0.104224 0.004504 0.056007 0.096762 0.170675 0.022501 -0.135501 -0.159317 -0.070250 -0.203260 -0.055795 -0.019613 -0.507675 -0.034206 -0.168023 0.008851 -0.217167 -0.092744 0.029693 0.196940 -0.043338 0.099699 -0.146027 0.320390 -0.094464 0.024537 -0.038634 0.000394 -0.393224 0.172726 -0.070805 -0.296657 -0.189051 0.104336 -0.154200 0.111073 0.263652 -0.084976 0.181290 -0.086005 -0.034143 -0.073180 -0.484693 -0.042120 0.020149 0.106465 -0.074024 0.483327 0.119838 -0.282050 0.017557 0.010362 -0.083262 0.065676 -0.050014 -0.059391 0.046429 -0.026220 0.039713 0.079620 -0.074894 -0.182808 0.316902 -0.021828 0.093615 0.028470 0.015434 -0.002870 -0.127799 -0.036854 0.026504 -0.033752 -0.004330 -0.090357 -0.357225 -0.108703 -0.222881 -0.002003 0.106056 -0.469678 0.054967 0.155462 0.085774 0.169336 0.158903 0.305701 -0.397881 0.062952 -0.053652 0.099691 -0.064224 0.054758 0.162667 -0.066080 -0.347440 0.105734 -0.072708 0.012535 0.360468 -0.058626 0.001413 -0.146601 0.127507 0.039397 -0.171970 0.217649 0.004113 0.013556 -0.002678 0.003530 0.031978 -0.080013 -0.340879 -0.061681 -0.116677 -0.094947 -0.131972 -0.095469 0.123051 0.024027 -0.145968 -0.107097 -0.088101 0.114831 -0.142657 -0.023206 0.146445 -0.023429 -0.007228 0.189500 0.048353 -0.106783 -0.188373 -0.032489 0.036787 -0.135424 -0.059698 0.159575 0.098231 0.168767 -0.055089 0.048809 0.030060 0.128775 0.032820 -0.118718 -0.140442 0.562601 0.042867 -0.177704 -0.048928 0.163994 -0.074272 0.039656 -0.183004 0.102767 0.011345 0.087093 -0.178381 -0.107801 0.066402 0.067292 0.113070 0.079420 -0.150861 0.167876 0.193669 -0.006823 0.097822 0.000020 -0.043414 -0.001805 -0.166571 0.057843 -0.149360 0.108171 0.033773 -0.061526 -0.057765 -0.043608 -0.012230 -0.149716 0.027851 0.036991 -0.005515 0.314434 -0.222995 -0.150979 -0.086259 -0.112926 -0.081349 -0.097198 0.101733 0.066037 0.022001 -0.126203 -0.018831 0.080437 0.304655 -0.020395 -0.077297 0.120848 0.010676 -0.037631 0.085953 0.254395 -0.096160 -0.044291 -0.150640 0.096799 -0.126228 -0.015009 0.094614 0.110242 -0.171551 -0.095537 -0.019361 -0.089843 -0.084092 0.122320 -0.012329 0.019982 0.142561 -0.030020 -0.114523 0.081590 0.000947 0.086301 -0.025251 -0.155074 -0.166438 0.090418 -0.158090 0.062505 -0.146603 0.054358 -0.020352 -0.095666 -0.138151 -0.001357 -0.174492 -0.074690 -0.148360 0.121805 -0.158418 -0.168032 -0.155885 0.020496 -0.071008 -0.027131 -0.045650 0.124257 0.173494 -0.080289 -0.085005 -0.112326 0.172705 0.105688 0.148216 -0.054409 0.138312 0.171888 -0.159579 0.170354 0.045005 -0.125149 0.034791 -0.165538 -0.027172 0.083067 0.044225 0.008925 -0.180169 0.043564 -0.064574 -0.142554 0.084593 -0.032128 0.064558 0.256821 0.122545 -0.177800 0.124505 0.104567 -0.085566 -0.139376 0.160831 -0.102091 0.143203 0.124368 0.041491 0.088015 0.059251 0.066877 0.059753 -0.034706 0.136107 -0.086217 -0.005636 -0.081661 -0.178490 -0.162386 0.095271 -0.176898 0.100447 -0.162174 -0.122127 -0.050682 0.001999 0.117459 -0.056850 -0.066724 0.122724 -0.127426 -0.149295 -0.152866 -0.093871 -0.176305 -0.062264 -0.144824 0.125408 0.163815 0.128537 0.040949 0.040162 0.009071 -0.173204 -0.016373 0.114960 0.004367 0.097435 0.115488 0.034258 0.009866 0.127225 -0.081516 0.044420 0.185191 0.057313 -0.147099 0.110431 -0.194249 -0.016601 0.045942 -0.127151 0.016893 0.083079 -0.022178 0.030759 -0.169230 0.013831 -0.021395 0.184432 -0.043184 -0.157236 0.034747 0.158081 -0.140866 -0.168554 0.083202 0.053333 0.118705 0.010547 -0.102242 -0.061407 -0.055028 0.006072 0.172480 -0.058505 -0.126374 -0.151152 -0.135518 -0.125831 0.007990 0.099610 -0.063235 -0.164724 -0.006750 0.093361 0.065804 0.013824 -0.080502 -0.149998 0.008438 0.066581 -0.123033 -0.150435 0.034395 -0.074068 -0.125357 -0.071894 0.169098 0.183185 0.126338 -0.123056 -0.068069 -0.117354 0.072930 -0.082281 0.013967 0.135740 -0.056536 0.068321 -0.179144 0.143495 -0.021339 -0.052554 0.166184 0.165938 -0.090113 0.021753 0.037650 0.048341 0.074818 0.189081 -0.170674 0.133763 -0.047886 0.037042 -0.130303 -0.172933 0.172201 -0.230467 -0.071901 0.114663 -0.063145 -0.038105 0.183864 0.170396 0.141947 0.014246 0.296280 -0.118871 -0.084479 0.117594 -0.157962 0.057176 -0.119584 -0.165827 0.188293 -0.070152 0.139565 -0.177232 0.065377 -0.103568 -0.083074 0.118979 -0.034820 -0.152734 0.045021 -0.082115 -0.050121 -0.042616 0.021001 0.044920 -0.057006 0.043839 -0.120832 -0.100336 0.029010 -0.166988 0.110270 0.036896 0.166050 -0.193284 0.012748 -0.256222 0.087041 0.009684 -0.136051 -0.072798 0.155180 0.153216 -0.133084 -0.052451 -0.116519 0.117884 -0.037429 -0.310994 0.032327 0.174154 0.046522 -0.003933 -0.060305 0.189486 0.015835 -0.007032 0.027105 0.085643 0.129445 -0.080723 0.102655 -0.003013 0.090654 -0.150018 0.075431 -0.284830 -0.031700 -0.075289 0.005243 -0.074699 -0.022281 0.053435 0.038947 0.145003 0.157649 -0.135239 -0.114939 -0.016745 -0.439275 0.104845 -0.014135 0.211579 0.018436 0.052786 0.061841 -0.170843 -0.098534 -0.114493 -0.003389 -0.189986 0.043903 -0.002432 -0.101892 -0.198806 -0.121258 -0.341594 -0.040400 0.076345 0.085851 0.155437 0.173679 -0.156207 -0.065557 0.016349 -0.180658 -0.113491 -0.091462 -0.061015 0.145846 0.040277 0.201551 0.224353 -0.091446 -0.107609 -0.253201 -0.166212 -0.303455 0.071293 0.118136 -0.002461 0.037085 -0.114609 -0.068993 -0.062118 -0.157316 -0.032623 0.090733 0.069172 0.003380 -0.103608 0.061800 0.082242 0.272202 0.164751 -0.094499 -0.436166 -0.072035 -0.102750 -0.175568 0.207579 0.023405 0.027830 -0.242617 -0.025069 0.172155 0.152476 -0.059250 -0.082557 -0.012284 0.156003 0.098811 0.110411 0.179363 -0.004746 0.059534 -0.108877 -0.148090 0.165987 -0.122190 -0.016945 -0.136356 0.138622 -0.161277 0.011437 0.164560 0.263870 0.189225 -0.194533 -0.190969 0.034403 0.150809 0.004032 -0.093508 0.067979 0.085717 -0.205321 -0.087590 0.079614 -0.089269 -0.018573 -0.020263 -0.028209 -0.099685 -0.019412 0.200839 -0.082267 -0.062440 0.009639 -0.113512 0.155983 -0.099461 0.171125 0.003907 -0.198371 0.257389 -0.004529 -0.024981 0.155424 0.073216 -0.050315 -0.124235 0.038426 -0.010197 0.118435 -0.033029 -0.019893 0.086342 0.113369 -0.058333 -0.138027 -0.084477 -0.014399 -0.071451 -0.113479 -0.117456 -0.226084 0.099369 0.205693 -0.189522 0.026023 0.114014 -0.094241 -0.026812 0.107611 -0.206604 -0.128946 0.089431 -0.048792 -0.147392 -0.121671 0.123716 0.122456 -0.010856 -0.098846 -0.272631 -0.392247 0.155469 -0.168925 -0.264264 -0.144254 -0.135311 -0.148743 -0.388127 0.192498 -0.053340 0.065118 0.131921 0.166897 -0.023846 0.052390 0.088487 -0.312252 0.044454 0.153588 0.042962 0.080226 0.191479 -0.040888 -0.069018 -0.164650 -0.042653 0.024854 0.083541 -0.047566 -0.019456 -0.071279 0.132848 -0.015629 -0.188439 0.131354 0.075971 0.011713 0.162747 -0.024606 0.230849 -0.319505 0.113266 -0.112513 0.059734 0.184205 -0.014907 0.211941 0.208138 -0.110090 -0.050348 0.094640 -0.147591 0.068609 -0.236351 -0.010995 0.023927 0.035846 -0.120606 -0.092223 -0.124142 -0.154813 -0.080601 -0.123799 -0.023551 -0.044682 0.164912 -0.227590 0.156173 0.187233 0.015425 -0.454809 -0.124446 -0.001855 -0.246796 -0.035674 -0.169957 0.064063 0.113991 -0.081173 -0.168800 -0.033406 -0.285463 -0.020715 -0.233018 -0.137233 0.033852 0.065348 0.036647 -0.078562 0.202957 -0.041701 -0.017401 -0.123523 -0.061974 0.113247 0.054450 -0.182465 0.005995 -0.016944 -0.148275 -0.267881 -0.038515 -0.025219 0.246514 -0.035087 -0.017944 -0.003213 0.026302 0.445530 0.072752 0.047652 -0.129674 0.343163 0.377929 -0.147707 -0.043993 0.078896 0.128364 0.009504 0.000851 0.025886 0.151124 -0.013087 -0.190033 -0.084555 -0.219152 0.163531 0.045443 -0.096104 -0.185318 0.074964 0.065469 -0.126810 -0.114469 0.122289 -0.090532 0.146807 0.251439 0.055072 0.158384 -0.130891 -0.131252 0.140984 -0.296559 -0.108645 0.119940 -0.077061 0.147185 0.109860 -0.219644 0.119492 0.086175 -0.024535 -0.077391 0.058583 -0.131938 0.086282 -0.050247 0.012997 -0.135873 -0.017447 0.000630 -0.165024 -0.157851 0.166179 0.112556 -0.056070 0.145176 0.069824 -0.083944 -0.045550 -0.203395 0.073645 -0.013327 0.025205 0.051643 -0.072283 0.126163 0.009583 -0.190732 -0.178621 0.042169 0.161954 -0.034959 0.074139 -0.072829 -0.055788 0.046272 0.048649 0.135843 -0.225996 -0.120771 0.016318 -0.136501 -0.077137 -0.000500 0.122511 0.296823 -0.037864 0.065884 0.156335 0.088649 -0.004023 0.117392 0.003506 0.002737 0.033541 0.044593 0.034637 0.015179 -0.085819 0.151907 0.042737 -0.247765 0.069733 0.210399 0.130810 -0.124897 -0.039762 0.133616 -0.279853 -0.031045 0.103434 0.060535 0.035826 -0.044961 -0.084194 0.069009 0.011456 -0.056752 -0.195903 -0.133423 0.096836 0.077633 0.093048 -0.015988 -0.029618 0.042362 -0.153598 -0.166244 -0.089980 0.133075 -0.129438 -0.352698 -0.135577 -0.132799 -0.260745 0.188576 -0.101421 -0.009987 0.033533 -0.063962 0.022119 -0.059607 -0.231205 -0.027122 -0.238997 -0.198035 -0.241952 -0.195400 -0.216745 -0.159745 -0.130756 0.012382 0.079574 0.004803 -0.108353 -0.137794 0.064345 -0.028083 -0.025037 0.028740 -0.092111 0.193763 -0.006909 -0.033879 0.017676 0.126700 -0.048072 0.043907 -0.047586 0.507629 -0.126976 -0.001400 0.002466 -0.048045 0.137028 -0.021817 0.068487 0.125667 0.050680 0.174237 -0.187364 0.131399 -0.050052 0.082961 0.190221 0.191489 0.123813 0.222371 -0.201909 -0.126735 -0.186040 -0.214895 0.165261 0.236230 0.058467 -0.117073 0.025612 -0.071538 0.056154 -0.135653 -0.273315 -0.199812 0.030305 0.017111 0.369622 -0.108153 0.196615 0.245044 -0.269767 -0.004879 0.007075 -0.174799 0.038090 0.212974 -0.063596 -0.018772 -0.201213 0.177023 0.125846 0.067247 0.292026 0.141656 0.085118 -0.108311 0.163524 0.164311 0.209479 -0.151049 0.034859 -0.097388 0.039015 -0.086695 0.059116 -0.178655 0.092390 0.007982 -0.098439 0.084646 -0.115179 -0.070912 -0.042776 0.084225 -0.047982 0.160698 0.052865 -0.122626 -0.062490 -0.115707 0.123848 -0.121294 0.122438 0.072108 -0.160496 0.101594 -0.075048 0.114823 0.005223 -0.084740 -0.092809 0.011587 -0.012113 0.136004 0.114611 -0.142349 0.155566 0.016314 0.054758 -0.138120 -0.087944 0.129308 -0.018975 0.058804 0.023428 0.128940 0.029882 -0.112516 -0.180651 0.156846 -0.038392 0.132994 -0.154069 -0.107771 0.015257 -0.124733 0.183236 0.130042 0.179861 -0.001384 -0.144531 -0.099502 -0.179638 0.033192 -0.147252 0.125092 0.080097 -0.189502 -0.046821 -0.054775 -0.137291 0.054152 -0.112542 0.036871 -0.076321 0.098197 -0.028816 0.143249 0.175498 -0.018507 0.110478 -0.052112 -0.075360 0.146260 0.029687 0.129722 -0.172018 0.022732 0.069665 -0.177316 -0.168413 0.115243 -0.087919 -0.158275 -0.040159 -0.048302 0.154963 -0.151092 -0.045816 -0.081211 -0.016476 0.004491 0.162863 0.058401 -0.152120 -0.103524 -0.033262 0.010068 -0.150087 -0.047608 0.181389 0.150239 0.089483 -0.083800 0.106663 -0.071028 -0.143900 0.128185 0.141536 0.115874 0.139739 0.162956 0.041285 -0.138040 -0.185099 0.189716 0.003661 0.161174 -0.151144 0.145707 -0.109781 0.022631 -0.039633 -0.136751 -0.108800 -0.001921 -0.050442 0.047770 -0.181685 -0.010696 -0.189670 0.189537 -0.050290 0.089645 -0.084096 -0.133459 -0.171215 -0.038163 0.184558 0.160153 -0.112121 0.134466 0.133277 0.118996 0.186258 0.138010 0.118880 0.000087 0.109352 0.157568 -0.044039 0.189403 -0.009632 0.106160 -0.137180 0.071400 -0.085593 0.002210 -0.070662 -0.077445 0.181346 -0.070500 -0.077741 -0.058776 -0.170687 0.027996 -0.002402 -0.152070 0.179665 -0.007676 -0.181749 -0.122288 -0.063043 0.141359 0.186541 -0.066617 0.089537 0.115588 0.123302 0.009057 0.083324 -0.110569 0.008627 -0.116140 0.185423 0.061280 0.145092 -0.090002 -0.126342 -0.115403 0.022386 -0.134828 0.003662 0.089386 0.016177 0.030514 -0.024073 0.181686 0.055025 -0.046889 0.010353 0.068831 -0.192703 0.069277 -0.072603 0.006587 -0.169434 -0.105566 -0.104502 -0.028185 0.080495 -0.091871 0.108707 -0.073380 -0.079611 -0.057115 0.179857 -0.110273 -0.026942 -0.127945 0.035747 0.138943 -0.069991 0.282622 0.104145 0.189599 0.082162 -0.097649 0.088535 -0.025738 0.058298 0.073292 0.078682 -0.076919 -0.151727 -0.068487 0.143928 -0.243824 0.009171 -0.086504 -0.158324 -0.004071 -0.088615 -0.125713 0.102523 0.021044 0.039819 0.199873 0.101888 0.278272 -0.041217 -0.152749 0.091482 -0.246365 0.255590 0.087643 -0.154616 -0.112033 -0.100329 0.134928 0.188146 0.000691 -0.335669 -0.036660 0.067655 -0.127308 0.086168 0.014663 -0.076516 -0.077620 -0.047088 -0.018155 0.074164 0.178872 0.041764 0.000286 -0.113944 -0.148638 -0.100852 -0.039654 0.207533 -0.122123 -0.033335 0.072220 -0.034862 0.020546 -0.180338 -0.023590 0.135983 -0.180828 -0.141468 -0.111402 0.075567 -0.292404 0.035270 -0.109346 0.089500 -0.095827 0.161366 0.043192 0.022895 -0.009852 -0.178121 -0.275325 -0.079676 0.113032 -0.177377 -0.210878 0.195894 -0.211313 -0.031850 0.109422 0.302490 0.106144 -0.000809 0.127903 -0.195511 0.116612 0.135271 0.098061 0.242341 -0.220912 0.198267 0.129520 -0.020557 -0.013155 0.353965 0.089281 -0.048064 0.003729 0.019179 -0.223424 0.053244 0.218818 -0.105453 -0.188413 0.041694 -0.187205 -0.183053 -0.033467 -0.110012 0.065336 -0.076794 -0.169749 -0.098278 0.113818 -0.011110 0.100806 0.051570 -0.064935 -0.390165 -0.021817 -0.130533 -0.259094 0.019155 -0.012742 0.019161 -0.299010 -0.046545 -0.104002 0.143268 -0.184359 -0.320298 -0.037085 -0.014547 -0.063130 0.075041 -0.052811 0.114828 0.032319 0.133784 -0.086154 -0.123192 -0.121067 0.006179 -0.047914 0.053997 0.132111 0.124573 0.175568 0.145682 0.136276 -0.130040 -0.108081 0.117852 -0.028635 0.089772 0.027169 -0.084787 -0.078839 -0.020999 -0.187774 -0.058971 -0.142003 0.053319 -0.189358 -0.062396 -0.064025 -0.035934 0.109493 0.122945 -0.253066 0.186014 -0.133781 -0.001500 -0.172805 0.094805 0.049282 0.176240 -0.064108 0.230806 0.032886 -0.035289 0.129552 -0.175873 0.098949 -0.165825 0.150104 -0.017350 -0.092486 -0.202824 0.092080 0.083734 -0.114185 -0.043082 -0.067978 0.009874 -0.134660 -0.018674 0.108890 0.122854 0.159296 0.154897 -0.119948 -0.008013 -0.127456 0.093660 -0.096975 -0.028794 0.043411 -0.015329 0.007391 -0.025444 0.039162 -0.069223 -0.003394 0.057027 0.039031 -0.044396 0.224216 -0.081521 -0.111751 0.077194 -0.060222 0.008016 -0.113148 0.102494 0.007912 0.098450 -0.085322 -0.023992 -0.019773 0.166341 -0.018139 -0.025925 -0.130033 0.078914 0.180400 -0.099789 0.034007 0.045124 0.056312 0.074381 -0.158025 0.024742 -0.229298 0.000024 0.168337 0.127176 0.040357 0.143651 -0.004209 0.131561 0.074961 0.203583 0.050359 0.048993 0.039826 0.085062 -0.015503 -0.045284 -0.043327 0.155936 0.411978 -0.143862 -0.179364 -0.135108 0.201664 -0.206831 -0.032499 -0.040627 -0.130649 -0.026967 -0.196779 0.001670 -0.089740 -0.013286 -0.174209 -0.073264 0.102885 -0.218498 -0.215302 0.070015 -0.096194 0.154504 0.201866 -0.122889 0.128131 0.030176 -0.161000 -0.335055 -0.169602 0.112354 -0.114326 -0.073186 0.069757 0.069699 0.031015 0.075958 -0.296470 -0.183753 0.124728 0.114778 -0.087647 -0.065410 -0.067341 -0.000659 0.008424 0.006168 0.077249 -0.114398 0.064965 0.144331 -0.108036 -0.178219 0.131616 -0.085111 -0.027532 0.072883 0.024473 -0.168816 0.075556 0.111134 -0.177729 0.091250 0.040069 -0.083563 -0.117926 0.470698 0.161032 -0.151933 -0.188649 0.133765 0.536249 -0.157137 -0.028234 0.165138 0.050522 0.137510 0.123528 -0.016813 -0.141962 0.071511 -0.092971 0.014870 0.006516 -0.121414 0.123146 -0.106790 0.075661 -0.036945 0.043621 0.117132 -0.015398 0.332391 0.087367 0.010449 0.108301 0.002689 0.008319 0.102640 0.072465 0.046138 -0.031718 0.093210 -0.101087 -0.060255 -0.149904 -0.069940 -0.016893 -0.085008 0.103390 0.006372 0.149807 -0.171868 -0.167276 -0.057892 -0.321411 0.130563 -0.062947 -0.375131 -0.132526 -0.108058 0.157027 0.108530 0.125928 -0.102422 -0.028894 -0.008164 -0.167468 0.037979 0.081940 0.146393 0.224245 -0.084002 0.041270 0.325644 -0.202373 0.006943 -0.038246 0.036169 0.238223 0.021204 0.083771 0.074419 -0.038295 -0.060707 -0.057399 0.033816 -0.113774 0.088026 0.123735 -0.009505 0.135408 0.017319 -0.085483 0.022319 0.243286 0.054765 -0.059286 -0.240503 0.041781 0.105891 -0.020069 0.069388 -0.084969 -0.043079 -0.274177 -0.036245 -0.045186 -0.288562 0.165513 -0.244745 0.076636 -0.149665 0.127767 0.037185 0.017902 0.196321 0.029877 -0.000232 0.114914 0.074332 -0.128435 0.059915 0.009057 -0.054110 -0.006297 -0.028916 -0.160428 -0.040969 -0.028664 0.104736 -0.101503 0.146806 -0.105776 -0.081629 0.010724 -0.003585 -0.032044 0.307035 0.111249 0.081920 0.000799 -0.030670 0.130723 0.106824 0.020652 -0.021556 0.056353 0.007961 -0.116002 -0.005853 -0.143608 -0.186617 -0.087635 -0.196213 -0.118125 0.023461 -0.077094 -0.227022 -0.151398 0.066738 0.143257 -0.010878 0.233425 0.146369 0.188204 0.091704 0.022758 0.033881 0.047588 -0.045021 0.193054 0.004267 0.212576 -0.151993 -0.021675 -0.059276 -0.096897 -0.092460 -0.124612 0.136288 0.164911 0.082650 -0.099830 -0.134572 -0.222280 -0.168106 0.115614 0.065978 -0.058217 -0.189903 0.015711 0.178116 -0.007343 0.042788 0.141581 -0.011006 0.192435 -0.355808 -0.129028 0.153757 -0.021328 0.173935 0.158757 0.025585 -0.143467 -0.094577 -0.141403 -0.116866 -0.010510 -0.152568 0.105798 -0.026599 0.081785 0.166336 -0.030229 0.140447 0.010681 -0.083688 -0.006451 -0.147889 -0.105981 -0.157778 -0.188098 -0.046890 0.087927 0.103704 -0.175100 0.171791 -0.005121 -0.105391 0.095208 -0.102096 0.143507 -0.042525 0.000256 0.054943 0.032751 -0.015050 -0.054450 -0.107751 0.154380 0.148276 0.000254 0.037217 0.071500 0.151283 -0.018139 0.034783 -0.139009 -0.179041 0.045577 -0.046937 -0.131776 0.051489 -0.153200 0.123599 0.029683 -0.096466 0.096642 -0.188067 0.014177 0.045526 -0.077173 -0.044522 -0.128665 -0.082976 -0.151574 0.154057 -0.061395 -0.017691 -0.143527 -0.096848 -0.059247 0.046559 0.130202 -0.177579 0.008009 -0.077769 0.047036 0.058833 -0.066978 -0.097219 -0.177936 -0.008922 0.144102 -0.141304 -0.075155 -0.016048 -0.047938 -0.168346 -0.014282 0.156071 0.067012 0.098378 -0.078282 0.128179 -0.174431 -0.040024 0.092403 -0.045994 0.132117 0.138709 0.046991 -0.116962 -0.004565 -0.012640 -0.104709 -0.186387 0.099423 0.132160 0.062278 -0.157387 -0.154891 0.074174 0.023524 0.179043 0.122703 0.138201 -0.026837 -0.115067 0.159687 0.148713 -0.148828 0.036866 0.057259 -0.037278 -0.024787 0.072660 0.112530 -0.122216 -0.163166 0.054815 -0.173340 0.073658 0.127685 0.011928 -0.128814 -0.166856 0.015373 0.160439 0.155136 -0.112037 -0.186461 -0.183662 0.151792 0.026584 0.179288 0.084841 -0.025440 -0.037383 0.159461 -0.055766 -0.078501 -0.179202 0.165912 0.168590 -0.027262 -0.043119 0.051416 -0.103943 0.024991 0.078085 0.141608 0.040982 -0.038123 0.079399 -0.136914 0.017029 0.101107 0.068290 -0.006464 0.065252 0.145940 -0.003316 0.067344 0.107543 -0.167257 0.056710 0.002783 -0.001526 -0.170689 -0.027581 0.132746 -0.059350 -0.016945 0.112298 -0.081148 0.146245 -0.118550 0.160658 -0.147535 0.095792 0.048910 0.182996 -0.053051 -0.179014 0.072946 -0.000134 0.033748 -0.016576 -0.121664 -0.161173 -0.139586 -0.165495 0.023519 0.119273 0.132836 0.047023 -0.015975 -0.054835 -0.144367 0.009648 0.107411 0.182097 0.133619 -0.099351 0.102460 -0.138099 -0.142662 0.173785 -0.165964 -0.099922 0.079945 0.072474 -0.107470 -0.164884 0.086629 0.154071 0.026561 -0.072503 -0.052455 0.095439 -0.044727 -0.002100 0.118689 0.170780 -0.074569 0.061196 0.025784 0.101999 -0.088221 0.100928 -0.052529 0.054534 0.061502 -0.141073 -0.182979 -0.010365 -0.129635 -0.140340 -0.067407 -0.269851 -0.049118 -0.189722 -0.237479 0.035037 -0.256184 0.023881 -0.015016 0.143388 -0.143176 0.143171 0.042747 -0.039653 -0.029637 -0.042476 -0.052819 0.010435 0.130657 0.165696 0.052775 0.119467 0.086338 0.062711 0.108551 -0.087971 0.090175 0.116446 0.251352 -0.161919 0.169746 -0.139520 -0.036309 -0.049091 -0.200694 -0.036422 0.192659 -0.062319 -0.120891 -0.001109 -0.176431 -0.107430 -0.042364 0.022347 0.089440 0.100936 0.138494 -0.106671 -0.026933 0.104260 0.124459 0.247481 0.108713 0.052265 0.021642 -0.031763 0.160714 -0.105988 -0.045953 -0.049842 -0.068189 -0.024761 0.062157 0.274153 0.085812 0.135217 -0.014532 -0.150742 -0.074687 0.018210 -0.114804 -0.061970 0.128554 0.013073 0.132029 -0.092093 -0.008747 0.064311 -0.021107 0.227063 0.008391 0.065872 0.119728 -0.118984 0.279543 -0.018203 0.139489 0.010853 0.066657 -0.078663 -0.235207 -0.077498 0.108404 -0.317774 -0.077846 -0.059178 -0.042545 0.109563 -0.247584 -0.487323 -0.166515 -0.117213 -0.098577 -0.033679 0.194839 -0.060591 -0.099732 -0.213218 0.000541 0.189104 -0.143449 -0.094315 -0.157591 0.066608 0.068669 -0.106184 -0.213935 0.129463 0.086518 0.088233 0.216961 -0.257774 0.030995 0.224450 -0.097719 -0.181077 0.001252 -0.143445 0.415482 0.062722 -0.001489 -0.016818 0.099805 0.005173 -0.075035 -0.006112 0.027288 0.146631 0.186179 -0.065930 0.041022 0.128094 0.042997 0.240759 0.245549 -0.095975 -0.027823 0.051835 0.006242 0.033615 -0.273832 0.008951 0.133473 -0.016796 0.009143 -0.237612 0.004713 0.247290 -0.133172 -0.261403 0.166756 -0.102091 0.179908 -0.050496 0.085884 0.061901 0.386545 0.078821 0.163696 0.049187 0.032617 0.018160 -0.120928 -0.182118 -0.104608 -0.008250 -0.071847 0.036375 0.070802 0.344166 -0.014326 0.406380 0.053867 -0.229866 -0.285876 0.012103 -0.233844 0.083254 -0.080058 0.023597 -0.817810 0.220816 -0.098024 0.005039 -0.064031 0.016440 -0.121165 -0.183517 -0.038536 -0.607543 0.039249 -0.204598 -0.074852 -0.123191 -0.130978 -0.051064 -0.210449 0.217839 -0.047826 0.334406 0.136275 0.083323 -0.033702 -0.176843 -0.103013 -0.118125 -0.023075 -0.179343 0.053429 -0.095996 0.113387 0.055686 -0.176041 0.439621 -0.058362 -0.044590 -0.229042 0.073162 0.208465 0.174931 0.036701 -0.298806 -0.125095 -0.128582 0.167410 0.104854 -0.025170 0.030700 0.146043 -0.184137 0.020169 0.063386 0.097884 0.151387 0.446029 0.119947 -0.078176 0.291879 -0.181206 -0.090320 -0.099739 0.008983 0.141453 0.076556 0.217284 0.146257 -0.149320 0.536452 0.155497 -0.082271 0.384379 0.112763 0.033325 0.243031 -0.174241 0.150442 0.373967 -0.016862 0.177092 0.029019 0.074078 -0.087032 -0.178927 -0.070470 0.070815 0.157309 0.130933 -0.072036 -0.013955 0.152025 0.019829 0.429879 0.056338 -0.052374 0.136596 -0.053957 -0.320847 0.058546 0.099179 -0.031552 -0.112855 0.010625 -0.183974 -0.123693 0.046455 -0.158229 0.066260 -0.040600 -0.046511 -0.100719 0.141828 -0.094531 -0.058945 0.067531 -0.239812 0.173821 -0.121248 0.174068 -0.151867 0.032507 0.134026 0.053731 0.186040 -0.079247 0.159393 -0.129874 -0.036644 -0.208233 -0.012217 -0.030345 0.198321 0.103693 0.174351 0.117866 -0.100152 -0.006564 0.209940 0.013415 0.203866 0.130523 0.209373 0.103092 -0.049680 -0.075767 -0.160721 0.022362 -0.080293 -0.076383 -0.128629 -0.086141 -0.204301 -0.165966 0.183783 0.070876 -0.097237 0.135764 0.075899 -0.311135 -0.136087 -0.141000 -0.174796 0.205740 0.093613 -0.085897 -0.294137 0.262247 0.106418 0.052350 0.075059 -0.147972 0.395427 -0.044353 0.037442 0.151694 0.110577 0.087423 0.010065 0.074035 -0.078137 0.116458 -0.062358 -0.143620 0.140147 -0.098613 0.072498 -0.158471 0.062325 -0.181920 -0.069593 -0.005936 -0.054977 0.321530 0.052768 -0.082751 0.203920 0.211328 -0.236675 0.077876 0.054297 0.141668 0.245671 -0.159396 0.057234 -0.007012 0.174307 -0.123890 -0.032701 0.069516 -0.056902 0.028699 -0.016729 -0.053492 -0.084594 0.019479 0.144268 0.184494 0.034819 -0.194847 -0.170300 0.063754 0.095890 0.016755 -0.059319 0.078002 0.067949 0.155101 0.115641 0.008061 -0.176901 -0.036399 0.012531 -0.149583 0.213842 -0.041053 -0.036613 -0.072354 -0.269209 0.012038 -0.073850 -0.008844 0.085767 -0.103763 0.146245 -0.182231 -0.129878 0.104910 0.216920 -0.180714 0.129380 -0.168044 0.085917 -0.032101 0.047179 0.233399 -0.267295 -0.082120 0.294374 -0.422131 -0.136594 0.131633 -0.070190 0.135399 -0.089756 0.085765 -0.264475 0.086428 -0.048466 -0.081052 -0.151593 -0.016879 0.086787 0.154316 0.057183 0.131362 0.166113 -0.117989 -0.189381 -0.009965 -0.112313 -0.142093 -0.195215 0.104000 -0.010607 -0.098124 0.173564 0.120426 0.085341 0.060619 0.164321 -0.142286 -0.057154 0.070676 -0.020647 -0.142912 -0.041706 -0.010020 -0.282951 0.029515 -0.014688 -0.086858 0.457912 0.094592 -0.201721 -0.020267 -0.148866 -0.170274 -0.104416 -0.031618 0.180803 0.137697 -0.111453 0.095804 0.005862 0.024279 0.301500 -0.010153 0.076810 -0.014877 -0.141248 -0.003457 0.028014 0.112114 0.020524 -0.104427 -0.033117 -0.096960 0.094314 0.112367 0.106123 -0.111045 0.250537 0.007002 0.323951 0.024788 0.110883 -0.162748 0.101009 -0.095155 -0.063837 0.194681 0.144416 0.002894 0.134890 -0.019891 -0.117656 -0.013299 0.152326 -0.182522 -0.125233 -0.169937 0.012579 0.024205 0.138986 0.082386 -0.190844 -0.073381 0.214679 -0.251329 0.115189 -0.007285 0.006752 0.060604 -0.102751 0.076880 -0.207443 0.093129 0.167701 -0.084578 -0.107388 -0.296503 0.138521 -0.107846 0.146943 -0.052922 0.038052 -0.057042 -0.161125 0.225037 -0.038869 0.185004 0.025349 0.169923 -0.018903 -0.101718 0.001248 0.102937 0.020017 -0.046287 0.179342 0.022956 0.009432 0.120588 -0.150470 0.019171 -0.139017 -0.015325 -0.138709 0.057105 -0.050385 0.093086 0.111203 0.111366 0.140244 0.074740 -0.119256 -0.021235 -0.179222 -0.158436 0.164414 -0.037170 -0.186978 0.003313 -0.057836 0.001903 0.169617 0.104307 0.137452 0.062807 0.153082 0.128000 -0.107295 0.001323 0.048847 -0.034337 -0.141840 -0.097220 -0.126777 0.058879 0.106415 -0.010788 -0.005043 0.031549 -0.083067 -0.086044 -0.082547 -0.018488 0.081286 -0.070920 0.012644 0.056378 0.086027 0.015014 -0.130382 -0.163122 -0.172916 -0.150607 0.129441 0.154292 0.112830 0.094333 0.092439 0.185160 -0.094174 -0.049126 -0.038454 -0.046174 0.045473 0.034245 -0.177454 -0.038109 -0.173119 -0.025843 0.182364 -0.075914 0.086253 -0.089191 0.095434 -0.033178 0.030104 -0.108251 -0.165059 -0.074849 0.122964 -0.107205 -0.048327 0.140025 -0.069731 -0.065655 0.104379 -0.155901 0.177030 0.010620 -0.155057 -0.106944 0.149556 -0.001543 0.034438 0.008464 -0.175530 0.049372 0.156336 -0.159307 -0.167101 0.149340 -0.083512 0.093796 -0.130166 -0.142722 -0.124067 0.089756 -0.034697 -0.099841 -0.175782 -0.094716 -0.018690 -0.033735 -0.151425 0.103039 0.048848 0.142786 0.136997 0.034117 -0.039853 0.166940 0.101220 -0.080038 -0.036418 -0.034026 0.115085 -0.020762 -0.182111 0.081550 0.011498 -0.151528 0.041019 0.150156 0.137462 0.074077 -0.181895 -0.176455 0.000283 -0.025813 -0.082969 0.016544 0.060852 0.081252 0.169667 0.099330 -0.003452 0.031500 0.046303 -0.056360 -0.123149 -0.177487 -0.094634 0.186276 -0.067803 0.076551 -0.038072 -0.142593 -0.132333 -0.023040 0.128790 0.065173 0.015264 -0.020027 0.038460 -0.030827 -0.109178 0.033463 -0.024166 0.085763 -0.183846 0.078351 -0.088085 0.074530 -0.027428 -0.110869 -0.023703 0.158036 0.108429 -0.159881 -0.087942 0.175022 -0.148999 0.021964 0.171126 -0.026642 -0.091689 -0.056772 0.019269 -0.033819 0.109908 -0.040604 -0.157641 -0.064400 0.135876 0.058722 0.088194 -0.169810 -0.096449 -0.125582 0.106234 -0.091942 0.142182 -0.180094 0.164909 -0.074852 -0.103871 -0.048311 0.007134 -0.171108 0.037220 0.011992 0.180243 0.021734 -0.204612 0.163364 0.149332 0.079504 -0.092446 -0.108056 0.083061 -0.220718 0.051615 0.103663 -0.153920 0.094542 -0.007009 -0.220351 0.115281 0.069204 0.003324 0.029958 0.171442 -0.117389 0.043080 0.045833 -0.015749 0.128692 -0.055997 0.081171 0.185501 0.023986 -0.118735 0.104466 -0.105329 -0.103037 0.182599 -0.078041 -0.030194 -0.187291 0.103922 -0.074068 -0.192082 0.087353 -0.165277 -0.006106 -0.005957 -0.005038 0.034633 -0.074729 -0.115461 0.120236 0.088275 -0.138215 -0.075190 0.154161 -0.176348 0.020216 0.091140 0.027323 -0.096935 -0.106189 0.261533 0.065782 -0.179648 -0.171902 0.057248 0.067150 -0.023418 -0.110099 0.109323 -0.036803 -0.030205 0.147965 0.106177 -0.045659 -0.041901 -0.013375 0.167239 0.200955 0.108914 -0.128938 0.138578 0.066384 -0.112656 0.130415 -0.123988 0.022481 -0.021673 -0.076692 0.114923 0.083912 0.147782 0.072924 -0.029120 0.046875 0.101867 0.132504 0.159078 -0.037940 0.310569 -0.087698 0.074285 -0.028410 -0.128229 0.069639 0.122659 0.113669 -0.187010 0.220028 -0.048933 0.106115 0.199369 -0.125664 0.077389 -0.349506 -0.072050 0.150318 0.082108 0.076241 -0.073883 -0.114956 0.009289 0.205010 0.113020 0.045051 0.045275 0.136807 0.148626 -0.101728 -0.167195 -0.092708 -0.044633 0.142674 0.174294 0.031575 0.056669 0.083782 -0.243416 -0.058492 0.030058 0.054413 -0.079398 0.060106 0.060651 -0.170088 0.260233 -0.160771 0.102612 0.060432 0.142196 -0.021788 0.274540 -0.029272 0.194512 0.038665 -0.171687 0.043976 0.057231 -0.087672 0.147008 0.244645 0.000471 -0.004622 0.140170 0.109853 0.089747 -0.242370 0.101299 0.088885 -0.171983 -0.108038 -0.062506 0.030997 -0.013183 -0.008323 0.101771 0.164098 -0.094398 -0.037446 -0.083327 -0.231575 0.015155 0.073334 -0.211043 -0.011846 0.014592 0.099216 0.112887 -0.003958 -0.373692 0.000436 -0.140960 -0.163266 0.031610 -0.257574 0.164633 0.088974 0.081283 0.112817 -0.135225 -0.029406 0.185028 0.145561 -0.169940 0.104931 -0.231283 -0.093676 0.082252 0.002824 -0.181290 -0.103076 -0.082122 0.020392 0.204163 -0.282971 0.109869 0.181507 0.033952 0.128748 -0.020029 0.022316 0.060963 0.154038 0.024154 -0.055671 -0.163204 0.104477 0.046559 0.048452 -0.125004 0.114106 -0.157334 -0.127238 -0.052770 -0.144197 0.019117 0.089180 0.086033 0.126903 0.127000 0.046572 -0.098875 -0.035264 -0.161745 -0.214230 0.110044 -0.110368 -0.019888 -0.168053 -0.130315 -0.089177 0.163081 0.117116 -0.108364 0.312595 -0.065587 -0.051677 -0.150133 0.011471 0.181966 0.022018 0.095897 -0.043384 0.001988 -0.136234 -0.139739 -0.066284 -0.026756 0.099508 -0.108994 0.032566 0.120908 -0.075724 -0.116601 0.116175 -0.089213 0.067791 -0.037963 0.150539 0.026281 0.008213 -0.058940 0.104587 -0.000824 0.079748 0.212443 0.017244 0.102729 -0.081149 -0.040384 0.089914 -0.119903 -0.154521 0.007211 0.162888 -0.198979 0.173452 -0.054179 0.189197 0.011599 -0.023718 0.073647 0.034372 0.098596 0.136852 -0.045356 -0.010449 -0.032337 -0.131001 -0.175384 0.067749 0.152000 0.018626 0.018316 0.180450 0.054537 0.140533 -0.121381 -0.031108 -0.010165 0.043587 -0.087803 -0.086853 0.057403 0.075982 0.130348 0.169660 0.033194 0.061633 -0.088114 -0.078443 0.102141 -0.049953 0.096173 -0.052576 -0.041821 -0.170442 0.111998 0.068814 -0.042680 -0.015977 0.088448 -0.065709 0.111099 0.139606 0.147241 -0.062173 0.042626 -0.144933 0.164171 -0.223907 0.092913 -0.123199 -0.223294 0.172342 -0.129047 -0.005545 0.180469 0.096470 0.084464 0.020053 0.092758 0.041202 0.164737 0.375652 -0.153677 -0.072907 -0.031265 0.040549 -0.106701 -0.166255 -0.069380 -0.057317 -0.137432 -0.101681 -0.080192 0.137866 0.003999 0.233885 -0.169715 -0.061069 0.005776 -0.207268 0.069723 0.138869 0.103888 0.055767 -0.030826 -0.346055 0.248502 -0.095576 -0.006726 0.084837 -0.048122 -0.295996 -0.050840 -0.150792 -0.045304 -0.023685 0.159540 -0.016036 0.204044 -0.187981 0.033511 -0.121353 -0.045971 0.084848 0.127125 0.236011 -0.023144 -0.198316 0.172384 0.164398 0.073222 -0.006563 0.147082 0.152726 0.054822 -0.045578 -0.149734 -0.110452 0.057839 0.176913 0.022406 -0.018137 -0.044418 0.193945 0.015881 -0.113141 0.133683 -0.165982 -0.185279 -0.031706 -0.128164 -0.099670 0.158102 0.052823 -0.100373 -0.129340 -0.144465 -0.165282 0.036466 -0.094284 -0.150073 0.019820 -0.134232 0.145691 -0.062632 0.094035 -0.082418 0.077458 -0.016070 0.194363 0.132767 0.225634 0.010515 0.084450 0.095642 -0.243086 0.252743 -0.190074 0.151011 -0.031671 0.040548 0.351431 -0.058615 -0.000267 -0.018298 -0.046015 -0.030571 -0.255217 -0.053342 0.120145 0.165784 0.006952 0.029871 0.205536 -0.059368 0.091777 -0.054852 -0.106081 -0.046083 0.182975 -0.048976 0.041927 0.017018 -0.045562 -0.085547 -0.270503 -0.181025 -0.140599 -0.194386 -0.060799 -0.150113 -0.554716 -0.048404 0.112584 0.148699 -0.005941 0.029955 -0.162125 0.142844 -0.109572 -0.042566 0.082590 0.065975 0.031427 0.053118 0.307808 -0.073674 -0.179965 0.509758 0.056353 0.215094 -0.182616 -0.109008 0.050878 -0.089138 0.049651 -0.008073 0.031183 0.165845 -0.129609 -0.128607 -0.167117 -0.132433 0.060515 -0.039438 -0.007011 0.012309 -0.259830 -0.091004 -0.130187 -0.112060 -0.037593 0.210688 0.160370 -0.127903 -0.189888 0.132474 -0.098345 -0.165608 -0.030972 0.149540 0.103616 0.122578 -0.115463 -0.095708 -0.138224 0.110773 0.031851 -0.170286 0.084516 0.263450 0.126154 -0.150791 0.187318 0.142014 -0.208166 -0.195130 0.126606 0.060159 0.110045 0.169496 -0.049952 0.157607 -0.059004 -0.079309 0.186513 0.025368 -0.093374 -0.056654 0.031395 0.032601 0.007621 -0.052530 0.069346 -0.003139 -0.003250 0.094535 -0.086256 -0.063112 0.029229 -0.097757 -0.054275 0.041693 -0.022402 -0.165818 -0.103089 -0.138410 -0.146905 -0.160754 -0.083224 -0.168667 -0.196554 -0.042375 -0.007081 -0.040693 0.087069 -0.028169 -0.117338 -0.168747 0.106039 0.191282 0.164599 -0.136201 -0.148274 0.102625 0.042898 0.060735 -0.046795 0.164326 0.158611 0.176665 0.174144 -0.175688 0.030626 -0.153834 -0.132800 0.123333 0.010129 -0.080128 -0.187595 -0.100479 0.091647 -0.152872 0.002861 -0.106647 0.110505 -0.134023 0.170030 0.165437 -0.071699 0.022305 0.069683 -0.103731 0.058047 0.163224 0.121435 -0.093152 0.008668 -0.117571 -0.128455 -0.018222 -0.132713 -0.128486 -0.008473 0.098533 -0.093752 0.044526 -0.013492 0.120169 0.153903 0.013144 -0.080639 0.096510 0.061495 -0.003745 -0.155062 -0.024676 0.091471 0.161907 -0.013395 -0.179274 -0.005528 -0.169684 -0.042753 -0.125408 0.159118 -0.171127 -0.059239 -0.022076 -0.099024 0.005939 0.082674 -0.042325 0.060661 -0.052920 -0.136634 0.178322 0.182207 0.063014 -0.003750 0.160802 -0.083714 0.082013 0.046497 0.140087 -0.190925 0.136569 -0.074604 0.194522 0.055351 0.047518 -0.181233 -0.176164 0.076699 -0.090813 -0.143815 0.044893 -0.076573 -0.013691 -0.166244 0.010659 0.184310 0.169223 0.156430 0.055165 -0.072785 -0.184359 0.022317 -0.079250 0.068733 -0.095019 -0.123983 0.157145 0.176979 0.117879 0.118009 -0.109762 0.020294 -0.145967 -0.111465 -0.128555 0.100198 -0.102992 -0.114288 -0.012798 -0.003272 -0.067150 -0.156696 0.109282 0.106735 -0.133450 -0.069878 0.101857 -0.153986 -0.105270 -0.032835 -0.036950 -0.097832 0.174187 0.072448 0.160684 -0.104841 0.138299 0.127994 -0.117129 0.068817 0.056170 -0.037008 -0.100721 0.100036 0.045802 -0.037348 0.010635 0.128397 0.035948 0.188054 -0.065411 0.157178 -0.157292 -0.145980 0.074725 -0.102471 -0.026020 -0.013311 -0.066940 0.060412 0.143761 0.085945 0.152559 0.133018 -0.031449 0.123431 -0.161654 -0.082980 0.061196 -0.088952 0.175660 -0.072063 0.064127 -0.114862 -0.162200 -0.084029 0.035513 0.038599 -0.144948 -0.119430 0.037884 -0.021127 -0.150864 0.067235 0.022739 0.113805 0.154309 0.186672 -0.058495 -0.107807 0.046707 -0.115356 0.174857 0.018634 0.161587 -0.038383 -0.059212 -0.218167 0.045944 -0.166484 -0.063162 0.073906 0.034872 -0.229915 0.109470 -0.061391 -0.094114 -0.002570 -0.189922 -0.039247 0.007766 0.045458 0.132136 0.076385 -0.080744 -0.056745 -0.000964 -0.109644 -0.051820 0.110881 0.009163 -0.201038 0.155186 -0.046249 0.026683 0.147569 0.055787 0.182779 0.160023 -0.043178 -0.185424 -0.034336 -0.195839 -0.058341 -0.066447 0.132627 0.107543 0.024077 -0.093588 0.118107 0.183361 0.110815 -0.073421 0.125154 0.057656 0.121378 -0.104936 -0.167694 0.164907 0.035644 0.126042 -0.049297 0.074518 0.112914 0.099840 -0.019361 0.049501 0.023004 -0.069494 0.050267 0.169504 -0.177609 0.151859 0.192973 -0.004736 -0.085815 0.138469 -0.038788 0.109790 -0.167538 -0.122729 0.102261 0.174475 0.047538 0.029437 0.015210 -0.049883 0.087928 0.033762 -0.098832 -0.025485 -0.039300 0.080591 -0.153789 -0.156094 -0.074245 -0.057896 0.118747 0.170323 -0.003498 -0.107661 0.215973 0.143444 -0.094835 0.080371 -0.018616 -0.053673 -0.046925 0.031710 0.078451 0.088120 -0.107684 -0.057785 0.039745 0.083896 -0.021610 -0.042006 -0.209885 -0.046548 0.142373 0.064583 0.099197 -0.053784 -0.177315 0.135597 -0.183248 -0.027812 -0.027591 -0.119958 -0.075391 0.166810 -0.021915 -0.067441 0.126259 0.020777 -0.123865 -0.305291 -0.093055 -0.093303 -0.173892 -0.034063 0.097515 -0.342419 0.007177 0.049833 0.096072 -0.157749 0.128493 0.104701 0.043593 0.144720 -0.301976 -0.026983 -0.113122 0.003697 0.024593 0.020992 0.058005 0.074930 -0.021747 -0.130189 0.103811 -0.036836 0.101366 0.027784 -0.111725 0.083021 0.248706 0.022921 0.078172 0.126678 0.091501 0.029667 0.179584 -0.108559 -0.079553 0.141775 0.067893 -0.102740 -0.017693 -0.072876 -0.180324 0.046651 -0.000486 0.003319 0.175631 -0.062092 -0.043137 -0.017595 -0.221271 -0.024311 -0.143830 0.168431 -0.213045 -0.214268 -0.151721 -0.163970 0.131601 -0.192629 0.062230 0.015244 -0.018652 0.028104 -0.143090 0.085896 0.164947 -0.040659 0.007119 -0.033515 0.177455 -0.190088 0.146061 0.131944 0.209789 0.339453 0.039320 0.005798 0.040325 0.161354 0.168194 -0.186167 -0.077759 0.023350 0.154746 -0.073743 0.117738 -0.055289 0.098540 -0.057583 -0.065932 -0.033972 -0.008942 0.056086 0.060015 0.084705 -0.013148 -0.108896 -0.094002 0.100724 -0.118084 0.000764 -0.180754 -0.220696 -0.111924 -0.136283 0.086609 -0.073424 -0.026155 0.061835 -0.190659 0.018717 -0.067001 0.068484 -0.114729 0.324495 0.016966 0.004016 -0.094859 0.052183 -0.085607 0.295937 0.174083 0.044425 -0.044897 0.040832 0.010008 -0.079544 0.074765 -0.051482 0.152572 0.085501 -0.221933 0.172125 0.150264 -0.020759 0.034762 0.095514 0.122437 0.005226 0.113802 0.085756 -0.195460 0.011119 -0.049847 -0.009316 0.087105 0.003595 -0.022024 -0.060735 -0.290469 0.032585 -0.027913 0.079886 -0.027687 -0.245946 -0.125326 -0.203777 -0.017137 0.222719 0.174392 0.174618 -0.000509 -0.090365 0.132550 -0.164330 0.224506 0.124645 0.203527 0.060169 -0.009341 0.004916 0.016603 0.339780 0.267297 -0.012749 0.016168 -0.181014 0.149753 0.040754 0.076109 -0.100284 -0.134473 -0.102973 0.096773 0.042730 -0.221320 -0.216496 0.146047 -0.045465 0.015736 0.027607 0.044355 -0.116382 0.084622 -0.314886 -0.011812 0.158324 -0.012492 0.136723 -0.108091 -0.017193 -0.184939 -0.094120 -0.218025 -0.224236 -0.025621 0.101587 -0.126749 -0.208985 -0.121364 0.145650 0.257307 -0.073889 0.188150 0.054640 -0.114450 -0.157029 -0.113154 -0.002475 0.004808 -0.060470 0.140799 -0.008503 0.181000 0.074717 0.217922 -0.168814 -0.051949 -0.041861 0.119021 -0.135785 -0.170449 0.112516 -0.039293 -0.104944 -0.019941 0.076012 0.110072 -0.200960 0.281994 0.075216 0.030472 0.120622 -0.054885 0.170977 0.164801 0.066794 0.204030 -0.176147 0.093735 -0.011253 -0.167899 0.017528 0.029573 -0.122310 -0.325298 -0.161400 0.151070 -0.170752 0.028219 0.005550 -0.074238 0.041448 -0.103910 0.199518 0.084373 -0.023487 0.008935 0.017198 0.066108 0.087851 -0.178481 0.109898 0.036140 0.219237 -0.033861 -0.082334 0.077940 0.093089 0.035533 -0.088541 -0.043523 0.114381 0.107570 -0.177242 -0.059019 0.105096 -0.096474 0.044983 -0.068919 0.225450 0.105174 0.102026 -0.044060 -0.116563 0.099430 0.095276 -0.048449 -0.017945 -0.135322 -0.090335 -0.060064 0.054033 -0.130112 0.038524 -0.097752 -0.124693 -0.099317 0.026280 0.105814 0.079811 0.002024 0.014653 0.009977 -0.035682 0.151478 -0.155842 -0.097203 0.280523 -0.129926 -0.009601 -0.066673 0.136851 0.106680 0.102483 0.074728 -0.077343 -0.020310 0.111082 0.114521 0.188126 -0.278589 -0.049465 0.015830 -0.008321 0.023974 0.177802 0.042489 -0.055402 -0.038855 -0.112612 -0.197477 -0.041267 0.085765 0.031527 0.145530 0.156901 0.069122 0.177851 -0.029906 -0.053674 0.022212 0.046348 0.023229 -0.165926 -0.249615 0.036822 -0.029092 -0.183612 -0.034591 -0.134033 -0.099358 0.071238 0.063460 0.195429 -0.104776 0.132059 -0.190674 0.067737 -0.016261 -0.181723 0.113370 0.003210 -0.043343 -0.019112 -0.196757 -0.186151 0.119087 0.063277 -0.166446 0.099832 -0.123305 0.053469 0.102517 -0.192643 -0.073044 -0.047805 0.027594 -0.053883 0.060619 -0.120727 0.019413 0.125627 0.119204 -0.144763 0.037131 0.238350 0.187677 -0.081070 -0.007706 -0.089707 -0.087014 -0.049400 0.057689 -0.025989 0.063715 0.105331 0.054918 0.136941 0.033092 0.057793 -0.106822 0.095944 -0.085968 0.199931 0.330115 0.194928 0.159605 0.113015 -0.149930 -0.013890 0.045693 0.116435 0.123686 -0.130310 0.194584 -0.098935 0.097818 -0.109622 -0.050757 -0.014773 0.112800 0.127853 0.094917 0.161507 -0.086104 -0.021344 -0.028608 -0.173889 -0.050744 0.161151 0.044340 -0.080677 0.034412 0.238584 0.126286 0.052862 0.185634 0.083676 -0.378787 -0.055614 -0.068463 -0.037330 -0.010857 -0.010507 -0.030229 -0.002019 -0.154083 -0.247949 -0.163270 0.023525 -0.180070 -0.182731 -0.021869 0.206022 0.065168 0.150918 -0.172390 -0.087499 0.181850 0.040147 -0.187718 0.075779 0.128278 0.131779 0.053126 0.045016 0.038205 0.050480 -0.060740 -0.007019 0.095865 0.056148 0.177323 -0.026215 -0.058258 0.027006 0.115506 0.008583 -0.138880 0.059254 0.147824 -0.101145 0.169104 0.062166 -0.189215 0.050865 0.011162 -0.012058 0.064313 -0.011514 0.121088 0.049139 -0.140244 0.048881 -0.000376 0.108197 -0.087790 0.144516 -0.014424 0.036367 -0.095216 0.064336 -0.098576 -0.005116 -0.001348 0.093855 -0.186802 -0.004853 -0.054947 -0.107910 -0.060906 0.027091 0.025644 -0.114441 0.051109 -0.008098 0.129635 0.176455 0.080283 -0.048680 -0.130936 -0.000583 -0.194372 0.013249 -0.242752 0.001368 -0.134225 -0.032985 -0.007026 0.029079 -0.185698 0.167875 0.079710 -0.061879 -0.096622 -0.000723 0.186198 -0.066905 0.103364 0.011032 0.042073 -0.067816 0.140598 -0.165760 -0.008737 -0.163101 0.024226 -0.130174 0.111819 -0.104850 0.004206 0.188098 0.091316 0.009923 -0.063020 0.142032 -0.197145 -0.014497 -0.071088 0.008327 -0.149951 -0.031260 -0.008112 0.160024 0.006676 0.128777 -0.023687 0.020981 -0.099932 -0.058987 0.139956 0.134817 0.051234 0.090572 0.154914 -0.160176 0.123500 -0.002850 -0.078565 0.055051 0.028481 0.121529 0.032304 -0.004018 -0.051199 0.185605 -0.054958 -0.034662 -0.039963 0.052611 0.169138 -0.029736 0.172872 -0.031954 -0.039356 0.011663 -0.089627 0.114590 -0.159566 0.003444 -0.115036 0.191021 -0.053024 0.166578 0.058861 -0.085668 0.144213 0.005319 0.097116 -0.122187 -0.131315 -0.023855 -0.181285 0.091838 0.192733 -0.046491 0.060331 -0.056023 0.116306 -0.162503 0.172457 0.100005 0.022524 0.157774 -0.126309 0.179199 -0.023277 -0.017026 0.105487 0.002548 0.174031 0.173616 -0.014478 -0.052529 0.114212 -0.109795 0.057829 0.043128 0.092570 -0.057953 0.109094 0.145269 0.131073 0.108871 0.024873 0.115593
-0.098541 -0.110518 -0.157986 0.170650 -0.060851 -0.154799 0.046942 0.149122 0.140910 0.178749 0.019632 -0.111809 -0.007482 0.745802 -0.004806 -0.058245 -0.055478 -0.033005 -0.083085 -0.381909 0.000430 -0.232183 0.082451 -0.026578 0.003211 0.079675 -0.018013 0.008166 -0.003366 0.163885 -0.007507 0.022818 0.002124 0.012741 -0.000157 0.004249 0.015727 0.003908 -0.066675 0.011975 0.021020 -0.057003 0.005473 -0.046555 0.015042 0.160819 -0.034337 0.032259 0.128454 -0.201574 0.049151 0.107370 -0.097564 -0.003570 -0.054235 0.150508 -0.136129 -0.079607 -0.075276 0.094029 -0.091292 0.176697 0.006591 -0.042270 -0.075084 -0.109651 0.013574 0.073758 0.018213 -0.215372 0.006367 0.493317 -0.025794 -0.113382 0.002471 -0.047815 -0.043586 0.041191 -0.161980 -0.127700 0.062098 0.088574 0.075241 0.003246 -0.183538 -0.068963 -0.009213 0.039302 0.065918 0.226078 0.005647 0.020328 -0.013285 0.057978 0.005674 0.047063 -0.025053 0.001980 0.074488 -0.158174 -0.000882 0.126790 0.003771 -0.047672 0.004590 -0.034550 -0.005936 0.051333 -0.265267 0.165092 -0.102031 0.166546 0.180932 0.052140 0.008293 0.005359 -0.025472 0.053201 0.121342 -0.310964 0.025256 -0.000853 -0.004669 -0.053505 -0.586413 0.041321 0.286465 0.161365 0.037549 0.042719 -0.111712 -0.143842 -0.010170 0.146650 -0.138146 -0.042954 -0.067465 -0.160519 -0.083572 0.048155 0.002760 -0.087350 -0.000902 -0.014194 0.007634 0.004198 -0.004864 -0.004969 0.101539 0.000138 -0.002255 -0.242256 0.003085 0.022909 -0.008097 -0.010947 0.018262 -0.039599 0.299742 -0.038702 0.007007 0.123100 -0.002723 0.013591 0.037946 0.065243 -0.029477 -0.653175 0.260898 0.166848 0.002323 0.236274 0.011492 -0.005178 -0.045301 -0.048626 0.086394 0.077007 -0.169958 -0.102128 0.026792 -0.134266 -0.001696 0.751718 0.005375 -0.016288 -0.055430 -0.039253 -0.423876 -0.075945 -0.040829 -0.180819 -0.005926 0.049387 -0.002833 -0.016923 0.047590 -0.027881 0.201060 -0.035930 0.003044 -0.033342 -0.001298 -0.000922 0.001897 -0.021513 -0.011540 -0.010410 0.097545 -0.017299 0.061480 0.293354 -0.017366 -0.060185 -0.000477 -0.009958 0.030760 0.153823 -0.076276 -0.151736 0.132891 0.094066 0.035258 0.013406 0.104795 -0.142802 -0.171879 0.000941 -0.119830 0.161210 -0.003800 0.066348 0.001585 0.020258 0.002425 -0.009997 0.005651 0.003397 -0.101726 0.015387 0.012282 0.147650 0.081523 0.096680 -0.064407 0.043217 -0.042378 0.002328 0.041122 0.124736 -0.050530 -0.083939 0.128376 0.104729 0.112597 0.038065 0.142022 -0.118722 -0.127627 -0.114898 0.152409 -0.169620 0.117160 -0.172994 -0.035831 -0.099541 0.099976 -0.066098 -0.059571 -0.142103 -0.177077 0.148362 -0.153636 0.110917 -0.002557 -0.031367 0.005535 0.118724 -0.176550 -0.123911 0.401305 0.170441 -0.029378 0.016306 0.080638 -0.006350 -0.444154 0.130194 -0.031761 -0.188463 -0.154269 -0.015866 0.006453 0.130524 0.057559 0.124220 0.160939 -0.050203 -0.122036 -0.020782 0.015162 -0.156367 -0.057826 0.000856 0.187517 0.120386 0.107392 0.010273 0.044445 0.183853 -0.003100 -0.031374 -0.020313 0.012807 -0.092451 -0.001953 0.303532 0.075168 -0.205104 -0.078856 0.001824 -0.087192 -0.007894 -0.020645 -0.001897 -0.007372 -0.002074 0.002188 0.119118 0.002523 -0.000771 -0.100506 0.003125 -0.005624 -0.004387 -0.015931 0.014872 -0.000940 0.030722 0.073020 -0.000815 0.283065 0.005566 -0.017671 -0.016432 -0.009093 0.023164 -0.037023 -0.247340 0.018949 0.064129 -0.117405 -0.106668 -0.061733 0.088548 -0.054253 -0.025485 -0.113998 -0.058054 -0.114507 0.006529 0.104788 -0.053743 0.045405 -0.003583 -0.047612 -0.003411 -0.012204 -0.060824 0.021288 0.004495 -0.260137 0.000434 -0.072825 -0.004293 -0.038383 -0.007842 -0.021566 0.410361 -0.005405 -0.054036 0.071289 0.028170 -0.043817 0.108714 0.010653 0.082076 -0.062671 0.044688 0.205247 0.015081 0.071695 0.020356 0.226621 0.021809 -0.719692 0.029156 0.057986 0.190364 0.097107 -0.167211 -0.074912 -0.012150 0.064747 0.038812 0.281721 -0.032357 0.027567 -0.103609 -0.114384 0.002083 0.081889 -0.001523 -0.010171 0.002210 0.025981 -0.013443 0.005717 -0.004761 -0.087907 0.005457 0.033935 -0.017594 -0.049686 0.011941 0.002796 -0.023703 0.015032 0.180004 -0.170608 -0.003516 0.087644 0.012670 0.149296 0.007522 -0.081865 0.101661 0.114307 0.103843 0.144660 -0.013171 -0.079417 -0.004472 0.016665 -0.004977 -0.019741 0.028801 0.194994 -0.101609 -0.019107 -0.003722 0.229695 -0.002664 -0.018551 -0.004725 -0.021077 0.025884 0.011915 -0.164881 -0.025335 0.020582 0.008590 -0.019426 0.141401 0.174661 0.068133 -0.145148 -0.025200 0.085352 -0.112342 0.002287 0.151838 0.008327 0.030692 -0.018411 -0.007829 0.029225 -0.006700 -0.209919 0.057522 0.018512 -0.084549 -0.105820 -0.006082 -0.135122 0.087876 0.133154 -0.144422 0.120215 -0.085923 0.003032 0.040901 -0.013638 0.210622 -0.011295 0.044816 0.003230 0.003090 -0.111719 -0.192998 0.015496 0.077432 0.107590 0.089268 -0.033703 0.009920 -0.125319 0.062104 -0.178468 -0.046678 -0.142486 0.025467 0.020338 -0.025226 -0.101136 0.079816 -0.164860 -0.131081 0.074983 0.124715 -0.094331 -0.124253 -0.081177 -0.073057 0.121432 0.020418 -0.137905 -0.078703 -0.162272 -0.017889 -0.010974 0.025491 -0.140831 -0.102082 -0.058382 0.062642 0.069521 -0.010273 -0.091051 0.150717 0.001230 -0.072825 -0.000611 -0.024619 0.005479 0.007181 -0.015540 -0.009730 0.156391 -0.049259 0.011074 -0.010748 0.011767 -0.234663 0.005760 0.044968 -0.014049 0.009862 0.102571 0.089529 0.111415 -0.061042 0.008446 0.111594 0.036919 0.134063 0.000208 -0.009942 -0.120737 0.251161 0.000728 -0.271095 -0.000448 0.003971 -0.010391 0.008908 0.010237 0.019279 0.245616 -0.013156 -0.051471 -0.200998 0.838848 -0.080901 0.012598 -0.063493 -0.021841 -0.044571 -0.310851 -0.086239 0.008349 -0.008277 0.124311 -0.165383 -0.033148 -0.010416 0.162831 -0.131887 0.199899 -0.031541 -0.162422 -0.093826 -0.048703 -0.007483 0.164079 0.068806 0.190349 -0.045472 -0.160221 -0.041253 0.004417 0.067787 0.000042 -0.017257 -0.002276 0.032968 0.006412 -0.013802 -0.092449 0.010256 -0.034961 0.073736 0.013906 -0.058383 0.342481 -0.020153 -0.470190 0.090576 0.010094 0.048833 0.003412 0.082749 0.006649 0.045465 0.031527 0.079196 -0.038155 0.000696 0.088508 -0.312094 -0.003075 -0.205350 -0.009085 -0.024891 0.014920 0.007511 0.006411 0.056964 0.116036 0.029744 0.058151 -0.012148 0.160496 0.009426 -0.020178 0.015717 0.006466 0.056231 -0.213854 -0.041315 -0.568268 -0.176418 -0.042905 0.081576 0.084985 -0.047606 0.410830 0.097206 -0.032971 0.311254 -0.093900 0.020373 -0.025315 -0.005978 0.025171 -0.031767 0.082353 -0.037221 0.093806 0.076870 0.001494 0.137489 0.001458 0.002128 -0.004288 -0.015061 0.003182 0.006557 0.070419 -0.210066 -0.119296 0.016614 -0.005147 0.042729 0.017898 -0.062945 0.178515 -0.066745 -0.056680 -0.104127 -0.047663 0.334718 -0.012869 0.030122 -0.095369 0.052735 -0.556550 0.095499 0.186697 -0.055048 -0.010593 0.108686 0.018359 0.033599 0.015563 0.052279 0.014924 0.036208 0.212701 -0.500568 -0.000861 0.227071 0.000941 -0.009005 -0.001868 -0.018089 -0.016644 -0.020327 -0.169175 0.012745 0.005698 0.034362 0.092529 -0.120552 0.014123 0.120036 -0.037778 0.029985 -0.008396 -0.013162 0.011454 -0.107014 -0.003976 0.024240 0.031137 0.039979 -0.020860 0.160626 -0.057932 -0.094808 0.181968 -0.181961 0.084037 0.033797 0.058309 0.180046 0.076182 0.049147 -0.185945 -0.047649 0.133776 -0.049954 -0.117516 0.060945 0.056340 0.070782 -0.016382 -0.129724 -0.187390 -0.098027 -0.001100 0.047939 -0.000463 0.000563 0.000768 -0.062101 -0.015885 -0.001327 -0.077068 0.108838 -0.003122 0.030595 0.000464 -0.030996 0.002109 0.002841 0.028911 -0.000102 -0.089328 0.053430 0.010736 -0.016890 0.006600 0.082446 0.049679 0.041837 -0.019255 -0.225805 -0.020501 0.033119 0.039416 0.118892 -0.062381 0.069926 0.136348 -0.025979 0.080100 0.195141 -0.070635 -0.169989 0.141708 0.048828 -0.191563 0.158773 0.015532 0.040991 0.082376 0.015649 -0.094906 -0.181024 -0.028090 0.257770 -0.027198 0.046240 0.048293 -0.011938 0.027687 -0.296977 -0.058128 -0.035149 0.160716 -0.023431 0.022843 -0.043873 -0.014185 -0.047986 0.055708 0.018059 -0.043929 -0.247445 0.007345 -0.218943 0.025202 0.072587 -0.028205 -0.019363 0.050419 0.011729 0.021524 0.138474 0.075556 -0.192243 0.051962 0.132866 0.143176 -0.012941 -0.198496 0.159379 0.060956 0.020094 -0.034783 -0.078642 0.000782 0.008300 0.003516 0.024290 0.093984 0.022693 -0.117997 0.058209 0.004419 0.040830 0.015461 -0.306304 0.012939 0.019797 -0.025594 0.001340 0.097991 0.159269 -0.002305 -0.213024 0.002483 0.013604 0.010424 0.015750 0.007649 0.045536 0.053801 0.075099 0.019758 0.126041 -0.033752 -0.159032 -0.063816 -0.141861 -0.048697 0.070161 -0.113475 0.048884 -0.004143 0.220431 -0.006839 -0.216480 0.012903 -0.039669 -0.018883 0.019542 0.179441 -0.155842 0.104511 -0.175132 0.216086 0.088011 -0.070028 0.097969 -0.033107 -0.118909 0.023021 0.092795 0.010743 -0.031338 -0.010084 -0.067023 -0.011790 -0.020827 -0.006186 0.010912 0.287241 -0.146970 -0.005718 -0.010507 0.003125 0.041493 -0.005846 -0.017199 0.021701 0.006272 -0.104857 0.063366 0.025138 -0.254238 0.053199 -0.006651 0.819267 -0.082159 0.066541 -0.123765 -0.287911 -0.064928 0.012976 -0.019832 -0.000776 -0.054811 -0.001722 -0.016992 -0.017518 -0.030071 0.091516 0.045105 0.003535 0.024117 0.000977 0.005596 0.005528 0.024273 -0.013875 -0.011432 0.007206 -0.054143 0.004345 -0.072028 -0.011192 -0.048752 -0.014154 -0.002363 -0.026191 -0.074705 -0.275708 0.513900 -0.009248 -0.199714 0.004371 -0.033284 -0.040282 -0.080435 0.021039 0.790756 -0.265672 -0.176344 -0.087250 -0.167761 -0.028182 -0.096005 -0.129083 -0.121362 0.128190 -0.096634 0.270620 0.085388 -0.055693 -0.159330 0.080521 0.061223 -0.033155 0.020598 -0.211180 0.152259 -0.172840 -0.131792
