784 64 784
-0.001596 0.049600 -0.067473 0.006193 0.044230 0.053254 0.039477 0.058773 0.061601 -0.061615 -0.024586 0.038578 -0.079690 -0.039134 -0.018078 -0.022605 -0.042739 0.052277 0.058371 0.051725 -0.071541 0.029894 0.054581 -0.035582 0.029404 -0.000342 -0.007411 -0.004357 0.059168 -0.078464 0.069387 -0.025890 0.054597 -0.081547 0.063765 0.015366 0.055169 0.019780 -0.009322 0.033308 0.041627 0.049554 -0.011575 0.045398 -0.073042 0.053809 -0.060668 -0.032320 0.022624 0.081164 -0.064056 0.034545 0.027597 0.073986 0.082424 -0.026460 -0.009817 -0.008448 0.052644 -0.034110 -0.003451 0.038570 0.023461 -0.032315 0.040484 0.003765 0.066513 0.012191 -0.059916 -0.026271 -0.037962 0.065171 -0.060179 0.033925 0.027108 -0.049760 0.004273 0.049901 0.001382 -0.056565 0.047604 0.020788 0.061441 -0.008260 0.011313 0.060404 0.048741 -0.081966 -0.031505 0.017923 -0.032615 0.048506 -0.026968 0.074308 -0.067270 -0.069945 -0.005389 0.082704 0.025707 0.018156 -0.027028 0.071207 -0.000134 -0.003746 0.021671 -0.056487 0.029956 -0.057518 0.076875 -0.052123 -0.030621 0.041018 0.052126 -0.052641 -0.050704 -0.020023 -0.075698 0.081499 -0.018527 -0.023742 0.015961 0.032319 -0.058697 0.072454 0.023166 -0.042506 -0.080953 -0.065684 -0.043263 0.028216 0.035933 0.013170 0.015962 -0.047662 -0.074038 -0.045829 -0.020688 0.039380 -0.019886 -0.027274 0.070718 0.032954 -0.069717 0.039382 0.063774 -0.036960 -0.064102 0.071537 -0.038923 0.000832 -0.035666 0.060499 -0.050310 -0.010901 0.049492 0.056317 0.030055 0.052000 0.074094 0.070253 -0.003245 0.026566 -0.000039 -0.070745 0.062365 0.009385 -0.033112 -0.041784 -0.034696 0.030464 0.014403 -0.047440 -0.020044 0.028147 0.075404 -0.039731 0.074649 -0.072159 -0.051655 -0.047735 0.012134 -0.003859 -0.070697 0.045286 0.068701 0.062256 0.018142 0.015294 0.030795 0.008775 0.002086 -0.055911 -0.048120 -0.081414 -0.043194 -0.069216 0.011433 0.007155 -0.027539 0.060198 -0.045843 0.070326 -0.070703 0.017575 0.015012 -0.078761 0.061306 0.006200 -0.067459 -0.073811 0.041926 0.028137 0.005791 0.054690 -0.010038 -0.008969 0.033485 -0.075358 -0.077136 -0.019181 0.016879 0.008411 0.008370 0.052220 0.010458 0.048637 0.066465 -0.061570 -0.027669 -0.044536 0.082089 0.009949 -0.057671 -0.072076 -0.055937 0.040802 -0.067375 -0.078093 -0.036460 -0.051372 -0.068443 -0.077995 0.060226 0.020810 0.060157 -0.033273 -0.071620 0.010180 -0.025170 -0.065295 0.074461 0.075171 0.026578 -0.000631 0.043929 -0.046425 -0.035455 0.026932 -0.024534 0.020337 0.065858 -0.025907 -0.053176 -0.075275 -0.014522 -0.025652 0.048989 0.001565 -0.020284 -0.070932 0.033654 -0.005265 -0.065466 0.010418 -0.067916 0.078152 0.060607 -0.056075 0.004871 -0.048024 -0.037908 -0.004130 -0.056315 0.072131 0.078701 0.071075 -0.057756 -0.040216 0.014546 0.001172 0.063582 -0.003058 0.058726 -0.073055 0.005129 -0.039257 -0.015245 -0.029344 0.045769 0.047933 -0.016814 -0.004039 -0.040794 0.001181 -0.077082 -0.025248 -0.004129 0.066986 0.002138 -0.082719 -0.064500 0.047692 -0.003387 -0.037353 0.036362 -0.008147 -0.049740 0.062067 0.035098 0.048267 -0.020222 0.015219 -0.038252 -0.044958 0.025626 0.050339 -0.000753 -0.073081 -0.062466 -0.038445 0.058313 0.004181 0.040977 -0.065942 -0.078100 0.047357 -0.007729 0.001233 0.030882 0.077871 0.001975 0.049844 0.042102 0.082050 -0.070971 -0.004998 -0.009559 -0.037249 -0.026392 -0.057923 -0.072444 0.036847 0.040758 -0.027234 0.075351 -0.017078 -0.060357 -0.008864 -0.006697 -0.039362 0.036152 -0.031845 0.048280 -0.006332 -0.014326 0.053642 -0.042436 0.061407 -0.028587 0.071907 0.055817 0.056850 0.038289 0.014457 0.055438 0.050780 -0.074003 -0.037583 -0.069931 -0.016934 -0.012044 -0.058913 -0.063549 -0.054747 -0.002686 -0.071659 0.011637 0.020419 0.002938 -0.078522 0.064518 -0.044371 -0.026906 0.029337 0.032758 0.042229 -0.000483 0.073783 0.020175 0.054392 0.062229 -0.007470 0.027780 0.017057 -0.076475 -0.000243 -0.015625 -0.067016 0.045636 -0.002094 -0.000489 -0.049870 0.022454 0.019424 -0.021155 -0.063693 0.031226 0.073943 0.040187 -0.049297 0.078882 0.021244 -0.010207 -0.031486 -0.032881 -0.060910 -0.072718 0.050098 -0.070588 0.030919 0.021028 0.075102 -0.060013 -0.034653 0.008698 -0.053026 0.048565 0.076534 -0.036581 0.010740 -0.009022 0.046391 0.044331 -0.070029 -0.017646 -0.060285 -0.050261 -0.069882 -0.069804 0.073388 -0.035718 -0.074384 0.011170 0.037536 -0.022408 0.061751 0.060088 -0.011664 0.028388 0.072961 -0.064207 -0.034046 0.064602 -0.040759 0.014763 -0.010162 -0.010323 -0.020133 -0.017090 0.036557 0.074068 0.057350 -0.000514 0.034938 0.070783 0.065301 0.058114 -0.062939 0.078881 0.071771 -0.073013 -0.040299 0.080849 0.021619 0.080699 -0.025020 -0.000092 0.057326 0.046777 -0.055165 0.046825 0.066031 -0.005750 0.027965 -0.058189 -0.074448 -0.065659 0.014949 -0.011120 0.000713 -0.031956 -0.020514 -0.025398 0.050992 -0.069038 -0.038077 0.032832 0.072537 -0.017555 0.028251 0.060847 -0.007107 0.071414 0.058234 -0.068949 0.068651 -0.050248 0.014421 0.042516 0.079991 0.042717 0.005879 0.062561 -0.046494 -0.049617 -0.079089 -0.037481 -0.031815 0.019321 0.034860 0.052360 0.070827 -0.069115 -0.056500 0.038358 -0.054692 -0.011115 -0.012272 -0.065616 0.054791 -0.067483 0.078693 -0.035777 -0.079531 0.053466 -0.021265 0.072582 -0.080243 0.076617 0.031636 0.083209 0.035873 -0.045946 0.062308 0.072840 -0.012102 0.066680 -0.048103 0.039545 0.002540 0.070219 0.008443 -0.010094 -0.082358 0.035405 -0.055198 -0.053589 -0.059172 0.015991 -0.035743 0.079081 0.031970 -0.040512 -0.040158 0.035901 -0.070508 0.022039 0.025022 -0.067289 0.015195 -0.026804 -0.067542 -0.032394 0.010712 0.078228 -0.043016 0.082072 0.061446 -0.007657 0.038155 -0.019475 -0.020900 -0.036863 0.053892 -0.019797 0.082003 0.082155 0.010076 -0.060631 0.014685 0.057794 -0.065012 -0.036806 -0.066179 -0.021708 0.082556 -0.053225 -0.083130 0.024116 -0.037053 0.015526 0.080774 -0.021134 0.066593 0.008024 -0.026368 -0.059884 0.006634 -0.048383 0.015921 -0.038672 0.015604 0.078482 0.007926 -0.013966 -0.024777 0.006467 -0.015272 0.068761 0.029298 0.082875 0.043093 0.047748 -0.037393 0.060376 -0.057421 -0.038299 -0.076311 -0.057090 0.069278 -0.029903 0.041897 0.066591 0.032425 0.025029 -0.008847 -0.077404 0.048607 0.081249 -0.042325 -0.018934 -0.040885 0.056740 -0.023914 0.050503 -0.040687 0.034771 -0.026492 0.027503 0.020070 -0.080655 0.026916 -0.020298 0.050555 0.072984 -0.043384 0.076595 -0.048776 -0.036234 -0.063957 -0.062959 0.017325 0.061402 -0.079830 -0.033711 0.002969 -0.005215 -0.027654 -0.031886 -0.007428 0.013482 0.032641 0.035149 -0.013239 -0.074734 0.002190 0.029535 0.043498 0.059160 -0.026424 -0.019894 0.061966 -0.082969 0.043270 0.029060 0.073477 0.083347 0.022193 -0.058761 -0.036348 0.041697 -0.038258 0.064439 0.019637 -0.034627 -0.052734 -0.060855 0.043619 0.003074 -0.009280 -0.047270 -0.066906 -0.060100 0.071341 0.003317 -0.051373 -0.009931 -0.050610 0.075587 -0.034233 0.006428 -0.027768 -0.055728 0.006921 -0.067960 0.056793 -0.003064 -0.068074 -0.004475 0.021637 -0.020961 -0.046239 0.066840 -0.039983 0.056860 -0.051248 -0.009256 0.079466 0.075833 0.077279 -0.013275 -0.054899 -0.073088 0.010087 -0.067020 0.013690 0.042175 0.006511 0.046542 0.034300 0.055740 -0.030491 -0.076930 -0.083449 0.059891 -0.061428 0.056805 -0.026634 -0.046041 -0.031131 0.078464 0.016459 0.006091 0.061842 0.059938 -0.020511 -0.072867 -0.032780 -0.024506 -0.080496 -0.038962 0.045680 -0.051933 -0.028589 -0.027695 -0.035492 0.068563 -0.068981 0.054481 0.031644 0.048781 0.026759 -0.082309 0.055312 0.026771 0.061044 0.077346 0.000115 -0.049052 -0.052157 0.052445 -0.054050 0.047764 -0.024925 -0.075668 0.024240 0.038025 -0.065074 0.074921 -0.069942 -0.062109 -0.047502 0.059199 -0.030581 0.007370 -0.051957 0.017389 -0.007528 -0.037477 -0.011592 -0.059346 -0.072158 -0.068294 -0.058193 0.066616 0.041939 -0.080611 0.060500 -0.041408 -0.046201 -0.075118 -0.072424 -0.016789 0.056107 -0.013887 -0.008996 -0.003115 -0.059323 0.009391 -0.011655 -0.045804 0.030743 0.024304 -0.070067 -0.083299 -0.051787 -0.038562 0.017551 0.024147 0.007422 -0.077502 0.048262 0.018726 -0.062335 0.073531 0.001881 0.063065 0.076381 -0.021080 -0.061804 -0.053281 -0.012737 -0.050766 0.013391 -0.040092 0.018808 -0.079067 0.040255 0.042946 0.013785 -0.054861 0.080603 -0.038933 0.052904 -0.072925 -0.038771 -0.082344 -0.028026 0.062241 0.025264 0.062857 0.068200 -0.009935 -0.001878 -0.077596 -0.019866 -0.083459 0.068930 -0.026946 -0.021078 -0.076336 0.003234 0.049647 -0.043641 -0.066837 -0.073906 0.058628 -0.062442 0.049810 0.018113 0.034804 0.078410 0.015254 0.079332 0.047853 0.025790 -0.042900 0.048971 0.081225 -0.064120 -0.009226 0.060621 -0.079381 0.064300 -0.024719 -0.073516 -0.039027 -0.024716 0.078875 0.017489 0.037668 -0.080922 -0.062738 0.003853 -0.041101 -0.046113 0.013408 -0.065934 -0.025094 -0.020243 0.035640 -0.073751 -0.025295 -0.032567 -0.077880 -0.060903 0.076685 -0.037319 0.071529 0.074448 -0.017978 -0.021158 0.051608 -0.013898 -0.040319 -0.056572 -0.003953 0.004116 0.002173 -0.008539 -0.061857 -0.043620 -0.005999 -0.041133 0.043694 0.036361 -0.003785 -0.026359 0.053889 0.054583 0.036859 0.006068 0.064293 -0.071897 0.056962 0.069874 -0.049339 0.050185 -0.050906 -0.061271 0.041172 0.014577 0.001032 0.009318 -0.082782 0.044174 0.036207 -0.003273 -0.035172 -0.045081 0.071649 -0.013567 -0.005240 -0.017812 0.028762 -0.045007 -0.064912 -0.058485 0.012095 0.072438 0.079560 -0.034508 -0.004956 0.060391 -0.022944 -0.031455 0.046804 0.011178 -0.064732 0.079360 0.033369 0.059902 0.010476 -0.049061 -0.014242 0.011155 0.078575 -0.061496 -0.075580 -0.040058 -0.023115 0.079530 0.029837 0.055106 -0.021743 -0.024863 -0.073363 -0.003193 0.000114 0.022193 -0.014217 -0.003788 0.071147 0.064289 -0.026858 -0.035259 -0.050628 -0.063515 0.059381 -0.031898 -0.067617 0.009288 -0.055458 0.026320 0.043689 0.013762 -0.045987 0.038802 0.035728 -0.038105 0.082206 -0.070849 -0.042036 0.028581 0.067718 0.019683 -0.079743 0.077817 -0.066972 0.003832 0.016549 0.002273 -0.083417 0.004234 -0.016900 -0.026814 0.052436 0.015934 -0.006868 0.028356 0.067498 0.008977 -0.045818 -0.071421 -0.048165 0.081332 0.025802 -0.010690 0.036673 -0.021932 0.034666 0.035418 -0.009320 0.076092 -0.019462 -0.025063 0.012313 -0.015744 -0.030707 0.028802 0.071550 0.069303 -0.052387 0.071594 -0.009924 0.014175 -0.038681 -0.040950 -0.053352 0.037913 0.070867 -0.069315 -0.036572 -0.058412 -0.057275 -0.001275 -0.060541 0.051988 0.071497 0.059594 -0.053406 0.022702 0.011551 0.020736 0.015332 0.075550 0.079135 -0.055817 -0.023655 -0.035034 0.056447 -0.035567 -0.049193 -0.079401 -0.047434 0.024344 0.018235 -0.002654 0.066856 0.048345 -0.048203 0.054262 0.062491 -0.001313 0.079312 -0.078246 0.080873 -0.064690 0.057204 0.068908 0.078365 -0.079663 0.008148 0.006454 0.024534 -0.059981 -0.001457 0.020207 -0.032337 0.058349 0.068634 -0.059351 -0.060679 -0.064020 -0.055291 -0.024651 0.043786 0.046406 0.056157 0.027181 0.011289 -0.075507 -0.002019 -0.009681 0.006641 -0.006168 -0.004466 0.004053 0.012603 -0.030723 -0.010500 0.007506 -0.026925 0.081110 -0.069501 0.081070 -0.062333 0.012503 0.017816 -0.011208 -0.012609 0.002988 0.012902 0.010174 0.022430 0.041072 0.068985 -0.017245 0.004016 0.041680 -0.073526 -0.068156 0.049634 0.007917 0.005624 -0.027186 -0.081713 -0.082303 0.060328 0.014351 -0.029565 -0.033633 -0.061604 0.026971 -0.035985 -0.047644 0.024580 -0.014856 0.048321 -0.041066 0.057397 -0.047749 0.045384 -0.013162 0.045887 -0.015648 -0.055552 0.031410 0.050568 0.031926 -0.010372 0.060504 0.047231 -0.044199 -0.015041 -0.030606 0.012076 -0.013293 -0.029448 -0.011057 -0.082404 0.024449 0.038771 -0.060546 -0.032041 -0.080676 -0.024729 0.076000 -0.012071 -0.059869 -0.048527 -0.038135 -0.024156 0.080318 0.032164 -0.061731 -0.018791 0.060073 0.053141 -0.051684 0.008538 -0.040692 -0.074642 -0.027693 -0.001430 -0.006222 0.025163 -0.072815 0.063947 0.079177 -0.000411 0.065005 0.020164 -0.045102 -0.079003 0.071585 -0.042316 -0.020270 0.064123 0.029074 0.003323 -0.067865 0.074400 0.062628 -0.071009 0.023103 -0.082564 -0.006339 -0.000285 0.054038 0.025439 -0.075209 -0.070116 0.034258 -0.019440 0.011915 -0.055425 -0.077739 0.022561 -0.074940 -0.082024 -0.061311 0.073527 0.021602 -0.022952 0.077985 0.009725 0.018193 -0.025747 -0.009613 -0.036194 0.061037 0.005983 -0.045255 0.040204 0.018436 0.061309 0.041101 -0.071365 -0.022438 0.011677 0.037536 -0.014185 0.025022 -0.011668 0.049836 -0.046524 0.016369 0.055559 0.059499 0.024891 0.056997 0.081650 0.014956 -0.004862 -0.024764 0.009479 -0.078598 0.076891 0.067194 -0.004750 -0.042764 0.044770 -0.082228 -0.004557 0.001512 0.019669 -0.026710 -0.040848 0.031766 0.034314 0.054290 -0.014160 -0.063332 -0.004149 0.057634 0.069965 0.032789 -0.009458 0.042063 0.008827 -0.068029 0.015598 0.007015 0.030388 -0.072726 0.065713 -0.043594 -0.067863 0.059143 -0.059861 0.010849 -0.067083 0.068371 0.012082 0.011821 -0.013578 -0.051710 0.068573 0.029035 0.063518 0.019426 -0.000137 -0.034104 0.039555 0.079176 -0.059931 0.026058 0.028503 0.014072 -0.015340 -0.046132 0.029505 -0.083204 0.044345 -0.023569 -0.072468 0.026596 0.016299 -0.056870 0.002277 0.039900 0.037440 0.018655 0.024809 -0.033939 -0.052985 -0.072231 -0.002187 -0.067873 0.040265 -0.022131 0.035014 -0.043333 0.027227 -0.008893 -0.047618 0.050757 -0.066296 0.064346 -0.018632 0.001825 -0.065247 -0.072589 0.002083 0.062559 -0.012696 0.013076 0.005693 -0.079858 0.039667 -0.075491 0.043503 -0.006354 0.026626 -0.015149 0.043169 0.057102 -0.003919 -0.042479 0.072690 -0.047115 0.018851 0.024243 -0.006986 -0.037384 -0.068112 0.028857 -0.070088 -0.050947 0.009742 -0.005259 0.034340 0.027957 0.005613 -0.047039 0.007054 0.076379 0.049498 -0.070714 0.079982 0.005704 -0.062743 0.040023 0.082812 0.047344 -0.058588 0.042520 0.020985 0.020955 -0.083421 0.010213 0.057302 0.018891 -0.049005 -0.033145 0.064969 -0.033656 0.079173 0.078342 -0.001141 0.005454 -0.010378 -0.050263 -0.050051 0.078696 -0.013841 0.040465 0.071614 -0.047804 0.053213 0.068134 0.041361 0.073931 0.024696 0.040712 0.037813 0.049570 -0.000230 -0.024664 -0.012937 -0.000190 0.069011 -0.039096 -0.064761 -0.063455 0.011220 -0.083253 -0.013650 0.006931 0.078550 0.068670 -0.071076 -0.015290 -0.065054 -0.037666 -0.020055 0.004567 -0.080663 -0.031903 0.040225 0.056012 -0.047230 -0.001875 0.046481 0.060927 -0.044625 0.000833 0.027035 0.038606 0.059631 -0.069363 -0.045045 0.045181 -0.024998 -0.026345 0.065187 0.069683 -0.026137 -0.031925 -0.006847 -0.031048 -0.046716 0.005539 0.037123 -0.028308 0.051334 -0.066393 0.059721 0.054133 -0.014835 0.016484 0.026683 0.021397 -0.068853 -0.010297 -0.001138 -0.030017 0.073997 -0.057564 -0.074872 0.050166 -0.043466 -0.036456 0.011885 0.014997 0.020660 -0.006390 0.001219 0.077985 0.045147 0.077834 -0.036524 0.081892 -0.000089 -0.082863 -0.029877 -0.032216 -0.065794 -0.053618 -0.061544 0.002833 0.046327 0.048600 -0.059232 0.060935 -0.045158 0.023091 -0.052543 -0.054623 0.048988 -0.043954 0.079005 -0.077939 0.003051 0.007428 0.020520 -0.059750 -0.082423 -0.061722 -0.065227 0.046185 -0.067349 -0.018290 0.044616 0.016023 -0.017691 -0.068722 0.067269 -0.000024 -0.038879 -0.077737 -0.080652 -0.076013 0.054325 -0.056423 0.068383 -0.074294 0.050130 -0.067621 -0.045456 0.015656 -0.028114 -0.049913 0.021179 0.058398 0.040977 -0.041763 0.082109 0.042015 -0.020024 -0.066579 0.004739 -0.003912 -0.001407 -0.034106 -0.071350 0.064364 -0.019367 0.079381 -0.019122 0.025215 -0.081817 -0.016312 0.032664 0.055969 0.010726 0.017585 0.065136 -0.022606 0.033426 -0.063781 0.076512 -0.078150 -0.030232 0.014229 0.063709 -0.072717 0.055927 0.062357 0.052760 -0.047558 0.079239 -0.025962 0.031992 -0.005630 0.023393 0.044103 -0.024728 -0.079435 0.040023 0.039612 0.029242 0.041667 -0.060162 -0.021556 0.014174 0.034026 0.079491 -0.004151 -0.072042 0.029455 0.015530 -0.078992 0.034766 0.068759 0.018699 0.015014 0.079504 -0.008836 -0.006091 0.048803 0.027068 -0.010313 -0.060621 -0.024402 0.067519 0.046234 -0.063760 -0.040670 0.050260 0.059724 0.082404 -0.003960 0.017929 -0.061219 0.057945 -0.051358 0.056268 0.053975 0.027953 0.067687 -0.000032 -0.039978 0.072157 -0.048727 -0.054681 0.007394 0.049748 -0.058638 0.082020 -0.039804 0.073626 0.025627 0.033345 -0.070457 -0.082237 0.017402 0.059239 -0.062535 0.060193 0.026037 0.080651 0.059136 -0.061384 0.015119 0.081378 0.080022 0.047222 0.054184 0.050535 -0.008286 0.038410 -0.032958 0.035197 0.027106 0.001776 0.063978 -0.048962 -0.031937 -0.078122 -0.050403 0.011720 0.078966 0.058685 -0.038397 -0.074952 0.059910 0.062467 0.067748 0.080836 0.039199 0.010323 0.078025 0.014873 0.032400 0.009682 0.012789 0.028961 -0.026557 -0.016488 -0.003965 0.048619 -0.061539 0.046538 0.000355 0.049028 -0.035147 -0.019129 -0.083395 0.016377 -0.013789 -0.050337 -0.055364 -0.018285 -0.075113 -0.010299 -0.009776 0.068258 -0.031294 -0.025490 0.065633 -0.075556 0.068295 0.060197 0.022778 0.017233 -0.013582 -0.047894 -0.037267 0.043322 0.019080 0.042229 0.008480 0.041002 0.005306 -0.074627 0.006569 0.053620 -0.010294 0.006636 -0.013464 0.059378 0.039761 0.014633 -0.042368 0.048109 -0.079128 0.031317 0.032906 -0.026960 -0.077634 0.015077 -0.019055 0.074122 -0.008188 -0.079738 0.007894 0.061691 -0.044171 0.054089 0.021552 0.058371 0.012857 -0.053430 0.015912 -0.065299 -0.044595 -0.060981 0.071783 0.028572 0.029116 -0.025142 0.004488 -0.014585 0.072952 0.045581 -0.049937 0.077286 -0.006563 0.066430 -0.033135 -0.000735 -0.001955 0.031271 -0.010075 0.073319 0.034995 0.081281 0.051548 0.074285 0.051909 -0.010361 0.049195 -0.018696 0.019671 -0.018355 -0.000533 0.058537 0.004125 -0.012212 0.003647 -0.050220 0.046108 -0.075326 0.018657 0.035598 0.053716 0.052181 0.029423 -0.036308 0.035150 0.079749 0.046418 -0.050267 0.027559 -0.047118 -0.060409 -0.020908 -0.049298 0.074601 -0.030084 -0.080851 -0.019222 -0.064350 -0.016086 -0.083013 0.000756 0.066843 0.058986 -0.078580 -0.028830 -0.020829 -0.045338 -0.066184 -0.012694 0.056780 0.052875 -0.042439 0.025500 -0.001163 0.004715 -0.022812 -0.004875 -0.032329 0.010383 -0.060778 0.004015 0.033435 0.001776 0.038178 0.024575 0.055154 0.040788 -0.078109 0.074265 -0.058759 -0.077660 -0.008440 -0.075378 0.064787 -0.003559 -0.020747 -0.039503 0.034565 -0.003469 0.031264 0.007884 -0.034055 0.072287 -0.050078 0.048243 -0.006460 0.010572 -0.040094 0.044673 -0.062506 -0.017410 -0.034774 0.054391 0.067828 -0.080058 -0.004496 0.039521 0.044192 0.000856 0.030325 0.068895 0.006658 -0.061577 0.076979 -0.012017 0.018326 -0.027229 0.031941 -0.030571 0.052763 -0.020256 0.060774 -0.064754 -0.031430 -0.072765 0.066951 0.045571 0.021268 -0.056604 0.006783 0.042224 0.009447 0.055470 0.013153 -0.006186 0.058874 -0.074804 -0.050127 0.019605 0.009513 0.063659 0.005038 -0.067290 -0.081379 -0.001444 0.004154 0.020408 0.054788 -0.047366 0.073299 0.024089 0.015840 0.050612 0.042797 0.067871 0.061308 0.026286 0.029981 -0.000885 0.053143 -0.046698 -0.042123 -0.020871 -0.074689 0.054492 0.056404 0.067647 0.063149 -0.077184 0.003790 -0.010799 0.069937 -0.074633 0.005372 0.072019 0.007385 -0.073935 0.008966 -0.021289 -0.037839 -0.001196 -0.080661 0.061462 -0.034046 0.045597 0.045872 -0.056199 -0.011578 -0.007609 0.026377 -0.041896 0.029155 0.067716 0.020694 0.037927 0.038747 -0.006363 0.022113 0.018434 -0.000085 -0.057558 -0.075826 -0.013610 -0.048729 0.013007 -0.025052 0.042117 0.022534 0.067376 -0.062634 0.068156 -0.017282 -0.059833 0.046157 0.032133 0.069226 0.008567 0.059395 -0.025814 -0.082503 0.002311 0.015752 0.030113 -0.013435 -0.047015 -0.015421 -0.058150 0.030083 -0.076770 0.043746 -0.053463 -0.050885 0.051443 0.016299 -0.016056 -0.019091 0.074729 -0.057478 -0.080095 0.058665 -0.036770 0.071596 -0.042079 -0.013045 0.034417 0.073532 -0.027227 -0.040496 0.049557 0.030384 -0.039628 -0.031655 -0.037338 0.073851 0.038297 -0.000890 -0.024846 0.063676 -0.054303 -0.018216 0.023919 -0.024390 0.014439 -0.008002 0.075545 0.081581 0.056306 0.067017 -0.059288 0.059826 0.042111 -0.012369 0.048017 -0.083354 0.057841 -0.001266 0.073717 -0.052728 0.041602 0.039645 0.061090 -0.081467 -0.075398 -0.059740 0.075925 0.046412 0.022960 -0.032410 0.026644 0.052078 0.032819 -0.032858 -0.055576 -0.036362 0.042677 -0.063534 -0.038044 0.015090 -0.079819 -0.014019 -0.008563 0.045649 0.056820 -0.044072 0.045470 0.031596 0.038189 0.036024 0.062679 -0.003637 -0.007545 0.040226 -0.001372 0.000405 0.063777 -0.008931 -0.036594 0.002889 0.041717 0.073583 -0.027735 -0.008766 -0.042861 -0.000130 0.038282 0.083048 0.019863 -0.082879 0.015123 0.022941 -0.013387 -0.076314 -0.014627 -0.039827 -0.037214 -0.052005 0.075537 -0.082303 0.066915 0.053978 -0.002376 -0.023860 0.010523 0.079229 0.060031 -0.009195 -0.013073 -0.060181 0.077486 -0.054639 -0.069731 -0.033767 0.020222 -0.029161 0.049423 -0.024917 -0.029176 -0.014475 -0.024138 0.071284 -0.076622 0.047034 0.076942 -0.005648 -0.076827 -0.044646 0.025654 0.078723 -0.045258 0.009852 0.053666 0.041574 0.067154 -0.021186 0.034660 0.048314 0.050952 -0.066756 0.068966 0.047488 -0.033911 0.081497 -0.068712 0.072017 -0.026395 0.061901 -0.039113 0.025614 -0.036688 0.026478 0.007146 -0.025268 -0.017752 0.004613 0.049080 -0.011019 0.039874 -0.007053 -0.012719 -0.086186 -0.077949 -0.045541 0.038512 0.069259 0.014949 -0.014951 0.032180 -0.014492 0.007458 0.020341 -0.054474 0.061175 0.017553 -0.041296 0.049572 0.072536 -0.058384 -0.071321 0.008275 -0.014598 0.035146 -0.062104 0.038691 -0.068532 0.025655 0.008266 0.001989 -0.013454 -0.081226 0.072332 -0.010744 -0.079597 -0.057464 -0.054127 0.077472 0.040342 0.016319 0.025732 -0.059296 -0.056885 -0.038355 -0.030534 -0.079259 0.068462 0.014087 0.050426 0.055421 0.035972 0.066787 -0.014740 -0.065307 0.012510 0.012247 0.065763 0.021900 -0.044932 -0.011934 -0.054241 0.030977 -0.010108 -0.064432 -0.069944 -0.004998 -0.039931 -0.035628 -0.012725 -0.081473 0.059479 -0.072674 -0.060683 -0.078346 -0.026739 -0.003696 -0.075641 -0.045714 -0.075777 0.060463 -0.074515 0.042854 0.044102 -0.002301 0.063954 -0.032121 -0.077290 0.040563 0.078258 -0.039189 -0.052981 -0.075639 0.074623 0.013130 -0.038875 -0.079919 -0.064721 0.025978 -0.045207 -0.012446 0.017017 -0.052927 0.007274 0.025650 -0.062061 0.061805 -0.047228 -0.045234 -0.069316 -0.047597 -0.063468 -0.054536 0.079557 0.060313 0.039901 0.086355 -0.057835 0.013557 0.031099 -0.050933 0.087885 0.047401 -0.033540 0.059646 -0.014538 0.004120 0.084061 -0.019612 -0.055538 -0.040743 0.071833 0.050833 -0.010171 -0.006761 -0.044883 0.022490 -0.023068 0.009514 0.054335 -0.014392 0.042523 0.051758 0.032618 0.022323 0.023314 -0.035802 0.019111 0.059297 0.071635 -0.057729 -0.082908 0.065356 -0.086809 -0.038216 0.056899 -0.008633 0.074551 0.022016 0.072377 0.074431 0.065285 0.045915 0.016647 -0.047102 -0.040093 0.072783 0.048179 0.022666 -0.008282 0.010524 -0.073272 -0.037928 -0.026102 0.022313 0.087137 -0.048702 0.074242 0.015462 -0.063142 0.077362 0.062432 -0.085562 0.055830 0.081577 -0.024564 -0.004268 -0.024650 -0.039698 -0.037378 -0.047270 -0.037264 -0.084284 -0.067088 0.049517 -0.043557 -0.016732 0.057057 -0.060400 0.061833 -0.034573 0.037870 0.077112 0.004736 -0.059288 0.029546 -0.003513 -0.029895 0.014564 -0.069571 -0.022069 -0.008338 0.075011 -0.016032 -0.040465 0.067411 0.061710 0.050258 -0.039131 -0.079785 -0.084390 0.038621 -0.048431 -0.054834 0.014716 -0.062915 -0.006800 0.066662 0.023905 0.007289 0.061004 -0.087533 -0.023614 0.036605 -0.011510 -0.021212 -0.011940 0.051490 0.030041 -0.068869 -0.046698 -0.066319 -0.000051 -0.054799 0.006382 0.057910 -0.116239 -0.030312 0.032316 -0.037942 -0.062963 0.036424 0.075629 -0.006224 0.057208 -0.008624 -0.022692 -0.013083 -0.038796 -0.018704 0.101241 -0.082398 -0.037328 -0.071100 0.079831 0.065257 0.021946 -0.035796 0.057714 -0.022203 -0.010417 0.068722 -0.034043 -0.072337 -0.078681 0.065329 0.061181 -0.075197 -0.079222 0.010163 -0.006445 -0.013884 -0.021485 -0.086436 0.058591 -0.004008 0.012690 -0.018801 0.009917 0.087851 0.022895 -0.004432 0.045411 0.077388 0.048610 0.028486 0.086482 -0.055063 -0.076546 0.015200 0.020192 0.001622 -0.004788 0.070954 0.057888 0.023286 0.040443 0.005641 0.008585 0.057609 -0.083506 0.081445 -0.037229 0.004364 -0.110715 -0.023667 0.075211 0.019411 0.013374 0.007058 -0.039017 0.005483 0.073006 -0.001780 -0.017689 -0.007864 -0.060371 -0.090717 0.068768 -0.025610 0.057159 -0.014846 -0.080271 -0.027366 -0.018690 0.025791 0.057827 -0.035286 -0.037468 -0.004152 -0.027928 0.002653 -0.010197 0.005880 -0.050277 0.004689 0.056682 0.058459 -0.071233 0.012339 -0.031758 -0.014739 0.046926 -0.030863 0.036402 -0.065886 0.043554 0.070557 -0.040194 0.010935 -0.017874 0.067192 -0.066550 -0.032989 -0.048554 -0.002173 -0.085058 -0.048512 0.106490 -0.016729 0.013235 -0.034167 0.052059 -0.079032 0.041997 0.064253 0.004584 0.029838 0.002304 0.027363 -0.048222 -0.087167 0.082277 0.089216 -0.054513 0.052803 -0.080630 -0.059924 0.042456 -0.038001 0.033922 -0.086017 -0.047477 0.051787 -0.016014 0.000433 0.007937 -0.013781 0.031100 -0.016471 0.020151 -0.017719 0.053304 -0.030927 0.007262 0.017026 -0.037980 -0.080328 -0.014459 0.104340 0.022296 -0.011442 -0.082434 0.044893 -0.032112 -0.054299 -0.019648 0.006315 -0.056658 -0.071718 0.006563 0.071670 -0.063105 0.057353 0.066341 -0.030388 -0.024124 -0.001719 0.055257 -0.041542 0.040156 -0.028338 0.038817 0.003190 0.029916 -0.064556 -0.016134 -0.080590 -0.058950 -0.020146 -0.065232 0.043784 0.031912 -0.028140 -0.006657 -0.046021 -0.020654 0.072935 0.013707 0.034522 -0.085526 -0.000863 0.004198 -0.048039 -0.055853 -0.051377 0.005375 0.017286 0.029515 -0.051249 0.046781 -0.012814 0.035605 -0.020835 0.071211 0.000856 -0.005798 -0.070326 0.028106 0.047520 0.017425 0.046532 0.032491 0.014360 0.071938 -0.050356 0.029745 -0.011430 -0.064284 -0.027390 0.072223 -0.037438 0.006879 -0.010487 -0.042301 0.040927 0.048126 0.051554 -0.007132 -0.037642 -0.051640 -0.045419 0.061095 0.048187 0.007011 0.036242 0.018335 -0.062761 0.049879 -0.055476 0.082090 -0.016246 -0.085129 0.001282 -0.074929 0.062502 0.038689 0.059237 -0.047181 0.054943 -0.061284 -0.027442 -0.037732 0.047976 0.021141 0.023542 0.004857 0.002472 -0.011260 -0.062145 0.048528 -0.010402 -0.023363 0.028183 -0.009715 0.065746 -0.020746 0.044783 -0.072662 -0.013075 -0.071654 0.067810 -0.079569 -0.044403 0.026127 -0.089150 -0.052351 -0.042331 0.033744 -0.014059 -0.023463 0.070915 0.038178 0.004915 0.024141 0.001406 -0.075216 -0.037087 0.070535 0.002471 -0.011832 0.041757 -0.074838 0.034811 -0.020571 0.019425 0.039053 0.071540 -0.019095 0.030263 -0.007709 0.002615 0.042997 -0.020440 0.053513 -0.046372 -0.019660 0.037564 0.037145 -0.064076 -0.059827 -0.031665 -0.077222 0.030025 0.036198 0.041708 -0.044735 0.040726 -0.080256 -0.036392 -0.023211 -0.013931 0.085559 -0.025372 -0.031211 -0.013917 0.055551 0.074366 -0.023162 -0.035764 0.027597 0.031805 0.048873 -0.004039 -0.046486 -0.031767 0.050348 0.033733 -0.073195 0.009817 0.064165 -0.054178 0.037985 0.068641 -0.077347 -0.007652 0.014691 -0.038112 -0.050701 0.038661 -0.002004 0.001758 -0.067580 0.000245 0.061426 -0.047493 0.059336 0.042677 -0.022859 -0.044871 -0.076139 -0.050041 0.069115 0.060928 0.023842 -0.051396 -0.032363 0.011011 0.078830 -0.045765 -0.075488 0.039435 0.012554 0.060544 0.008921 0.040752 -0.041912 -0.050238 0.065387 -0.009986 0.047915 0.003223 0.076046 0.091842 0.087762 0.050239 0.000441 0.038508 0.047417 0.010107 0.078890 0.036673 0.041526 0.069006 -0.002621 0.000992 -0.063135 0.040564 -0.089422 0.057983 -0.073977 -0.053500 0.012910 0.011306 -0.056336 -0.041740 -0.038624 -0.028221 0.001230 -0.022339 0.036959 -0.019741 0.044775 0.039991 -0.038982 0.029124 0.021075 0.039279 -0.004955 -0.047526 -0.022436 0.003583 0.069157 -0.044950 -0.008265 0.001422 0.025013 0.000163 -0.041427 0.038861 0.000619 -0.025864 0.079361 -0.076563 0.058210 0.075275 -0.001202 -0.058958 -0.037263 0.081665 0.003990 -0.079581 -0.041908 -0.038656 0.030515 0.018900 0.060827 -0.014613 -0.002476 -0.027752 0.047425 0.061646 0.076763 0.012836 -0.060843 -0.033863 -0.060082 0.063681 0.050831 -0.028108 0.021334 -0.030120 0.006629 -0.005318 -0.009823 0.020901 -0.007028 0.052910 0.066997 0.030393 0.045245 -0.028686 0.044372 -0.055874 0.018366 -0.004366 0.046513 0.001860 0.058561 -0.044969 0.049465 0.011105 -0.065963 0.057483 -0.045455 -0.025439 -0.072226 0.000546 -0.051304 0.057289 0.036804 0.035304 -0.057146 -0.005791 -0.055260 0.041875 -0.064796 0.011343 -0.010535 0.074240 -0.001755 -0.055470 -0.048226 -0.037062 -0.030781 0.043116 0.026928 -0.064921 -0.031701 0.014446 -0.046940 -0.043360 -0.032173 -0.016720 -0.064384 -0.009460 0.052277 -0.068093 0.080575 0.052580 0.075155 0.045762 -0.006542 -0.066514 -0.036900 0.032568 0.025962 -0.030739 -0.015966 -0.044457 -0.050347 0.046200 0.009070 -0.028824 0.083094 0.049171 -0.034972 0.015417 0.047169 0.020018 -0.057291 -0.054260 0.047582 -0.016901 0.012388 0.072994 0.074927 -0.032419 -0.083947 0.073429 -0.072363 -0.069377 0.023100 0.020148 -0.060001 0.052008 -0.016145 0.069021 -0.049141 0.030658 -0.063000 -0.017284 -0.006080 0.013487 0.078199 -0.005467 -0.043210 -0.031196 -0.082350 -0.064821 0.049990 -0.052999 -0.033655 0.037438 0.000048 0.064688 0.037414 -0.020077 -0.032612 0.030267 -0.013522 -0.029839 0.039860 -0.082783 0.065831 0.064064 0.061048 -0.020779 0.060543 -0.067443 -0.089871 0.072980 0.007580 0.016897 0.000690 -0.013550 -0.065776 0.048689 0.028538 -0.083480 0.074530 -0.002059 -0.054257 -0.036289 -0.046574 0.048689 -0.064712 0.063934 -0.041598 -0.009618 0.015195 0.027460 0.041057 -0.006086 0.027368 0.049141 -0.036445 0.019907 -0.082248 -0.070253 0.032781 -0.067564 -0.068387 -0.055470 0.022392 0.008469 0.009289 0.020627 -0.001730 -0.036951 0.025254 -0.001678 0.035797 0.061938 0.025533 0.069919 0.028213 0.063448 0.044674 0.070445 -0.026385 -0.006341 0.031142 -0.075089 0.067809 -0.029998 0.062475 -0.065752 0.055751 0.064534 -0.052304 0.017187 0.082585 -0.039404 0.023603 0.018952 0.059265 -0.023863 -0.038829 -0.041920 0.024264 0.068208 0.028025 -0.038542 0.048145 -0.025521 -0.036071 -0.003685 -0.046095 -0.060826 -0.014070 0.004881 0.013392 -0.074619 0.021834 -0.011709 -0.014931 0.000087 0.003388 -0.029222 -0.017938 0.035654 0.059013 -0.027529 0.082359 0.012594 0.074846 0.057450 0.067837 -0.048735 -0.066807 -0.005499 -0.057368 0.045439 0.044857 0.072561 -0.067219 -0.078017 -0.012848 -0.030892 -0.054532 0.061847 0.056408 0.046519 0.079414 -0.001503 -0.048878 -0.020717 0.081067 0.037177 0.031436 -0.022689 -0.009719 0.009402 0.032427 -0.014328 -0.062859 0.027456 -0.039514 -0.084236 0.064673 -0.019622 -0.004597 -0.083458 -0.057737 -0.041014 0.078619 -0.043216 -0.033219 -0.023006 0.010352 -0.004261 -0.045398 -0.012736 -0.042572 -0.052333 0.071210 -0.010217 0.010114 0.069089 -0.057902 -0.042904 -0.037654 0.014945 0.046873 0.080037 -0.081105 0.065697 0.023605 -0.036837 0.067447 0.002681 0.025500 -0.019584 0.004329 0.048830 0.022939 -0.004524 -0.077848 0.073181 0.055932 0.015966 -0.014540 -0.072928 -0.080231 0.026349 -0.041800 0.074441 -0.067329 0.051776 0.060068 -0.041769 -0.074590 -0.061047 0.056637 0.055744 -0.064472 0.058993 0.037979 0.042595 -0.061305 0.021965 -0.038185 0.047657 -0.081081 0.049605 0.013025 0.025320 -0.038381 0.018639 0.015040 -0.065911 -0.048856 -0.082962 -0.055377 -0.045626 0.026848 -0.013715 -0.054647 0.042981 -0.045401 -0.078040 -0.082250 -0.036529 -0.055625 0.057849 -0.064247 -0.036636 0.033380 0.057194 -0.077503 0.055536 -0.004302 -0.032227 0.019732 -0.001922 -0.066084 -0.050705 -0.060064 -0.021003 0.051396 0.038438 -0.003453 -0.080922 0.038937 0.024632 -0.043086 -0.017676 -0.072545 -0.014271 -0.058157 -0.034484 -0.008850 -0.056945 0.012448 0.018986 -0.082558 0.031662 0.065812 0.034284 0.005395 0.071770 0.006359 -0.082369 -0.043918 -0.057371 -0.000829 -0.026540 -0.024614 0.022569 0.035918 -0.056680 -0.022455 -0.050997 -0.054140 -0.066980 0.057097 -0.013765 -0.001195 0.068013 0.055425 0.024110 -0.049933 -0.036886 0.050626 0.045976 0.065562 0.051530 -0.005823 0.047912 0.002352 0.083034 0.036221 -0.074750 -0.082797 0.075764 -0.048660 -0.000165 -0.034238 0.010188 -0.061058 -0.081782 0.036970 -0.000051 -0.049317 0.066291 0.016430 -0.075682 -0.030936 -0.068226 0.075793 -0.058972 0.039346 -0.057601 -0.012397 0.006511 0.071836 -0.030297 -0.025421 -0.017448 -0.065847 0.060393 -0.017876 0.053835 0.069105 -0.017211 0.046138 -0.063016 0.066086 -0.071561 0.030633 -0.078433 -0.069882 -0.015859 0.004977 -0.035737 -0.033029 -0.062054 -0.027958 0.019496 -0.046818 -0.035626 0.043986 0.075989 -0.009766 -0.051873 -0.000961 -0.021391 0.001292 0.057080 0.044622 0.018906 0.034011 -0.056715 -0.010720 0.019655 0.009536 -0.048043 0.040100 -0.007840 -0.036143 -0.012729 -0.002812 -0.022563 0.054874 -0.081296 0.025161 -0.061617 -0.059889 0.080665 0.041340 -0.023245 -0.038423 0.001865 -0.030718 0.035272 0.033453 0.051783 -0.069581 -0.048717 0.025401 0.058503 0.053651 -0.024049 -0.081673 -0.040530 0.079067 0.011324 -0.005112 0.035705 -0.079978 0.042207 -0.060486 0.000672 -0.063818 0.077850 0.002838 0.044804 -0.067229 0.026410 0.042007 0.057573 -0.080296 -0.079877 -0.024024 -0.027553 0.038856 -0.074033 -0.059231 0.052737 -0.039288 0.049631 0.027778 -0.069099 -0.057880 0.029566 -0.026167 -0.062275 -0.042571 0.052183 0.056892 -0.039087 0.010928 0.079867 0.045047 0.030571 0.074256 -0.035577 -0.008086 -0.076435 0.074295 -0.049540 0.064599 0.077460 -0.045956 -0.042886 -0.033554 0.076362 -0.033457 -0.009324 0.045637 0.010716 -0.043155 -0.010046 0.025079 -0.017574 -0.063941 0.082373 0.003613 -0.023051 0.051095 -0.022957 0.021323 -0.021439 -0.026551 -0.017092 -0.074329 -0.035757 0.030793 0.001047 -0.028730 0.021626 0.034968 -0.047592 0.015624 0.072473 -0.007017 0.065531 0.065374 0.042987 -0.027255 0.027549 -0.029758 0.013052 -0.065958 0.078782 0.078939 -0.046438 0.077694 -0.000909 0.013972 0.045327 0.059596 -0.048166 -0.059573 -0.050416 0.018204 -0.050440 -0.002711 -0.034464 0.034068 0.052020 0.070623 -0.014426 -0.079034 0.002785 -0.025414 -0.002589 -0.015146 -0.043502 -0.043064 0.041061 0.067509 0.010640 -0.029349 -0.081911 0.005960 -0.033871 -0.044887 0.000193 0.048682 0.052547 -0.037942 0.024816 -0.079080 -0.014053 0.057862 0.022585 0.018968 -0.028311 0.071582 -0.030426 -0.059752 0.058744 0.038610 -0.055324 -0.021933 -0.070265 0.025548 0.046383 -0.030305 0.065946 0.003983 -0.046258 -0.006876 0.058095 -0.044707 0.082546 -0.059237 -0.006133 -0.000723 0.072906 -0.037048 0.044797 0.014261 -0.032667 -0.052718 -0.011339 0.073380 0.049712 0.043812 0.061501 -0.064176 0.067521 0.036783 0.057896 -0.071265 -0.068611 0.071092 0.037744 0.061233 -0.042675 0.020229 -0.018246 -0.005471 -0.070109 -0.043612 0.033283 -0.071025 -0.019387 -0.056311 0.011713 -0.029943 -0.009898 -0.026951 0.067780 0.040896 0.003792 -0.027020 0.030815 -0.029957 -0.066670 0.008854 -0.010672 -0.082610 -0.037825 -0.036237 -0.070414 -0.022975 -0.048607 0.050792 -0.045203 -0.007820 -0.012441 0.020012 0.070170 0.000912 0.059862 0.019992 0.013348 -0.042987 0.047142 -0.058400 0.010532 -0.046218 -0.001890 -0.005149 0.078140 -0.081559 0.051292 0.025493 -0.028055 0.068084 -0.049115 0.044735 0.068935 -0.003478 -0.074964 0.081983 0.057008 -0.040109 0.049313 -0.071657 0.035533 -0.046589 0.031817 0.022242 0.037784 0.008218 -0.041228 -0.032329 0.048692 -0.077547 -0.007268 -0.024237 -0.040303 0.074304 0.054075 -0.045625 0.076207 0.021906 0.063330 -0.035310 0.006529 -0.069246 -0.074036 -0.007997 0.010737 -0.065538 -0.009476 -0.015716 -0.022185 -0.043624 -0.003911 -0.070114 -0.006751 -0.055555 0.035590 -0.052428 0.036124 0.077823 -0.001296 0.001355 -0.083185 0.074898 0.060579 -0.040027 0.065741 0.031193 -0.002190 0.058486 -0.030362 -0.022321 -0.060285 0.059628 -0.008106 -0.050860 -0.031830 -0.080830 -0.032936 0.042155 -0.013084 0.028340 0.081993 0.066466 0.041688 -0.008219 -0.072550 -0.006184 0.022814 0.047035 -0.011822 -0.061943 -0.035071 -0.011546 -0.070507 -0.057953 0.031889 0.078695 0.056701 -0.053763 0.053720 -0.057122 0.007377 0.076896 -0.080955 0.082733 -0.057425 -0.029324 -0.081558 -0.006899 -0.070630 -0.011181 -0.062021 -0.072098 -0.028176 0.063129 0.003144 -0.017265 -0.026517 -0.057503 -0.053691 0.045123 -0.035876 -0.005637 -0.049782 -0.022549 0.020133 0.065461 -0.027536 -0.006521 -0.071629 -0.058196 0.019286 0.019260 -0.063686 0.022346 0.018204 -0.037282 0.075799 0.020026 0.038444 -0.077595 -0.074322 0.059395 -0.065979 -0.019405 0.040068 0.020326 0.047132 -0.070267 0.046070 0.076586 0.057972 -0.072389 -0.012239 -0.074782 -0.012919 -0.075167 0.074066 0.042685 0.001395 -0.081310 0.069017 -0.061995 0.021236 -0.079162 0.043941 -0.044030 -0.033174 0.037409 0.059644 -0.078120 0.042550 0.068690 0.065056 0.059655 -0.033658 0.020851 -0.003517 -0.069980 0.034008 -0.040443 -0.077241 0.009050 -0.030922 -0.004330 0.019534 0.040342 0.005427 0.006454 0.000738 -0.078863 0.012112 -0.012655 -0.057176 -0.055064 -0.009543 0.071808 -0.012938 0.042062 0.022917 -0.036970 0.045486 -0.017060 -0.050728 0.026723 -0.041759 -0.004896 -0.035295 0.038130 0.010809 0.082040 0.080529 0.017755 0.005571 -0.033019 -0.069743 -0.055999 -0.072795 0.015944 0.033841 0.009598 0.020865 -0.040567 0.076428 0.046368 -0.007448 -0.011448 0.038038 0.061408 -0.059941 -0.024574 -0.058446 0.068617 0.040444 -0.024986 0.012591 0.081009 0.053701 0.059088 0.039339 -0.018785 0.058691 0.037558 -0.083850 -0.015507 -0.078233 -0.071551 0.012414 -0.067767 0.028796 -0.040598 0.022994 -0.035087 0.002884 0.017232 -0.069476 0.076957 -0.083201 0.048936 0.053206 -0.058822 -0.059336 0.077025 -0.073636 0.063963 -0.032723 0.022995 0.063443 -0.063140 -0.000012 0.019588 0.002131 -0.023871 -0.026602 0.002934 0.043364 -0.021317 0.016257 -0.029450 -0.006199 -0.039434 0.014870 -0.067244 0.011770 -0.067130 0.033643 0.026817 -0.074618 0.033069 -0.007321 0.064129 0.058311 0.014123 0.056691 0.068791 -0.005330 -0.059394 0.008486 -0.024969 -0.038561 -0.075624 0.077435 0.046829 -0.015600 -0.031884 -0.033052 -0.054172 0.030328 0.064665 -0.000704 -0.059224 -0.056343 -0.070085 -0.043074 0.036983 -0.053581 0.074782 -0.016241 -0.038149 0.020802 0.056483 -0.066565 0.001511 -0.010847 0.069862 -0.017091 0.046979 -0.066582 0.082900 -0.044492 -0.022287 -0.085463 -0.045217 -0.055685 -0.008171 0.001150 -0.001549 0.015288 -0.039496 -0.016568 -0.068764 -0.016820 0.004459 -0.054241 0.023298 -0.035079 -0.023401 0.005370 0.017865 0.022442 -0.053057 -0.009919 0.035105 0.031794 0.064110 0.027876 -0.066385 0.051536 0.049124 -0.083070 -0.068905 -0.055885 -0.072500 -0.038604 -0.038673 -0.016910 0.050749 0.037087 -0.071316 -0.081111 -0.066288 -0.057781 -0.022010 0.013111 -0.024510 0.071825 0.060728 0.040006 -0.010830 0.008760 -0.024090 0.043128 0.076429 0.062622 -0.016508 0.045114 0.006977 0.003287 0.026958 -0.015229 -0.017204 0.032049 -0.018609 0.002341 0.075146 0.058238 -0.079043 0.046091 0.004363 -0.070277 0.047779 0.036720 -0.028904 -0.023637 -0.053430 0.040598 -0.060883 -0.050937 -0.048642 0.028428 0.024598 -0.007857 -0.027868 0.030104 -0.030590 0.044046 -0.007522 -0.058265 -0.046080 -0.059216 -0.018994 0.028094 0.061000 0.035905 -0.033747 0.044080 0.011167 -0.036717 0.007001 -0.065740 -0.025858 -0.040674 0.055916 0.043223 0.029277 -0.073648 -0.044730 0.030807 -0.041716 -0.010416 -0.022744 0.038467 -0.096894 0.076266 -0.032279 0.054672 -0.007671 0.041510 0.005712 0.012609 0.021902 0.077839 -0.044972 0.011965 0.031280 -0.014747 -0.057042 -0.023302 0.051329 -0.092326 -0.005991 -0.036568 0.012352 -0.009738 0.077279 -0.034808 0.022424 0.011866 0.000209 0.080385 0.089857 -0.058015 -0.014308 0.085543 0.058189 0.043349 -0.042885 0.015839 -0.049986 0.071980 0.047988 0.008147 0.044697 -0.081050 0.051649 -0.077144 0.018750 -0.049272 0.051890 -0.010135 -0.050211 -0.053074 0.001347 0.042705 -0.015331 -0.015039 0.040383 -0.061218 0.086826 -0.018082 0.003147 0.053319 0.033770 -0.106122 -0.009954 0.003914 0.016569 0.107282 0.047738 0.019282 0.035057 0.017888 0.049835 -0.052248 0.042097 0.020635 0.011020 -0.043628 0.082229 -0.013056 -0.022147 -0.041461 -0.013411 -0.032601 0.040042 0.058281 0.074267 0.057570 0.071423 0.110147 -0.001926 0.064646 -0.029087 0.127161 0.059120 -0.041063 -0.043234 0.038309 -0.045685 -0.029118 0.067430 0.148007 0.003340 0.060142 -0.038366 -0.006589 -0.029034 0.067587 0.012809 0.015036 -0.019240 -0.045858 -0.026872 0.044836 -0.052712 -0.054845 -0.024859 -0.025937 -0.006916 -0.023623 -0.038049 0.069822 -0.009423 0.009189 -0.003193 -0.064206 0.082546 -0.069821 0.012003 -0.077947 -0.074141 0.102656 -0.084694 -0.008008 -0.028032 0.021860 0.026187 -0.036110 0.001067 0.059596 -0.074412 -0.005810 -0.011633 0.058325 -0.091701 0.046000 0.019735 -0.025931 0.044035 -0.079621 0.060669 0.052995 -0.108140 0.090992 0.072055 0.060840 -0.030268 0.082838 -0.057143 -0.023382 -0.067824 -0.007225 0.011644 0.038039 -0.028598 0.100085 -0.124441 0.067523 0.037419 0.003292 0.088484 0.039039 -0.068925 -0.058686 -0.019593 -0.027912 0.038880 0.045231 -0.093388 -0.017300 0.058003 -0.022774 -0.118508 -0.135693 0.002257 0.062570 0.098346 -0.051969 -0.123497 0.074371 0.028514 0.018619 -0.081185 0.037944 -0.029538 0.100321 -0.024974 0.060911 -0.034141 -0.059726 0.024366 -0.112520 -0.037413 0.005800 0.020844 -0.069286 0.101151 -0.030653 -0.117580 0.084265 -0.002556 -0.081626 -0.072557 -0.072403 0.077404 -0.011710 -0.102970 0.010600 0.018859 -0.051223 -0.084151 0.108504 -0.063805 -0.044011 -0.139779 0.085033 -0.039234 0.047283 -0.011352 0.110168 0.022627 0.108700 -0.025971 0.097683 -0.015530 -0.026139 -0.018201 -0.076594 0.001278 -0.032310 0.055942 -0.038545 -0.004708 -0.003948 -0.034984 -0.065155 -0.130486 -0.033682 -0.038440 0.052472 0.016585 0.017753 -0.072645 -0.056515 0.093120 -0.010221 -0.068135 0.044614 -0.034055 0.149354 -0.048277 -0.045547 0.032746 0.028043 -0.023012 -0.008776 -0.006044 0.082903 -0.084206 0.022418 0.174566 -0.088313 -0.000089 0.103537 0.007884 -0.032149 -0.048472 -0.072155 0.106574 0.041822 -0.144602 0.037700 0.073409 0.015719 0.009804 0.040907 -0.093741 -0.027197 -0.082796 0.127523 0.009996 -0.045063 0.010902 0.176519 0.016923 0.017278 -0.040729 0.129037 -0.001096 0.007241 0.048741 -0.152077 -0.100268 0.018845 -0.004156 -0.038539 -0.123380 -0.022090 -0.088264 0.005442 -0.035949 -0.100191 0.058538 0.007665 0.057455 0.052839 -0.108646 -0.017783 0.041716 0.006957 -0.016529 -0.027330 -0.070487 -0.002728 0.025336 0.021868 0.028204 0.016534 -0.008550 -0.087851 0.090827 0.128539 -0.110487 -0.057937 0.162463 -0.029167 -0.125106 0.165679 0.052540 -0.061056 -0.147666 -0.119747 0.140298 -0.056817 -0.075368 -0.021504 0.232874 -0.043828 -0.009897 0.066652 -0.145828 -0.088702 -0.062255 0.188019 0.053242 -0.045978 0.114106 0.045603 0.109596 0.061798 -0.010143 0.193983 -0.001324 -0.041711 0.053682 -0.187801 -0.251398 -0.118877 -0.005103 -0.021447 -0.161651 -0.061366 -0.127541 0.029844 -0.042790 -0.111930 -0.002335 -0.022542 0.056581 0.079852 -0.080521 -0.087555 -0.078163 0.035739 0.093116 -0.082848 -0.015618 -0.015851 0.035108 0.005072 0.052927 0.009574 -0.245090 -0.056438 0.028262 0.081968 -0.083890 -0.004912 0.053553 -0.130973 0.011482 0.045366 -0.030458 0.023198 -0.024835 -0.044931 0.016242 -0.035523 -0.012793 0.010223 0.369293 -0.055541 -0.043417 -0.056145 -0.143714 -0.115828 -0.076373 0.264440 0.052593 -0.081699 0.103105 -0.047725 0.069234 0.071261 0.047513 0.152365 0.002658 -0.142412 0.055231 -0.127394 -0.142308 -0.043135 -0.062339 -0.050595 -0.156239 -0.129660 -0.097534 -0.069879 -0.061840 -0.050132 -0.003676 0.018904 -0.057511 -0.018248 -0.065260 -0.005197 -0.051635 -0.031145 0.017800 -0.050730 -0.052673 -0.032784 -0.078123 0.015123 0.019367 0.025410 -0.162492 0.006945 0.091018 0.099495 -0.073736 -0.004204 -0.085587 -0.123169 0.061880 -0.064182 0.021496 0.041531 -0.041286 0.011823 -0.044891 0.053287 -0.050682 0.005500 0.314017 -0.060140 -0.055889 -0.076785 -0.166725 -0.147315 -0.025456 0.160679 0.085666 -0.083935 0.033071 -0.010720 -0.035956 0.077252 0.060543 0.193707 -0.030286 -0.217275 -0.020593 -0.064421 -0.052198 -0.048657 0.026089 -0.143422 -0.094678 -0.120087 -0.100702 -0.041651 -0.013225 -0.175729 0.031913 0.030096 -0.097204 0.070661 -0.139791 0.021830 -0.139529 -0.068340 0.042524 -0.115634 -0.113276 0.096611 -0.022686 -0.116542 -0.082903 -0.051258 -0.172619 -0.030561 0.136310 -0.063737 -0.094049 -0.111407 -0.153075 0.036600 0.018199 -0.076986 0.093328 0.172512 -0.090924 0.007951 -0.291980 -0.026879 0.050955 0.068990 0.167085 -0.188865 -0.046387 -0.059870 -0.121694 -0.081948 0.033578 0.118375 0.105790 0.011714 0.018374 0.055078 -0.030577 0.002001 0.151625 0.159822 0.088204 -0.242822 0.032220 -0.064726 0.095931 -0.005600 -0.067571 -0.039875 -0.043583 -0.073557 -0.219998 -0.005062 -0.004831 -0.038500 0.010868 0.157248 -0.133857 -0.021463 -0.155936 -0.005562 -0.075506 -0.047592 0.080124 -0.066984 -0.056362 -0.003868 0.009515 -0.130681 -0.097702 -0.086972 -0.057984 -0.154182 0.107296 0.010522 -0.055426 -0.041725 -0.286001 0.094450 0.030908 -0.121663 -0.025571 -0.058643 -0.154137 0.027473 -0.224729 0.027960 -0.045715 0.080628 -0.023848 -0.093510 -0.108542 0.036345 0.006692 -0.081038 -0.007854 0.122398 0.113370 0.031033 -0.096620 0.114208 -0.031131 -0.003910 0.119659 0.158276 0.144716 -0.163038 -0.029789 -0.054000 0.199738 0.004043 -0.117579 -0.051528 -0.096653 -0.116392 -0.103458 0.089990 0.017755 -0.032264 0.015904 0.245795 -0.106884 -0.138818 -0.140310 -0.082855 -0.020058 0.009922 0.116469 -0.011286 -0.084090 0.046138 -0.016597 -0.152998 -0.048592 -0.093422 -0.026137 -0.194972 0.117325 -0.127712 0.001293 -0.010262 -0.261020 0.153870 -0.003022 -0.128909 -0.109952 -0.017652 -0.163372 -0.043027 0.060174 0.037498 -0.094081 -0.030512 -0.101306 0.104815 -0.187889 -0.016284 -0.045267 0.008047 -0.082712 0.143402 0.079741 -0.017818 -0.109145 0.063028 -0.038871 -0.033842 -0.030251 0.155307 0.137743 -0.122913 -0.063123 -0.049326 0.129719 -0.070428 -0.123676 -0.027710 -0.229663 -0.162157 -0.120807 0.037372 0.026072 0.058983 -0.062818 0.300955 -0.046397 -0.066012 -0.022669 -0.040664 0.048349 0.003952 0.023043 0.039187 -0.049343 0.017218 -0.109428 -0.065190 0.004436 -0.045191 0.009336 -0.159296 0.063570 -0.003110 0.057986 -0.164447 -0.190277 0.126147 0.028049 -0.084488 0.015224 0.006230 -0.063814 -0.029619 0.114354 -0.004312 -0.123550 -0.022329 -0.074800 0.107778 -0.091119 0.013361 -0.014721 0.023297 -0.038450 0.137350 -0.008583 0.055136 -0.023247 0.107837 0.012217 -0.029757 -0.033436 0.033752 0.010707 -0.063976 -0.064786 -0.131110 0.096568 -0.048746 0.026759 -0.035143 -0.072083 -0.074818 0.035874 0.065540 -0.020472 0.030417 -0.156790 0.178115 0.067455 0.043561 -0.040703 -0.120736 0.000239 -0.005501 0.131034 0.085333 -0.100367 -0.013166 -0.016567 0.026892 0.023599 0.032942 -0.049819 0.000127 0.015186 -0.094986 0.001548 -0.033130 -0.059325 0.088779 -0.057809 -0.103981 -0.068993 -0.089558 -0.067580 -0.049513 0.051130 0.051994 -0.026712 -0.114049 -0.069853 0.071690 -0.053492 0.078365 0.031009 -0.046659 0.007103 0.252139 0.048725 -0.055923 -0.061439 0.005616 0.075566 -0.022470 -0.058786 -0.058053 -0.038985 0.042701 -0.089316 -0.100127 0.085182 -0.103763 -0.029780 0.037138 -0.071346 0.060127 -0.038761 0.052426 0.001869 0.109544 -0.034930 0.163660 -0.002649 -0.025239 0.054986 -0.089413 0.054663 -0.049365 0.053519 0.059397 0.016504 0.038508 -0.006519 0.056824 -0.032328 0.008639 -0.015726 -0.016878 0.004537 0.085834 0.139658 0.019721 -0.025150 -0.024550 0.024510 0.037688 -0.031873 -0.091899 -0.026152 -0.003063 0.079245 0.023396 -0.002492 -0.059338 0.069606 0.013637 -0.004842 0.009701 0.014274 -0.037111 -0.082360 0.112561 0.057974 0.003226 -0.025922 -0.013260 -0.041888 -0.086117 -0.036026 -0.009983 -0.033231 0.033807 -0.016743 -0.076297 -0.025096 -0.052427 0.058049 -0.030095 -0.071578 -0.003374 -0.083010 -0.072790 0.066367 0.074621 -0.085675 0.129147 -0.069988 -0.061109 0.029650 0.017972 0.034944 0.035987 0.035804 0.080292 0.013395 0.014372 0.029807 0.084931 0.043753 0.028666 -0.043723 0.045352 0.026985 0.092063 -0.026566 -0.009492 -0.085095 -0.085589 -0.061140 -0.049761 0.024212 -0.077326 -0.014578 -0.011846 0.062381 0.058063 -0.029361 -0.102446 -0.060871 -0.053185 0.042149 -0.042798 0.051301 -0.013200 -0.087215 0.081799 -0.059714 0.064549 0.004590 0.040142 0.024601 0.044512 -0.051926 -0.112004 0.014149 0.023744 0.034534 0.013240 0.033326 0.032319 -0.095229 -0.045960 0.059059 -0.016367 0.029863 0.042433 -0.065324 -0.055465 0.019014 0.008330 -0.073639 0.019654 0.046062 0.058879 -0.068381 -0.070543 0.000702 -0.050858 -0.081518 -0.065615 0.060418 0.034744 0.083047 0.002365 0.032743 0.039774 -0.046327 0.010612 0.007495 0.046663 -0.029464 -0.002601 -0.053983 -0.046683 0.072923 0.047569 -0.071611 -0.071162 0.079277 0.071419 -0.037717 -0.081865 0.027390 -0.027709 -0.075617 0.041590 -0.039106 0.022630 0.047943 -0.024206 0.043679 0.062524 0.087726 0.040562 -0.016466 0.042252 -0.016974 -0.002896 -0.041735 0.056242 -0.013497 0.015150 -0.013677 0.012867 0.051449 -0.029300 -0.010291 0.076145 -0.009896 -0.023723 0.062811 0.058287 -0.010212 0.018415 -0.079781 -0.005128 -0.033751 -0.042446 -0.060379 -0.028868 0.002306 0.065643 -0.058909 0.001901 0.019291 0.015551 -0.043255 -0.068804 -0.078662 0.020900 -0.074313 0.007737 -0.028556 -0.009225 -0.067279 -0.062449 0.053067 0.001077 -0.062123 -0.044021 0.076591 0.072615 -0.073784 -0.015416 -0.000227 -0.075748 0.062414 0.059235 -0.027770 -0.084731 -0.059165 0.060827 0.059969 -0.021459 -0.022002 0.006598 0.051454 0.026236 0.019447 0.066051 -0.047670 0.018726 -0.016769 0.000074 -0.061328 0.005890 0.034154 0.064515 -0.069682 0.041632 -0.039627 -0.069019 0.026020 -0.037532 0.001040 -0.040963 -0.028468 -0.019887 -0.074910 0.026934 -0.006925 -0.051935 0.004809 -0.012970 -0.007756 0.068255 0.068616 -0.040597 0.008339 0.008852 -0.057028 0.052996 -0.050550 0.016492 -0.026078 -0.030643 -0.054366 -0.083229 -0.040022 -0.039433 0.042650 -0.006104 -0.025402 -0.003277 0.040218 0.052803 0.034694 -0.070632 -0.047652 0.044249 0.040029 0.024685 0.075084 -0.037525 -0.079966 -0.015993 -0.052852 0.076364 0.024675 0.040144 -0.003898 0.052296 0.008958 0.028136 -0.015380 0.064467 0.080263 0.013037 0.067029 -0.042683 0.060353 0.023799 0.036959 -0.053356 -0.058186 -0.005021 -0.084838 0.057693 0.008951 -0.046863 0.017749 -0.034640 0.061380 0.009706 0.014511 0.065552 0.076394 0.046119 0.055430 0.018116 0.003080 -0.031825 -0.012755 -0.071168 0.080234 0.056959 0.077762 0.077260 -0.014502 0.060271 -0.048742 -0.041425 0.002862 0.072442 -0.011493 0.025598 -0.015614 -0.010880 -0.001032 0.076179 0.025601 -0.066243 -0.041383 0.004053 0.027050 0.055830 -0.014193 0.019674 0.018333 -0.042945 -0.045671 -0.062049 0.008692 0.025036 -0.049755 0.005464 -0.001467 -0.055455 -0.000737 0.067492 -0.078645 0.033983 -0.057394 0.007678 0.022964 0.014575 -0.050186 -0.076112 -0.079767 0.032244 -0.083395 0.029296 0.049462 -0.041316 -0.050113 -0.006950 -0.068947 0.019155 -0.070737 0.032848 0.059672 -0.032947 0.054260 -0.015098 0.075550 -0.078956 0.073828 -0.009378 -0.050950 -0.010371 -0.025347 -0.046134 -0.059849 0.000721 0.045006 0.046576 -0.068166 0.078282 0.053926 -0.064471 0.027064 0.053993 0.048286 -0.006935 -0.070785 0.081634 0.069576 -0.056270 0.017328 0.082301 0.060039 -0.006462 -0.034107 0.030838 0.061902 -0.042018 0.035343 0.052268 0.032065 0.067855 -0.041564 -0.076744 -0.061740 -0.017952 0.007438 0.066727 -0.054837 0.022734 0.061548 0.082551 0.041724 0.005150 0.053082 0.006549 0.081676 0.065759 0.004722 0.067791 -0.073972 -0.061412 0.066631 0.069528 0.015588 -0.050938 0.016905 -0.005971 -0.009495 -0.031213 -0.037165 -0.060892 -0.046819 0.004733 -0.054174 -0.025098 0.070243 0.036725 -0.041832 -0.068055 -0.024003 -0.063745 -0.068966 -0.065740 0.024867 0.067577 0.024270 0.023081 0.049875 -0.054470 0.007411 0.059364 -0.032420 -0.009419 0.045431 0.066629 0.023104 -0.021126 -0.022803 -0.069853 0.031123 0.023493 -0.047283 0.067765 -0.055235 -0.017996 -0.040794 -0.068454 -0.064733 0.000836 -0.053048 -0.005274 0.020552 -0.038553 0.012447 -0.038043 -0.054437 -0.046745 0.068500 0.078900 -0.017753 -0.007550 0.054802 0.033288 0.066492 0.016771 0.016456 0.006134 0.079107 0.077114 0.019743 0.026768 0.017146 0.055922 0.011072 0.045372 -0.045536 0.053739 0.060379 -0.026807 -0.028886 -0.076130 0.051380 0.075127 -0.031221 -0.019634 -0.046378 -0.002196 0.017082 -0.061339 -0.006758 0.082790 0.014572 -0.035418 0.032617 -0.002397 0.064815 -0.034389 -0.079724 0.060461 -0.040736 0.023480 0.003768 0.059871 -0.004059 -0.068621 0.021781 0.033866 0.068579 -0.001301 -0.076402 -0.043769 0.006030 0.058440 -0.052103 0.058270 -0.044656 -0.015019 -0.027388 0.055888 0.007103 0.049316 0.055217 -0.061786 -0.069563 0.004373 0.019278 0.078713 0.053445 0.023015 0.055713 -0.070753 -0.036967 -0.023980 0.072580 0.042435 -0.009140 0.010024 -0.007034 -0.023450 -0.074335 -0.000395 0.015609 0.015212 -0.026392 0.047429 -0.009342 0.013924 -0.050983 0.045599 -0.013752 0.038870 0.012433 -0.042401 0.061099 0.026286 0.045657 -0.004290 0.020470 0.015798 -0.063242 -0.007078 0.028829 -0.016341 0.052973 0.017953 -0.058356 -0.040785 -0.057426 0.018622 0.020152 -0.045503 -0.065293 -0.046579 0.053146 -0.007011 0.082773 -0.039254 -0.077583 -0.053924 -0.076242 -0.008648 0.070453 0.018761 0.035022 0.048050 -0.037325 -0.003922 -0.039024 0.066093 -0.070674 -0.019303 -0.023135 0.041189 0.046270 -0.051030 -0.026108 0.071439 -0.007966 0.002685 0.005899 -0.070850 0.040680 0.024324 -0.037219 0.012984 -0.066902 -0.037450 0.054884 -0.060247 -0.004797 0.062772 0.016219 -0.020158 -0.000605 -0.033895 -0.054684 0.043774 0.045093 -0.008851 0.027294 0.057054 0.053651 -0.078469 0.016418 0.016078 -0.047698 0.072010 0.005305 0.027316 -0.009184 -0.070807 0.039162 -0.049707 0.034497 -0.081039 0.041584 0.052251 -0.034561 0.013229 0.075188 0.043816 -0.005977 0.008746 -0.057162 0.072898 0.057636 -0.029371 0.033399 0.018295 0.043794 -0.022564 -0.006752 0.016441 -0.017140 -0.074469 -0.051029 0.019253 0.078844 0.038170 -0.037104 -0.014050 0.051654 -0.082640 0.017182 0.002302 -0.079300 -0.022022 -0.030595 -0.027032 0.073509 -0.038771 -0.068896 -0.017728 0.055474 -0.042869 -0.028656 0.028541 0.011404 -0.077456 -0.036727 -0.030279 -0.017383 0.041066 0.073205 0.049575 0.048779 -0.061619 -0.013010 0.040343 0.058823 0.032937 -0.053001 0.027617 0.033529 0.046916 -0.053959 0.041144 -0.062359 0.001310 -0.074586 -0.070658 0.047683 -0.060336 -0.006193 0.019978 -0.017746 0.049934 -0.035988 0.075889 0.056907 0.010761 -0.036541 -0.046031 -0.028783 -0.047778 -0.078491 -0.061075 -0.026699 -0.007672 0.062445 -0.050147 -0.060383 -0.073605 0.060909 0.056187 0.058470 -0.079386 0.011436 0.093199 -0.008423 0.021402 -0.070505 -0.026418 0.037782 -0.003593 0.078032 -0.058942 -0.027252 -0.038561 -0.075040 -0.048008 0.049158 -0.004931 -0.026218 -0.055606 0.018756 -0.004561 -0.042878 0.063827 0.053254 -0.068530 -0.052175 0.081645 -0.040691 -0.076033 0.056160 -0.064914 -0.069079 -0.017064 -0.072633 0.020089 -0.069850 -0.062265 0.068656 0.054423 0.025481 0.072405 0.077723 0.079098 -0.085135 -0.073830 -0.061793 0.060573 0.007757 -0.007068 -0.063127 -0.063963 0.054798 -0.026654 -0.070665 0.037709 -0.014574 -0.062290 0.038320 0.036681 -0.038679 -0.006227 0.024191 -0.039972 0.072925 0.044127 0.052029 0.097843 0.035141 0.034830 0.057346 0.023309 0.007134 0.023406 -0.016039 0.026877 0.055551 0.009566 -0.001340 -0.026785 0.059422 0.021930 -0.047744 0.040906 0.074168 -0.020093 0.011379 -0.006628 0.025457 -0.054370 -0.063239 0.063944 0.084564 0.084578 -0.065198 0.071171 0.022440 0.068175 0.049708 0.006376 0.036469 0.004322 0.055302 -0.004366 -0.030467 -0.042614 -0.066595 -0.028923 0.029873 0.007723 -0.014624 0.022679 -0.002283 0.029228 0.027027 -0.047403 -0.071260 -0.067917 0.032517 0.006092 -0.046580 0.011665 0.016907 -0.030741 0.016758 0.005651 0.057156 -0.073373 0.019089 0.030537 0.000286 0.000561 -0.104785 0.007191 0.018678 0.055244 0.032923 0.015555 0.063495 -0.005034 -0.021178 0.098496 -0.064509 -0.003033 -0.025109 0.040626 0.015293 0.013413 0.032372 -0.010072 -0.009887 -0.048533 -0.065209 0.059293 -0.025678 0.040888 0.088099 0.042703 0.002580 0.004590 0.056984 -0.054510 -0.013287 -0.036441 0.041704 -0.025486 0.003953 0.026092 0.012032 0.078335 0.062458 0.127333 0.100290 -0.035470 0.011709 -0.032367 0.078233 -0.049328 -0.010274 0.030151 -0.027841 0.040505 0.070112 -0.014885 -0.063141 -0.102323 -0.056502 -0.035109 0.007211 -0.016518 -0.069211 -0.019334 0.138907 0.053303 -0.038592 0.097750 -0.004878 0.078900 0.079024 0.095092 0.087165 0.030965 0.104426 0.008749 0.082071 -0.008442 -0.104925 0.076704 -0.041717 -0.035022 -0.007106 0.008982 0.011539 -0.008892 -0.008667 -0.042260 -0.014075 -0.004401 0.004604 0.016956 0.060474 0.139595 -0.079354 0.039292 0.018192 0.077487 0.004908 -0.000405 0.043373 0.028487 -0.072910 0.121666 0.004762 0.041120 -0.028673 0.082596 0.101071 0.050451 0.020351 0.034924 0.043532 0.043325 0.089713 0.001482 -0.094432 -0.019171 0.068477 0.019509 -0.115992 -0.151395 0.086646 0.069943 0.105900 -0.100773 -0.084993 -0.012580 0.000741 -0.071651 -0.043952 0.110676 -0.033876 0.080788 -0.028897 0.149370 -0.042570 0.016294 0.059293 -0.093740 0.036711 0.024839 -0.218294 -0.038532 -0.090289 0.104727 -0.019040 -0.051830 0.045062 -0.037945 0.000481 -0.109638 -0.062563 -0.021860 0.012616 0.028899 0.013001 0.041685 -0.090197 0.050540 0.033308 -0.017869 -0.026858 -0.020842 0.046843 0.074593 -0.109255 0.076864 0.088030 -0.065777 -0.024543 0.143124 0.044612 0.126403 0.092870 -0.038736 -0.027198 0.035565 0.085190 -0.001174 -0.053345 0.102344 0.019578 0.068078 -0.105655 -0.181574 0.004075 0.122488 0.090971 -0.083040 -0.183049 0.020493 0.067915 -0.013073 0.009797 0.002970 -0.139718 0.073265 0.028317 0.190398 -0.102121 -0.060212 0.101361 -0.051973 0.126163 0.075940 -0.242004 0.016508 -0.049724 0.093845 -0.107158 0.040261 0.067119 -0.030581 0.096532 -0.109109 0.003645 -0.070270 -0.148719 0.189951 -0.052449 -0.055552 -0.043784 0.182217 0.048326 0.036339 -0.085642 0.110622 0.037696 0.077299 -0.021691 0.245502 -0.029826 -0.054179 -0.080253 0.145462 0.044126 0.099427 0.099424 -0.178898 -0.056373 0.085664 0.097400 0.060200 -0.138855 0.051143 0.027260 0.046881 -0.207720 -0.227566 0.042536 0.013000 0.147152 -0.135560 -0.128281 0.060968 0.150016 -0.040715 0.044459 0.026015 -0.053338 0.006698 0.017599 0.140345 -0.024593 0.020143 0.098906 -0.042286 0.097339 0.100358 -0.378836 0.043862 0.049511 0.048943 -0.102438 0.022078 0.049997 -0.058211 0.075569 -0.138938 0.115790 -0.097062 -0.123067 0.096218 -0.006264 0.026725 0.017789 0.115960 -0.053871 -0.025269 -0.056513 0.108136 0.099801 0.069079 -0.128915 0.192655 0.023018 -0.076972 -0.107014 0.088953 0.018460 0.151218 -0.018446 -0.129433 -0.172492 0.043012 -0.048563 -0.040470 -0.212010 0.071086 0.060896 0.069989 -0.132391 -0.159134 0.061243 -0.032554 0.167670 -0.026506 -0.162714 0.152351 0.167476 0.031543 0.103169 0.063216 0.011689 0.024231 0.077008 0.112743 -0.044015 -0.021974 0.108449 -0.199409 0.057518 0.220467 -0.462480 0.063283 0.067282 -0.045822 -0.089803 0.147705 0.060167 -0.039646 0.020099 -0.198937 0.102158 -0.096417 -0.159111 0.054393 0.166339 0.013357 0.083662 0.040502 -0.209440 -0.003758 -0.096802 0.253033 0.088796 0.062746 -0.030332 0.228333 0.235225 -0.064696 -0.191193 0.184902 -0.054663 0.178523 0.085183 -0.141197 -0.295764 -0.048648 -0.108601 -0.130118 -0.165369 -0.041597 0.044125 0.006629 -0.047828 -0.170589 0.068096 -0.054129 0.156992 0.001775 -0.287155 0.073663 0.135973 0.059904 0.119001 0.031410 0.017405 -0.095895 0.131009 0.163415 -0.005672 -0.053928 -0.056915 -0.151637 0.063790 0.251768 -0.376922 0.026180 -0.012427 -0.174933 -0.019609 0.109597 -0.009082 0.113876 -0.110392 -0.120859 0.084286 -0.000267 0.014142 0.012552 0.267480 -0.075396 0.067650 -0.076744 -0.262344 -0.030837 -0.107401 0.280956 0.140289 0.044137 0.024268 0.008097 0.191172 -0.178927 -0.168613 0.195399 -0.087078 0.183497 0.034886 -0.092855 -0.260991 -0.008866 -0.254690 -0.046039 -0.214593 -0.150683 -0.038880 -0.019444 -0.128664 -0.192182 0.082525 -0.140804 0.129771 -0.063792 -0.255277 0.026042 0.001049 0.080480 0.162456 -0.135196 0.051306 -0.018911 -0.000806 0.199874 0.045566 -0.132058 -0.147189 -0.188029 0.051734 0.165600 -0.299326 0.009074 -0.025587 -0.243060 0.074066 0.143120 0.030818 0.175358 -0.110580 -0.075901 -0.170753 -0.067688 0.218767 0.011429 0.405574 -0.049312 0.138892 -0.091204 -0.321656 -0.033139 -0.049216 0.270710 0.133696 0.025018 0.067207 -0.010625 0.137986 -0.064878 0.004928 0.210717 -0.019514 -0.045843 0.017158 -0.028681 -0.247984 -0.052876 -0.298716 -0.100247 -0.133765 -0.175525 -0.050187 0.001715 -0.080659 -0.155251 0.085311 -0.048595 -0.017431 -0.100789 -0.284472 0.110133 -0.229681 0.001191 0.168237 -0.203616 -0.011082 0.069762 -0.020489 0.102984 -0.017739 -0.273487 -0.133832 -0.171367 0.067864 0.115331 -0.242820 -0.071718 -0.187047 -0.186387 0.192923 -0.061233 0.131858 0.218986 -0.139918 0.025809 -0.443194 -0.112741 0.187410 0.076475 0.362443 -0.107251 0.128685 -0.082674 -0.278765 -0.105060 -0.000759 0.102780 0.195512 0.043077 0.103396 -0.102072 -0.027008 -0.058042 0.119813 0.174137 0.135291 -0.135985 -0.009893 -0.025307 -0.133354 -0.101677 -0.304253 0.009179 -0.156608 -0.139574 -0.143692 -0.065354 0.029002 -0.152228 0.069233 0.135484 -0.226247 -0.186454 -0.317299 0.198847 -0.263733 -0.013023 0.182836 -0.150541 -0.001506 0.077867 0.060755 0.047646 -0.054482 -0.260213 0.103206 -0.311442 -0.002124 0.025957 -0.153534 -0.053794 -0.256579 0.045672 0.153785 -0.162726 0.050384 0.210434 -0.143249 0.117350 -0.399918 -0.005639 0.107592 0.155153 0.045649 -0.012890 0.113595 -0.044957 -0.155456 -0.108095 0.010450 0.070078 0.230346 0.126317 -0.068995 -0.049628 -0.189779 -0.103867 0.160018 0.135571 0.146044 -0.192188 -0.050381 -0.078672 0.108324 -0.086894 -0.276636 0.078766 -0.099670 -0.236524 -0.132933 -0.059626 0.009516 -0.042442 0.031192 0.309949 -0.190194 -0.237570 -0.317191 0.184598 -0.289093 0.079144 0.144355 0.050102 -0.196328 0.076865 -0.086322 -0.146399 -0.226959 -0.343875 0.159024 -0.306873 -0.025774 -0.089754 -0.109214 0.016006 -0.240951 0.153662 0.094047 -0.114746 -0.094184 0.028596 -0.221625 0.114507 -0.188306 0.018302 0.015927 0.083332 -0.213091 0.061197 0.053218 0.027309 -0.100733 -0.063145 0.025586 0.103969 0.137386 0.186485 -0.181100 -0.002785 -0.149666 -0.073270 0.072037 0.156773 0.204738 -0.126046 -0.138710 -0.150546 0.186533 -0.175620 -0.222795 0.136043 -0.136062 -0.163165 -0.079951 -0.034313 0.129347 0.010576 -0.067175 0.507257 -0.081488 -0.268771 -0.131153 0.128345 -0.171194 0.135716 0.087503 0.100909 -0.119431 -0.018121 -0.131759 -0.106951 -0.115617 -0.346151 0.121760 -0.226629 -0.034063 -0.045799 -0.093296 0.031365 -0.159602 0.100188 -0.000511 -0.106771 -0.173221 0.013617 -0.268657 0.055535 0.034320 0.148203 -0.026505 -0.053390 -0.398406 0.101006 0.028637 -0.006698 -0.107230 -0.000898 -0.017984 0.222394 0.149647 0.135613 -0.189783 -0.013998 -0.029741 0.024478 -0.036763 0.044375 0.009244 -0.098885 -0.127250 -0.280170 0.190152 -0.276650 -0.176387 -0.018088 -0.158618 -0.134468 -0.002998 0.062111 0.025004 -0.010947 -0.084136 0.575093 0.010092 -0.317725 -0.019734 0.028702 -0.131159 0.132258 0.114751 0.177100 -0.150847 -0.048667 -0.066289 -0.047843 -0.088856 -0.141491 0.137507 -0.125224 0.094091 -0.101986 0.019510 -0.013067 -0.054108 -0.005270 -0.011616 -0.151938 -0.186781 -0.054411 -0.215315 0.020553 0.240405 0.208933 0.061214 -0.128071 -0.371984 0.156357 0.055865 0.080296 -0.006618 0.023778 -0.079003 0.185947 -0.049917 0.002488 0.016655 -0.103738 0.017630 -0.083979 -0.166512 0.030612 -0.028970 0.050525 -0.196866 -0.235035 0.127562 -0.189905 -0.199202 0.009475 -0.178031 -0.082864 0.001878 -0.054230 0.083927 -0.022656 -0.106375 0.450097 0.037157 -0.203465 0.044963 -0.019020 -0.152361 0.029489 0.142719 0.303013 -0.112915 -0.081681 -0.084739 0.078107 -0.047834 -0.050329 0.007824 -0.089489 0.087401 -0.003942 0.185944 0.053754 0.063039 -0.015444 -0.002360 -0.153304 -0.085002 -0.035288 -0.077493 -0.139978 0.230982 0.162949 0.120989 -0.158853 -0.150375 0.141433 0.078704 -0.052728 -0.029700 0.096972 -0.032746 0.249508 0.028144 -0.052729 0.027467 -0.087524 0.039025 -0.083476 -0.166291 -0.046833 -0.017202 0.084677 -0.106063 -0.161506 0.065094 -0.100994 -0.202756 -0.013547 -0.078762 0.031003 -0.009079 -0.049809 0.034999 -0.027172 -0.072187 0.299638 -0.042687 -0.134497 0.093323 -0.016852 -0.135363 -0.005216 0.118838 0.165567 -0.102105 -0.066118 -0.109719 0.105994 -0.068386 -0.020757 0.060888 -0.115253 0.089295 0.072761 0.144752 -0.098505 0.031709 -0.112222 -0.045184 -0.056269 -0.076097 0.056817 -0.019590 -0.018310 0.100447 0.099337 0.090816 -0.149655 -0.013527 0.103460 -0.012152 -0.039433 -0.038409 0.075989 -0.099761 0.178408 -0.034047 -0.100562 0.087198 -0.100286 -0.059980 -0.015028 -0.181365 -0.145160 0.009482 0.038594 -0.130085 -0.073765 0.042930 0.004017 -0.044803 0.033980 -0.091239 -0.002841 -0.026037 0.008732 -0.056873 -0.105338 -0.032703 0.099114 -0.036666 -0.165162 0.029888 -0.032600 -0.127278 -0.087107 0.022289 0.078204 -0.046690 -0.068383 -0.026172 0.078316 -0.134080 0.059800 -0.017747 -0.030619 0.026828 -0.036155 0.015184 -0.054699 0.067405 0.031867 -0.049643 -0.023536 0.004858 0.020943 -0.046241 0.016255 0.107239 -0.015104 0.107799 0.013365 0.057206 0.069472 0.025087 0.035367 -0.051933 0.055158 -0.048774 0.190424 -0.040258 0.007242 0.069591 -0.079026 0.032608 -0.089195 -0.082444 -0.083556 -0.023668 0.080323 -0.090228 -0.103133 -0.017755 -0.070029 -0.038060 0.035181 -0.024482 0.034300 0.026209 -0.037531 -0.071386 -0.004835 -0.057396 0.126604 -0.007480 -0.162529 0.044402 -0.102120 0.022562 -0.093241 -0.024043 0.097945 -0.058675 0.000866 0.059395 0.068946 0.013340 0.001692 -0.029365 -0.071613 0.070624 0.039641 0.001608 -0.056494 0.064289 0.006112 -0.025818 0.012910 0.006090 0.058511 -0.035456 -0.029676 0.000265 -0.013402 -0.024643 -0.042517 -0.004306 -0.044209 -0.000707 -0.049937 -0.061107 0.001975 -0.060209 0.033966 -0.056940 -0.063745 0.020972 0.065790 0.017531 0.039225 -0.107541 -0.029719 -0.010423 -0.023565 0.043697 -0.042352 0.065645 0.035936 0.057642 -0.030037 0.039383 0.080303 0.031875 -0.042031 -0.019528 0.081907 0.040109 0.056027 0.034431 -0.067916 -0.067816 -0.047428 0.054831 -0.018611 0.031907 0.066640 0.005037 0.079172 0.040610 -0.015356 0.030453 0.053758 0.036916 -0.028699 -0.046268 0.018864 0.029723 -0.085074 0.008898 -0.008356 0.002152 -0.009170 0.027825 -0.070281 0.044669 0.054906 -0.079209 -0.024630 0.051514 -0.083937 0.021446 0.086064 -0.041318 -0.030550 -0.028207 0.046904 -0.042126 0.097774 0.047452 -0.054405 -0.018265 0.017602 -0.070432 0.072905 0.054254 -0.066269 -0.003115 0.012905 -0.022768 -0.063711 -0.084726 0.028327 -0.006659 0.012920 0.063141 -0.042430 -0.005555 -0.099169 0.025252 -0.029855 -0.053231 -0.029586 -0.065064 -0.045103 0.020190 0.015613 -0.062696 0.063340 -0.015507 0.078705 -0.056237 0.027951 0.014462 -0.038589 0.026063 -0.006921 -0.005968 -0.033361 -0.072377 0.056952 -0.011534 -0.069380 0.028383 0.074073 0.033283 0.016018 -0.052180 -0.052230 0.031961 0.048271 -0.007270 0.034511 -0.081605 0.025383 -0.082441 0.033876 -0.052475 -0.063702 0.015380 0.015686 -0.067337 0.042690 -0.026798 0.036028 0.083640 0.083651 -0.051677 -0.012918 -0.039345 -0.046604 -0.039189 0.036794 -0.032063 0.075330 0.021294 -0.082775 0.010595 0.047919 -0.052976 -0.040786 0.018790 0.019883 0.076904 0.025944 -0.027029 0.082185 -0.038010 -0.003582 -0.061172 0.068884 -0.052068 -0.042058 0.017474 -0.001194 0.075938 0.017756 -0.003733 -0.060510 -0.073937 0.038626 -0.023379 -0.023597 -0.006712 0.036446 -0.029793 -0.070819 0.035902 0.061962 0.068475 0.069073 -0.061592 0.002685 0.017554 -0.067638 -0.058845 0.068188 -0.068095 -0.005929 -0.015134 -0.047492 -0.021928 0.011441 -0.008716 -0.083038 -0.072819 -0.016332 0.019422 0.006631 0.007322 0.028891 -0.035554 0.062302 -0.080405 0.038251 0.013650 -0.027726 0.051047 -0.040016 -0.050161 0.036480 -0.052543 -0.028535 -0.043477 0.047328 -0.012015 -0.018146 0.029474 0.003833 0.069201 -0.064774 0.036111 -0.043146 0.031003 -0.049244 -0.038858 0.039760 0.008822 0.061334 -0.037287 -0.066305 0.006603 0.009570 0.082237 0.010237 -0.036540 0.011828 0.064936 -0.067421 0.058735 -0.066531 0.053700 -0.075886 -0.009509 -0.071535 0.053829 0.064500 -0.002384 0.001577 -0.014863 -0.023145 0.018902 -0.059213 0.017011 -0.034555 -0.028225 0.058632 -0.078018 0.067928 0.036504 -0.031843 -0.081838 -0.040354 0.061189 -0.083063 0.053345 -0.058813 0.012226 0.034819 -0.042773 -0.012500 0.051750 -0.072535 -0.004924 -0.041221 -0.060608 -0.034557 -0.060182 0.020470 0.050482 0.008416 0.080787 -0.014078 0.032664 0.014336 0.034829 -0.079022 -0.010493 0.040273 0.072368 -0.057451 -0.075032 0.073991 -0.014343 0.069618 0.074389 -0.044460 -0.072657 0.003154 0.073821 -0.031968 0.074115 0.042110 -0.021041 -0.014270 -0.082572 0.001813 0.034634 -0.059293 -0.061179 0.001654 0.032585 -0.063854 0.071038 -0.018212 0.033944 0.022406 -0.013773 -0.060011 -0.020783 -0.024867 -0.034000 -0.012353 -0.034337 0.035118 -0.026197 -0.043410 0.074119 -0.015392 0.043206 0.064479 0.036102 0.033859 0.023127 -0.068401 -0.063873 0.024016 0.016873 0.054223 0.048184 0.039155 -0.027585 -0.002693 0.058763 -0.040008 0.062556 0.009245 0.065859 -0.034678 0.032696 -0.038385 0.023917 0.082157 0.032723 0.073041 0.033814 -0.076669 -0.053725 0.024718 -0.008743 0.072984 0.005188 -0.056437 0.023783 -0.054811 -0.041152 0.043090 0.052741 0.059052 0.014819 0.017554 0.014854 0.069300 -0.069141 -0.010070 -0.055173 0.076968 0.082830 -0.071597 -0.040508 0.031421 -0.026654 0.066294 0.031012 -0.077249 0.055832 -0.018978 -0.070604 -0.081736 -0.077835 0.004319 0.074441 0.010928 0.030917 0.014877 0.039997 0.073415 -0.026229 0.009136 0.049118 0.071513 -0.057005 -0.019571 0.056487 -0.042628 0.054141 -0.080931 -0.048432 0.053926 -0.068068 -0.006008 0.002867 -0.011381 -0.023874 -0.050515 -0.004729 -0.051864 0.015456 0.007876 -0.048496 0.019575 -0.072279 -0.057019 -0.052545 0.043454 0.041641 0.070425 0.033728 -0.068394 -0.004261 -0.000734 -0.080112 0.023207 0.063292 0.060837 0.062629 0.032687 0.064024 -0.068357 0.002396 0.078887 0.007775 -0.078987 -0.016470 0.067940 -0.045868 0.062417 -0.065439 0.051759 -0.014407 -0.029953 -0.011642 -0.003341 -0.004295 0.018298 -0.043178 -0.046439 0.005740 0.073155 -0.031134 -0.081913 -0.013612 -0.027631 0.024589 -0.035177 -0.050817 0.003543 0.080077 -0.070189 0.017668 -0.000490 -0.074995 -0.056575 0.004999 -0.007527 -0.071548 0.042450 -0.028967 -0.054095 0.010360 0.040569 -0.001411 0.081902 -0.045910 0.079642 0.018934 -0.002905 -0.052964 -0.058724 -0.016367 0.001208 -0.055973 0.050900 0.058919 0.053954 -0.069610 -0.075171 -0.030825 -0.070964 -0.062444 0.073941 0.014604 -0.054668 -0.068387 -0.068666 0.019805 -0.056244 0.063992 0.071519 -0.026281 -0.009286 0.032695 0.055822 -0.011883 0.070092 0.048296 -0.080183 -0.017404 0.085017 -0.054309 0.044265 -0.006244 -0.026452 0.018657 -0.031507 -0.061105 0.034528 -0.023338 -0.004547 0.051872 -0.001688 -0.017804 -0.020305 0.027453 -0.001112 -0.000440 -0.037778 0.025384 -0.026065 -0.047448 -0.086216 0.050726 0.066303 0.059074 -0.048188 0.060872 0.030022 -0.043756 -0.043096 0.017686 0.001495 -0.076206 -0.054714 0.048654 0.012342 -0.001668 0.066524 -0.031055 0.056597 -0.033653 -0.053218 -0.041035 0.041376 -0.003704 0.067104 -0.053617 0.064948 -0.032537 0.053393 -0.031504 -0.018598 0.078582 -0.067327 -0.021214 0.060725 -0.028250 -0.038737 -0.011877 0.023370 0.002309 -0.079948 0.089928 0.009126 -0.060392 0.040003 -0.074603 0.009233 0.023894 -0.016740 -0.022963 0.082817 0.003562 0.037313 0.039133 -0.075536 0.030324 0.078689 0.081269 0.065297 0.072769 -0.031359 -0.027233 0.025836 -0.006371 0.045573 0.004786 0.029700 0.076496 0.073081 -0.032711 -0.000629 0.060184 -0.030838 0.029152 -0.041037 -0.065766 -0.015923 0.030887 0.004030 0.006533 -0.047946 0.026171 0.098289 0.023903 -0.001476 -0.076000 0.037789 -0.039083 0.070722 -0.025171 -0.069736 0.010380 0.043866 0.065204 0.044868 0.027065 -0.014117 -0.002009 0.046200 -0.045619 0.067505 -0.061539 -0.026694 0.034464 0.050867 -0.003179 -0.039293 0.082098 -0.054724 0.088822 -0.026942 -0.030348 0.056939 -0.034541 -0.037223 -0.069698 0.004899 0.070583 -0.004715 0.011383 0.002039 0.011190 0.046045 -0.041987 0.014653 -0.033688 -0.040973 0.076268 -0.074617 -0.058299 -0.061920 0.094898 -0.066099 0.018404 -0.076030 -0.099641 -0.034816 -0.094271 -0.034278 -0.040976 0.058486 -0.016536 -0.038872 -0.087984 0.086258 0.062460 -0.025194 -0.086206 0.052424 0.027552 -0.002396 0.022209 0.048753 -0.041841 -0.007767 0.047022 0.052179 -0.012916 -0.055042 0.048872 0.013752 -0.007444 0.134590 0.002015 0.011510 0.056133 0.044606 0.062554 -0.052678 0.062847 0.028482 0.017890 -0.007941 0.003756 0.029309 -0.001809 0.114580 -0.031996 0.057118 0.003472 -0.006677 0.019522 0.059215 -0.021412 0.012945 0.079080 0.018351 0.007070 -0.004909 -0.027518 -0.119836 0.065411 0.008447 0.072797 -0.054826 0.021423 0.057548 0.055855 0.055974 -0.104388 0.027304 -0.140918 0.089810 0.047548 0.248991 -0.064367 -0.128624 0.085347 0.014943 0.059312 0.067752 -0.123397 0.024022 -0.011929 -0.070840 -0.067230 -0.071648 -0.034703 -0.068156 0.098467 0.002193 -0.009846 -0.019531 0.033077 -0.046766 -0.013720 0.085186 -0.149442 0.056582 -0.033843 0.023177 0.163084 -0.002750 -0.056094 0.005487 -0.026311 0.051461 0.016376 0.116950 0.038584 0.126361 -0.069862 -0.028274 0.046343 0.113113 0.025977 0.027563 0.098101 0.068959 0.016912 0.004477 0.054578 -0.036566 -0.029145 -0.137026 0.052261 0.057681 -0.037081 -0.090392 -0.012807 0.051119 0.109193 0.056942 -0.147859 0.046492 -0.205314 0.029201 0.060247 0.369715 -0.066932 -0.160221 -0.010138 0.172582 0.028731 0.103647 -0.186352 0.038978 -0.040169 -0.013566 -0.105432 -0.036343 -0.017013 -0.060349 0.160156 -0.034217 0.007672 -0.008315 -0.041042 0.083736 0.024115 0.049068 -0.182154 0.092794 0.015564 0.046432 0.153508 -0.092484 -0.000615 -0.023273 -0.098936 0.003776 0.039624 -0.009747 0.032035 0.131904 -0.079763 0.046067 0.018931 0.136206 0.026802 0.176115 0.119436 0.152786 -0.057557 0.109295 0.090540 0.037293 -0.156700 -0.170770 0.088989 0.064738 0.032534 -0.151413 -0.005563 0.052880 0.251791 0.015531 -0.025725 0.070617 -0.201832 0.104199 0.001052 0.366255 -0.134379 -0.200195 0.080729 0.184387 0.008198 0.102817 -0.373788 0.058237 -0.052619 0.044219 -0.106527 -0.091891 0.019489 -0.065118 0.206431 -0.195486 -0.069615 -0.041337 -0.038041 0.164319 -0.063849 0.000531 -0.127027 0.105707 -0.020677 0.086943 0.094713 -0.109623 -0.038059 0.039360 -0.119050 0.154394 0.103334 -0.080073 -0.056385 0.082596 0.017357 0.113681 -0.032587 0.035356 -0.003526 0.227424 0.122551 0.073349 -0.089210 0.158239 0.114766 0.185481 -0.138103 -0.268192 0.161730 0.046645 0.116741 -0.211885 -0.085104 0.103879 0.321334 0.122905 0.008396 0.025988 -0.184690 0.164083 -0.004753 0.360886 -0.171021 -0.112617 0.096634 0.146433 0.028033 0.161299 -0.405030 0.109987 -0.039344 0.080155 -0.106379 -0.063619 0.048165 -0.065806 0.217478 -0.244468 0.001918 -0.119573 -0.210564 0.215459 -0.090515 -0.145574 -0.033648 0.131555 -0.147142 -0.002331 0.002324 -0.107210 -0.019596 -0.046653 -0.140699 0.295125 0.133188 -0.135839 -0.067286 0.073129 0.041498 0.160851 -0.091673 -0.014234 -0.195258 0.124400 0.107479 0.022353 -0.165309 0.132572 0.118001 0.113481 -0.029609 -0.302578 0.074751 0.046999 0.093768 -0.052427 -0.047643 0.129814 0.339881 0.110668 0.129092 0.057342 -0.172894 0.076061 0.025461 0.244470 -0.114302 -0.111314 0.163469 0.142936 -0.142339 0.161941 -0.378456 0.039508 0.105498 0.033001 -0.082105 0.107724 -0.080709 0.013563 0.125340 -0.248853 -0.028720 -0.095205 -0.199959 0.163669 -0.064740 -0.162625 0.107853 0.026933 -0.175659 0.045935 -0.064208 0.036960 -0.078081 -0.054231 -0.131349 0.181345 0.196637 -0.133976 -0.095722 0.064622 -0.010897 0.255740 -0.034732 0.006960 -0.300928 0.190757 -0.139397 -0.141922 -0.352181 0.080954 0.086209 0.083712 0.028296 -0.194357 0.104873 -0.049873 0.049025 -0.005082 -0.052039 0.095575 0.209609 0.147190 0.255036 0.043960 -0.061920 -0.049481 0.016337 0.256485 -0.008658 -0.144636 0.020370 0.150362 -0.222491 0.115861 -0.307610 -0.060877 0.056559 -0.086785 -0.007799 0.088656 -0.068372 0.103078 0.005724 -0.171733 0.054012 -0.107919 -0.098110 0.127889 0.060477 -0.124562 0.084246 -0.049188 -0.239442 0.000996 -0.088405 0.106474 -0.122603 -0.040346 -0.117150 0.007359 0.239455 -0.220423 -0.090233 0.047442 -0.032034 0.199028 -0.049467 0.078420 -0.418676 0.203183 -0.354653 -0.243224 -0.348837 0.062662 0.000210 0.021060 0.240688 -0.190506 0.104446 -0.179815 -0.005901 -0.079129 -0.025756 0.049912 0.108166 0.135593 0.266322 -0.035382 -0.091389 -0.145296 -0.004271 0.238412 0.069725 -0.157708 -0.042677 0.096874 -0.231331 0.191339 -0.206694 0.033558 0.045813 -0.161176 0.166947 -0.000788 -0.090743 0.204437 -0.011414 -0.047490 -0.105027 -0.169597 0.020940 0.135079 0.208341 -0.134466 0.135461 -0.144942 -0.153336 0.041259 -0.039069 0.068091 0.016563 -0.012334 -0.020092 -0.044923 0.167337 -0.100682 0.033368 0.011913 0.048344 0.106564 -0.029210 0.152466 -0.385813 0.178981 -0.399621 -0.293665 -0.274097 0.016920 -0.057257 -0.084061 0.161268 -0.245229 0.141370 -0.167445 -0.098772 0.028939 -0.107508 0.048864 0.006508 0.091894 0.145778 -0.028728 -0.011884 -0.072550 0.011817 0.146845 0.015179 -0.282187 -0.053776 -0.041566 -0.151748 0.102385 -0.072163 0.050581 -0.113687 -0.220469 0.150220 -0.160154 -0.043626 0.281346 -0.021451 0.039629 -0.463025 -0.330622 0.100760 0.114097 0.140790 -0.116047 0.060397 -0.170952 -0.187473 0.010637 0.012620 -0.085254 0.087837 0.010529 0.009287 -0.109619 0.011026 -0.011235 0.210693 0.051941 0.201389 0.062610 -0.065179 0.203271 -0.238311 0.105346 -0.482983 -0.172327 -0.162797 -0.006650 0.004302 -0.129221 0.116433 -0.220064 0.133154 -0.137167 -0.189074 -0.009750 -0.039252 0.025124 -0.167484 -0.014228 0.124828 -0.109747 0.050873 0.007627 0.006815 0.098358 -0.075090 -0.285946 -0.067843 -0.161728 -0.094153 -0.030063 -0.050938 -0.040580 -0.246508 -0.086180 0.166932 -0.161051 -0.033921 0.225052 -0.057719 0.158787 -0.565653 -0.466133 0.012025 0.087775 0.019095 -0.090424 0.050097 -0.138054 0.006427 -0.019168 0.027544 -0.111164 0.134083 -0.019669 -0.044781 -0.086923 -0.112621 0.023728 0.265084 0.129815 0.324426 0.036344 -0.109747 0.089549 0.002973 -0.058952 -0.326806 -0.067523 -0.112259 -0.160164 0.012360 -0.083304 0.103156 -0.150480 0.079142 -0.010497 -0.166694 0.046858 -0.058338 0.011977 -0.159282 0.060191 0.118836 -0.098325 0.080402 0.103787 -0.009780 0.004206 0.011600 -0.362562 0.056997 -0.362387 -0.130994 -0.035794 0.099984 0.119184 -0.298745 0.005845 0.033561 -0.201732 -0.012174 0.182565 -0.274383 0.182361 -0.313314 -0.523812 0.012750 0.107685 -0.151320 -0.066561 0.001364 -0.024715 0.120437 -0.060324 0.010175 -0.145081 0.148890 0.038987 -0.197699 -0.099653 -0.180939 0.086162 0.117783 0.115958 0.151633 0.063187 -0.081125 -0.001838 0.005577 -0.295723 -0.230036 0.032718 -0.221273 -0.287250 0.042456 -0.062239 0.115208 -0.043458 0.062215 0.059461 -0.101300 -0.087144 -0.055838 -0.048203 -0.154421 0.165891 0.051877 0.074969 -0.045624 0.027124 0.132426 -0.012404 0.072295 -0.438541 0.250368 -0.229400 -0.075072 -0.014977 0.159614 0.062747 -0.195387 0.116124 -0.015256 -0.002224 0.008565 0.016375 -0.374952 0.060368 0.019552 -0.345869 -0.046801 -0.062896 -0.244343 0.087031 0.016749 0.039885 0.077174 -0.010299 0.005312 -0.156046 0.165480 -0.055545 -0.334864 -0.174712 -0.114902 0.097457 -0.024294 0.104427 0.027140 0.076670 -0.160667 -0.191371 0.020134 -0.445475 -0.181990 0.041326 -0.192476 -0.394609 0.067458 0.003065 -0.071560 0.016682 0.011601 0.251695 -0.028849 -0.046735 -0.041563 -0.087807 -0.126175 0.181184 0.113372 0.243777 -0.029680 -0.005888 0.109103 0.031915 0.057924 -0.194868 0.257873 -0.022430 -0.102853 0.045115 0.121884 0.036997 -0.109507 0.108889 -0.114023 -0.016685 0.090692 -0.082688 -0.365594 -0.063842 0.154991 -0.152634 0.051467 -0.020424 -0.226040 0.075684 0.008192 0.130945 -0.003289 -0.017106 -0.034759 -0.038663 0.071507 -0.015439 -0.271926 -0.233901 -0.084500 0.095741 -0.141955 -0.046096 -0.113250 0.077400 -0.313121 -0.257421 0.149660 -0.411423 -0.243968 0.095703 -0.111400 -0.241027 0.124655 -0.065065 -0.069471 0.041762 0.013321 0.336797 -0.062352 -0.090902 0.009816 -0.149681 -0.150762 0.113706 0.147350 0.437508 -0.086968 0.011826 0.041758 0.081068 0.000861 -0.078171 0.249350 0.165476 -0.073104 -0.003833 0.121091 -0.006713 0.076514 -0.028370 -0.064222 -0.126087 0.115157 -0.122072 -0.254960 -0.234416 0.276524 0.088838 0.207559 -0.084289 -0.265993 -0.000884 0.167830 0.029974 -0.084213 0.004359 -0.042522 0.076670 -0.107334 -0.050224 -0.016506 -0.309299 -0.060124 0.078373 -0.120291 -0.184128 -0.119830 -0.043430 -0.371198 -0.302107 0.269683 -0.294135 -0.189237 0.046664 -0.022883 -0.068262 0.154113 -0.174190 -0.079963 -0.127515 -0.018321 0.284087 -0.157934 -0.090157 0.014055 -0.080825 -0.136144 0.023599 0.185985 0.501323 -0.140789 0.015660 -0.058665 0.011365 -0.077120 -0.012742 0.090333 0.139366 0.059721 0.006719 0.099978 -0.030937 0.127181 -0.127727 -0.095391 -0.094210 0.139212 -0.147576 -0.093999 -0.266996 0.279875 0.132362 0.323223 -0.065198 -0.237572 0.036722 0.273467 -0.096029 -0.163147 0.003785 -0.075768 0.045518 -0.090419 -0.063312 0.193639 -0.172539 -0.032970 0.022138 0.005514 -0.281843 -0.088217 -0.093320 -0.293779 -0.119378 0.291369 -0.078354 -0.097534 0.088706 0.022834 0.039270 0.152068 -0.199426 0.036875 -0.241908 0.110728 0.174799 -0.198114 -0.090078 0.009661 -0.076792 -0.223992 -0.164966 0.141429 0.401564 -0.165098 -0.016743 -0.088442 0.034890 -0.154456 0.037819 -0.068287 -0.054741 0.159023 -0.024555 0.149166 -0.051213 0.234545 -0.143057 -0.076999 -0.031812 0.112211 -0.066200 0.042669 -0.210389 0.239375 0.130089 0.152476 -0.091193 -0.231684 0.075457 0.201817 -0.150262 -0.005524 0.033976 -0.103381 0.119559 -0.117126 -0.081603 0.217271 -0.167598 -0.053933 -0.025304 0.080510 -0.209572 -0.018942 -0.027162 -0.201071 -0.052581 0.222627 -0.056484 0.012744 0.084235 0.019957 -0.003716 0.140693 -0.198630 0.134039 -0.256021 0.164048 0.105175 -0.214488 -0.193829 0.019342 -0.018586 -0.148767 -0.151715 0.119283 0.166998 -0.064403 -0.042005 -0.133303 0.035255 -0.075290 0.031908 -0.001872 -0.139854 0.181990 0.006486 0.093861 -0.056859 0.152598 -0.152810 -0.033796 0.058500 0.016355 -0.114807 0.109979 -0.029699 0.141115 0.016500 0.100602 0.016155 -0.113382 0.110672 0.029626 -0.137848 0.015647 -0.084000 -0.037637 0.047219 0.014726 -0.076584 0.187102 0.004786 0.021372 -0.045318 0.065513 -0.145405 -0.014391 0.090619 -0.071986 0.012299 0.038994 0.075215 0.038604 0.028084 -0.055639 -0.097991 -0.004882 -0.073031 0.157081 -0.135253 0.141586 -0.052580 -0.167817 -0.181339 -0.056166 0.015156 -0.126071 -0.121898 0.014222 0.024388 0.049190 -0.024643 -0.143627 -0.040513 -0.049835 -0.039830 -0.007395 -0.014627 0.060618 -0.003471 0.035042 -0.058541 0.090853 -0.078681 -0.037444 0.013171 0.016410 -0.088043 0.073475 0.032303 0.022161 -0.047796 0.021469 0.014888 -0.032977 0.037813 0.050618 -0.072446 0.100883 -0.053262 -0.005758 0.054091 -0.032341 -0.120003 0.057899 0.039868 -0.022594 0.047193 0.018418 0.015111 -0.039411 0.101603 -0.048360 0.060191 -0.013022 -0.023193 0.089675 0.027955 -0.022474 -0.030012 -0.024876 -0.013958 0.070706 -0.029434 0.153161 -0.042217 -0.185499 -0.157097 0.029909 0.141832 0.047787 -0.103418 0.031650 -0.048813 0.016224 -0.084927 0.082605 0.052428 -0.112660 0.018373 -0.031813 0.004665 0.049142 0.027632 -0.019831 0.010332 0.109569 0.025909 -0.025073 0.014127 -0.061450 -0.068753 0.069310 0.094837 0.077454 -0.044831 -0.074279 0.079747 0.048067 0.074857 0.052855 -0.017994 -0.014268 -0.011105 0.008232 0.115608 -0.043994 0.056148 0.093431 -0.057459 -0.021638 0.014189 0.042184 0.016909 -0.038493 0.074149 -0.039804 -0.009680 0.045073 0.001542 0.023937 0.061103 0.024980 -0.007997 0.012086 0.053888 0.085376 -0.013767 0.086409 0.026678 -0.023196 -0.052209 0.022524 0.095371 0.000283 -0.080212 0.033901 0.014427 0.068712 0.035021 0.047329 -0.032510 -0.056776 0.010624 0.065433 -0.019171 0.007640 -0.046750 0.008396 -0.074443 0.053478 -0.063342 0.063946 0.048463 0.001193 -0.030662 0.025910 -0.007205 -0.089802 -0.042339 -0.072935 -0.008502 -0.076523 0.014523 -0.045928 -0.012771 0.037763 0.050252 -0.076478 0.033243 0.038925 0.072379 0.069264 0.062918 0.001441 0.044046 -0.037561 0.042599 -0.057623 0.040097 0.054977 -0.064037 0.045343 0.031130 0.038292 -0.034315 -0.079357 -0.032152 0.029002 -0.066940 0.030475 0.047555 0.035611 0.020619 -0.041845 0.024684 -0.038040 -0.061670 0.049768 -0.036825 -0.002398 -0.022286 -0.047126 0.019953 -0.045597 0.035556 -0.003693 -0.007370 0.022310 0.023098 -0.055753 0.001339 0.025891 0.076833 -0.040792 -0.016313 -0.034624 -0.013131 0.037883 0.068165 0.008050 -0.026063 0.030336 -0.065199 0.078417 0.081410 0.071101 -0.042106 0.097939 0.017341 0.004344 0.017323 0.069553 0.044261 -0.050093 -0.059559 0.011557 0.042194 0.024624 -0.063827 -0.020140 0.054385 0.029913 -0.062286 0.049719 0.067427 -0.012291 -0.057590 -0.023290 -0.057547 -0.065691 0.067066 0.009691 0.037964 -0.072693 0.001299 0.049447 0.077280 0.044129 0.035899 0.012959 -0.039938 -0.013184 0.004232 -0.075861 0.026618 0.035437 0.023994 -0.018110 -0.023702 0.044761 0.047526 -0.054382 -0.017956 0.057051 0.077843 -0.033882 -0.030148 -0.069713 0.021021 0.000465 -0.058211 0.006274 -0.080462 0.072542 0.014170 0.004255 0.035016 0.008695 -0.038562 -0.004520 -0.061646 0.013130 0.064401 0.027080 0.026869 0.007505 -0.019186 -0.033678 0.074928 0.042204 -0.071924 0.037848 0.068996 -0.007049 0.011982 0.065681 0.048460 0.064389 0.080135 -0.015550 -0.017101 -0.058154 0.072024 -0.013062 -0.068938 0.004716 0.072704 0.051084 -0.070969 -0.047636 -0.037633 -0.046898 0.044815 -0.054007 0.062811 -0.010997 0.037440 -0.038839 0.040448 0.026347 -0.080544 0.051944 -0.019679 0.072474 -0.036430 0.075319 0.054722 -0.074024 0.056795 0.051433 -0.007111 -0.044636 0.075110 -0.018253 0.024063 -0.077091 0.069623 0.014674 0.057224 -0.083014 0.049825 -0.062982 -0.046898 0.011735 -0.034862 -0.066501 -0.082190 -0.082161 -0.021408 0.041719 0.027647 -0.018490 0.010201 -0.075493 -0.029478 0.057233 0.083287 -0.058217 0.066670 0.056621 0.076677 -0.023902 -0.071476 0.068325 0.041306 0.036048 0.074696 0.027467 -0.032740 0.048458 0.027914 -0.066376 0.068938 0.064478 0.028821 -0.049385 0.081439 0.030092 -0.048085 -0.023430 -0.011651 0.063024 0.041541 0.082011 0.070992 -0.071399 0.055782 0.070818 -0.046155 0.038991 0.043978 -0.052939 -0.068373 0.055963 -0.068075 0.056394 0.008550 -0.076841 0.000400 0.059272 0.055079 -0.055147 0.076357 0.040555 -0.074130 0.021717 0.074632 -0.076153 -0.031653 -0.056915 -0.016122 0.040158 -0.077352 -0.058043 0.038707 0.077101 -0.045980 0.011028 0.064458 -0.008673 -0.033442 0.024975 0.021849 -0.018353 -0.002523 0.037235 -0.045420 -0.077434 0.043856 0.038442 0.065299 0.015473 0.066756 0.058195 -0.027433 0.076087 -0.003550 -0.036263 0.083396 0.048258 -0.009716 -0.016188 0.004954 -0.003607 0.009231 -0.039800 -0.008335 0.046655 0.054821 -0.030323 -0.043099 -0.061939 0.080270 0.057730 0.002906 -0.004914 0.013920 0.039857 -0.000492 -0.025310 -0.003211 -0.020148 0.073601 -0.018447 -0.045840 -0.039218 -0.026637 0.036017 0.010191 -0.029416 0.001544 0.079495 0.038387 -0.076582 -0.004482 -0.033609 -0.032439 0.068641 -0.071229 -0.063394 -0.043002 -0.034673 -0.041513 -0.046049 -0.060839 0.044039 0.029681 0.039644 0.001358 -0.056392 -0.071882 0.082035 0.010381 -0.080669 -0.021139 0.051228 -0.034873 0.031257 0.003186 0.059782 -0.079370 -0.079000 0.057863 0.041563 -0.073285 -0.029613 -0.074099 -0.024683 -0.043990 -0.064409 -0.004773 -0.007512 -0.017026 0.032289 0.035759 0.017266 -0.011797 -0.010044 -0.034338 -0.078724 0.010724 -0.026209 0.079732 -0.063504 -0.014931 -0.024420 0.073312 0.035276 -0.081724 -0.002573 0.005907 -0.067423 0.000223 -0.015078 0.046966 0.000762 0.040685 0.071371 0.063043 0.075892 -0.086261 -0.024284 -0.019157 -0.005947 -0.073839 -0.054676 -0.087335 0.008683 0.003174 -0.028327 0.012476 -0.078029 0.026937 0.016661 -0.041820 -0.049434 0.082653 -0.065717 0.060121 0.088843 0.004385 -0.015492 -0.067410 -0.093095 0.039925 0.072227 -0.004787 -0.001625 0.045524 -0.014936 -0.009151 0.060088 0.039514 0.052710 -0.055081 0.046942 -0.072250 -0.063598 0.023846 0.011651 -0.017011 0.055019 0.051066 -0.013822 -0.012256 0.018406 -0.001644 -0.005764 0.038116 -0.061871 0.004715 -0.020658 -0.019096 0.023088 -0.016053 -0.022266 0.010891 0.105653 0.041568 -0.036609 -0.010706 -0.019207 -0.053774 -0.027558 -0.073929 0.016484 0.087187 -0.061733 0.025891 -0.033193 0.016238 -0.024425 -0.048257 -0.036513 0.018486 0.032411 -0.103233 0.055443 -0.023334 0.093838 -0.064403 0.049024 0.039801 0.049429 -0.020406 0.036119 -0.070468 0.038350 -0.007802 0.036526 -0.049987 -0.056196 -0.074199 -0.017306 -0.033574 -0.040933 0.036293 -0.072775 -0.033559 -0.064324 0.056814 0.050132 0.111731 0.028795 -0.092493 -0.090614 0.091521 -0.019884 -0.013756 0.029893 -0.020371 0.003011 -0.024349 -0.011565 0.059512 -0.120035 -0.125266 0.116623 -0.050723 0.083102 0.054738 0.013720 -0.125493 0.050538 0.065709 -0.034419 -0.015757 -0.037593 -0.013878 0.190470 -0.023850 0.077598 -0.031373 -0.057620 0.002080 0.103400 0.049309 0.026035 0.147437 -0.068065 -0.055055 -0.077377 0.101866 0.040132 0.093421 0.055122 0.097670 0.087998 0.048493 0.071727 0.058212 -0.059847 -0.013191 0.008283 0.006882 -0.065895 -0.130823 0.117747 -0.003602 0.064265 -0.008826 -0.101101 0.044670 -0.059270 0.045364 -0.024720 0.279091 0.025228 -0.101759 -0.048326 0.047758 -0.009398 0.143537 -0.105438 0.070051 -0.034183 -0.084636 0.049453 -0.032593 -0.126016 -0.116629 0.127562 0.098261 -0.048978 0.083543 0.047188 -0.077688 0.045266 0.139692 -0.020721 0.155340 0.026049 -0.025376 0.218915 -0.052581 0.014593 0.004034 -0.019599 -0.078960 0.050981 0.101298 0.014981 0.178337 -0.162934 -0.109848 0.001925 0.093664 0.119212 0.094613 0.081555 0.283299 0.112292 0.009179 0.076188 0.086921 -0.035305 -0.145107 -0.009390 0.023047 -0.033680 -0.198421 -0.017414 -0.010431 0.231695 0.097294 -0.094866 0.051015 -0.164616 0.100626 -0.005521 0.391645 -0.053140 -0.182569 -0.157901 0.100003 -0.058379 0.002395 -0.187061 0.021221 -0.059823 0.032109 -0.032942 -0.100598 -0.104711 -0.166103 0.082080 -0.002456 -0.013834 0.101411 0.086679 -0.074717 0.050471 0.153826 -0.204647 0.212172 0.041379 -0.073230 0.166661 -0.171251 0.016483 -0.040013 0.014566 -0.090771 0.110103 0.022692 -0.058065 0.228935 -0.166979 -0.063747 -0.013447 0.067573 0.060238 0.150484 0.171326 0.308330 0.120214 0.046536 0.067755 0.081896 -0.150919 -0.196631 0.146163 0.095493 -0.018243 -0.114781 0.023464 0.060278 0.320826 0.057769 -0.217312 0.034521 -0.129502 0.303866 -0.066298 0.522200 -0.162641 -0.169826 -0.051671 0.104431 -0.045471 0.027563 -0.202682 0.103367 -0.048886 0.030440 -0.116142 -0.205210 0.000554 -0.079451 0.159854 -0.152347 -0.090669 0.115612 0.047975 0.060165 -0.009374 -0.062186 -0.132718 0.202909 -0.021715 -0.065814 0.170889 -0.201993 0.054576 -0.038532 0.027591 0.011693 0.078883 0.057849 0.082758 0.110590 -0.037996 -0.008969 -0.113995 0.043184 0.023090 0.284227 0.216704 0.354147 0.058594 0.106426 0.165977 0.218384 -0.076461 -0.053834 0.115632 0.161127 0.013056 -0.093834 0.021612 0.126670 0.345410 0.065537 -0.173425 0.091294 -0.123368 0.370858 -0.037775 0.403834 -0.173513 -0.119090 0.085946 0.112399 -0.106850 0.006582 -0.195810 0.054211 -0.032369 0.090173 -0.095024 -0.034683 -0.021405 0.007498 0.111218 -0.182006 -0.137061 0.071783 -0.015303 0.160974 -0.141759 -0.133976 -0.069138 0.155519 -0.049226 -0.123102 0.006594 -0.098157 -0.010179 -0.032050 -0.103127 0.046904 0.025025 -0.015741 -0.036962 -0.016687 0.081134 0.027016 -0.154278 0.030121 -0.035893 0.440914 0.060654 0.179032 -0.056244 0.047639 0.066074 0.175151 0.025573 -0.078925 0.053784 0.160989 -0.034595 -0.059714 0.004760 0.090754 0.375019 0.147382 -0.051704 0.162151 -0.065799 0.338183 -0.013158 0.146839 -0.186548 -0.084609 0.155597 0.117229 -0.087405 0.023995 -0.127583 0.066462 0.229253 0.103622 -0.056251 0.185389 -0.090348 0.096559 0.025542 -0.181592 -0.055927 0.096052 -0.025440 0.168635 -0.200426 -0.111202 -0.040861 0.173276 -0.051547 -0.100051 -0.086923 -0.037290 -0.037645 0.052857 -0.188899 0.123535 0.086432 0.015822 -0.048327 -0.057696 -0.021387 0.116876 -0.127807 0.080392 -0.180905 0.313943 0.016508 0.000114 -0.059986 -0.027279 0.033634 0.134964 0.070369 -0.046265 -0.023643 0.168317 -0.029947 0.047239 0.102254 -0.009713 0.236477 0.132285 0.084357 0.076238 -0.029105 0.100728 0.012122 0.021418 -0.119484 -0.081444 0.060577 0.144133 -0.225784 0.041434 -0.159916 0.026398 0.345557 0.011539 0.015747 0.266970 -0.207987 0.033011 -0.030971 -0.066601 0.044876 0.129382 -0.025550 0.092689 -0.021998 -0.088651 -0.040655 -0.000821 -0.006663 -0.141627 -0.163477 0.128926 -0.166695 0.083257 -0.103174 -0.033665 0.183767 -0.012946 -0.097571 -0.035588 -0.112687 0.163130 -0.000809 0.093366 -0.245460 0.172277 -0.172432 -0.078374 -0.076238 -0.161486 0.014541 -0.075558 0.207824 -0.023143 -0.021468 0.015475 -0.131651 0.035410 0.125480 -0.039760 0.175960 0.119450 0.097308 0.085270 -0.174975 0.002882 -0.056253 -0.091829 0.022072 0.006086 -0.000454 0.216214 -0.268112 0.008322 -0.080107 0.018600 0.189992 -0.073579 0.107338 0.209634 -0.189045 0.037893 -0.127577 0.035508 -0.036223 0.116113 -0.048491 0.004347 0.199509 -0.124829 -0.026341 -0.083492 -0.007186 -0.100301 -0.164915 0.095910 -0.073134 0.010569 -0.058669 -0.088784 0.200123 -0.022942 -0.103745 -0.109873 -0.135596 0.001237 0.062640 0.157191 -0.230829 0.162036 -0.179987 -0.102846 -0.045074 -0.214209 -0.082077 -0.235851 0.194584 -0.041583 0.050277 -0.048413 -0.165442 -0.008918 0.178458 -0.095788 0.041461 0.055058 0.095519 0.142993 -0.200299 0.041303 0.006393 -0.092105 0.095655 -0.019379 -0.088279 0.282205 -0.183653 0.052537 -0.016684 0.042360 0.034219 -0.076862 0.024778 -0.084185 -0.097990 0.136378 -0.027450 0.137591 -0.233014 0.037905 0.039477 0.019446 0.277554 -0.031951 -0.016262 -0.132843 0.006611 -0.106653 -0.023118 -0.011741 -0.074544 0.021550 0.024885 -0.152666 0.136621 0.065835 0.123873 -0.061652 -0.018194 0.006602 0.006334 0.215037 -0.122225 0.143132 -0.188267 -0.132716 0.033644 -0.213800 -0.025209 -0.290460 0.070850 -0.025251 0.056412 -0.040900 -0.143141 -0.003056 0.181569 -0.071441 -0.031183 0.005782 0.047941 0.065615 -0.157952 0.013268 -0.028073 -0.152797 0.030840 -0.017407 -0.063548 0.149842 -0.043527 0.089753 0.039615 0.002462 -0.063909 0.025298 -0.003291 -0.339230 -0.142435 0.161097 0.001051 0.181942 -0.414469 -0.050830 0.029886 -0.008859 0.130031 -0.002779 -0.004940 -0.170021 0.046997 -0.029374 0.014232 -0.083900 -0.087424 0.059133 0.006659 -0.077814 -0.011881 0.076436 0.208833 -0.034871 0.110046 0.004461 0.052210 0.250664 -0.007320 0.084479 -0.095780 -0.103512 0.092493 -0.236446 -0.070546 -0.090925 0.028722 -0.106537 0.167593 -0.059044 -0.121330 0.073397 0.073467 -0.113187 -0.049082 -0.022338 0.075475 0.065109 -0.084184 0.078203 -0.028182 -0.135851 -0.015342 0.010650 -0.037987 -0.086944 -0.027360 -0.003532 0.015980 0.011323 -0.130653 0.098514 -0.071288 -0.536986 -0.153542 0.076358 0.023186 0.149189 -0.229959 -0.215621 -0.130087 -0.012640 -0.023467 -0.016326 -0.071787 -0.064050 0.112366 -0.051518 -0.016861 -0.155329 -0.055952 0.090036 -0.036800 -0.006629 0.008280 0.065403 0.174572 -0.009080 0.244016 0.064905 -0.018760 0.125678 0.063056 0.011267 -0.044358 -0.116106 -0.016308 -0.326080 0.046202 -0.064030 0.094558 -0.083924 0.143340 -0.034357 0.004626 0.131141 0.097339 -0.090092 0.030829 0.008530 0.080345 0.051282 0.032946 0.073729 0.041277 -0.016444 0.101648 -0.001397 0.048036 -0.338602 -0.053009 -0.004084 0.049885 -0.013742 -0.105572 0.155158 -0.042219 -0.476320 -0.178444 0.086903 -0.142124 0.174096 0.131922 -0.359001 -0.138527 -0.114737 -0.126400 0.017902 -0.042756 -0.033793 0.179372 0.023644 0.042110 -0.108712 -0.000509 -0.010430 -0.083915 0.045911 0.054250 0.095599 0.007193 0.123922 0.079442 0.077949 -0.013796 0.052670 -0.036438 -0.216814 -0.049847 -0.011503 -0.024025 -0.550167 0.161977 0.005095 0.079733 0.047180 -0.011188 -0.093066 0.058888 -0.003607 0.094953 -0.147329 0.012839 0.064738 0.075646 0.107221 0.056802 0.004946 0.026075 0.102459 0.222426 0.008355 0.141049 -0.219484 -0.061839 0.026771 0.060352 -0.010480 -0.135119 0.144579 -0.117554 -0.248709 0.022195 0.010009 -0.168907 0.124560 0.133611 -0.387139 -0.100925 -0.131633 -0.065746 0.066536 -0.120787 0.055103 0.123942 0.010361 0.056804 -0.078794 0.002216 -0.050425 -0.162025 -0.082143 0.024392 0.127196 -0.046278 -0.004701 -0.047670 0.075615 -0.018959 -0.020836 -0.074755 -0.309673 -0.060510 0.042375 -0.167158 -0.558523 0.077060 0.029077 0.004309 0.139582 0.005625 0.007826 0.122662 0.084160 -0.028079 -0.199648 -0.023974 0.125263 0.058857 0.222527 -0.005875 -0.125040 0.092031 0.178788 0.242261 0.020719 0.135822 -0.083340 -0.022307 0.173236 0.115557 0.003791 -0.006544 0.101415 -0.158711 -0.079325 0.115090 -0.032877 -0.156506 -0.165372 0.109800 -0.435334 0.028108 -0.094075 0.071784 0.014351 0.049472 0.067878 0.014945 0.009415 -0.024575 -0.064817 -0.019833 -0.176449 -0.142550 -0.107799 -0.166221 0.132871 -0.133484 -0.030553 -0.257249 0.060683 -0.157975 -0.145961 -0.050200 -0.276409 -0.108341 0.080890 -0.013360 -0.386878 0.027916 -0.095818 -0.019011 0.155211 0.008354 0.101688 0.050470 0.053655 -0.011658 -0.324546 -0.026295 -0.012968 0.071657 0.343491 -0.045147 -0.061786 0.097239 0.148282 0.100070 0.120178 0.095875 0.024458 0.053475 0.247650 0.130057 -0.001457 0.042836 0.070238 -0.075048 -0.019841 0.250212 0.012809 -0.049358 -0.399911 0.118330 -0.400405 0.175275 -0.008298 0.056185 -0.031595 0.135920 0.077107 0.016231 -0.031724 0.043705 -0.021474 -0.080244 -0.198775 -0.100348 -0.258127 -0.144846 0.071291 0.000594 -0.149489 -0.233037 -0.097417 -0.204993 -0.320511 0.027665 -0.116126 -0.118312 0.180375 0.110067 -0.019739 0.024340 -0.179482 -0.078092 0.062839 0.020214 0.150968 -0.001013 0.013401 -0.074756 -0.338213 -0.053485 -0.015409 0.158105 0.370380 -0.068446 0.005031 0.025233 0.144812 -0.042267 0.304604 0.022833 -0.091603 0.037691 0.152751 0.013922 -0.003703 0.151496 -0.100873 -0.023081 0.026098 0.236933 -0.070438 0.142515 -0.457917 0.126865 -0.167296 0.164720 0.072792 -0.122062 -0.019054 0.167452 -0.122062 -0.039343 -0.072565 -0.086250 0.023592 -0.066657 -0.168807 0.027877 -0.181194 -0.096636 0.080992 0.203568 -0.165450 -0.155602 -0.206804 -0.101641 -0.341494 0.181234 0.030253 -0.132378 0.115872 0.055334 0.056935 0.083982 -0.196341 -0.045860 -0.043025 0.192566 0.013119 -0.117081 -0.049246 -0.047605 -0.299251 -0.061194 -0.136684 0.115000 0.349672 -0.032796 -0.024332 -0.219675 -0.016541 0.049054 0.291017 -0.113879 -0.185964 0.187622 0.130118 -0.008007 -0.047620 0.257590 -0.238413 -0.013310 0.007281 0.170067 -0.101951 0.186400 -0.308820 0.146894 0.001925 0.186176 0.080947 -0.284036 -0.103734 0.082734 -0.208752 -0.011476 -0.135941 -0.127949 -0.072226 -0.076819 -0.106937 0.171009 -0.043249 0.050476 0.082163 0.431882 -0.004025 -0.010089 -0.024076 -0.034816 -0.131477 0.124143 0.031174 0.021247 0.133803 0.011502 0.066725 0.029088 -0.223816 0.151096 -0.110316 0.357197 -0.039363 -0.260251 -0.212344 -0.229072 -0.061503 -0.072409 -0.154467 0.056743 0.108208 -0.028477 0.027578 -0.148474 -0.093325 0.018074 0.261798 -0.094088 -0.204461 0.327771 0.113775 0.045943 -0.121830 0.206834 -0.292075 -0.088727 0.104458 0.098933 -0.139158 0.207333 -0.037220 0.161151 -0.009271 0.058113 0.069175 -0.251990 -0.031500 0.083795 -0.174969 0.103125 -0.209402 -0.157932 -0.073734 0.012847 -0.094384 0.175310 0.025510 -0.077344 0.062351 0.403401 0.110659 -0.050372 0.026667 0.067774 -0.017362 0.035384 0.101344 0.131107 0.227093 -0.044706 -0.064960 0.034112 -0.100653 0.208143 -0.061298 0.322499 -0.058095 -0.210461 -0.202657 -0.138707 0.154682 0.030247 -0.179834 0.161624 0.116378 -0.080764 -0.011539 -0.080753 -0.072878 -0.051713 0.179446 -0.067509 -0.102176 0.303128 0.001466 0.109592 -0.019429 0.132374 -0.148947 -0.059254 0.089856 -0.022681 -0.170330 0.123426 0.122633 0.040055 -0.132200 0.020391 0.105321 -0.109615 0.142521 -0.016426 0.010567 0.090729 -0.135622 -0.148561 0.028015 0.083512 -0.132232 0.135430 -0.033613 -0.092685 0.073777 0.188028 0.052877 -0.048021 0.216311 0.029874 0.097042 -0.057865 0.049803 0.138106 0.143882 -0.068945 -0.028605 -0.101847 0.038307 0.117477 -0.020691 0.176666 -0.061391 -0.137295 -0.210257 -0.145317 0.202964 0.056165 -0.141851 0.055578 0.014671 0.015617 0.025662 -0.045314 0.029427 -0.016087 0.127331 -0.068868 -0.063862 0.164651 -0.067610 0.080065 0.000983 0.113164 -0.131574 -0.054743 0.012852 0.016444 -0.077930 0.070090 