1 100 1
-0.219389 -0.212112 -0.204827 -0.943436 -0.615663 -0.222599 -0.209682 -0.222894 -0.914696 -0.220182 -0.496869 -0.200383 -0.221171 -0.418528 -0.593500 -0.205826 -0.209366 -0.203108 -0.213001 0.246493 -0.658958 -0.224389 -0.216827 0.223074 -0.578263 -0.202530 -0.764884 -0.213811 -0.197078 -0.792356 0.231782 0.214876 -0.582901 -0.216529 -0.815995 -0.606606 -0.584478 -0.206973 0.233004 -0.203476 -0.202728 0.224173 -0.568646 -0.202548 -0.632801 0.227263 -0.206021 0.244446 -0.220972 -0.605384 -0.204385 -0.639690 -0.857182 -0.202040 -0.207067 -0.198536 0.688918 -0.207793 -0.786275 -0.206634 0.836561 -1.289342 0.627011 -0.209400 -0.218470 0.251273 -0.200302 -0.206176 -0.209066 -0.208499 -0.208493 -0.645183 -1.724686 -0.659400 -0.217529 -0.647484 -0.577058 -0.647956 -0.573797 -0.570434 -0.707706 -0.647018 -0.217346 -0.582622 -0.680303 -0.206105 -0.209598 -0.228099 -0.211729 -0.200179 -0.206197 -0.216749 -0.201379 -0.210088 -0.568680 -0.226873 -0.211878 -0.207426 -0.199170 0.207813 0.279736 0.134464 -0.035441 3.111455 0.395571 0.331345 0.082236 0.345173 2.893593 0.286126 -0.203414 -0.137710 0.311275 -0.211498 0.214344 -0.015096 0.066158 -0.074817 0.142381 -0.729859 0.741358 0.368728 0.224913 -0.348553 0.075784 -0.075955 1.556497 0.160610 -0.215169 1.791616 -0.503947 -0.186277 0.115131 0.220673 2.008293 0.329917 0.128237 0.016521 -0.523005 -0.050929 -0.081718 -0.362211 -0.010476 -0.098407 0.537539 -0.415546 -0.008790 -0.699250 0.306583 0.307505 -0.031342 0.593968 2.398685 -0.107052 0.020929 -0.162197 -0.994981 0.026365 1.737321 0.008574 -2.214682 2.590987 -0.550109 0.085034 0.260545 -0.796853 -0.137031 -0.008894 0.060255 0.049242 0.055646 0.637083 0.869444 0.744943 0.233057 0.653050 0.064982 0.656907 0.036473 0.005843 1.107038 0.650750 0.245687 0.113736 0.901746 -0.004676 0.075982 0.431544 0.120115 -0.142041 -0.007772 0.223465 -0.107670 0.085378 -0.007660 0.412960 0.121615 0.026317 -0.148661 -0.073495
-0.730425 -0.666430 -0.669602 2.499196 0.541885 -0.895013 -0.650313 -0.761534 2.375433 -0.863461 0.032718 -0.601168 -0.777397 -0.029579 0.535940 -0.699884 -0.726233 -0.644725 -0.783061 1.357338 0.849436 -0.836204 -0.772065 1.163581 0.417353 -0.566591 1.457876 -0.777604 -0.547105 1.639632 1.193085 1.113584 0.347371 -0.748443 1.785925 0.651056 0.388967 -0.672031 1.223834 -0.557457 -0.628153 1.264036 0.363067 -0.699640 0.679747 1.332861 -0.688829 1.359155 -0.789969 0.463735 -0.573227 0.787583 2.061508 -0.671787 -0.655837 -0.487587 -0.637691 -0.748359 1.628791 -0.670769 -1.569050 -4.736705 -0.220709 -0.574658 -0.743075 1.425597 -0.586940 -0.717275 -0.716944 -0.698527 -0.645600 0.850007 -3.257189 0.888162 -0.853477 0.767257 0.332474 0.780643 0.410767 0.389388 1.183975 0.835897 -0.645355 0.422027 1.041723 -0.674105 -0.687438 -0.929094 -0.723656 -0.595716 -0.712802 -0.769982 -0.580068 -0.703106 0.321015 -0.860729 -0.741425 -0.679594 -0.502620 0.789606 0.823871
